%YAML:1.0
---
opencv_ml_svm:
   format: 3
   svmType: C_SVC
   kernel:
      type: LINEAR
   C: 1.0000000000000001e-01
   term_criteria: { iterations:100 }
   var_count: 100
   class_count: 2
   class_labels: !!opencv-matrix
      rows: 2
      cols: 1
      dt: i
      data: [ 0, 1 ]
   sv_total: 1
   support_vectors:
      - [ -2.21299529e-02, 7.64868362e-03, -3.48117948e-03,
          -2.19466463e-02, 4.22719419e-02, 2.77012717e-02,
          -1.04808873e-02, -1.41344881e-02, -1.49132609e-02,
          1.49615444e-02, -2.56334152e-03, -2.06890069e-02,
          2.77703423e-02, 5.77091239e-03, 3.97055261e-02,
          -8.42714868e-03, 7.64751947e-03, -1.84459649e-02,
          2.28845887e-02, -1.54126645e-03, -9.63038241e-04,
          4.00804169e-02, -2.10150536e-02, -1.75687335e-02,
          -2.21319534e-02, -8.67294054e-03, -1.57470237e-02,
          -6.62879506e-03, 3.99291292e-02, -1.18381996e-02,
          -4.45582345e-03, 1.11839231e-02, -6.44387724e-03,
          1.29981795e-02, -2.53976043e-02, 4.33614589e-02,
          -8.20025709e-03, 3.89943048e-02, -1.87686365e-02,
          5.36652841e-03, -7.50533398e-03, -1.91699490e-02,
          -3.19423676e-02, 2.34722663e-02, 5.82769290e-02,
          -1.02057690e-02, -8.82369094e-03, 3.77546734e-04,
          -6.25583623e-03, 4.19771336e-02, 1.32699066e-03,
          -3.90049303e-03, -1.50213512e-02, -1.72348868e-03,
          -2.73150834e-03, -1.99427409e-03, -8.57645273e-03,
          -8.62251408e-03, -9.39455256e-03, 4.62736731e-04,
          -3.32500152e-02, -9.36838519e-03, 1.95931885e-02,
          -1.64157730e-02, -2.38731736e-03, 2.49313638e-02,
          -8.28703679e-03, 1.49473026e-02, -2.40001432e-03,
          -7.91112334e-03, 1.31149471e-01, -3.27831879e-02,
          -1.09893437e-02, -2.44111046e-02, -3.78589821e-03,
          7.73994718e-03, -2.87901442e-02, -1.42519660e-02,
          6.38635643e-03, 1.33926449e-02, -1.47619508e-02,
          3.87763930e-03, 1.21821938e-02, -2.03733146e-02,
          8.42167065e-03, -2.50370987e-02, 3.96491773e-03,
          -3.55175249e-02, -8.51953682e-03, 2.48993922e-04,
          2.16772873e-02, -8.00170703e-04, -2.28762645e-02,
          -2.34203115e-02, 2.97427140e-02, -1.01162875e-02,
          -3.53547595e-02, 5.85717000e-02, -3.67419492e-03,
          -3.30618583e-02 ]
   uncompressed_sv_total: 100
   uncompressed_support_vectors:
      - [ 1.37931034e-02, 6.89655170e-03, 0., 0., 1.37931034e-02,
          1.37931034e-02, 1.37931034e-02, 1.37931034e-02, 6.89655170e-03,
          4.82758619e-02, 0., 2.06896551e-02, 2.75862068e-02,
          6.89655170e-03, 4.82758619e-02, 0., 0., 6.89655170e-03,
          1.37931034e-02, 2.06896551e-02, 0., 2.06896551e-02, 0., 0.,
          6.89655170e-03, 6.89655170e-03, 0., 1.37931034e-02,
          6.89655170e-03, 6.89655170e-03, 6.89655170e-03, 2.06896551e-02,
          0., 0., 6.89655170e-03, 6.20689653e-02, 0., 1.37931034e-02, 0.,
          0., 1.37931034e-02, 0., 2.06896551e-02, 1.37931034e-02,
          6.89655170e-03, 0., 2.75862068e-02, 2.06896551e-02, 0.,
          2.75862068e-02, 0., 0., 6.89655170e-03, 0., 1.37931034e-02, 0.,
          6.89655170e-03, 0., 0., 6.89655170e-03, 6.89655170e-03,
          6.89655170e-03, 6.89655170e-03, 0., 6.89655170e-03,
          6.89655170e-03, 1.37931034e-02, 2.75862068e-02, 6.89655170e-03,
          6.89655170e-03, 5.51724136e-02, 0., 0., 0., 0., 6.89655170e-03,
          0., 6.89655170e-03, 2.75862068e-02, 0., 0., 1.37931034e-02, 0.,
          0., 6.89655170e-03, 2.06896551e-02, 1.37931034e-02, 0.,
          2.06896551e-02, 0., 6.89655170e-03, 6.89655170e-03, 0., 0.,
          2.75862068e-02, 6.89655170e-03, 0., 5.51724136e-02,
          1.37931034e-02, 6.89655170e-03 ]
      - [ 1.02040814e-02, 0., 0., 2.04081628e-02, 2.04081628e-02,
          4.08163257e-02, 2.04081628e-02, 0., 1.02040814e-02, 0., 0., 0.,
          0., 0., 1.02040814e-02, 0., 0., 1.02040814e-02, 8.16326514e-02,
          0., 2.04081628e-02, 0., 1.02040814e-02, 0., 1.02040814e-02,
          1.02040814e-02, 1.02040814e-02, 1.02040814e-02, 2.04081628e-02,
          1.02040814e-02, 0., 0., 0., 1.02040814e-02, 0., 0.,
          1.02040814e-02, 5.10204062e-02, 0., 2.04081628e-02,
          2.04081628e-02, 2.04081628e-02, 0., 1.02040814e-02,
          3.06122452e-02, 0., 0., 0., 2.04081628e-02, 2.04081628e-02,
          2.04081628e-02, 2.04081628e-02, 2.04081628e-02, 0.,
          2.04081628e-02, 0., 1.02040814e-02, 1.02040814e-02,
          1.02040814e-02, 0., 1.02040814e-02, 1.02040814e-02,
          2.04081628e-02, 0., 2.04081628e-02, 1.02040814e-02,
          1.02040814e-02, 2.04081628e-02, 0., 1.02040814e-02,
          2.04081628e-02, 0., 0., 1.02040814e-02, 2.04081628e-02, 0.,
          1.02040814e-02, 0., 0., 4.08163257e-02, 2.04081628e-02,
          1.02040814e-02, 1.02040814e-02, 0., 0., 0., 2.04081628e-02, 0.,
          1.02040814e-02, 0., 0., 0., 0., 0., 1.02040814e-02, 0.,
          1.02040814e-02, 3.06122452e-02, 1.02040814e-02, 0. ]
      - [ 4.67289705e-03, 4.67289705e-03, 0., 0., 1.86915882e-02, 0.,
          4.67289705e-03, 0., 9.34579410e-03, 9.34579410e-03,
          4.67289705e-03, 4.67289705e-03, 5.60747646e-02, 9.34579410e-03,
          2.80373823e-02, 2.33644843e-02, 4.67289705e-03, 4.67289705e-03,
          9.34579410e-03, 4.67289705e-03, 4.67289705e-03, 3.73831764e-02,
          1.40186911e-02, 9.34579410e-03, 0., 1.40186911e-02,
          9.34579410e-03, 0., 4.67289705e-03, 0., 0., 4.67289705e-03,
          1.40186911e-02, 4.67289705e-03, 0., 4.67289705e-03,
          9.34579410e-03, 2.33644843e-02, 4.67289705e-03, 4.67289705e-03,
          1.40186911e-02, 0., 0., 4.67289705e-03, 1.40186911e-02,
          9.34579410e-03, 4.67289705e-03, 1.86915882e-02, 1.86915882e-02,
          0., 0., 2.33644843e-02, 0., 9.34579410e-03, 4.67289705e-03,
          4.67289705e-03, 9.34579410e-03, 9.34579410e-03, 2.33644843e-02,
          1.40186911e-02, 1.40186911e-02, 0., 2.33644843e-02,
          9.34579410e-03, 1.86915882e-02, 9.34579410e-03, 1.40186911e-02,
          1.40186911e-02, 0., 0., 3.73831764e-02, 4.67289705e-03,
          6.54205605e-02, 0., 0., 4.67289705e-03, 0., 4.67289705e-03,
          3.73831764e-02, 0., 9.34579410e-03, 3.73831764e-02,
          4.67289705e-03, 9.34579410e-03, 0., 4.67289705e-03, 0., 0.,
          1.40186911e-02, 0., 1.40186911e-02, 4.67289705e-03, 0., 0.,
          9.34579410e-03, 9.34579410e-03, 9.34579410e-03, 6.54205605e-02,
          0., 4.67289705e-03 ]
      - [ 0., 0., 0., 0., 4.61538471e-02, 6.15384616e-02, 3.07692308e-02,
          0., 1.53846154e-02, 3.07692308e-02, 1.53846154e-02,
          1.53846154e-02, 0., 0., 0., 1.53846154e-02, 3.07692308e-02, 0.,
          3.07692308e-02, 0., 0., 0., 0., 0., 1.53846154e-02,
          3.07692308e-02, 0., 0., 0., 0., 0., 1.53846154e-02,
          1.53846154e-02, 0., 3.07692308e-02, 0., 1.53846154e-02, 0., 0.,
          0., 0., 1.53846154e-02, 1.53846154e-02, 0., 0., 0., 0.,
          3.07692308e-02, 0., 4.61538471e-02, 0., 1.53846154e-02, 0.,
          4.61538471e-02, 0., 0., 0., 3.07692308e-02, 1.53846154e-02,
          1.53846154e-02, 0., 0., 1.53846154e-02, 0., 0., 3.07692308e-02,
          0., 0., 0., 1.53846154e-02, 0., 0., 0., 0., 1.53846154e-02,
          6.15384616e-02, 0., 1.53846154e-02, 0., 7.69230798e-02, 0.,
          3.07692308e-02, 0., 0., 0., 1.53846154e-02, 4.61538471e-02, 0.,
          0., 0., 0., 0., 0., 0., 0., 0., 0., 0., 3.07692308e-02, 0. ]
      - [ 0., 9.52380989e-03, 0., 4.76190494e-03, 6.66666701e-02,
          9.52380989e-03, 1.90476198e-02, 0., 1.42857153e-02,
          2.85714306e-02, 4.76190494e-03, 9.52380989e-03, 1.90476198e-02,
          1.42857153e-02, 1.90476198e-02, 9.52380989e-03, 9.52380989e-03,
          0., 1.42857153e-02, 4.76190494e-03, 4.76190494e-03,
          2.38095243e-02, 0., 2.85714306e-02, 9.52380989e-03, 0., 0.,
          9.52380989e-03, 4.76190494e-03, 0., 0., 3.80952395e-02,
          9.52380989e-03, 9.52380989e-03, 0., 1.42857153e-02, 0.,
          1.90476198e-02, 4.76190494e-03, 0., 1.90476198e-02, 0.,
          4.76190494e-03, 4.76190494e-03, 3.80952395e-02, 9.52380989e-03,
          4.76190494e-03, 1.90476198e-02, 0., 2.85714306e-02,
          4.76190494e-03, 9.52380989e-03, 9.52380989e-03, 1.42857153e-02,
          4.76190494e-03, 9.52380989e-03, 1.42857153e-02, 2.38095243e-02,
          1.42857153e-02, 9.52380989e-03, 9.52380989e-03, 4.76190494e-03,
          4.76190494e-03, 0., 0., 9.52380989e-03, 1.90476198e-02, 0., 0.,
          1.42857153e-02, 6.19047657e-02, 0., 4.76190494e-03, 0.,
          4.76190494e-03, 4.76190494e-03, 0., 1.42857153e-02,
          1.42857153e-02, 1.90476198e-02, 4.76190494e-03, 2.85714306e-02,
          1.42857153e-02, 0., 0., 1.90476198e-02, 0., 0., 1.42857153e-02,
          4.76190494e-03, 0., 1.90476198e-02, 9.52380989e-03,
          1.42857153e-02, 4.76190494e-03, 0., 0., 0., 4.76190494e-03, 0. ]
      - [ 7.93650839e-03, 1.58730168e-02, 7.93650839e-03, 0.,
          3.17460336e-02, 7.93650839e-03, 1.58730168e-02, 0., 0., 0., 0.,
          0., 1.58730168e-02, 0., 0., 0., 7.93650839e-03, 0., 0., 0.,
          1.58730168e-02, 1.58730168e-02, 3.17460336e-02, 0., 0., 0.,
          7.93650839e-03, 1.58730168e-02, 7.93650839e-03, 0.,
          1.58730168e-02, 2.38095261e-02, 7.93650839e-03, 1.58730168e-02,
          7.93650839e-03, 3.96825410e-02, 7.93650839e-03, 7.93650839e-03,
          0., 1.58730168e-02, 0., 7.93650839e-03, 0., 3.96825410e-02,
          3.17460336e-02, 0., 0., 7.93650839e-03, 0., 4.76190522e-02, 0.,
          7.93650839e-03, 7.93650839e-03, 0., 3.96825410e-02, 0., 0., 0.,
          7.93650839e-03, 0., 7.93650839e-03, 1.58730168e-02,
          7.93650839e-03, 7.93650839e-03, 0., 7.93650839e-03,
          7.93650839e-03, 1.58730168e-02, 7.93650839e-03, 0.,
          7.14285746e-02, 0., 1.58730168e-02, 0., 0., 0., 0., 0.,
          1.58730168e-02, 7.93650839e-03, 0., 0., 0., 0., 1.58730168e-02,
          2.38095261e-02, 0., 0., 0., 2.38095261e-02, 2.38095261e-02,
          7.93650839e-03, 7.93650839e-03, 7.93650839e-03, 6.34920672e-02,
          0., 7.93650839e-03, 7.93650821e-02, 0., 0. ]
      - [ 6.45161327e-03, 1.50537640e-02, 4.30107536e-03, 8.60215072e-03,
          1.72043014e-02, 0., 8.60215072e-03, 6.45161327e-03,
          8.60215072e-03, 2.15053768e-03, 1.29032265e-02, 8.60215072e-03,
          3.87096778e-02, 6.45161327e-03, 1.72043014e-02, 4.30107536e-03,
          1.72043014e-02, 0., 2.15053768e-03, 2.15053768e-03,
          2.15053768e-03, 1.07526882e-02, 4.30107536e-03, 6.45161327e-03,
          6.45161327e-03, 4.30107536e-03, 6.45161327e-03, 2.15053768e-03,
          4.30107536e-03, 8.60215072e-03, 4.30107536e-03, 2.58064531e-02,
          6.45161327e-03, 6.45161327e-03, 1.72043014e-02, 2.58064531e-02,
          4.30107536e-03, 4.30107536e-03, 0., 4.30107536e-03,
          2.15053768e-03, 2.15053768e-03, 8.60215072e-03, 8.60215072e-03,
          4.51612920e-02, 2.15053768e-03, 1.50537640e-02, 2.79569905e-02,
          4.30107536e-03, 8.60215072e-03, 1.29032265e-02, 2.36559138e-02,
          4.08602171e-02, 1.07526882e-02, 2.79569905e-02, 0.,
          6.45161327e-03, 6.45161327e-03, 1.07526882e-02, 1.07526882e-02,
          0., 2.15053768e-03, 1.07526882e-02, 4.30107536e-03,
          2.15053768e-03, 4.30107536e-03, 1.07526882e-02, 6.45161327e-03,
          8.60215072e-03, 4.30107536e-03, 2.36559138e-02, 2.15053768e-03,
          2.15053768e-03, 6.45161327e-03, 6.45161327e-03, 0.,
          1.07526882e-02, 1.07526882e-02, 2.36559138e-02, 1.29032265e-02,
          1.29032265e-02, 1.07526882e-02, 6.45161327e-03, 2.15053768e-03,
          1.50537640e-02, 2.15053768e-03, 0., 0., 8.60215072e-03,
          6.45161327e-03, 2.36559138e-02, 2.79569905e-02, 2.15053768e-03,
          6.45161327e-03, 4.51612920e-02, 2.15053768e-03, 1.72043014e-02,
          2.36559138e-02, 1.07526882e-02, 6.45161327e-03 ]
      - [ 0., 1.02040814e-02, 1.02040814e-02, 0., 2.04081628e-02,
          5.10204062e-02, 1.02040814e-02, 0., 0., 0., 0., 0.,
          1.02040814e-02, 4.08163257e-02, 0., 0., 2.04081628e-02,
          1.02040814e-02, 4.08163257e-02, 1.02040814e-02, 2.04081628e-02,
          0., 0., 0., 0., 2.04081628e-02, 3.06122452e-02, 0.,
          2.04081628e-02, 0., 0., 2.04081628e-02, 0., 3.06122452e-02, 0.,
          2.04081628e-02, 1.02040814e-02, 0., 0., 2.04081628e-02, 0., 0.,
          0., 2.04081628e-02, 2.04081628e-02, 0., 0., 0., 1.02040814e-02,
          0., 0., 0., 1.02040814e-02, 3.06122452e-02, 0., 0., 0.,
          1.02040814e-02, 3.06122452e-02, 1.02040814e-02, 0.,
          1.02040814e-02, 2.04081628e-02, 1.02040814e-02, 1.02040814e-02,
          6.12244904e-02, 0., 1.02040814e-02, 0., 0., 2.04081628e-02, 0.,
          0., 0., 2.04081628e-02, 2.04081628e-02, 3.06122452e-02,
          1.02040814e-02, 0., 3.06122452e-02, 0., 2.04081628e-02,
          2.04081628e-02, 1.02040814e-02, 0., 0., 3.06122452e-02, 0., 0.,
          1.02040814e-02, 0., 1.02040814e-02, 3.06122452e-02, 0.,
          1.02040814e-02, 1.02040814e-02, 1.02040814e-02, 1.02040814e-02,
          0., 0. ]
      - [ 0., 3.48837227e-02, 1.16279069e-02, 1.16279069e-02,
          3.48837227e-02, 3.48837227e-02, 2.32558139e-02, 1.16279069e-02,
          1.16279069e-02, 0., 0., 0., 0., 1.16279069e-02, 0., 0., 0., 0.,
          2.32558139e-02, 1.16279069e-02, 1.16279069e-02, 1.16279069e-02,
          0., 0., 0., 1.16279069e-02, 0., 0., 2.32558139e-02, 0.,
          2.32558139e-02, 0., 0., 2.32558139e-02, 0., 0., 0.,
          3.48837227e-02, 0., 0., 1.16279069e-02, 0., 0., 3.48837227e-02,
          3.48837227e-02, 0., 1.16279069e-02, 4.65116277e-02,
          1.16279069e-02, 0., 2.32558139e-02, 0., 2.32558139e-02,
          2.32558139e-02, 2.32558139e-02, 0., 1.16279069e-02,
          1.16279069e-02, 2.32558139e-02, 2.32558139e-02, 0., 0.,
          1.16279069e-02, 2.32558139e-02, 0., 2.32558139e-02,
          1.16279069e-02, 0., 0., 2.32558139e-02, 0., 0., 4.65116277e-02,
          0., 1.16279069e-02, 2.32558139e-02, 0., 1.16279069e-02, 0.,
          1.16279069e-02, 0., 2.32558139e-02, 1.16279069e-02, 0.,
          2.32558139e-02, 1.16279069e-02, 1.16279069e-02, 0., 0., 0., 0.,
          1.16279069e-02, 1.16279069e-02, 0., 1.16279069e-02,
          1.16279069e-02, 0., 0., 0., 0. ]
      - [ 2.70270277e-02, 5.40540554e-03, 1.62162166e-02, 5.40540554e-03,
          1.08108111e-02, 5.40540554e-03, 2.16216221e-02, 1.08108111e-02,
          1.08108111e-02, 5.40540554e-03, 1.08108111e-02, 0.,
          1.08108111e-02, 5.40540554e-03, 1.62162166e-02, 1.08108111e-02,
          1.08108111e-02, 0., 1.08108111e-02, 3.78378406e-02, 0.,
          1.62162166e-02, 1.08108111e-02, 5.40540554e-03, 1.62162166e-02,
          1.62162166e-02, 0., 5.40540554e-03, 5.40540554e-03,
          5.40540554e-03, 2.16216221e-02, 5.40540554e-03, 0.,
          1.08108111e-02, 1.62162166e-02, 5.40540554e-03, 1.08108111e-02,
          0., 5.40540554e-03, 5.40540554e-03, 5.40540554e-03, 0.,
          2.70270277e-02, 5.40540554e-03, 1.08108111e-02, 1.08108111e-02,
          5.40540554e-03, 5.40540554e-03, 1.62162166e-02, 0.,
          5.40540554e-03, 0., 0., 0., 2.70270277e-02, 5.40540554e-03,
          3.24324332e-02, 1.08108111e-02, 5.40540554e-03, 1.08108111e-02,
          0., 1.08108111e-02, 2.16216221e-02, 5.40540554e-03,
          2.16216221e-02, 5.40540554e-03, 5.40540554e-03, 1.62162166e-02,
          2.16216221e-02, 2.70270277e-02, 1.08108111e-02, 0.,
          5.40540554e-03, 1.62162166e-02, 0., 0., 0., 0., 5.40540554e-03,
          5.40540554e-03, 5.40540554e-03, 5.40540554e-03, 0., 0.,
          1.08108111e-02, 0., 1.08108111e-02, 5.40540554e-03,
          5.40540554e-03, 2.70270277e-02, 1.08108111e-02, 3.24324332e-02,
          1.08108111e-02, 5.40540554e-03, 3.78378406e-02, 1.08108111e-02,
          1.62162166e-02, 3.24324332e-02, 1.08108111e-02, 5.40540554e-03 ]
      - [ 0., 0., 1.07526882e-02, 0., 4.30107526e-02, 1.07526882e-02,
          1.07526882e-02, 0., 2.15053763e-02, 0., 0., 1.07526882e-02,
          2.15053763e-02, 0., 4.30107526e-02, 0., 0., 0., 1.07526882e-02,
          0., 0., 2.15053763e-02, 0., 0., 1.07526882e-02, 1.07526882e-02,
          3.22580636e-02, 0., 1.07526882e-02, 1.07526882e-02,
          1.07526882e-02, 0., 3.22580636e-02, 1.07526882e-02, 0.,
          2.15053763e-02, 0., 3.22580636e-02, 0., 0., 0., 0., 0.,
          4.30107526e-02, 2.15053763e-02, 1.07526882e-02, 2.15053763e-02,
          1.07526882e-02, 1.07526882e-02, 1.07526882e-02, 0., 0.,
          1.07526882e-02, 0., 1.07526882e-02, 1.07526882e-02,
          1.07526882e-02, 1.07526882e-02, 0., 0., 2.15053763e-02,
          1.07526882e-02, 2.15053763e-02, 0., 0., 0., 0., 2.15053763e-02,
          2.15053763e-02, 0., 1.18279569e-01, 1.07526882e-02,
          1.07526882e-02, 0., 0., 0., 1.07526882e-02, 0., 2.15053763e-02,
          1.07526882e-02, 1.07526882e-02, 1.07526882e-02, 0.,
          1.07526882e-02, 3.22580636e-02, 0., 1.07526882e-02, 0.,
          1.07526882e-02, 0., 0., 0., 0., 0., 3.22580636e-02,
          1.07526882e-02, 0., 0., 0., 2.15053763e-02 ]
      - [ 7.63358781e-03, 3.05343512e-02, 7.63358781e-03, 7.63358781e-03,
          3.81679386e-02, 0., 7.63358781e-03, 0., 7.63358781e-03,
          7.63358781e-03, 7.63358781e-03, 2.29007639e-02, 0.,
          2.29007639e-02, 0., 7.63358781e-03, 2.29007639e-02, 0.,
          1.52671756e-02, 7.63358781e-03, 0., 0., 7.63358781e-03,
          7.63358781e-03, 0., 7.63358781e-03, 0., 0., 2.29007639e-02, 0.,
          0., 3.81679386e-02, 0., 7.63358781e-03, 0., 1.52671756e-02,
          7.63358781e-03, 4.58015278e-02, 1.52671756e-02, 7.63358781e-03,
          0., 0., 1.52671756e-02, 2.29007639e-02, 0., 0., 0., 0., 0.,
          2.29007639e-02, 1.52671756e-02, 7.63358781e-03, 1.52671756e-02,
          3.81679386e-02, 3.05343512e-02, 0., 0., 0., 7.63358781e-03,
          7.63358781e-03, 0., 7.63358781e-03, 1.52671756e-02, 0.,
          1.52671756e-02, 7.63358781e-03, 0., 7.63358781e-03,
          7.63358781e-03, 3.05343512e-02, 4.58015278e-02, 7.63358781e-03,
          0., 1.52671756e-02, 7.63358781e-03, 7.63358781e-03,
          7.63358781e-03, 7.63358781e-03, 1.52671756e-02, 7.63358781e-03,
          0., 7.63358772e-02, 7.63358781e-03, 0., 0., 0., 7.63358781e-03,
          0., 2.29007639e-02, 7.63358781e-03, 1.52671756e-02, 0.,
          7.63358781e-03, 0., 1.52671756e-02, 1.52671756e-02, 0.,
          7.63358781e-03, 1.52671756e-02, 0. ]
      - [ 6.32911408e-03, 6.32911408e-03, 6.32911408e-03, 6.32911408e-03,
          5.06329127e-02, 4.43037972e-02, 6.32911408e-03, 0.,
          6.32911408e-03, 0., 6.32911408e-03, 6.32911408e-03,
          3.79746854e-02, 0., 1.26582282e-02, 0., 1.26582282e-02,
          1.26582282e-02, 3.16455700e-02, 0., 1.89873427e-02,
          1.26582282e-02, 6.32911408e-03, 6.32911408e-03, 0.,
          1.89873427e-02, 6.32911408e-03, 0., 6.32911408e-03, 0.,
          6.32911408e-03, 0., 0., 6.32911408e-03, 0., 2.53164563e-02,
          1.26582282e-02, 1.89873427e-02, 6.32911408e-03, 6.32911408e-03,
          1.26582282e-02, 0., 0., 1.26582282e-02, 1.89873427e-02, 0.,
          1.26582282e-02, 1.89873427e-02, 0., 1.26582282e-02,
          6.32911408e-03, 1.26582282e-02, 6.32911408e-03, 6.32911408e-03,
          0., 6.32911408e-03, 0., 6.32911408e-03, 1.26582282e-02,
          1.26582282e-02, 0., 1.89873427e-02, 0., 6.32911408e-03,
          1.26582282e-02, 3.79746854e-02, 1.26582282e-02, 6.32911408e-03,
          0., 6.32911408e-03, 1.01265825e-01, 1.26582282e-02,
          6.32911408e-03, 6.32911408e-03, 6.32911408e-03, 6.32911408e-03,
          0., 1.26582282e-02, 3.16455700e-02, 1.26582282e-02,
          1.89873427e-02, 6.32911408e-03, 6.32911408e-03, 0., 0.,
          6.32911408e-03, 1.26582282e-02, 0., 6.32911408e-03,
          6.32911408e-03, 2.53164563e-02, 6.32911408e-03, 6.32911408e-03,
          0., 6.32911408e-03, 0., 6.32911408e-03, 0., 1.26582282e-02,
          6.32911408e-03 ]
      - [ 0., 1.72413792e-02, 5.74712642e-03, 0., 0., 1.72413792e-02,
          1.14942528e-02, 0., 1.14942528e-02, 2.29885057e-02,
          5.74712642e-03, 5.74712642e-03, 5.74712642e-03, 0.,
          2.29885057e-02, 5.74712642e-03, 5.74712642e-03, 5.74712642e-03,
          1.14942528e-02, 2.29885057e-02, 5.74712642e-03, 1.14942528e-02,
          0., 1.14942528e-02, 0., 1.14942528e-02, 0., 1.14942528e-02,
          1.14942528e-02, 1.14942528e-02, 2.29885057e-02, 5.74712642e-02,
          0., 2.29885057e-02, 5.74712642e-03, 2.29885057e-02,
          1.72413792e-02, 0., 1.14942528e-02, 1.14942528e-02,
          5.74712642e-03, 5.74712642e-03, 5.74712642e-03, 5.74712642e-03,
          1.14942528e-02, 5.74712642e-03, 5.74712642e-03, 1.14942528e-02,
          0., 5.74712642e-03, 0., 5.74712642e-03, 2.29885057e-02, 0.,
          1.72413792e-02, 1.14942528e-02, 1.72413792e-02, 1.14942528e-02,
          5.74712642e-03, 1.72413792e-02, 5.74712642e-03, 5.74712642e-03,
          2.29885057e-02, 5.74712642e-03, 1.14942528e-02, 2.87356321e-02,
          1.14942528e-02, 2.29885057e-02, 0., 5.74712642e-03,
          5.17241359e-02, 0., 0., 1.14942528e-02, 5.74712642e-03,
          1.14942528e-02, 5.74712642e-03, 5.74712642e-03, 0.,
          1.14942528e-02, 5.74712642e-03, 0., 2.29885057e-02, 0.,
          1.14942528e-02, 0., 5.74712642e-03, 0., 5.74712642e-03,
          1.72413792e-02, 2.87356321e-02, 5.74712642e-03, 0.,
          5.74712642e-03, 4.02298868e-02, 1.14942528e-02, 0.,
          1.14942528e-02, 5.74712642e-03, 0. ]
      - [ 6.43086806e-03, 9.64630209e-03, 1.28617361e-02, 3.21543403e-03,
          1.28617361e-02, 9.64630209e-03, 9.64630209e-03, 6.43086806e-03,
          9.64630209e-03, 2.57234722e-02, 6.43086806e-03, 9.64630209e-03,
          6.43086806e-03, 6.43086806e-03, 2.25080382e-02, 0.,
          1.28617361e-02, 6.43086806e-03, 6.43086806e-03, 1.28617361e-02,
          6.43086806e-03, 1.92926042e-02, 3.21543403e-03, 1.92926042e-02,
          3.21543403e-03, 6.43086806e-03, 6.43086806e-03, 0.,
          6.43086806e-03, 9.64630209e-03, 9.64630209e-03, 3.21543403e-03,
          9.64630209e-03, 1.28617361e-02, 3.21543403e-03, 1.28617361e-02,
          6.43086806e-03, 9.64630209e-03, 9.64630209e-03, 3.21543403e-03,
          1.60771701e-02, 0., 6.43086806e-03, 9.64630209e-03,
          2.57234722e-02, 3.21543403e-03, 9.64630209e-03, 0.,
          1.60771701e-02, 2.25080382e-02, 9.64630209e-03, 0.,
          2.89389063e-02, 6.43086806e-03, 1.92926042e-02, 3.21543403e-02,
          1.60771701e-02, 1.28617361e-02, 3.21543403e-03, 3.21543403e-03,
          9.64630209e-03, 9.64630209e-03, 9.64630209e-03, 1.28617361e-02,
          3.21543403e-03, 0., 9.64630209e-03, 2.57234722e-02,
          6.43086806e-03, 6.43086806e-03, 5.46623766e-02, 1.28617361e-02,
          1.60771701e-02, 1.28617361e-02, 6.43086806e-03, 9.64630209e-03,
          0., 6.43086806e-03, 1.28617361e-02, 6.43086806e-03,
          1.92926042e-02, 3.21543403e-03, 1.92926042e-02, 3.21543403e-03,
          6.43086806e-03, 6.43086806e-03, 0., 0., 1.28617361e-02, 0.,
          2.25080382e-02, 9.64630209e-03, 6.43086806e-03, 6.43086806e-03,
          0., 1.28617361e-02, 9.64630209e-03, 9.64630209e-03,
          1.60771701e-02, 6.43086806e-03 ]
      - [ 6.77966094e-03, 1.01694912e-02, 3.38983047e-03, 1.01694912e-02,
          6.77966094e-03, 1.01694912e-02, 0., 1.01694912e-02,
          1.35593219e-02, 3.38983047e-03, 6.77966094e-03, 1.01694912e-02,
          3.38983047e-03, 4.06779647e-02, 1.01694912e-02, 1.01694912e-02,
          1.01694912e-02, 1.01694912e-02, 2.37288140e-02, 3.38983047e-03,
          1.35593219e-02, 6.77966094e-03, 3.38983047e-03, 3.38983047e-03,
          3.38983047e-03, 3.38983047e-03, 2.37288140e-02, 1.69491526e-02,
          0., 1.01694912e-02, 1.01694912e-02, 2.37288140e-02,
          6.77966094e-03, 3.38983047e-03, 1.01694912e-02, 3.38983047e-03,
          6.77966094e-03, 1.01694912e-02, 1.01694912e-02, 0.,
          3.38983047e-03, 1.35593219e-02, 0., 3.38983047e-03,
          6.77966094e-03, 1.01694912e-02, 1.01694912e-02, 6.77966094e-03,
          1.35593219e-02, 2.37288140e-02, 6.77966094e-03, 1.01694912e-02,
          1.35593219e-02, 2.03389823e-02, 3.72881368e-02, 6.77966094e-03,
          3.38983047e-03, 6.77966094e-03, 1.35593219e-02, 2.03389823e-02,
          6.77966094e-03, 0., 1.01694912e-02, 1.35593219e-02,
          1.69491526e-02, 1.35593219e-02, 0., 3.38983047e-03,
          3.38983047e-03, 3.38983047e-03, 4.40677963e-02, 2.03389823e-02,
          1.01694912e-02, 3.38983047e-03, 1.35593219e-02, 6.77966094e-03,
          1.69491526e-02, 0., 6.77966094e-03, 1.35593219e-02,
          1.01694912e-02, 2.03389823e-02, 1.69491526e-02, 3.38983047e-03,
          1.01694912e-02, 3.38983047e-03, 1.69491526e-02, 3.38983047e-03,
          6.77966094e-03, 0., 6.77966094e-03, 1.01694912e-02,
          2.03389823e-02, 2.03389823e-02, 6.77966094e-03, 1.01694912e-02,
          3.38983047e-03, 6.77966094e-03, 3.38983047e-03, 1.01694912e-02 ]
      - [ 0., 1.57480314e-02, 0., 0., 1.57480314e-02, 2.36220472e-02, 0.,
          7.87401572e-03, 7.87401572e-03, 0., 7.87401572e-03, 0.,
          7.87401572e-03, 7.87401572e-03, 0., 0., 1.57480314e-02,
          7.87401572e-03, 1.57480314e-02, 1.57480314e-02, 1.57480314e-02,
          7.87401572e-03, 7.87401572e-03, 0., 2.36220472e-02, 0.,
          1.57480314e-02, 7.87401572e-03, 4.72440943e-02, 0.,
          7.87401572e-03, 7.87401572e-03, 0., 7.87401572e-03,
          7.87401572e-03, 1.57480314e-02, 1.57480314e-02, 7.87401572e-03,
          1.57480314e-02, 3.14960629e-02, 0., 1.57480314e-02, 0.,
          3.14960629e-02, 1.57480314e-02, 0., 0., 7.87401572e-03,
          7.87401572e-03, 7.87401572e-03, 7.87401572e-03, 7.87401572e-03,
          2.36220472e-02, 7.87401572e-03, 7.87401572e-03, 0., 0., 0.,
          3.14960629e-02, 1.57480314e-02, 0., 7.87401572e-03,
          2.36220472e-02, 2.36220472e-02, 1.57480314e-02, 1.57480314e-02,
          0., 3.14960629e-02, 7.87401572e-03, 7.87401572e-03,
          2.36220472e-02, 0., 0., 0., 0., 1.57480314e-02, 0., 0.,
          7.87401572e-03, 4.72440943e-02, 7.87401572e-03, 7.87401572e-03,
          0., 0., 1.57480314e-02, 0., 2.36220472e-02, 0., 7.87401572e-03,
          1.57480314e-02, 0., 1.57480314e-02, 7.87401572e-03,
          7.87401572e-03, 7.87401572e-03, 7.87401572e-03, 1.57480314e-02,
          2.36220472e-02, 2.36220472e-02, 0. ]
      - [ 0., 0., 4.40528616e-03, 0., 8.37004334e-02, 4.40528616e-03, 0.,
          4.40528616e-03, 2.64317170e-02, 3.52422893e-02, 0., 0.,
          3.08370031e-02, 0., 3.52422893e-02, 8.81057233e-03,
          8.81057233e-03, 1.32158585e-02, 8.81057233e-03, 4.40528616e-03,
          0., 3.96475755e-02, 8.81057233e-03, 4.40528616e-03,
          4.40528616e-03, 1.32158585e-02, 4.40528616e-03, 4.40528616e-03,
          4.40528616e-03, 4.40528616e-03, 8.81057233e-03, 0.,
          4.40528616e-03, 8.81057233e-03, 4.40528616e-03, 4.84581478e-02,
          1.32158585e-02, 2.20264308e-02, 4.40528616e-03, 0., 0., 0.,
          8.81057233e-03, 0., 4.40528616e-02, 8.81057233e-03,
          4.40528616e-03, 2.64317170e-02, 0., 1.32158585e-02,
          4.40528616e-03, 4.40528616e-03, 4.40528616e-03, 4.40528616e-03,
          8.81057233e-03, 1.76211447e-02, 8.81057233e-03, 8.81057233e-03,
          1.32158585e-02, 8.81057233e-03, 0., 0., 4.40528616e-03,
          4.40528616e-03, 0., 8.81057233e-03, 0., 8.81057233e-03,
          4.40528616e-03, 4.40528616e-03, 7.04845786e-02, 0.,
          3.52422893e-02, 4.40528616e-03, 8.81057233e-03, 4.40528616e-03,
          0., 8.81057233e-03, 2.64317170e-02, 0., 4.40528616e-03,
          3.08370031e-02, 4.40528616e-03, 4.40528616e-03, 4.40528616e-03,
          8.81057233e-03, 0., 0., 4.40528616e-03, 4.40528616e-03,
          1.76211447e-02, 4.40528616e-03, 8.81057233e-03, 0.,
          8.81057233e-03, 4.40528616e-03, 0., 2.64317170e-02,
          8.81057233e-03, 0. ]
      - [ 1.39372824e-02, 1.39372824e-02, 6.96864119e-03, 3.48432059e-03,
          1.74216032e-02, 6.96864119e-03, 2.09059231e-02, 1.04529615e-02,
          1.39372824e-02, 2.43902449e-02, 1.04529615e-02, 1.04529615e-02,
          6.96864119e-03, 1.74216032e-02, 1.74216032e-02, 6.96864119e-03,
          3.48432059e-03, 0., 3.48432059e-03, 2.43902449e-02, 0.,
          6.96864119e-03, 1.39372824e-02, 1.39372824e-02, 1.39372824e-02,
          6.96864119e-03, 0., 2.09059231e-02, 1.04529615e-02,
          1.74216032e-02, 1.39372824e-02, 1.04529615e-02, 6.96864119e-03,
          1.04529615e-02, 1.39372824e-02, 3.48432059e-03, 3.48432059e-03,
          6.96864119e-03, 6.96864119e-03, 0., 1.39372824e-02,
          6.96864119e-03, 1.04529615e-02, 1.39372824e-02, 1.74216032e-02,
          1.04529615e-02, 2.43902449e-02, 1.74216032e-02, 6.96864119e-03,
          6.96864119e-03, 6.96864119e-03, 1.39372824e-02, 2.09059231e-02,
          6.96864119e-03, 1.39372824e-02, 6.96864119e-03, 6.96864119e-03,
          1.04529615e-02, 1.74216032e-02, 3.48432059e-03, 1.74216032e-02,
          6.96864119e-03, 3.48432059e-03, 1.39372824e-02, 6.96864119e-03,
          0., 1.39372824e-02, 1.39372824e-02, 1.04529615e-02,
          3.48432059e-03, 6.62020892e-02, 6.96864119e-03, 1.04529615e-02,
          1.39372824e-02, 0., 3.48432059e-03, 1.39372824e-02, 0.,
          1.74216032e-02, 6.96864119e-03, 1.04529615e-02, 6.96864119e-03,
          1.04529615e-02, 6.96864119e-03, 1.04529615e-02, 3.48432059e-03,
          3.48432059e-03, 0., 6.96864119e-03, 3.48432059e-03, 0.,
          1.04529615e-02, 3.48432059e-03, 6.96864119e-03, 0.,
          1.39372824e-02, 0., 0., 1.04529615e-02, 1.04529615e-02 ]
      - [ 0., 0., 1.93236712e-02, 0., 1.44927539e-02, 1.93236712e-02, 0.,
          0., 1.44927539e-02, 3.38164233e-02, 0., 9.66183562e-03,
          4.34782617e-02, 4.83091781e-03, 3.38164233e-02, 1.44927539e-02,
          0., 0., 9.66183562e-03, 0., 0., 4.83091772e-02, 9.66183562e-03,
          0., 0., 4.83091781e-03, 9.66183562e-03, 4.83091781e-03,
          4.83091781e-03, 0., 4.83091781e-03, 4.83091781e-03, 0.,
          9.66183562e-03, 9.66183562e-03, 4.34782617e-02, 9.66183562e-03,
          0., 0., 4.83091781e-03, 9.66183562e-03, 0., 9.66183562e-03,
          1.93236712e-02, 2.89855078e-02, 9.66183562e-03, 4.83091781e-03,
          4.83091781e-03, 9.66183562e-03, 2.89855078e-02, 0.,
          4.83091781e-03, 1.44927539e-02, 4.83091781e-03, 1.93236712e-02,
          1.44927539e-02, 9.66183562e-03, 1.44927539e-02, 4.83091781e-03,
          9.66183562e-03, 1.44927539e-02, 4.83091781e-03, 4.83091781e-03,
          0., 9.66183562e-03, 0., 1.44927539e-02, 9.66183562e-03, 0.,
          4.83091781e-03, 5.31400964e-02, 9.66183562e-03, 9.66183562e-03,
          4.83091781e-03, 0., 4.83091781e-03, 0., 1.93236712e-02,
          2.41545886e-02, 4.83091781e-03, 4.83091781e-03, 9.66183562e-03,
          1.93236712e-02, 0., 4.83091781e-03, 9.66183562e-03,
          9.66183562e-03, 4.83091781e-03, 0., 4.83091781e-03,
          4.83091772e-02, 0., 0., 4.83091781e-03, 3.86473425e-02,
          4.83091781e-03, 4.83091781e-03, 9.66183562e-03, 1.44927539e-02,
          4.83091781e-03 ]
      - [ 0., 1.44927539e-02, 7.24637695e-03, 0., 0., 0., 2.89855078e-02,
          7.24637695e-03, 0., 0., 2.89855078e-02, 7.24637695e-03, 0.,
          7.24637695e-03, 0., 0., 3.62318829e-02, 0., 0., 7.24637695e-03,
          0., 2.17391308e-02, 2.17391308e-02, 0., 0., 1.44927539e-02, 0.,
          3.62318829e-02, 6.52173907e-02, 7.24637695e-03, 2.89855078e-02,
          5.07246405e-02, 0., 1.44927539e-02, 7.24637695e-03,
          2.89855078e-02, 0., 0., 2.17391308e-02, 2.17391308e-02, 0., 0.,
          7.24637695e-03, 2.89855078e-02, 7.24637695e-03, 0.,
          1.44927539e-02, 7.24637695e-03, 7.24637695e-03, 0.,
          7.24637695e-03, 1.44927539e-02, 7.24637695e-03, 0.,
          5.79710156e-02, 0., 0., 0., 7.24637695e-03, 0., 2.17391308e-02,
          7.24637695e-03, 5.07246405e-02, 7.24637695e-03, 0.,
          7.24637695e-03, 7.24637695e-03, 7.24637695e-03, 0.,
          7.24637695e-03, 4.34782617e-02, 7.24637695e-03, 0.,
          7.24637695e-03, 0., 0., 0., 0., 0., 0., 7.24637695e-03,
          7.24637695e-03, 7.24637695e-03, 0., 1.44927539e-02, 0., 0.,
          1.44927539e-02, 1.44927539e-02, 1.44927539e-02, 0., 0.,
          7.24637695e-03, 0., 1.44927539e-02, 1.44927539e-02,
          1.44927539e-02, 2.89855078e-02, 1.44927539e-02, 0. ]
      - [ 6.02409616e-03, 2.40963846e-02, 3.61445770e-02, 0.,
          1.80722885e-02, 1.20481923e-02, 6.02409616e-03, 3.61445770e-02,
          0., 1.20481923e-02, 0., 0., 3.01204808e-02, 0., 0.,
          1.20481923e-02, 6.02409616e-03, 0., 2.40963846e-02,
          6.02409616e-03, 6.02409616e-03, 1.20481923e-02, 6.02409616e-03,
          1.20481923e-02, 0., 0., 0., 1.80722885e-02, 1.80722885e-02,
          1.20481923e-02, 1.20481923e-02, 1.20481923e-02, 6.02409616e-03,
          0., 0., 6.02409616e-03, 1.20481923e-02, 1.80722885e-02,
          6.02409616e-03, 1.20481923e-02, 6.02409616e-03, 0., 0.,
          1.20481923e-02, 6.02409616e-02, 1.20481923e-02, 6.02409616e-03,
          1.80722885e-02, 6.02409616e-03, 6.02409616e-03, 6.02409616e-03,
          6.02409616e-03, 1.20481923e-02, 1.80722885e-02, 6.02409616e-03,
          0., 6.02409616e-03, 0., 1.20481923e-02, 1.20481923e-02,
          1.20481923e-02, 0., 1.20481923e-02, 6.02409616e-03, 0., 0.,
          1.20481923e-02, 6.02409616e-03, 6.02409616e-03, 1.80722885e-02,
          5.42168655e-02, 0., 2.40963846e-02, 0., 0., 1.20481923e-02,
          1.20481923e-02, 6.02409616e-03, 3.61445770e-02, 6.02409616e-03,
          6.02409616e-03, 2.40963846e-02, 6.02409616e-03, 0., 0.,
          6.02409616e-03, 3.61445770e-02, 0., 1.20481923e-02,
          6.02409616e-03, 1.20481923e-02, 0., 1.80722885e-02, 0., 0.,
          6.02409616e-03, 1.20481923e-02, 6.02409616e-03, 1.20481923e-02,
          1.20481923e-02 ]
      - [ 4.60829493e-03, 3.68663594e-02, 0., 4.60829493e-03,
          5.52995391e-02, 3.68663594e-02, 0., 4.60829493e-03,
          4.60829493e-03, 0., 1.38248848e-02, 4.60829493e-03,
          2.30414756e-02, 3.22580636e-02, 0., 4.60829493e-03,
          2.30414756e-02, 4.60829493e-03, 9.21658985e-03, 4.60829493e-03,
          4.60829493e-03, 1.38248848e-02, 9.21658985e-03, 4.60829493e-03,
          1.38248848e-02, 4.60829493e-03, 1.84331797e-02, 4.60829493e-03,
          9.21658985e-03, 0., 4.60829493e-03, 9.21658985e-03, 0.,
          1.38248848e-02, 4.60829493e-03, 3.22580636e-02, 9.21658985e-03,
          4.60829493e-03, 1.38248848e-02, 4.60829493e-03, 0.,
          3.22580636e-02, 0., 4.60829493e-03, 1.84331797e-02,
          4.60829493e-03, 4.60829493e-03, 0., 1.38248848e-02, 0.,
          4.60829493e-03, 9.21658985e-03, 1.38248848e-02, 4.60829493e-03,
          1.38248848e-02, 0., 0., 1.84331797e-02, 2.76497696e-02,
          1.38248848e-02, 4.60829493e-03, 4.60829493e-03, 9.21658985e-03,
          4.60829493e-03, 0., 9.21658985e-03, 0., 4.60829493e-03,
          4.60829493e-03, 2.30414756e-02, 9.21658985e-03, 4.60829493e-03,
          9.21658985e-03, 4.60829493e-03, 1.84331797e-02, 2.76497696e-02,
          2.30414756e-02, 0., 9.21658985e-03, 4.60829493e-03,
          4.60829493e-03, 1.38248848e-02, 9.21658985e-03, 0.,
          1.38248848e-02, 1.38248848e-02, 1.84331797e-02, 0., 0.,
          1.38248848e-02, 1.84331797e-02, 2.30414756e-02, 9.21658985e-03,
          0., 2.30414756e-02, 0., 0., 4.60829493e-03, 1.84331797e-02,
          9.21658985e-03 ]
      - [ 0., 8.54700897e-03, 0., 0., 5.12820557e-02, 0., 8.54700897e-03,
          0., 8.54700897e-03, 3.41880359e-02, 1.70940179e-02,
          8.54700897e-03, 2.56410278e-02, 1.70940179e-02, 2.56410278e-02,
          1.70940179e-02, 0., 0., 8.54700897e-03, 8.54700897e-03,
          8.54700897e-03, 8.54700897e-03, 1.70940179e-02, 8.54700897e-03,
          0., 0., 8.54700897e-03, 0., 8.54700897e-03, 0., 0.,
          8.54700897e-03, 0., 0., 0., 2.56410278e-02, 1.70940179e-02,
          2.56410278e-02, 0., 8.54700897e-03, 1.70940179e-02,
          8.54700897e-03, 0., 8.54700897e-03, 3.41880359e-02, 0.,
          2.56410278e-02, 0., 0., 4.27350439e-02, 8.54700897e-03,
          8.54700897e-03, 0., 0., 0., 0., 0., 0., 8.54700897e-03, 0.,
          8.54700897e-03, 0., 1.70940179e-02, 8.54700897e-03,
          8.54700897e-03, 0., 0., 0., 8.54700897e-03, 8.54700897e-03,
          1.28205135e-01, 8.54700897e-03, 0., 0., 8.54700897e-03,
          8.54700897e-03, 0., 0., 0., 0., 8.54700897e-03, 4.27350439e-02,
          2.56410278e-02, 0., 8.54700897e-03, 2.56410278e-02, 0.,
          8.54700897e-03, 8.54700897e-03, 8.54700897e-03, 8.54700897e-03,
          8.54700897e-03, 8.54700897e-03, 1.70940179e-02, 8.54700897e-03,
          1.70940179e-02, 8.54700897e-03, 2.56410278e-02, 0., 0. ]
      - [ 0., 0., 0., 0., 0., 1.28205130e-02, 2.56410260e-02, 0., 0., 0.,
          0., 0., 0., 1.28205130e-02, 0., 0., 1.28205130e-02, 0., 0., 0.,
          0., 1.28205130e-02, 0., 0., 0., 0., 1.28205130e-02,
          1.28205130e-02, 7.69230798e-02, 0., 1.28205130e-02,
          1.28205130e-02, 1.28205130e-02, 2.56410260e-02, 1.28205130e-02,
          2.56410260e-02, 0., 0., 0., 1.28205130e-02, 0., 0., 0.,
          5.12820520e-02, 3.84615399e-02, 0., 0., 0., 0., 1.28205130e-02,
          3.84615399e-02, 1.28205130e-02, 2.56410260e-02, 0.,
          1.28205130e-02, 0., 0., 1.28205130e-02, 0., 0., 0., 0.,
          5.12820520e-02, 1.28205130e-02, 1.28205130e-02, 0.,
          1.28205130e-02, 1.28205130e-02, 0., 0., 2.56410260e-02, 0., 0.,
          1.28205130e-02, 2.56410260e-02, 2.56410260e-02, 0., 0., 0., 0.,
          0., 0., 1.28205130e-02, 0., 3.84615399e-02, 0., 0., 0., 0., 0.,
          6.41025677e-02, 1.28205130e-02, 0., 0., 8.97435918e-02,
          1.28205130e-02, 1.28205130e-02, 5.12820520e-02, 1.28205130e-02,
          0. ]
      - [ 6.84931502e-03, 0., 0., 6.84931502e-03, 1.36986300e-02,
          1.36986300e-02, 0., 1.36986300e-02, 6.84931502e-03,
          2.05479451e-02, 0., 1.36986300e-02, 4.10958901e-02,
          1.36986300e-02, 4.10958901e-02, 6.84931502e-03, 0.,
          1.36986300e-02, 0., 0., 1.36986300e-02, 1.36986300e-02, 0.,
          2.73972601e-02, 6.84931502e-03, 0., 0., 6.84931502e-03,
          1.36986300e-02, 0., 0., 1.36986300e-02, 0., 6.84931502e-03,
          6.84931502e-03, 2.05479451e-02, 0., 2.05479451e-02,
          1.36986300e-02, 0., 0., 0., 6.84931502e-03, 6.84931502e-03,
          6.16438352e-02, 0., 1.36986300e-02, 6.84931502e-03,
          6.84931502e-03, 4.10958901e-02, 6.84931502e-03, 0.,
          1.36986300e-02, 2.05479451e-02, 0., 2.05479451e-02,
          1.36986300e-02, 0., 0., 1.36986300e-02, 0., 2.73972601e-02,
          6.84931502e-03, 0., 6.84931502e-03, 0., 0., 1.36986300e-02,
          6.84931502e-03, 6.84931502e-03, 4.10958901e-02, 0.,
          1.36986300e-02, 6.84931502e-03, 6.84931502e-03, 6.84931502e-03,
          0., 1.36986300e-02, 3.42465751e-02, 6.84931502e-03,
          6.84931502e-03, 6.84931502e-03, 0., 6.84931502e-03, 0.,
          2.05479451e-02, 0., 0., 6.84931502e-03, 6.84931502e-03,
          4.79452051e-02, 0., 0., 0., 1.36986300e-02, 0., 0.,
          6.16438352e-02, 0., 1.36986300e-02 ]
      - [ 0., 2.35294122e-02, 2.35294122e-02, 0., 3.52941193e-02,
          3.52941193e-02, 1.17647061e-02, 1.17647061e-02, 0.,
          1.17647061e-02, 1.17647061e-02, 1.17647061e-02, 0.,
          4.70588244e-02, 0., 1.17647061e-02, 0., 0., 3.52941193e-02, 0.,
          2.35294122e-02, 0., 0., 1.17647061e-02, 0., 2.35294122e-02, 0.,
          0., 2.35294122e-02, 1.17647061e-02, 0., 1.17647061e-02,
          1.17647061e-02, 3.52941193e-02, 1.17647061e-02, 1.17647061e-02,
          1.17647061e-02, 1.17647061e-02, 0., 2.35294122e-02,
          1.17647061e-02, 3.52941193e-02, 1.17647061e-02, 0., 0.,
          3.52941193e-02, 1.17647061e-02, 0., 0., 1.17647061e-02, 0., 0.,
          0., 1.17647061e-02, 2.35294122e-02, 0., 0., 1.17647061e-02, 0.,
          2.35294122e-02, 0., 0., 1.17647061e-02, 0., 1.17647061e-02,
          3.52941193e-02, 0., 0., 0., 2.35294122e-02, 2.35294122e-02, 0.,
          2.35294122e-02, 1.17647061e-02, 2.35294122e-02, 1.17647061e-02,
          0., 0., 0., 2.35294122e-02, 0., 3.52941193e-02, 0., 0.,
          1.17647061e-02, 0., 2.35294122e-02, 0., 0., 0., 0.,
          1.17647061e-02, 1.17647061e-02, 0., 0., 0., 0., 1.17647061e-02,
          1.17647061e-02, 0. ]
      - [ 2.39520967e-02, 2.39520967e-02, 5.98802418e-03, 1.19760484e-02,
          0., 5.98802418e-03, 1.79640725e-02, 5.98802418e-03,
          1.19760484e-02, 2.99401209e-02, 0., 1.79640725e-02, 0.,
          5.98802418e-03, 5.98802418e-03, 5.98802418e-03, 1.79640725e-02,
          1.19760484e-02, 1.19760484e-02, 2.39520967e-02, 5.98802418e-03,
          1.79640725e-02, 0., 1.19760484e-02, 5.98802418e-03,
          1.19760484e-02, 0., 1.19760484e-02, 1.19760484e-02,
          1.19760484e-02, 1.19760484e-02, 2.39520967e-02, 5.98802418e-03,
          1.19760484e-02, 1.19760484e-02, 5.98802418e-03, 1.79640725e-02,
          0., 0., 0., 5.98802418e-03, 5.98802418e-03, 3.59281451e-02,
          2.39520967e-02, 5.98802418e-03, 0., 1.19760484e-02, 0., 0.,
          1.79640725e-02, 1.79640725e-02, 1.19760484e-02, 1.19760484e-02,
          0., 2.39520967e-02, 5.98802418e-03, 5.98802418e-03,
          5.98802418e-03, 1.79640725e-02, 2.39520967e-02, 2.99401209e-02,
          5.98802418e-03, 1.19760484e-02, 5.98802418e-03, 1.79640725e-02,
          5.98802418e-03, 1.19760484e-02, 0., 1.19760484e-02,
          1.79640725e-02, 2.39520967e-02, 5.98802418e-03, 0.,
          1.79640725e-02, 5.98802418e-03, 0., 5.98802418e-03, 0.,
          2.39520967e-02, 0., 5.98802418e-03, 1.19760484e-02,
          2.39520967e-02, 5.98802418e-03, 5.98802418e-03, 0., 0., 0., 0.,
          2.99401209e-02, 0., 1.19760484e-02, 0., 0., 1.19760484e-02,
          1.79640725e-02, 0., 0., 1.19760484e-02, 5.98802418e-03 ]
      - [ 0., 0., 1.19047621e-02, 5.95238106e-03, 4.16666679e-02,
          1.78571437e-02, 0., 0., 5.95238106e-03, 1.19047621e-02,
          1.19047621e-02, 0., 2.97619049e-02, 5.95238106e-03,
          1.78571437e-02, 5.95238106e-03, 0., 5.95238106e-03,
          5.95238106e-03, 5.95238106e-03, 1.19047621e-02, 2.38095243e-02,
          0., 0., 5.95238106e-03, 1.19047621e-02, 1.19047621e-02,
          1.78571437e-02, 5.95238106e-03, 5.95238106e-03, 1.19047621e-02,
          5.95238106e-03, 5.95238106e-03, 5.95238106e-03, 0.,
          4.76190485e-02, 2.38095243e-02, 6.54761940e-02, 5.95238106e-03,
          5.95238106e-03, 5.95238106e-03, 0., 0., 0., 4.76190485e-02, 0.,
          5.95238106e-03, 1.19047621e-02, 0., 1.78571437e-02,
          5.95238106e-03, 5.95238106e-03, 1.19047621e-02, 0.,
          5.95238106e-03, 1.78571437e-02, 0., 5.95238106e-03, 0.,
          2.38095243e-02, 0., 0., 5.95238106e-03, 0., 5.95238106e-03,
          1.78571437e-02, 0., 1.19047621e-02, 0., 0., 5.95238097e-02, 0.,
          0., 0., 2.38095243e-02, 2.38095243e-02, 5.95238106e-03,
          2.38095243e-02, 3.57142873e-02, 1.19047621e-02, 0.,
          3.57142873e-02, 5.95238106e-03, 0., 5.95238106e-03,
          5.95238106e-03, 2.38095243e-02, 0., 1.78571437e-02, 0.,
          5.95238106e-03, 1.19047621e-02, 0., 5.95238106e-03, 0., 0., 0.,
          2.38095243e-02, 0., 5.95238106e-03 ]
      - [ 0., 9.17431153e-03, 0., 9.17431153e-03, 4.58715558e-02,
          2.75229346e-02, 9.17431153e-03, 0., 0., 3.66972461e-02,
          1.83486231e-02, 0., 0., 2.75229346e-02, 0., 0., 2.75229346e-02,
          0., 3.66972461e-02, 0., 3.66972461e-02, 0., 0., 0., 0., 0., 0.,
          2.75229346e-02, 0., 9.17431153e-03, 0., 9.17431153e-03,
          2.75229346e-02, 0., 0., 0., 1.83486231e-02, 2.75229346e-02,
          1.83486231e-02, 9.17431153e-03, 9.17431153e-03, 0., 0., 0.,
          9.17431153e-03, 4.58715558e-02, 0., 1.83486231e-02,
          1.83486231e-02, 3.66972461e-02, 0., 0., 0., 9.17431153e-03, 0.,
          0., 9.17431153e-03, 9.17431153e-03, 3.66972461e-02,
          1.83486231e-02, 9.17431153e-03, 0., 0., 0., 9.17431153e-03,
          9.17431153e-03, 9.17431153e-03, 9.17431153e-03, 9.17431153e-03,
          9.17431153e-03, 2.75229346e-02, 2.75229346e-02, 9.17431153e-03,
          9.17431153e-03, 0., 9.17431153e-03, 9.17431153e-03, 0.,
          9.17431153e-03, 0., 9.17431153e-03, 0., 2.75229346e-02,
          9.17431153e-03, 0., 0., 4.58715558e-02, 0., 0., 0.,
          9.17431153e-03, 0., 0., 2.75229346e-02, 1.83486231e-02, 0., 0.,
          0., 1.83486231e-02, 1.83486231e-02 ]
      - [ 3.41296918e-03, 0., 2.04778146e-02, 1.36518767e-02,
          3.41296918e-03, 1.36518767e-02, 6.82593836e-03, 1.36518767e-02,
          0., 3.41296918e-03, 1.02389073e-02, 3.41296918e-03,
          3.41296904e-02, 0., 3.07167228e-02, 0., 6.82593836e-03,
          2.38907840e-02, 1.36518767e-02, 1.36518767e-02, 1.02389073e-02,
          3.41296918e-03, 1.36518767e-02, 1.36518767e-02, 3.41296918e-03,
          2.04778146e-02, 1.36518767e-02, 3.41296918e-03, 0.,
          6.82593836e-03, 6.82593836e-03, 0., 1.70648452e-02,
          1.36518767e-02, 0., 3.41296918e-03, 6.82593836e-03,
          1.36518767e-02, 1.02389073e-02, 1.36518767e-02, 6.82593836e-03,
          0., 0., 1.36518767e-02, 4.09556292e-02, 1.02389073e-02,
          1.02389073e-02, 3.41296918e-03, 1.02389073e-02, 0.,
          1.36518767e-02, 3.41296918e-03, 3.41296918e-03, 3.41296918e-03,
          0., 1.02389073e-02, 1.36518767e-02, 1.02389073e-02, 0.,
          6.82593836e-03, 1.02389073e-02, 1.36518767e-02, 3.41296918e-03,
          1.36518767e-02, 3.41296918e-03, 1.02389073e-02, 1.02389073e-02,
          2.04778146e-02, 6.82593836e-03, 0., 1.02389073e-02,
          1.02389073e-02, 4.43685986e-02, 6.82593836e-03, 6.82593836e-03,
          1.36518767e-02, 6.82593836e-03, 2.73037534e-02, 3.41296918e-03,
          1.36518767e-02, 1.36518767e-02, 1.36518767e-02, 1.36518767e-02,
          3.41296918e-03, 1.70648452e-02, 1.02389073e-02, 1.70648452e-02,
          0., 2.04778146e-02, 1.36518767e-02, 1.02389073e-02,
          1.36518767e-02, 3.41296918e-03, 1.70648452e-02, 1.02389073e-02,
          3.41296918e-03, 0., 1.02389073e-02, 6.82593836e-03,
          1.70648452e-02 ]
      - [ 7.51879718e-03, 1.50375944e-02, 7.51879718e-03, 0.,
          1.50375944e-02, 0., 1.50375944e-02, 7.51879718e-03, 0.,
          3.00751887e-02, 7.51879718e-03, 1.50375944e-02, 1.50375944e-02,
          2.25563906e-02, 3.00751887e-02, 1.50375944e-02, 0., 0., 0.,
          1.50375944e-02, 1.50375944e-02, 6.01503775e-02, 1.50375944e-02,
          1.50375944e-02, 1.50375944e-02, 0., 0., 0., 1.50375944e-02, 0.,
          1.50375944e-02, 1.50375944e-02, 7.51879718e-03, 0., 0., 0., 0.,
          1.50375944e-02, 0., 0., 7.51879718e-03, 1.50375944e-02,
          1.50375944e-02, 2.25563906e-02, 6.01503775e-02, 0., 0.,
          1.50375944e-02, 0., 4.51127812e-02, 0., 7.51879718e-03,
          7.51879718e-03, 7.51879718e-03, 2.25563906e-02, 1.50375944e-02,
          7.51879718e-03, 7.51879718e-03, 1.50375944e-02, 0., 0.,
          3.00751887e-02, 7.51879718e-03, 2.25563906e-02, 7.51879718e-03,
          0., 7.51879718e-03, 0., 0., 0., 6.76691756e-02, 7.51879718e-03,
          2.25563906e-02, 0., 0., 7.51879718e-03, 0., 7.51879718e-03,
          1.50375944e-02, 0., 0., 1.50375944e-02, 0., 0., 0.,
          7.51879718e-03, 0., 1.50375944e-02, 7.51879718e-03, 0.,
          3.00751887e-02, 0., 0., 0., 1.50375944e-02, 0., 0.,
          2.25563906e-02, 0., 7.51879718e-03 ]
      - [ 1.38888890e-02, 4.16666679e-02, 0., 0., 2.77777780e-02,
          1.38888890e-02, 2.77777780e-02, 0., 1.38888890e-02, 0., 0.,
          1.38888890e-02, 0., 2.77777780e-02, 0., 0., 1.38888890e-02, 0.,
          0., 1.38888890e-02, 1.38888890e-02, 2.77777780e-02, 0., 0., 0.,
          1.38888890e-02, 0., 0., 0., 0., 0., 2.77777780e-02, 0.,
          1.38888890e-02, 1.38888890e-02, 4.16666679e-02, 1.38888890e-02,
          0., 0., 0., 0., 0., 2.77777780e-02, 1.38888890e-02,
          2.77777780e-02, 0., 0., 0., 1.38888890e-02, 2.77777780e-02,
          1.38888890e-02, 1.38888890e-02, 0., 1.38888890e-02, 0., 0., 0.,
          0., 0., 0., 0., 2.77777780e-02, 0., 0., 2.77777780e-02,
          1.38888890e-02, 2.77777780e-02, 0., 0., 1.38888890e-02,
          4.16666679e-02, 0., 0., 1.38888890e-02, 1.38888890e-02, 0., 0.,
          0., 0., 1.38888890e-02, 0., 0., 6.94444478e-02, 0.,
          1.38888890e-02, 0., 1.38888890e-02, 0., 0., 0., 0.,
          4.16666679e-02, 0., 0., 4.16666679e-02, 2.77777780e-02, 0.,
          2.77777780e-02, 4.16666679e-02, 0. ]
      - [ 0., 0., 0., 0., 4.68750000e-02, 3.12500000e-02, 0., 0., 0.,
          1.56250000e-02, 0., 0., 1.56250000e-02, 0., 0., 0.,
          1.56250000e-02, 0., 3.12500000e-02, 0., 3.12500000e-02, 0., 0.,
          0., 0., 1.56250000e-02, 1.56250000e-02, 0., 1.56250000e-02, 0.,
          0., 0., 0., 0., 0., 0., 1.56250000e-02, 3.12500000e-02, 0., 0.,
          0., 3.12500000e-02, 0., 0., 0., 0., 0., 1.56250000e-02, 0., 0.,
          1.56250000e-02, 0., 0., 4.68750000e-02, 1.56250000e-02, 0., 0.,
          3.12500000e-02, 3.12500000e-02, 1.56250000e-02, 0.,
          1.56250000e-02, 1.56250000e-02, 0., 1.56250000e-02, 0., 0., 0.,
          0., 4.68750000e-02, 3.12500000e-02, 0., 0., 0., 1.56250000e-02,
          1.56250000e-02, 0., 1.56250000e-02, 0., 7.81250000e-02, 0., 0.,
          3.12500000e-02, 0., 1.56250000e-02, 1.56250000e-02,
          3.12500000e-02, 0., 0., 1.56250000e-02, 0., 3.12500000e-02,
          1.56250000e-02, 1.56250000e-02, 1.56250000e-02, 0.,
          1.56250000e-02, 1.56250000e-02, 4.68750000e-02, 0. ]
      - [ 4.16666688e-03, 8.33333377e-03, 4.16666688e-03, 4.16666688e-03,
          5.00000045e-02, 1.25000011e-02, 8.33333377e-03, 8.33333377e-03,
          4.16666688e-03, 6.25000000e-02, 4.16666688e-03, 8.33333377e-03,
          2.50000022e-02, 1.66666675e-02, 8.33333377e-03, 8.33333377e-03,
          0., 0., 1.25000011e-02, 1.25000011e-02, 4.16666688e-03,
          2.08333340e-02, 4.16666688e-03, 4.16666688e-03, 0.,
          4.16666688e-03, 1.66666675e-02, 1.25000011e-02, 1.25000011e-02,
          0., 0., 1.66666675e-02, 0., 1.25000011e-02, 1.25000011e-02,
          3.33333351e-02, 8.33333377e-03, 1.25000011e-02, 8.33333377e-03,
          4.16666688e-03, 8.33333377e-03, 0., 4.16666688e-03,
          1.25000011e-02, 1.66666675e-02, 1.25000011e-02, 4.16666688e-03,
          1.25000011e-02, 4.16666688e-03, 5.41666709e-02, 4.16666688e-03,
          8.33333377e-03, 1.66666675e-02, 1.25000011e-02, 1.25000011e-02,
          8.33333377e-03, 0., 0., 1.25000011e-02, 4.16666688e-03,
          4.16666688e-03, 1.66666675e-02, 2.50000022e-02, 4.16666688e-03,
          1.66666675e-02, 1.25000011e-02, 8.33333377e-03, 4.16666688e-03,
          0., 8.33333377e-03, 2.50000022e-02, 8.33333377e-03,
          8.33333377e-03, 0., 0., 4.16666688e-03, 8.33333377e-03, 0.,
          1.66666675e-02, 4.16666688e-03, 0., 8.33333377e-03,
          4.16666688e-03, 4.16666688e-03, 8.33333377e-03, 8.33333377e-03,
          8.33333377e-03, 0., 8.33333377e-03, 0., 1.25000011e-02,
          4.16666688e-03, 8.33333377e-03, 4.16666688e-03, 4.58333343e-02,
          4.16666688e-03, 4.16666688e-03, 2.91666687e-02, 0.,
          4.16666688e-03 ]
      - [ 3.96825420e-03, 3.96825420e-03, 1.98412705e-02, 1.19047631e-02,
          0., 3.96825420e-03, 7.93650839e-03, 2.38095261e-02,
          3.96825420e-03, 1.19047631e-02, 1.19047631e-02, 1.19047631e-02,
          1.19047631e-02, 3.17460336e-02, 1.58730168e-02, 0.,
          1.19047631e-02, 3.96825420e-03, 3.96825420e-03, 0., 0.,
          7.93650839e-03, 1.19047631e-02, 7.93650839e-03, 3.96825420e-03,
          7.93650839e-03, 3.96825420e-03, 3.96825420e-03, 7.93650839e-03,
          0., 3.96825420e-03, 7.93650839e-03, 3.96825420e-03,
          3.96825420e-03, 0., 1.58730168e-02, 3.96825420e-03,
          7.93650839e-03, 1.19047631e-02, 3.96825420e-03, 0.,
          3.96825420e-03, 3.96825420e-03, 1.19047631e-02, 2.38095261e-02,
          7.93650839e-03, 0., 1.19047631e-02, 7.93650839e-03,
          5.95238134e-02, 7.93650839e-03, 3.96825420e-03, 3.96825420e-03,
          0., 1.98412705e-02, 0., 1.19047631e-02, 0., 0., 0.,
          1.19047631e-02, 1.58730168e-02, 2.77777798e-02, 3.96825420e-03,
          0., 0., 1.19047631e-02, 1.98412705e-02, 3.96825420e-03,
          7.93650839e-03, 1.38888896e-01, 0., 3.96825420e-03,
          3.96825420e-03, 3.96825420e-03, 3.96825420e-03, 7.93650839e-03,
          3.96825420e-03, 1.19047631e-02, 0., 0., 0., 1.58730168e-02,
          3.96825420e-03, 7.93650839e-03, 3.96825420e-03, 3.96825420e-03,
          3.96825420e-03, 3.96825420e-03, 7.93650839e-03, 2.77777798e-02,
          3.96825420e-03, 3.96825420e-03, 7.93650839e-03, 5.55555597e-02,
          1.19047631e-02, 1.58730168e-02, 2.38095261e-02, 7.93650839e-03,
          1.58730168e-02 ]
      - [ 0., 1.52439019e-02, 6.09756075e-03, 1.82926822e-02,
          1.52439019e-02, 1.21951215e-02, 6.09756075e-03, 9.14634112e-03,
          0., 9.14634112e-03, 3.04878037e-03, 3.04878037e-03,
          3.35365832e-02, 1.21951215e-02, 0., 6.09756075e-03,
          6.09756075e-03, 1.82926822e-02, 0., 0., 9.14634112e-03,
          3.96341458e-02, 3.04878037e-03, 9.14634112e-03, 3.04878037e-03,
          1.21951215e-02, 9.14634112e-03, 1.21951215e-02, 1.21951215e-02,
          0., 3.04878037e-03, 9.14634112e-03, 6.09756075e-03,
          6.09756075e-03, 3.04878037e-03, 2.13414617e-02, 2.13414617e-02,
          6.40243888e-02, 6.09756075e-03, 1.82926822e-02, 6.09756075e-03,
          9.14634112e-03, 0., 1.82926822e-02, 9.14634112e-03,
          1.82926822e-02, 6.09756075e-03, 9.14634112e-03, 1.21951215e-02,
          3.04878037e-03, 3.04878037e-03, 1.52439019e-02, 1.21951215e-02,
          1.52439019e-02, 3.04878037e-03, 0., 1.21951215e-02,
          1.82926822e-02, 3.04878037e-03, 6.09756075e-03, 1.21951215e-02,
          6.09756075e-03, 6.09756075e-03, 0., 6.09756075e-03,
          6.09756075e-03, 3.04878037e-03, 6.09756075e-03, 6.09756075e-03,
          1.21951215e-02, 3.04878037e-03, 3.04878037e-03, 1.21951215e-02,
          6.09756075e-03, 0., 1.21951215e-02, 9.14634112e-03,
          1.52439019e-02, 2.13414617e-02, 1.21951215e-02, 1.52439019e-02,
          2.74390243e-02, 3.04878037e-03, 1.21951215e-02, 9.14634112e-03,
          2.43902430e-02, 2.43902430e-02, 0., 3.04878037e-03,
          9.14634112e-03, 9.14634112e-03, 1.52439019e-02, 6.09756075e-03,
          1.52439019e-02, 3.04878037e-03, 9.14634112e-03, 9.14634112e-03,
          6.09756075e-03, 9.14634112e-03, 9.14634112e-03 ]
      - [ 0., 1.31578948e-02, 1.31578948e-02, 0., 6.57894760e-02,
          2.63157897e-02, 0., 0., 0., 2.63157897e-02, 1.31578948e-02,
          2.63157897e-02, 0., 0., 0., 0., 0., 2.63157897e-02,
          3.94736826e-02, 1.31578948e-02, 1.31578948e-02, 0.,
          1.31578948e-02, 1.31578948e-02, 0., 0., 2.63157897e-02, 0.,
          1.31578948e-02, 0., 1.31578948e-02, 1.31578948e-02, 0.,
          1.31578948e-02, 0., 0., 1.31578948e-02, 1.31578948e-02, 0.,
          1.31578948e-02, 0., 0., 0., 0., 3.94736826e-02, 0., 0.,
          2.63157897e-02, 1.31578948e-02, 3.94736826e-02, 0.,
          1.31578948e-02, 1.31578948e-02, 3.94736826e-02, 1.31578948e-02,
          0., 0., 0., 1.31578948e-02, 2.63157897e-02, 0., 0., 0., 0.,
          1.31578948e-02, 1.31578948e-02, 0., 0., 2.63157897e-02, 0.,
          5.26315793e-02, 0., 0., 2.63157897e-02, 0., 0., 0., 0.,
          5.26315793e-02, 0., 1.31578948e-02, 5.26315793e-02, 0., 0., 0.,
          0., 2.63157897e-02, 0., 0., 0., 1.31578948e-02, 0.,
          1.31578948e-02, 0., 1.31578948e-02, 0., 1.31578948e-02, 0.,
          1.31578948e-02, 0. ]
      - [ 0., 0., 0., 0., 1.23456791e-02, 2.46913582e-02, 0.,
          1.23456791e-02, 0., 0., 1.23456791e-02, 0., 1.23456791e-02,
          2.46913582e-02, 0., 0., 0., 3.70370373e-02, 2.46913582e-02,
          1.23456791e-02, 0., 0., 1.23456791e-02, 0., 0., 1.23456791e-02,
          1.23456791e-02, 2.46913582e-02, 2.46913582e-02, 0.,
          1.23456791e-02, 0., 2.46913582e-02, 2.46913582e-02, 0., 0.,
          3.70370373e-02, 0., 0., 0., 0., 0., 0., 1.23456791e-02,
          2.46913582e-02, 0., 0., 1.23456791e-02, 0., 2.46913582e-02,
          4.93827164e-02, 1.23456791e-02, 1.23456791e-02, 0.,
          3.70370373e-02, 0., 0., 1.23456791e-02, 2.46913582e-02,
          1.23456791e-02, 0., 0., 1.23456791e-02, 1.23456791e-02,
          1.23456791e-02, 7.40740746e-02, 0., 2.46913582e-02, 0.,
          1.23456791e-02, 3.70370373e-02, 0., 0., 1.23456791e-02,
          1.23456791e-02, 3.70370373e-02, 0., 0., 0., 1.23456791e-02, 0.,
          0., 2.46913582e-02, 1.23456791e-02, 0., 0., 0., 0., 0.,
          1.23456791e-02, 2.46913582e-02, 0., 1.23456791e-02, 0.,
          2.46913582e-02, 0., 0., 1.23456791e-02, 2.46913582e-02, 0. ]
      - [ 0., 1.06382975e-02, 5.31914877e-03, 5.31914877e-03,
          2.12765951e-02, 1.06382975e-02, 5.31914877e-03, 5.31914877e-03,
          1.06382975e-02, 2.65957434e-02, 5.31914877e-03, 0.,
          2.65957434e-02, 5.31914877e-03, 3.72340418e-02, 0.,
          2.12765951e-02, 5.31914877e-03, 1.59574468e-02, 1.06382975e-02,
          5.31914877e-03, 1.06382975e-02, 5.31914877e-03, 0.,
          5.31914877e-03, 5.31914877e-03, 5.31914877e-03, 5.31914877e-03,
          1.06382975e-02, 0., 5.31914877e-03, 1.06382975e-02, 0.,
          5.31914877e-03, 5.31914877e-03, 3.72340418e-02, 0.,
          3.19148935e-02, 0., 1.06382975e-02, 1.06382975e-02,
          5.31914877e-03, 5.31914877e-03, 5.31914877e-03, 2.65957434e-02,
          5.31914877e-03, 0., 2.12765951e-02, 1.59574468e-02,
          2.12765951e-02, 0., 1.59574468e-02, 5.31914877e-03,
          5.31914877e-03, 1.59574468e-02, 5.31914877e-03, 1.06382975e-02,
          2.65957434e-02, 0., 0., 1.06382975e-02, 2.12765951e-02,
          5.31914877e-03, 0., 0., 5.31914877e-03, 1.59574468e-02,
          1.06382975e-02, 0., 0., 7.97872320e-02, 5.31914877e-03,
          5.31914877e-03, 0., 5.31914877e-03, 1.06382975e-02, 0.,
          5.31914877e-03, 2.65957434e-02, 2.12765951e-02, 5.31914877e-03,
          1.06382975e-02, 1.06382975e-02, 5.31914877e-03, 0.,
          5.31914877e-03, 0., 5.31914877e-03, 0., 1.59574468e-02,
          1.59574468e-02, 0., 5.31914877e-03, 5.31914877e-03,
          2.65957434e-02, 5.31914877e-03, 1.06382975e-02, 2.65957434e-02,
          5.31914877e-03, 2.12765951e-02 ]
      - [ 6.28930796e-03, 6.28930796e-03, 0., 1.25786159e-02,
          3.77358496e-02, 1.88679248e-02, 0., 6.28930796e-03, 0.,
          1.25786159e-02, 6.28930796e-03, 0., 1.88679248e-02,
          1.25786159e-02, 2.51572318e-02, 6.28930796e-03, 0., 0., 0.,
          6.28930796e-03, 6.28930796e-03, 6.28930796e-03, 0.,
          1.25786159e-02, 0., 0., 6.28930796e-03, 0., 0., 6.28930796e-03,
          0., 6.28930796e-03, 2.51572318e-02, 0., 0., 6.28930796e-03, 0.,
          3.14465389e-02, 0., 0., 6.28930796e-03, 0., 6.28930796e-03,
          1.25786159e-02, 4.40251566e-02, 6.28930796e-03, 1.25786159e-02,
          6.28930796e-03, 6.28930796e-03, 1.88679248e-02, 0.,
          1.88679248e-02, 2.51572318e-02, 1.25786159e-02, 1.88679248e-02,
          1.25786159e-02, 6.28930796e-03, 1.25786159e-02, 6.28930796e-03,
          1.25786159e-02, 1.25786159e-02, 0., 1.88679248e-02, 0.,
          6.28930796e-03, 0., 6.28930796e-03, 0., 6.28930796e-03, 0.,
          1.38364777e-01, 6.28930796e-03, 0., 0., 1.88679248e-02,
          1.25786159e-02, 0., 6.28930796e-03, 0., 6.28930796e-03,
          6.28930796e-03, 1.25786159e-02, 1.88679248e-02, 6.28930796e-03,
          6.28930796e-03, 1.88679248e-02, 2.51572318e-02, 6.28930796e-03,
          0., 6.28930796e-03, 6.28930796e-03, 0., 2.51572318e-02,
          1.88679248e-02, 2.51572318e-02, 1.25786159e-02, 1.25786159e-02,
          1.88679248e-02, 0., 6.28930796e-03 ]
      - [ 1.33333337e-02, 1.33333337e-02, 2.66666673e-02, 1.33333337e-02,
          2.66666673e-02, 0., 1.33333337e-02, 1.33333337e-02, 0.,
          2.66666673e-02, 1.33333337e-02, 0., 0., 1.33333337e-02, 0., 0.,
          0., 0., 1.33333337e-02, 0., 1.33333337e-02, 0., 0., 0., 0., 0.,
          1.33333337e-02, 0., 5.33333346e-02, 0., 2.66666673e-02, 0., 0.,
          1.33333337e-02, 0., 5.33333346e-02, 0., 0., 1.33333337e-02,
          1.33333337e-02, 0., 1.33333337e-02, 0., 3.99999991e-02,
          1.33333337e-02, 0., 0., 0., 0., 2.66666673e-02, 1.33333337e-02,
          1.33333337e-02, 3.99999991e-02, 0., 5.33333346e-02, 0.,
          1.33333337e-02, 0., 0., 1.33333337e-02, 0., 2.66666673e-02,
          2.66666673e-02, 2.66666673e-02, 1.33333337e-02, 1.33333337e-02,
          0., 2.66666673e-02, 0., 0., 3.99999991e-02, 1.33333337e-02, 0.,
          0., 0., 1.33333337e-02, 1.33333337e-02, 1.33333337e-02, 0.,
          1.33333337e-02, 0., 0., 2.66666673e-02, 1.33333337e-02,
          1.33333337e-02, 0., 0., 0., 0., 2.66666673e-02, 0.,
          1.33333337e-02, 0., 0., 1.33333337e-02, 1.33333337e-02, 0.,
          1.33333337e-02, 0., 0. ]
      - [ 0., 0., 1.20481923e-02, 0., 3.61445770e-02, 0., 0.,
          1.20481923e-02, 0., 1.20481923e-02, 0., 1.20481923e-02, 0., 0.,
          0., 0., 1.20481923e-02, 1.20481923e-02, 3.61445770e-02,
          1.20481923e-02, 0., 2.40963846e-02, 0., 0., 0., 0., 0.,
          1.20481923e-02, 2.40963846e-02, 0., 0., 2.40963846e-02, 0.,
          1.20481923e-02, 0., 3.61445770e-02, 0., 0., 1.20481923e-02,
          1.20481923e-02, 0., 0., 1.20481923e-02, 2.40963846e-02,
          1.20481923e-02, 0., 1.20481923e-02, 0., 0., 2.40963846e-02,
          1.20481923e-02, 2.40963846e-02, 3.61445770e-02, 0.,
          4.81927693e-02, 0., 3.61445770e-02, 1.20481923e-02,
          1.20481923e-02, 3.61445770e-02, 0., 0., 1.20481923e-02,
          1.20481923e-02, 1.20481923e-02, 6.02409616e-02, 0., 0., 0.,
          2.40963846e-02, 0., 0., 0., 0., 0., 0., 1.20481923e-02, 0.,
          1.20481923e-02, 3.61445770e-02, 0., 0., 1.20481923e-02,
          3.61445770e-02, 0., 0., 0., 0., 1.20481923e-02, 1.20481923e-02,
          0., 0., 1.20481923e-02, 1.20481923e-02, 3.61445770e-02,
          1.20481923e-02, 1.20481923e-02, 3.61445770e-02, 1.20481923e-02,
          0. ]
      - [ 6.21118024e-03, 6.21118024e-03, 6.21118024e-03, 0.,
          1.86335407e-02, 6.21118024e-03, 0., 1.24223605e-02,
          1.24223605e-02, 3.72670814e-02, 2.48447210e-02, 0., 0.,
          1.86335407e-02, 1.86335407e-02, 6.21118024e-03, 2.48447210e-02,
          0., 1.24223605e-02, 3.10559012e-02, 1.24223605e-02,
          1.24223605e-02, 0., 1.24223605e-02, 0., 0., 2.48447210e-02,
          6.21118024e-03, 1.24223605e-02, 1.24223605e-02, 1.24223605e-02,
          1.24223605e-02, 1.24223605e-02, 6.21118024e-03, 0.,
          6.21118024e-03, 0., 1.86335407e-02, 6.21118024e-03,
          1.24223605e-02, 6.21118024e-03, 1.24223605e-02, 6.21118024e-03,
          1.86335407e-02, 3.10559012e-02, 2.48447210e-02, 1.24223605e-02,
          6.21118024e-03, 1.24223605e-02, 3.10559012e-02, 0., 0.,
          2.48447210e-02, 1.86335407e-02, 1.86335407e-02, 6.21118024e-03,
          6.21118024e-03, 1.24223605e-02, 0., 0., 0., 0., 0., 0.,
          1.86335407e-02, 0., 0., 0., 6.21118024e-03, 0., 6.21118024e-02,
          0., 1.86335407e-02, 1.24223605e-02, 1.86335407e-02,
          1.24223605e-02, 0., 1.24223605e-02, 1.86335407e-02, 0.,
          6.21118024e-03, 3.10559012e-02, 1.24223605e-02, 0., 0., 0.,
          1.24223605e-02, 0., 6.21118024e-03, 6.21118024e-03,
          6.21118024e-03, 0., 6.21118024e-03, 6.21118024e-03,
          6.21118024e-03, 1.24223605e-02, 1.86335407e-02, 1.24223605e-02,
          6.21118024e-03, 0. ]
      - [ 0., 0., 0., 2.10526325e-02, 3.15789506e-02, 5.26315793e-02,
          1.05263162e-02, 0., 0., 0., 2.10526325e-02, 1.05263162e-02,
          1.05263162e-02, 1.05263162e-02, 0., 0., 0., 1.05263162e-02,
          1.05263162e-02, 0., 1.05263162e-02, 0., 0., 0., 1.05263162e-02,
          3.15789506e-02, 0., 0., 4.21052650e-02, 0., 0., 0.,
          1.05263162e-02, 3.15789506e-02, 0., 1.05263162e-02,
          1.05263162e-02, 2.10526325e-02, 1.05263162e-02, 4.21052650e-02,
          0., 1.05263162e-02, 0., 3.15789506e-02, 3.15789506e-02,
          1.05263162e-02, 0., 0., 0., 3.15789506e-02, 1.05263162e-02, 0.,
          0., 1.05263162e-02, 1.05263162e-02, 1.05263162e-02, 0.,
          2.10526325e-02, 2.10526325e-02, 1.05263162e-02, 0.,
          1.05263162e-02, 1.05263162e-02, 0., 0., 4.21052650e-02,
          3.15789506e-02, 1.05263162e-02, 1.05263162e-02, 1.05263162e-02,
          1.05263162e-02, 2.10526325e-02, 0., 0., 1.05263162e-02,
          2.10526325e-02, 1.05263162e-02, 0., 0., 0., 0., 1.05263162e-02,
          2.10526325e-02, 0., 2.10526325e-02, 0., 2.10526325e-02, 0.,
          1.05263162e-02, 1.05263162e-02, 0., 1.05263162e-02, 0.,
          2.10526325e-02, 1.05263162e-02, 1.05263162e-02, 1.05263162e-02,
          0., 1.05263162e-02, 0. ]
      - [ 5.42005431e-03, 8.13008100e-03, 8.13008100e-03, 5.42005431e-03,
          2.16802172e-02, 1.35501362e-02, 1.35501362e-02, 5.42005431e-03,
          2.16802172e-02, 1.62601620e-02, 1.08401086e-02, 1.08401086e-02,
          3.25203240e-02, 5.42005431e-03, 1.08401086e-02, 1.08401086e-02,
          1.08401086e-02, 1.35501362e-02, 8.13008100e-03, 1.08401086e-02,
          2.71002715e-03, 3.25203240e-02, 1.08401086e-02, 1.89701896e-02,
          8.13008100e-03, 5.42005431e-03, 8.13008100e-03, 2.71002715e-03,
          1.08401086e-02, 1.08401086e-02, 1.08401086e-02, 1.62601620e-02,
          5.42005431e-03, 2.71002715e-03, 5.42005431e-03, 2.98102982e-02,
          2.71002715e-03, 1.62601620e-02, 8.13008100e-03, 5.42005431e-03,
          1.62601620e-02, 8.13008100e-03, 0., 5.42005431e-03,
          1.08401086e-02, 8.13008100e-03, 1.08401086e-02, 5.42005431e-03,
          5.42005431e-03, 2.71002715e-03, 5.42005431e-03, 8.13008100e-03,
          1.62601620e-02, 1.62601620e-02, 1.08401086e-02, 8.13008100e-03,
          2.71002715e-03, 5.42005431e-03, 1.35501362e-02, 5.42005431e-03,
          2.71002715e-03, 5.42005431e-03, 8.13008100e-03, 5.42005431e-03,
          1.35501362e-02, 0., 1.62601620e-02, 8.13008100e-03,
          2.71002715e-03, 5.42005431e-03, 1.89701896e-02, 8.13008100e-03,
          8.13008100e-03, 5.42005431e-03, 1.35501362e-02, 8.13008100e-03,
          8.13008100e-03, 1.08401086e-02, 1.62601620e-02, 0.,
          1.08401086e-02, 2.43902449e-02, 1.62601620e-02, 1.35501362e-02,
          1.89701896e-02, 0., 5.42005431e-03, 8.13008100e-03,
          2.71002715e-03, 1.08401086e-02, 1.89701896e-02, 5.42005431e-03,
          5.42005431e-03, 5.42005431e-03, 1.35501362e-02, 1.08401086e-02,
          1.62601620e-02, 1.08401086e-02, 8.13008100e-03, 5.42005431e-03 ]
      - [ 0., 2.13903747e-02, 1.06951874e-02, 0., 4.81283441e-02,
          1.60427801e-02, 5.34759369e-03, 5.34759369e-03, 5.34759369e-03,
          4.81283441e-02, 0., 1.60427801e-02, 4.27807495e-02, 0.,
          1.60427801e-02, 1.06951874e-02, 1.60427801e-02, 0.,
          5.34759369e-03, 0., 1.06951874e-02, 5.34759369e-03, 0., 0.,
          5.34759369e-03, 1.06951874e-02, 0., 5.34759369e-03,
          1.06951874e-02, 0., 5.34759369e-03, 5.34759387e-02, 0.,
          1.60427801e-02, 0., 2.67379694e-02, 5.34759369e-03,
          1.06951874e-02, 5.34759369e-03, 0., 5.34759369e-03, 0.,
          1.06951874e-02, 5.34759369e-03, 5.34759369e-03, 1.06951874e-02,
          1.06951874e-02, 2.13903747e-02, 0., 6.95187151e-02,
          5.34759369e-03, 0., 1.06951874e-02, 5.34759369e-03,
          1.60427801e-02, 1.60427801e-02, 0., 1.60427801e-02,
          1.06951874e-02, 2.13903747e-02, 0., 0., 0., 0., 0.,
          1.06951874e-02, 1.06951874e-02, 1.06951874e-02, 0.,
          1.06951874e-02, 1.01604283e-01, 0., 0., 5.34759369e-03,
          5.34759369e-03, 2.13903747e-02, 5.34759369e-03, 0.,
          1.60427801e-02, 5.34759369e-03, 5.34759369e-03, 5.34759369e-03,
          2.13903747e-02, 5.34759369e-03, 1.06951874e-02, 0.,
          2.13903747e-02, 0., 5.34759369e-03, 5.34759369e-03,
          1.06951874e-02, 5.34759369e-03, 0., 0., 5.34759369e-03, 0.,
          5.34759369e-03, 5.34759369e-03, 0., 5.34759369e-03 ]
      - [ 0., 1.51515147e-02, 3.03030293e-03, 9.09090880e-03,
          2.42424235e-02, 0., 6.06060587e-03, 1.51515147e-02,
          1.51515147e-02, 1.21212117e-02, 1.51515147e-02, 6.06060587e-03,
          9.09090880e-03, 3.03030293e-03, 1.51515147e-02, 1.81818176e-02,
          6.06060587e-03, 1.51515147e-02, 1.21212117e-02, 1.81818176e-02,
          1.51515147e-02, 1.51515147e-02, 3.03030293e-03, 9.09090880e-03,
          1.21212117e-02, 3.03030293e-03, 1.21212117e-02, 6.06060587e-03,
          9.09090880e-03, 1.51515147e-02, 3.03030293e-03, 1.21212117e-02,
          1.21212117e-02, 9.09090880e-03, 6.06060587e-03, 9.09090880e-03,
          6.06060587e-03, 6.06060587e-03, 6.06060587e-03, 6.06060587e-03,
          1.51515147e-02, 1.21212117e-02, 9.09090880e-03, 0., 0.,
          3.03030293e-03, 9.09090880e-03, 6.06060587e-03, 6.06060587e-03,
          1.21212117e-02, 0., 9.09090880e-03, 2.12121196e-02,
          1.21212117e-02, 1.51515147e-02, 1.51515147e-02, 1.81818176e-02,
          0., 9.09090880e-03, 9.09090880e-03, 1.21212117e-02,
          1.21212117e-02, 6.06060587e-03, 6.06060587e-03, 6.06060587e-03,
          1.21212117e-02, 1.21212117e-02, 1.21212117e-02, 0.,
          9.09090880e-03, 3.63636352e-02, 1.21212117e-02, 3.03030293e-03,
          3.03030293e-03, 6.06060587e-03, 6.06060587e-03, 0.,
          9.09090880e-03, 6.06060587e-03, 9.09090880e-03, 9.09090880e-03,
          9.09090880e-03, 1.51515147e-02, 3.03030293e-03, 1.21212117e-02,
          6.06060587e-03, 1.21212117e-02, 9.09090880e-03, 1.51515147e-02,
          3.03030293e-03, 3.03030293e-03, 0., 9.09090880e-03,
          9.09090880e-03, 3.33333313e-02, 6.06060587e-03, 6.06060587e-03,
          6.06060587e-02, 2.12121196e-02, 3.03030293e-03 ]
      - [ 0., 1.23456791e-02, 1.23456791e-02, 1.23456791e-02,
          2.46913582e-02, 3.70370373e-02, 0., 0., 0., 1.23456791e-02,
          3.70370373e-02, 0., 0., 0., 0., 0., 0., 0., 3.70370373e-02, 0.,
          1.23456791e-02, 0., 0., 2.46913582e-02, 0., 0., 1.23456791e-02,
          0., 2.46913582e-02, 0., 3.70370373e-02, 0., 1.23456791e-02, 0.,
          1.23456791e-02, 0., 2.46913582e-02, 1.23456791e-02,
          1.23456791e-02, 2.46913582e-02, 1.23456791e-02, 1.23456791e-02,
          0., 1.23456791e-02, 1.23456791e-02, 0., 1.23456791e-02, 0., 0.,
          0., 1.23456791e-02, 2.46913582e-02, 1.23456791e-02,
          1.23456791e-02, 0., 0., 2.46913582e-02, 0., 1.23456791e-02, 0.,
          1.23456791e-02, 1.23456791e-02, 0., 1.23456791e-02,
          1.23456791e-02, 3.70370373e-02, 0., 2.46913582e-02, 0.,
          1.23456791e-02, 3.70370373e-02, 0., 0., 1.23456791e-02,
          4.93827164e-02, 1.23456791e-02, 0., 0., 0., 3.70370373e-02,
          1.23456791e-02, 2.46913582e-02, 2.46913582e-02, 2.46913582e-02,
          0., 0., 4.93827164e-02, 0., 0., 1.23456791e-02, 0., 0., 0., 0.,
          0., 2.46913582e-02, 0., 0., 0., 0. ]
      - [ 7.09219836e-03, 1.41843967e-02, 3.54609918e-03, 3.54609918e-03,
          2.83687934e-02, 1.06382975e-02, 3.54609918e-03, 1.06382975e-02,
          0., 3.19148935e-02, 3.54609918e-03, 3.54609918e-03,
          4.60992903e-02, 1.41843967e-02, 2.83687934e-02, 3.54609918e-03,
          3.54609918e-03, 1.41843967e-02, 1.06382975e-02, 7.09219836e-03,
          7.09219836e-03, 2.12765951e-02, 1.06382975e-02, 3.54609918e-03,
          7.09219836e-03, 1.06382975e-02, 7.09219836e-03, 3.54609918e-03,
          3.54609918e-03, 1.06382975e-02, 3.54609918e-03, 3.54609918e-03,
          1.06382975e-02, 1.06382975e-02, 0., 2.12765951e-02,
          7.09219836e-03, 4.60992903e-02, 7.09219836e-03, 1.77304968e-02,
          3.54609918e-03, 7.09219836e-03, 0., 0., 3.19148935e-02,
          1.06382975e-02, 3.54609918e-03, 7.09219836e-03, 3.54609918e-03,
          7.09219836e-03, 1.06382975e-02, 1.06382975e-02, 2.48226933e-02,
          3.54609918e-03, 1.77304968e-02, 1.77304968e-02, 7.09219836e-03,
          3.54609918e-03, 7.09219836e-03, 3.54609918e-03, 3.54609918e-03,
          7.09219836e-03, 7.09219836e-03, 3.54609918e-03, 1.41843967e-02,
          3.54609918e-03, 0., 3.54609918e-03, 1.41843967e-02,
          7.09219836e-03, 3.54609936e-02, 3.54609918e-03, 2.48226933e-02,
          1.41843967e-02, 7.09219836e-03, 7.09219836e-03, 3.54609918e-03,
          0., 3.19148935e-02, 7.09219836e-03, 1.41843967e-02,
          1.06382975e-02, 1.06382975e-02, 0., 3.54609918e-03,
          1.77304968e-02, 0., 0., 1.41843967e-02, 3.54609918e-03,
          1.77304968e-02, 7.09219836e-03, 0., 7.09219836e-03,
          1.06382975e-02, 3.54609918e-03, 3.54609918e-03, 2.12765951e-02,
          1.06382975e-02, 3.54609918e-03 ]
      - [ 7.51879718e-03, 1.20300753e-02, 1.20300753e-02, 1.20300753e-02,
          2.70676687e-02, 1.20300753e-02, 4.51127812e-03, 1.05263162e-02,
          4.51127812e-03, 1.35338344e-02, 4.51127812e-03, 4.51127812e-03,
          2.10526325e-02, 1.95488725e-02, 1.35338344e-02, 4.51127812e-03,
          6.01503765e-03, 1.05263162e-02, 1.05263162e-02, 7.51879718e-03,
          9.02255625e-03, 1.05263162e-02, 6.01503765e-03, 1.05263162e-02,
          1.35338344e-02, 1.05263162e-02, 1.35338344e-02, 1.05263162e-02,
          3.00751883e-03, 1.50375941e-03, 1.35338344e-02, 2.25563906e-02,
          6.01503765e-03, 7.51879718e-03, 3.00751883e-03, 1.05263162e-02,
          1.95488725e-02, 6.01503765e-03, 3.00751883e-03, 6.01503765e-03,
          6.01503765e-03, 9.02255625e-03, 7.51879718e-03, 7.51879718e-03,
          1.50375944e-02, 7.51879718e-03, 4.51127812e-03, 3.00751883e-03,
          0., 3.30827087e-02, 9.02255625e-03, 1.05263162e-02,
          1.20300753e-02, 7.51879718e-03, 2.25563906e-02, 6.01503765e-03,
          1.50375944e-02, 1.05263162e-02, 1.20300753e-02, 1.20300753e-02,
          4.51127812e-03, 6.01503765e-03, 3.00751883e-03, 1.20300753e-02,
          7.51879718e-03, 1.50375944e-02, 7.51879718e-03, 7.51879718e-03,
          0., 1.20300753e-02, 4.51127812e-02, 4.51127812e-03,
          6.01503765e-03, 7.51879718e-03, 1.05263162e-02, 1.35338344e-02,
          9.02255625e-03, 6.01503765e-03, 1.20300753e-02, 1.50375944e-02,
          3.00751883e-03, 1.35338344e-02, 7.51879718e-03, 9.02255625e-03,
          3.00751883e-03, 7.51879718e-03, 2.40601506e-02, 4.51127812e-03,
          9.02255625e-03, 4.51127812e-03, 4.51127812e-03, 3.00751883e-03,
          4.51127812e-03, 1.20300753e-02, 1.20300753e-02, 6.01503765e-03,
          1.35338344e-02, 1.95488725e-02, 4.51127812e-03, 1.50375944e-02 ]
      - [ 2.96735903e-03, 0., 2.96735903e-03, 1.78041533e-02,
          2.67062318e-02, 1.78041533e-02, 5.93471806e-03, 1.48367956e-02,
          1.18694361e-02, 1.18694361e-02, 1.18694361e-02, 2.37388723e-02,
          2.07715128e-02, 8.90207663e-03, 2.96735903e-03, 2.96735903e-03,
          5.93471806e-03, 5.93471806e-03, 5.93471806e-03, 1.18694361e-02,
          1.78041533e-02, 2.96735903e-03, 5.93471806e-03, 1.18694361e-02,
          1.48367956e-02, 2.96735903e-03, 2.96735903e-03, 8.90207663e-03,
          5.93471806e-03, 1.48367956e-02, 2.96735903e-03, 1.18694361e-02,
          1.48367956e-02, 1.18694361e-02, 8.90207663e-03, 2.96735903e-03,
          2.96735903e-03, 2.67062318e-02, 1.18694361e-02, 1.18694361e-02,
          5.93471806e-03, 1.48367956e-02, 1.78041533e-02, 8.90207663e-03,
          2.96735913e-02, 5.93471806e-03, 8.90207663e-03, 1.78041533e-02,
          1.18694361e-02, 2.96735903e-03, 0., 1.78041533e-02,
          5.93471806e-03, 1.48367956e-02, 1.78041533e-02, 2.96735903e-03,
          5.93471806e-03, 5.93471806e-03, 1.78041533e-02, 2.07715128e-02,
          8.90207663e-03, 5.93471806e-03, 5.93471806e-03, 8.90207663e-03,
          2.96735903e-03, 2.07715128e-02, 5.93471806e-03, 0., 0.,
          1.18694361e-02, 2.96735903e-03, 1.78041533e-02, 1.78041533e-02,
          5.93471806e-03, 1.18694361e-02, 1.48367956e-02, 5.93471806e-03,
          8.90207663e-03, 2.37388723e-02, 1.18694361e-02, 2.96735903e-03,
          4.45103869e-02, 8.90207663e-03, 2.96735903e-03, 0.,
          1.48367956e-02, 5.93471806e-03, 8.90207663e-03, 0.,
          5.93471806e-03, 0., 2.96735903e-03, 5.93471806e-03,
          8.90207663e-03, 8.90207663e-03, 5.93471806e-03, 8.90207663e-03,
          0., 8.90207663e-03, 1.78041533e-02 ]
      - [ 0., 9.74025950e-03, 1.29870130e-02, 9.74025950e-03,
          1.94805190e-02, 1.62337665e-02, 1.29870130e-02, 3.24675324e-03,
          6.49350649e-03, 0., 1.94805190e-02, 1.94805190e-02, 0.,
          3.24675324e-03, 6.49350649e-03, 6.49350649e-03, 3.24675324e-03,
          3.24675324e-03, 1.29870130e-02, 6.49350649e-03, 1.62337665e-02,
          0., 1.29870130e-02, 3.24675324e-03, 9.74025950e-03,
          3.24675324e-03, 2.59740259e-02, 0., 3.24675324e-03,
          9.74025950e-03, 6.49350649e-03, 0., 6.49350649e-03,
          6.49350649e-03, 0., 3.24675324e-03, 3.24675329e-02,
          2.92207785e-02, 1.94805190e-02, 9.74025950e-03, 3.24675324e-03,
          1.94805190e-02, 2.92207785e-02, 0., 1.29870130e-02,
          9.74025950e-03, 9.74025950e-03, 9.74025950e-03, 3.24675324e-03,
          3.24675324e-03, 9.74025950e-03, 3.24675324e-03, 3.24675324e-03,
          1.29870130e-02, 3.24675324e-03, 3.24675324e-03, 3.24675324e-03,
          9.74025950e-03, 2.92207785e-02, 1.29870130e-02, 9.74025950e-03,
          9.74025950e-03, 6.49350649e-03, 9.74025950e-03, 3.24675324e-03,
          1.62337665e-02, 0., 0., 0., 6.49350649e-03, 6.49350649e-03,
          1.94805190e-02, 4.87012975e-02, 9.74025950e-03, 1.29870130e-02,
          1.29870130e-02, 9.74025950e-03, 1.94805190e-02, 3.24675329e-02,
          9.74025950e-03, 0., 4.87012975e-02, 1.62337665e-02,
          1.29870130e-02, 0., 1.62337665e-02, 0., 0., 6.49350649e-03, 0.,
          1.29870130e-02, 3.24675324e-03, 9.74025950e-03, 2.27272734e-02,
          9.74025950e-03, 6.49350649e-03, 0., 0., 6.49350649e-03,
          2.27272734e-02 ]
      - [ 2.95358635e-02, 2.10970454e-02, 1.68776363e-02, 0.,
          1.26582272e-02, 2.10970454e-02, 2.53164545e-02, 8.43881816e-03,
          8.43881816e-03, 8.43881816e-03, 1.26582272e-02, 1.26582272e-02,
          4.21940908e-03, 4.21940908e-03, 0., 8.43881816e-03,
          4.21940908e-03, 0., 2.53164545e-02, 4.21940908e-03,
          2.10970454e-02, 0., 2.10970454e-02, 8.43881816e-03, 0.,
          8.43881816e-03, 4.21940908e-03, 4.21940908e-03, 0.,
          1.68776363e-02, 8.43881816e-03, 1.26582272e-02, 4.21940908e-03,
          4.21940908e-03, 8.43881816e-03, 0., 8.43881816e-03,
          4.21940908e-03, 4.21940908e-03, 4.21940908e-03, 1.26582272e-02,
          0., 1.26582272e-02, 8.43881816e-03, 1.26582272e-02,
          8.43881816e-03, 1.26582272e-02, 4.21940908e-03, 8.43881816e-03,
          4.21940908e-03, 4.21940908e-03, 4.21940908e-03, 2.53164545e-02,
          2.10970454e-02, 2.53164545e-02, 8.43881816e-03, 8.43881816e-03,
          1.68776363e-02, 8.43881816e-03, 1.68776363e-02, 2.95358635e-02,
          0., 8.43881816e-03, 8.43881816e-03, 1.26582272e-02,
          8.43881816e-03, 1.26582272e-02, 8.43881816e-03, 4.21940908e-03,
          1.68776363e-02, 4.21940908e-03, 4.21940908e-03, 8.43881816e-03,
          1.26582272e-02, 2.10970454e-02, 1.26582272e-02, 0.,
          2.10970454e-02, 4.21940908e-03, 4.21940908e-03, 1.68776363e-02,
          1.26582272e-02, 4.21940908e-03, 8.43881816e-03, 4.21940908e-03,
          1.26582272e-02, 3.37552726e-02, 4.21940908e-03, 8.43881816e-03,
          8.43881816e-03, 4.21940908e-03, 1.68776363e-02, 8.43881816e-03,
          4.21940908e-03, 4.21940908e-03, 8.43881816e-03, 2.53164545e-02,
          0., 1.26582272e-02, 4.21940908e-03 ]
      - [ 2.42085662e-02, 1.11731850e-02, 5.58659248e-03, 1.30353821e-02,
          1.86219737e-02, 3.72439483e-03, 1.11731850e-02, 9.31098685e-03,
          2.04841718e-02, 2.04841718e-02, 7.44878966e-03, 1.11731850e-02,
          5.58659248e-03, 7.44878966e-03, 3.72439483e-03, 5.58659248e-03,
          1.86219742e-03, 1.86219742e-03, 7.44878966e-03, 5.58659248e-03,
          1.30353821e-02, 1.30353821e-02, 1.86219742e-03, 1.48975793e-02,
          3.72439483e-03, 1.86219742e-03, 3.72439483e-03, 3.72439483e-03,
          7.44878966e-03, 1.48975793e-02, 9.31098685e-03, 1.30353821e-02,
          1.48975793e-02, 9.31098685e-03, 2.60707643e-02, 7.44878966e-03,
          9.31098685e-03, 5.58659248e-03, 1.86219737e-02, 1.48975793e-02,
          1.86219742e-03, 1.86219742e-03, 1.11731850e-02, 9.31098685e-03,
          0., 1.30353821e-02, 3.72439483e-03, 7.44878966e-03,
          7.44878966e-03, 1.11731850e-02, 5.58659248e-03, 2.04841718e-02,
          1.86219737e-02, 5.58659248e-03, 2.42085662e-02, 1.11731850e-02,
          5.58659248e-03, 1.30353821e-02, 7.44878966e-03, 1.30353821e-02,
          1.30353821e-02, 1.86219742e-03, 0., 0., 9.31098685e-03,
          1.11731850e-02, 1.48975793e-02, 7.44878966e-03, 1.11731850e-02,
          1.11731850e-02, 5.58659248e-03, 1.30353821e-02, 5.58659248e-03,
          1.86219737e-02, 2.42085662e-02, 5.58659248e-03, 7.44878966e-03,
          1.30353821e-02, 2.04841718e-02, 1.11731850e-02, 3.72439483e-03,
          7.44878966e-03, 2.97951587e-02, 1.48975793e-02, 1.30353821e-02,
          9.31098685e-03, 2.79329605e-02, 3.72439483e-03, 1.86219742e-03,
          7.44878966e-03, 3.72439483e-03, 1.30353821e-02, 7.44878966e-03,
          5.58659248e-03, 1.86219742e-03, 1.30353821e-02, 1.30353821e-02,
          1.86219742e-03, 1.48975793e-02, 7.44878966e-03 ]
      - [ 1.67224072e-02, 3.34448158e-03, 6.68896316e-03, 1.00334445e-02,
          1.33779263e-02, 3.34448158e-03, 2.34113708e-02, 1.00334445e-02,
          6.68896316e-03, 3.34448144e-02, 6.68896316e-03, 3.34448158e-03,
          1.00334445e-02, 1.33779263e-02, 0., 1.33779263e-02,
          1.00334445e-02, 1.00334445e-02, 3.34448158e-03, 2.00668890e-02,
          0., 1.33779263e-02, 6.68896316e-03, 2.34113708e-02,
          1.00334445e-02, 6.68896316e-03, 6.68896316e-03, 2.00668890e-02,
          1.00334445e-02, 3.34448158e-03, 1.00334445e-02, 6.68896316e-03,
          6.68896316e-03, 1.00334445e-02, 2.00668890e-02, 3.34448158e-03,
          6.68896316e-03, 1.00334445e-02, 6.68896316e-03, 1.00334445e-02,
          1.00334445e-02, 6.68896316e-03, 3.34448158e-03, 1.33779263e-02,
          1.00334445e-02, 6.68896316e-03, 1.33779263e-02, 2.67558526e-02,
          3.34448158e-03, 1.33779263e-02, 0., 3.34448158e-03,
          3.34448158e-03, 6.68896316e-03, 1.00334445e-02, 6.68896316e-03,
          6.68896316e-03, 6.68896316e-03, 1.00334445e-02, 1.00334445e-02,
          1.67224072e-02, 6.68896316e-03, 3.34448158e-03, 1.33779263e-02,
          6.68896316e-03, 0., 1.00334445e-02, 3.34448158e-03,
          2.00668890e-02, 6.68896316e-03, 6.68896316e-03, 1.33779263e-02,
          3.34448158e-03, 1.33779263e-02, 2.00668890e-02, 6.68896316e-03,
          1.00334445e-02, 1.33779263e-02, 2.34113708e-02, 6.68896316e-03,
          1.00334445e-02, 6.68896316e-03, 1.33779263e-02, 6.68896316e-03,
          0., 1.67224072e-02, 2.67558526e-02, 1.67224072e-02,
          6.68896316e-03, 2.00668890e-02, 3.34448158e-03, 1.33779263e-02,
          2.00668890e-02, 6.68896316e-03, 3.34448158e-03, 6.68896316e-03,
          1.67224072e-02, 0., 3.34448158e-03, 2.00668890e-02 ]
      - [ 7.66283507e-03, 7.66283507e-03, 1.14942528e-02, 3.83141753e-03,
          5.36398441e-02, 1.14942528e-02, 3.83141753e-03, 7.66283507e-03,
          1.14942528e-02, 4.21455912e-02, 0., 2.68199220e-02,
          7.66283507e-03, 1.14942528e-02, 1.91570874e-02, 7.66283507e-03,
          0., 1.53256701e-02, 7.66283507e-03, 7.66283507e-03,
          3.83141753e-03, 1.53256701e-02, 1.91570874e-02, 1.53256701e-02,
          1.91570874e-02, 7.66283507e-03, 1.53256701e-02, 3.83141753e-03,
          3.83141753e-03, 3.83141753e-03, 1.14942528e-02, 0.,
          1.53256701e-02, 0., 1.53256701e-02, 3.06513403e-02,
          7.66283507e-03, 1.14942528e-02, 7.66283507e-03, 3.83141753e-03,
          3.83141753e-03, 3.83141753e-03, 3.44827585e-02, 3.83141753e-03,
          1.14942528e-02, 3.83141753e-03, 7.66283507e-03, 7.66283507e-03,
          3.83141753e-03, 1.91570874e-02, 1.91570874e-02, 3.83141753e-03,
          1.14942528e-02, 1.14942528e-02, 0., 3.83141753e-03,
          1.14942528e-02, 3.83141753e-03, 7.66283507e-03, 3.83141753e-03,
          3.83141753e-03, 7.66283507e-03, 3.83141753e-03, 1.53256701e-02,
          3.83141753e-03, 7.66283507e-03, 1.53256701e-02, 0.,
          3.83141753e-03, 1.53256701e-02, 4.21455912e-02, 7.66283507e-03,
          0., 7.66283507e-03, 0., 3.83141753e-03, 1.14942528e-02,
          7.66283507e-03, 2.29885057e-02, 1.14942528e-02, 0.,
          1.91570874e-02, 3.83141753e-03, 3.83141753e-03, 3.83141753e-03,
          7.66283507e-03, 0., 1.53256701e-02, 7.66283507e-03,
          3.83141753e-03, 3.83141753e-03, 3.83141753e-03, 3.83141753e-03,
          3.83141753e-03, 4.21455912e-02, 1.53256701e-02, 3.83141753e-03,
          7.66283507e-03, 3.83141753e-03, 3.83141753e-03 ]
      - [ 1.06382975e-02, 7.97872338e-03, 5.31914877e-03, 1.06382975e-02,
          2.65957438e-03, 1.06382975e-02, 2.12765951e-02, 5.31914877e-03,
          1.06382975e-02, 2.65957434e-02, 5.31914877e-03, 1.86170209e-02,
          1.32978717e-02, 1.59574468e-02, 5.31914877e-03, 2.65957438e-03,
          5.31914877e-03, 7.97872338e-03, 2.65957438e-03, 7.97872338e-03,
          1.59574468e-02, 0., 7.97872338e-03, 1.32978717e-02,
          5.31914877e-03, 1.86170209e-02, 5.31914877e-03, 5.31914877e-03,
          5.31914877e-03, 7.97872338e-03, 5.31914877e-03, 1.06382975e-02,
          2.65957438e-03, 1.06382975e-02, 5.31914877e-03, 1.32978717e-02,
          1.32978717e-02, 0., 2.65957438e-03, 1.06382975e-02, 0.,
          7.97872338e-03, 1.32978717e-02, 1.06382975e-02, 1.06382975e-02,
          5.31914877e-03, 1.59574468e-02, 7.97872338e-03, 1.86170209e-02,
          1.59574468e-02, 1.06382975e-02, 1.59574468e-02, 1.32978717e-02,
          1.59574468e-02, 1.06382975e-02, 0., 2.39361692e-02,
          2.65957438e-03, 2.65957438e-03, 5.31914877e-03, 1.06382975e-02,
          1.32978717e-02, 2.65957434e-02, 1.86170209e-02, 2.12765951e-02,
          7.97872338e-03, 1.06382975e-02, 1.32978717e-02, 5.31914877e-03,
          1.06382975e-02, 3.98936160e-02, 1.32978717e-02, 1.86170209e-02,
          1.86170209e-02, 5.31914877e-03, 0., 1.59574468e-02,
          5.31914877e-03, 5.31914877e-03, 7.97872338e-03, 7.97872338e-03,
          2.65957438e-03, 7.97872338e-03, 2.65957438e-03, 2.65957438e-03,
          5.31914877e-03, 5.31914877e-03, 7.97872338e-03, 2.12765951e-02,
          0., 2.65957438e-03, 7.97872338e-03, 2.65957438e-03,
          2.65957438e-03, 1.06382975e-02, 1.32978717e-02, 2.39361692e-02,
          7.97872338e-03, 2.12765951e-02, 1.06382975e-02 ]
      - [ 1.21457493e-02, 0., 4.04858310e-03, 0., 1.21457493e-02,
          1.21457493e-02, 1.21457493e-02, 2.02429146e-02, 8.09716620e-03,
          3.64372469e-02, 8.09716620e-03, 4.04858310e-03, 2.42914986e-02,
          8.09716620e-03, 0., 8.09716620e-03, 4.04858310e-03,
          2.02429146e-02, 2.02429146e-02, 1.21457493e-02, 1.21457493e-02,
          8.09716620e-03, 2.02429146e-02, 8.09716620e-03, 1.61943324e-02,
          8.09716620e-03, 4.04858310e-03, 0., 0., 8.09716620e-03,
          4.04858310e-03, 4.04858310e-03, 1.21457493e-02, 8.09716620e-03,
          2.42914986e-02, 8.09716620e-03, 0., 4.04858310e-03, 0.,
          2.02429146e-02, 0., 4.04858310e-03, 4.04858310e-03,
          1.21457493e-02, 0., 0., 4.04858310e-03, 2.83400826e-02,
          4.04858310e-03, 8.09716620e-03, 8.09716620e-03, 4.04858310e-03,
          4.04858291e-02, 1.21457493e-02, 1.21457493e-02, 8.09716620e-03,
          4.04858310e-03, 1.21457493e-02, 4.04858310e-03, 8.09716620e-03,
          8.09716620e-03, 8.09716620e-03, 1.21457493e-02, 1.21457493e-02,
          3.23886648e-02, 1.21457493e-02, 1.21457493e-02, 4.04858310e-03,
          4.04858310e-03, 2.83400826e-02, 8.09716620e-03, 0.,
          1.21457493e-02, 1.21457493e-02, 1.61943324e-02, 1.61943324e-02,
          4.04858310e-03, 8.09716620e-03, 0., 2.02429146e-02,
          4.04858310e-03, 0., 4.04858310e-03, 4.04858310e-03,
          1.61943324e-02, 8.09716620e-03, 4.04858310e-03, 1.21457493e-02,
          4.04858310e-03, 4.45344150e-02, 4.04858310e-03, 2.42914986e-02,
          4.04858310e-03, 8.09716620e-03, 2.02429146e-02, 1.61943324e-02,
          4.04858310e-03, 4.04858310e-03, 8.09716620e-03, 0. ]
      - [ 2.90697673e-03, 2.90697673e-03, 1.45348832e-02, 2.61627901e-02,
          0., 2.90697673e-03, 8.72093067e-03, 8.72093067e-03,
          8.72093067e-03, 2.90697673e-03, 5.81395347e-03, 1.16279069e-02,
          2.90697673e-03, 1.16279069e-02, 2.90697673e-03, 2.90697673e-03,
          5.81395347e-03, 2.90697673e-03, 2.90697673e-03, 8.72093067e-03,
          8.72093067e-03, 2.03488376e-02, 2.32558139e-02, 1.74418613e-02,
          5.81395347e-03, 2.32558139e-02, 1.45348832e-02, 2.90697673e-03,
          2.90697673e-03, 1.45348832e-02, 8.72093067e-03, 1.74418613e-02,
          1.16279069e-02, 8.72093067e-03, 1.74418613e-02, 1.45348832e-02,
          1.16279069e-02, 5.81395347e-03, 5.81395347e-03, 2.90697673e-03,
          0., 2.03488376e-02, 5.81395347e-03, 2.90697673e-03,
          1.16279069e-02, 8.72093067e-03, 1.74418613e-02, 5.81395347e-03,
          2.90697673e-03, 8.72093067e-03, 1.74418613e-02, 8.72093067e-03,
          2.61627901e-02, 5.81395347e-03, 1.45348832e-02, 5.81395347e-03,
          2.90697673e-03, 1.16279069e-02, 1.45348832e-02, 8.72093067e-03,
          2.03488376e-02, 8.72093067e-03, 1.45348832e-02, 8.72093067e-03,
          8.72093067e-03, 0., 1.45348832e-02, 5.81395347e-03,
          5.81395347e-03, 2.61627901e-02, 5.81395347e-03, 1.45348832e-02,
          8.72093067e-03, 8.72093067e-03, 2.90697673e-03, 0.,
          2.61627901e-02, 1.16279069e-02, 5.81395347e-03, 5.81395347e-03,
          1.74418613e-02, 0., 5.81395347e-03, 5.81395347e-03,
          1.74418613e-02, 5.81395347e-03, 2.90697673e-03, 2.03488376e-02,
          1.16279069e-02, 8.72093067e-03, 2.90697673e-03, 5.81395347e-03,
          1.74418613e-02, 8.72093067e-03, 2.90697664e-02, 2.90697673e-03,
          1.16279069e-02, 5.81395347e-03, 2.90697664e-02, 1.16279069e-02 ]
      - [ 2.46913591e-03, 2.46913591e-03, 2.46913591e-03, 1.48148155e-02,
          5.67901246e-02, 7.40740774e-03, 2.46913591e-03, 9.87654366e-03,
          2.46913591e-03, 2.46913591e-03, 4.93827183e-03, 0.,
          2.22222228e-02, 1.23456791e-02, 4.93827183e-03, 2.46913591e-03,
          4.93827183e-03, 1.23456791e-02, 4.93827183e-03, 1.23456791e-02,
          2.46913591e-03, 2.46913591e-03, 9.87654366e-03, 2.46913591e-03,
          4.93827183e-03, 1.23456791e-02, 1.72839519e-02, 7.40740774e-03,
          7.40740774e-03, 2.46913591e-03, 4.93827183e-03, 2.46913591e-03,
          4.93827183e-03, 9.87654366e-03, 2.46913591e-03, 4.93827183e-03,
          2.46913591e-03, 1.97530873e-02, 3.70370373e-02, 2.46913582e-02,
          9.87654366e-03, 1.48148155e-02, 0., 9.87654366e-03,
          1.97530873e-02, 9.87654366e-03, 4.93827183e-03, 4.93827183e-03,
          2.46913591e-03, 7.40740774e-03, 1.23456791e-02, 0.,
          2.46913591e-03, 1.72839519e-02, 2.46913591e-03, 2.46913591e-03,
          4.93827183e-03, 9.87654366e-03, 1.23456791e-02, 9.87654366e-03,
          1.48148155e-02, 1.23456791e-02, 7.40740774e-03, 9.87654366e-03,
          1.23456791e-02, 7.40740774e-03, 9.87654366e-03, 9.87654366e-03,
          4.93827183e-03, 1.23456791e-02, 9.87654366e-03, 2.22222228e-02,
          7.40740774e-03, 2.46913591e-03, 4.93827183e-03, 1.72839519e-02,
          2.46913591e-03, 7.40740774e-03, 1.72839519e-02, 9.87654366e-03,
          7.40740774e-03, 7.40740774e-03, 4.93827183e-03, 1.48148155e-02,
          4.93827183e-03, 2.22222228e-02, 2.22222228e-02, 4.93827183e-03,
          2.46913582e-02, 2.46913591e-03, 0., 4.93827183e-03,
          9.87654366e-03, 2.96296310e-02, 2.96296310e-02, 4.93827183e-03,
          1.97530873e-02, 2.96296310e-02, 1.23456791e-02, 1.48148155e-02 ]
      - [ 4.66200477e-03, 9.32400953e-03, 2.33100238e-03, 6.99300691e-03,
          2.33100243e-02, 9.32400953e-03, 9.32400953e-03, 1.16550121e-02,
          0., 2.09790207e-02, 9.32400953e-03, 6.99300691e-03,
          1.39860138e-02, 1.39860138e-02, 1.86480191e-02, 2.33100238e-03,
          0., 0., 4.66200477e-03, 4.66200477e-03, 4.66200477e-03,
          4.66200477e-03, 9.32400953e-03, 9.32400953e-03, 4.66200477e-03,
          6.99300691e-03, 0., 1.63170174e-02, 9.32400953e-03,
          2.33100238e-03, 9.32400953e-03, 2.33100243e-02, 0.,
          6.99300691e-03, 6.99300691e-03, 1.86480191e-02, 2.33100238e-03,
          1.39860138e-02, 1.63170174e-02, 1.16550121e-02, 0.,
          6.99300691e-03, 1.63170174e-02, 2.33100238e-03, 9.32400953e-03,
          4.66200477e-03, 6.99300691e-03, 2.33100243e-02, 1.39860138e-02,
          3.72960381e-02, 4.66200477e-03, 6.99300691e-03, 1.16550121e-02,
          1.86480191e-02, 2.09790207e-02, 9.32400953e-03, 6.99300691e-03,
          9.32400953e-03, 1.39860138e-02, 6.99300691e-03, 6.99300691e-03,
          9.32400953e-03, 4.66200477e-03, 6.99300691e-03, 9.32400953e-03,
          1.16550121e-02, 2.33100238e-03, 4.66200477e-03, 2.33100238e-03,
          4.66200477e-03, 5.12820520e-02, 1.16550121e-02, 9.32400953e-03,
          1.63170174e-02, 4.66200477e-03, 6.99300691e-03, 9.32400953e-03,
          9.32400953e-03, 1.39860138e-02, 1.63170174e-02, 4.66200477e-03,
          1.63170174e-02, 2.33100238e-03, 1.39860138e-02, 4.66200477e-03,
          1.39860138e-02, 1.39860138e-02, 1.39860138e-02, 2.33100238e-03,
          6.99300691e-03, 2.79720277e-02, 0., 2.33100238e-03,
          6.99300691e-03, 1.16550121e-02, 1.39860138e-02, 2.56410260e-02,
          6.99300691e-03, 1.63170174e-02, 2.33100238e-03 ]
      - [ 1.05386414e-02, 1.05386414e-02, 1.17096016e-02, 5.85480081e-03,
          2.34192028e-03, 9.36768111e-03, 1.99063215e-02, 1.52224815e-02,
          7.02576060e-03, 1.87353622e-02, 7.02576060e-03, 8.19672085e-03,
          7.02576060e-03, 9.36768111e-03, 1.05386414e-02, 1.05386414e-02,
          9.36768111e-03, 9.36768111e-03, 1.28805619e-02, 8.19672085e-03,
          9.36768111e-03, 5.85480081e-03, 1.63934417e-02, 9.36768111e-03,
          1.05386414e-02, 8.19672085e-03, 1.17096016e-02, 2.10772827e-02,
          8.19672085e-03, 5.85480081e-03, 1.05386414e-02, 1.05386414e-02,
          1.05386414e-02, 9.36768111e-03, 5.85480081e-03, 1.05386414e-02,
          8.19672085e-03, 2.34192028e-03, 1.40515212e-02, 3.51288030e-03,
          9.36768111e-03, 1.05386414e-02, 8.19672085e-03, 1.28805619e-02,
          9.36768111e-03, 1.40515212e-02, 7.02576060e-03, 1.05386414e-02,
          1.52224815e-02, 1.63934417e-02, 7.02576060e-03, 1.40515212e-02,
          1.05386414e-02, 2.57611237e-02, 1.05386414e-02, 7.02576060e-03,
          1.28805619e-02, 5.85480081e-03, 1.28805619e-02, 4.68384055e-03,
          2.69320831e-02, 8.19672085e-03, 5.85480081e-03, 1.17096016e-02,
          1.28805619e-02, 1.17096016e-02, 2.22482421e-02, 7.02576060e-03,
          9.36768111e-03, 7.02576060e-03, 2.10772827e-02, 1.40515212e-02,
          4.68384055e-03, 1.05386414e-02, 7.02576060e-03, 3.51288030e-03,
          1.17096016e-02, 8.19672085e-03, 7.02576060e-03, 5.85480081e-03,
          1.05386414e-02, 4.68384055e-03, 8.19672085e-03, 8.19672085e-03,
          7.02576060e-03, 5.85480081e-03, 3.51288030e-03, 2.34192028e-03,
          9.36768111e-03, 9.36768111e-03, 5.85480081e-03, 8.19672085e-03,
          4.68384055e-03, 1.40515212e-02, 1.05386414e-02, 1.63934417e-02,
          1.17096016e-02, 3.51288030e-03, 8.19672085e-03, 1.05386414e-02 ]
      - [ 5.08259190e-03, 6.35323999e-03, 1.39771281e-02, 1.39771281e-02,
          7.62388762e-03, 1.14358319e-02, 1.90597195e-02, 1.01651838e-02,
          1.01651838e-02, 1.65184233e-02, 3.81194381e-03, 1.77890714e-02,
          2.54129595e-03, 1.27064800e-02, 1.77890714e-02, 7.62388762e-03,
          1.14358319e-02, 1.52477752e-02, 6.35323999e-03, 2.03303676e-02,
          1.39771281e-02, 5.08259190e-03, 1.01651838e-02, 1.14358319e-02,
          1.27064800e-02, 1.01651838e-02, 1.39771281e-02, 1.14358319e-02,
          3.81194381e-03, 6.35323999e-03, 1.01651838e-02, 1.27064800e-02,
          8.89453571e-03, 6.35323999e-03, 1.52477752e-02, 5.08259190e-03,
          1.27064800e-02, 2.54129595e-03, 1.27064800e-02, 6.35323999e-03,
          8.89453571e-03, 7.62388762e-03, 1.27064800e-02, 3.81194381e-03,
          5.08259190e-03, 1.01651838e-02, 5.08259190e-03, 2.54129595e-03,
          6.35323999e-03, 2.28716638e-02, 1.27064798e-03, 1.90597195e-02,
          1.14358319e-02, 7.62388762e-03, 1.01651838e-02, 1.01651838e-02,
          3.81194381e-03, 1.01651838e-02, 1.65184233e-02, 1.14358319e-02,
          1.01651838e-02, 5.08259190e-03, 5.08259190e-03, 1.01651838e-02,
          1.27064800e-02, 5.08259190e-03, 7.62388762e-03, 1.01651838e-02,
          6.35323999e-03, 8.89453571e-03, 3.17661986e-02, 1.27064800e-02,
          5.08259190e-03, 1.65184233e-02, 8.89453571e-03, 1.39771281e-02,
          1.01651838e-02, 1.14358319e-02, 2.54129595e-03, 5.08259190e-03,
          7.62388762e-03, 1.01651838e-02, 1.39771281e-02, 1.39771281e-02,
          8.89453571e-03, 1.52477752e-02, 1.65184233e-02, 2.54129595e-03,
          1.27064800e-02, 8.89453571e-03, 1.27064798e-03, 2.03303676e-02,
          1.52477752e-02, 1.27064800e-02, 1.27064798e-03, 8.89453571e-03,
          5.08259190e-03, 0., 1.01651838e-02, 6.35323999e-03 ]
      - [ 5.37634408e-03, 5.37634408e-03, 2.68817204e-03, 5.37634408e-03,
          3.76344100e-02, 2.15053763e-02, 8.06451589e-03, 2.15053763e-02,
          2.68817204e-03, 1.34408604e-02, 2.68817204e-03, 1.07526882e-02,
          1.88172050e-02, 2.68817204e-03, 0., 2.68817204e-03,
          1.07526882e-02, 1.88172050e-02, 2.68817204e-03, 5.37634408e-03,
          1.07526882e-02, 2.68817204e-03, 5.37634408e-03, 1.61290318e-02,
          8.06451589e-03, 2.68817204e-03, 1.34408604e-02, 8.06451589e-03,
          2.68817204e-03, 5.37634408e-03, 2.15053763e-02, 8.06451589e-03,
          2.68817204e-03, 1.61290318e-02, 5.37634408e-03, 1.34408604e-02,
          8.06451589e-03, 8.06451589e-03, 8.06451589e-03, 2.68817204e-03,
          2.68817204e-03, 1.34408604e-02, 1.34408604e-02, 2.68817204e-03,
          1.88172050e-02, 8.06451589e-03, 8.06451589e-03, 8.06451589e-03,
          1.07526882e-02, 8.06451589e-03, 5.37634408e-03, 8.06451589e-03,
          1.07526882e-02, 2.68817204e-03, 2.68817204e-03, 5.37634408e-03,
          1.61290318e-02, 1.07526882e-02, 8.06451589e-03, 1.34408604e-02,
          8.06451589e-03, 2.95698922e-02, 8.06451589e-03, 2.68817204e-03,
          1.07526882e-02, 8.06451589e-03, 2.68817204e-03, 2.68817204e-03,
          2.68817204e-03, 1.61290318e-02, 1.34408604e-02, 1.07526882e-02,
          1.34408604e-02, 1.88172050e-02, 1.07526882e-02, 1.61290318e-02,
          1.34408604e-02, 8.06451589e-03, 1.34408604e-02, 1.07526882e-02,
          8.06451589e-03, 4.30107526e-02, 5.37634408e-03, 5.37634408e-03,
          1.61290318e-02, 2.68817209e-02, 2.15053763e-02, 2.68817204e-03,
          1.07526882e-02, 5.37634408e-03, 8.06451589e-03, 1.07526882e-02,
          8.06451589e-03, 8.06451589e-03, 1.88172050e-02, 1.61290318e-02,
          5.37634408e-03, 5.37634408e-03, 2.68817204e-03, 5.37634408e-03 ]
      - [ 1.77304968e-02, 2.48226933e-02, 1.41843967e-02, 3.54609918e-03,
          0., 0., 1.06382975e-02, 3.54609918e-03, 7.09219836e-03,
          7.09219836e-03, 7.09219836e-03, 3.54609918e-03, 7.09219836e-03,
          7.09219836e-03, 0., 1.41843967e-02, 1.06382975e-02,
          1.06382975e-02, 7.09219836e-03, 3.54609918e-03, 7.09219836e-03,
          7.09219836e-03, 3.54609918e-03, 1.06382975e-02, 1.06382975e-02,
          0., 1.06382975e-02, 1.06382975e-02, 2.48226933e-02,
          1.77304968e-02, 1.77304968e-02, 1.77304968e-02, 1.06382975e-02,
          3.54609918e-03, 3.54609936e-02, 1.77304968e-02, 0., 0.,
          1.06382975e-02, 7.09219836e-03, 1.77304968e-02, 7.09219836e-03,
