%YAML:1.0
---
opencv_ml_svm:
   format: 3
   svmType: C_SVC
   kernel:
      type: LINEAR
   C: 1.0000000000000001e-01
   term_criteria: { iterations:100 }
   var_count: 100
   class_count: 10
   class_labels: !!opencv-matrix
      rows: 10
      cols: 1
      dt: i
      data: [ 0, 1, 2, 3, 4, 5, 6, 7, 8, 9 ]
   sv_total: 45
   support_vectors:
      - [ -1.94420258e-03, -5.39896935e-02, 8.99616703e-02,
          5.03933579e-02, 1.45132840e-01, 4.80306894e-02,
          -1.20154381e-01, 5.65932645e-03, 8.56030881e-02,
          -3.77920531e-02, 1.63886556e-03, 1.12412823e-02,
          3.12682502e-02, -7.66009539e-02, 9.57133248e-03,
          1.45215422e-01, -7.56930336e-02, -7.29383528e-02,
          7.29772374e-02, -2.71091815e-02, -2.90009733e-02,
          -8.99212901e-03, -1.40497535e-01, -5.66261597e-02,
          6.16114587e-02, 5.67611232e-02, -5.26910089e-02,
          5.30704521e-02, 1.97384488e-02, 1.41480342e-01, 9.39219594e-02,
          6.86467141e-02, -6.91662654e-02, 7.93353841e-03,
          -5.58560714e-02, -6.14270940e-02, 5.12228832e-02,
          -1.37414813e-01, -7.58056268e-02, 1.65809412e-02,
          6.81894049e-02, 1.54181257e-01, -9.59061906e-02,
          7.06251189e-02, 6.61129318e-03, 1.01945559e-02,
          -5.44954948e-02, 8.97338167e-02, -3.09542548e-02,
          -3.06768082e-02, 7.91176111e-02, 6.41780198e-02,
          1.13828905e-01, -1.45800471e-01, 3.71551514e-02,
          3.44517194e-02, 4.20685895e-02, -2.90600164e-03,
          -7.01538986e-04, -8.19009766e-02, 4.42735404e-02,
          -8.50813538e-02, -2.94171572e-02, -3.13549675e-02,
          -5.93422800e-02, 1.29963398e-01, -1.03417121e-01,
          -1.39212996e-01, 7.82608539e-02, 7.93052167e-02,
          -3.80195267e-02, -4.29340489e-02, -5.84455207e-02,
          2.40649469e-02, -4.60480191e-02, -1.17928851e-02,
          -4.86722663e-02, 9.68896672e-02, 8.67459476e-02,
          1.48981204e-02, 6.39753193e-02, -5.44881336e-02,
          -5.84525242e-02, -1.79490016e-03, -3.11009791e-02,
          2.36793887e-02, -7.99816996e-02, -1.07220709e-02,
          5.57068316e-03, -7.88819045e-02, 1.36350349e-01,
          1.18530542e-02, 2.62927008e-03, -1.36556746e-02,
          -5.36491126e-02, -1.24986432e-02, -7.12735206e-02,
          8.30261335e-02, -1.41725332e-01, -2.04786882e-02 ]
      - [ 2.52862852e-02, -4.58714962e-02, 8.12555477e-02,
          4.70602736e-02, 1.32543638e-01, 4.99518812e-02,
          -7.75818229e-02, 4.63482877e-03, 2.10680906e-02,
          -1.99736077e-02, 1.94892450e-03, -1.24765541e-02,
          3.37563343e-02, -1.84719451e-02, -2.07046955e-03,
          1.32239848e-01, -1.87181197e-02, -6.37960210e-02,
          2.53062490e-02, -1.78897846e-02, -4.20884565e-02,
          -1.07303374e-02, -1.07546158e-01, -4.28163260e-02,
          4.30459976e-02, 3.66128013e-02, -3.36523205e-02,
          1.26357924e-03, -7.97878718e-04, 1.38593957e-01,
          4.14870121e-02, 7.33586773e-02, -1.66584589e-02,
          -1.70782153e-02, -3.90158221e-02, -6.15649149e-02,
          -5.15697710e-03, -7.53643885e-02, -5.57598136e-02,
          8.62713158e-03, 5.70592806e-02, 1.68033808e-01,
          -6.35743141e-02, 4.16844524e-02, 8.17007758e-03,
          7.69062806e-03, -2.91510094e-02, 9.18181166e-02,
          -4.11852002e-02, -3.31724323e-02, 7.90242702e-02,
          8.95958170e-02, 7.52389953e-02, -8.65114033e-02,
          5.53644914e-03, -3.30218859e-02, 2.43386049e-02,
          -5.69314845e-02, -6.02966407e-03, -6.18148670e-02,
          1.08745741e-02, -6.74305186e-02, -3.64081636e-02,
          -3.10075842e-02, -4.34380956e-02, 1.35752738e-01,
          -5.79962134e-02, -7.30278641e-02, 4.47434485e-02,
          8.66957232e-02, -2.20514145e-02, -4.89201061e-02,
          -4.19865623e-02, 2.87767462e-02, -2.50607412e-02,
          -3.21246535e-02, -6.15315400e-02, 4.43139896e-02,
          7.53061101e-02, -3.39293145e-02, 3.02446429e-02,
          -2.93667447e-02, -5.31200580e-02, -2.77041700e-02,
          -2.85353102e-02, -7.96173420e-03, -5.88576235e-02,
          -6.43814262e-03, 5.48730558e-03, -7.08225295e-02,
          1.52962208e-01, 1.46109266e-02, 1.65721925e-03,
          -3.25516500e-02, -3.31154354e-02, -1.29248602e-02,
          -4.62344065e-02, 6.72177523e-02, -4.42993566e-02,
          -2.15579960e-02 ]
      - [ -7.06475899e-02, -3.38923000e-03, 2.06725728e-02,
          1.68559924e-02, 3.42199765e-02, 1.63539294e-02,
          -3.61828320e-02, 1.41931875e-02, 3.27484012e-02,
          2.16870978e-02, 6.73753023e-03, 3.49425189e-02, 1.24770571e-02,
          -4.09119874e-02, 2.47186385e-02, 8.79538711e-03,
          4.96676601e-02, -2.45528761e-02, 4.08244096e-02,
          -1.47532718e-02, -1.68820322e-02, -2.44210027e-02,
          -2.88713966e-02, -2.76073571e-02, -1.62463579e-02,
          6.32624701e-02, -4.23334241e-02, 2.81515978e-02,
          2.97036972e-02, 5.48450388e-02, 3.42930593e-02,
          -1.21877622e-02, 4.53854026e-03, -9.71134007e-03,
          -3.28568444e-02, -1.62897967e-02, 1.60256512e-02,
          -4.30061854e-02, -7.24050552e-02, 3.54724154e-02,
          3.49794030e-02, 8.95057917e-02, -4.53921929e-02,
          2.70374194e-02, 1.38166584e-02, 9.73742455e-03,
          -3.26192044e-02, 1.03554942e-01, -2.61177737e-02,
          -2.18554456e-02, -7.58009963e-03, 4.15247642e-02,
          -1.01789655e-02, -6.17914759e-02, -4.75869561e-03,
          4.97553963e-03, 4.82257456e-02, -7.79389264e-03,
          2.25186422e-02, -1.23570152e-02, 1.24262022e-02,
          -3.76113579e-02, 6.94558537e-03, 2.99941991e-02,
          -1.17072668e-02, 8.84442925e-02, -5.72667420e-02,
          -7.47528151e-02, -6.83669373e-03, -2.16683596e-02,
          -1.12697529e-02, -2.64365468e-02, -3.35735418e-02,
          -7.18052825e-03, -4.76833386e-03, -1.63956378e-02,
          -4.39590402e-02, 3.26500386e-02, 2.36939266e-02,
          1.10355122e-02, 4.14392054e-02, -1.71332862e-02,
          -5.11197783e-02, 3.47505175e-02, -3.10719423e-02,
          -2.13360488e-02, -4.21610177e-02, 1.22722080e-02,
          1.45230750e-02, -2.39052530e-02, 5.87617345e-02,
          1.67822149e-02, 7.72572458e-02, -4.38694237e-03,
          -2.62123458e-02, -1.67984068e-02, -3.96859236e-02,
          4.14646491e-02, -8.71040076e-02, -2.14611012e-02 ]
      - [ -7.35205635e-02, -6.28443062e-02, 7.95076713e-02,
          4.85357083e-02, 1.18031941e-01, 5.28049730e-02,
          -7.49334022e-02, 5.71198016e-03, 1.32104009e-01,
          -3.99284549e-02, 3.31032701e-04, -1.75828673e-02,
          2.50549037e-02, -4.42461893e-02, 4.37023938e-02,
          1.15364820e-01, -1.90130118e-02, -6.66104034e-02,
          1.54555030e-02, -1.48389721e-02, -3.27147357e-02,
          -8.49203859e-03, -1.02549203e-01, -4.27949540e-02,
          5.45032844e-02, 4.24392521e-02, -3.59853618e-02,
          3.18720727e-03, 4.25401963e-02, 1.17371917e-01, 4.50614803e-02,
          6.18243217e-02, -4.66022529e-02, -2.00999668e-03,
          -2.92327199e-02, -6.48670495e-02, 6.00470304e-02,
          -7.32548311e-02, -2.88375337e-02, 3.89800891e-02,
          4.20222729e-02, 1.48927197e-01, -6.32453039e-02,
          3.08043435e-02, -4.82803117e-03, 9.97795071e-03,
          -4.27550189e-02, 6.78783655e-02, -4.84382361e-02,
          -1.09553225e-02, 8.87225270e-02, -2.69944891e-02,
          1.08208068e-01, -9.06004608e-02, 1.81678180e-02,
          1.01095892e-01, 3.05756256e-02, -4.41308022e-02,
          -2.22268999e-02, -6.46822676e-02, 9.92523879e-03,
          -6.48715273e-02, -7.38581344e-02, 3.84923816e-03,
          -8.07484835e-02, 1.12669319e-01, -6.30657151e-02,
          -7.01337978e-02, 4.65909913e-02, 7.44657815e-02,
          -5.31451069e-02, 4.38066869e-04, -4.05332632e-02,
          3.25396061e-02, -4.19728011e-02, -3.11943516e-02,
          -4.41885106e-02, 1.27198771e-01, 9.23398286e-02,
          -2.02280991e-02, 2.74080299e-02, -5.01063429e-02,
          -6.56520799e-02, 1.87449735e-02, -3.24161053e-02,
          -6.02337345e-03, -6.71502724e-02, -4.39606272e-02,
          6.75970130e-03, -8.11330229e-02, 1.07908770e-01,
          5.69645921e-03, 2.25010123e-02, -4.55173329e-02,
          -5.10477312e-02, -8.12947750e-03, -5.57198040e-02,
          5.59098423e-02, -7.38621503e-02, -2.95116231e-02 ]
      - [ -7.29586259e-02, -8.38494394e-03, 7.47071430e-02,
          -8.96100362e-04, 5.70724718e-02, 2.86840349e-02,
          -1.36550283e-02, 4.14073234e-03, 1.37038147e-02,
          1.08039018e-03, 1.03819871e-03, -2.45835055e-02,
          2.07247976e-02, -1.94383767e-02, -8.58141202e-03,
          7.45250583e-02, -1.44446513e-03, -7.06680072e-03,
          3.11482754e-02, -8.02786499e-02, -7.73960818e-03,
          3.49401236e-02, -5.02200797e-03, -7.64493551e-03,
          4.18414176e-02, -1.91721669e-03, -3.99211422e-03,
          2.13218853e-02, -9.24047381e-02, 1.04014903e-01,
          3.78722250e-02, -1.31827220e-02, 3.38200741e-02,
          -4.15924890e-03, -6.33356255e-03, -3.41466791e-03,
          -7.46599585e-02, 9.04814457e-04, -2.64820345e-02,
          1.54234711e-02, 4.63551935e-03, 1.48904145e-01,
          -5.02825202e-03, 7.34554138e-03, -2.27578962e-03,
          4.08885721e-03, 8.41853768e-03, 5.22639751e-02, 1.81768707e-03,
          -6.94468543e-02, 4.63857017e-02, 1.79272871e-02,
          5.81123903e-02, -5.67596452e-03, 2.25255582e-02,
          -6.10012598e-02, 2.01404691e-02, 6.80024968e-04,
          -1.51118571e-02, -2.17777723e-03, 5.06066112e-03,
          -7.79770873e-03, 1.06943743e-02, -4.61896472e-02,
          -4.75126132e-02, 4.92948666e-02, -2.43463702e-02,
          -5.03821187e-02, -1.12352982e-01, 3.66130956e-02,
          -5.01119196e-02, -2.83585917e-02, -6.74667209e-03,
          2.80087851e-02, -8.41474533e-03, 8.80740862e-03,
          -1.24159930e-02, -1.02663580e-02, -3.40059102e-02,
          2.78088488e-02, 6.04502717e-03, 5.75303053e-03,
          -1.52948732e-02, -2.25175954e-02, -2.10351367e-02,
          -2.05105636e-03, -5.42014977e-03, -2.78451107e-02,
          6.79409131e-03, -4.66211280e-03, 3.59155871e-02,
          -1.51839582e-02, -1.19743794e-02, 6.36567082e-03,
          -1.80349173e-03, -1.18596796e-02, -1.14774657e-02,
          7.28315040e-02, -2.51028091e-02, -3.01145855e-02 ]
      - [ -1.43287778e-01, -2.40999795e-02, 4.42106947e-02,
          1.41032487e-02, 7.72670656e-02, 3.74044962e-02,
          -4.57925275e-02, -5.50956465e-03, 4.54947315e-02,
          -1.34205725e-02, 3.62864882e-03, 2.25337632e-02,
          -3.42607778e-03, -2.44195759e-02, 4.67876159e-03,
          1.13339230e-01, -1.48468418e-02, -3.13565321e-02,
          -5.50621189e-02, -3.45165317e-04, -1.95362363e-02,
          -3.67063060e-02, -8.02650303e-02, -2.35682875e-02,
          1.93284880e-02, 6.37139082e-02, -2.70458683e-02,
          -7.55254775e-02, 4.46819775e-02, 1.04965091e-01,
          -3.11665945e-02, 5.75760081e-02, -2.45213360e-02,
          -2.10365397e-03, -2.40328182e-02, -4.60118316e-02,
          6.13219552e-02, -3.97132374e-02, -3.15236151e-02,
          -1.70439656e-03, 1.42048197e-02, 1.12401001e-01,
          -5.77590354e-02, 4.52161841e-02, 9.85245500e-03,
          -2.06123223e-03, -3.55785415e-02, 9.80339125e-02,
          -3.50289941e-02, -8.41083378e-03, 5.60110137e-02,
          -8.23984891e-02, 5.99426143e-02, -5.66406399e-02,
          4.87253927e-02, 1.73686910e-02, 4.61054668e-02,
          -2.27644350e-02, 1.21718906e-02, -4.15358022e-02,
          2.11324655e-02, -3.21888328e-02, -5.37355430e-02,
          8.79599154e-03, -1.67274550e-02, 1.19142793e-01,
          -2.99367961e-02, -4.79788110e-02, 2.48997733e-02,
          4.98954989e-02, 6.96562929e-04, -1.08040217e-03,
          -2.10173111e-02, -9.06076562e-03, -1.82475932e-02,
          -3.19174789e-02, -1.30696045e-02, 7.52454326e-02,
          9.24148038e-02, -2.73601413e-02, -3.06748715e-03,
          -2.43651252e-02, -1.31773828e-02, 6.72562327e-03,
          -2.22081542e-02, -4.64271614e-03, -3.95674407e-02,
          -4.26978292e-03, 4.38600546e-03, -4.29740660e-02,
          1.20318301e-01, 1.02064898e-02, 1.19087463e-02,
          -5.67992516e-02, -2.08369996e-02, -1.62091497e-02,
          -4.35380489e-02, 3.36146541e-02, -4.77564856e-02,
          -4.76248702e-03 ]
      - [ 6.19441010e-02, -2.50891428e-02, 7.98994973e-02,
          5.42277247e-02, 1.50637463e-01, 6.13189153e-02,
          -1.74360186e-01, -3.36537994e-02, 1.73317865e-01,
          3.88866430e-03, 5.30901458e-03, 3.76032814e-02, 3.53616700e-02,
          -7.32006505e-02, 2.02442724e-02, 1.47297964e-01,
          5.37305027e-02, -1.28859445e-01, 9.29479226e-02,
          1.94055811e-02, -7.38276765e-02, -4.49174605e-02,
          -2.40343764e-01, -7.67584443e-02, 5.72988316e-02,
          7.82281905e-02, -8.83598700e-02, 6.98090643e-02,
          8.14665556e-02, 1.49160340e-01, 1.12545043e-01, 8.33910853e-02,
          -8.56948048e-02, 8.31487589e-03, -7.05575868e-02,
          -9.62213054e-02, 1.02304690e-01, -1.94329903e-01,
          -6.88793361e-02, 5.10884263e-03, 9.17902589e-02,
          1.43637136e-01, -1.12018771e-01, 6.21605068e-02,
          1.41315591e-02, -7.13616423e-03, -1.17545664e-01,
          1.16774611e-01, -5.97568974e-02, 2.86558247e-03,
          8.88971910e-02, 6.14008084e-02, 1.13358229e-01,
          -2.19210550e-01, 4.05678526e-03, 1.28733516e-01,
          5.20082973e-02, -3.68747604e-03, 2.41856575e-02,
          -1.55416429e-01, 5.22593893e-02, -1.53631032e-01,
          -3.24509852e-02, 2.88628154e-02, -3.96497510e-02,
          1.51567563e-01, -1.19226187e-01, -1.48993075e-01,
          1.02490567e-01, 9.83578339e-02, -7.81493541e-03,
          8.81356932e-03, -7.10463002e-02, 2.93613337e-02,
          -6.95484132e-02, -4.73861285e-02, -1.10817179e-01,
          1.74943492e-01, 1.46390796e-01, 4.79983166e-03, 6.40909374e-02,
          -7.66675398e-02, -9.93370786e-02, 3.29436883e-02,
          -7.05411583e-02, -6.48240151e-04, -7.29130879e-02,
          -3.70304496e-03, -4.84655099e-03, -1.46635115e-01,
          1.76469684e-01, 3.24542113e-02, 9.87838954e-02,
          -4.02480252e-02, -8.82714093e-02, -4.44129631e-02,
          -1.60008609e-01, 9.83803794e-02, -1.82851255e-01,
          -8.25871807e-03 ]
      - [ 8.00637454e-02, -1.53596485e-02, 4.28806394e-02,
          7.81542435e-02, -3.23604196e-02, 1.10817896e-02,
          -6.00453876e-02, 1.24771353e-02, -8.37070495e-02,
          -2.02127229e-02, 1.17660454e-03, 2.93735117e-02,
          3.74779440e-02, -5.27219754e-03, -7.94861291e-04,
          1.37961999e-01, -1.42170889e-02, -4.49992977e-02,
          5.77171221e-02, 2.83985306e-02, -2.05626488e-02,
          2.23038383e-02, -3.29908393e-02, -3.69206741e-02,
          -1.46899335e-02, 4.96275052e-02, -3.63755114e-02,
          4.01222184e-02, 5.18369228e-02, 1.25087038e-01, 2.12683883e-02,
          4.41051200e-02, 2.90313773e-02, -3.27867232e-02,
          -7.20617101e-02, -2.56698765e-02, 2.57296655e-02,
          -6.39205277e-02, -8.66245255e-02, -9.24735097e-04,
          7.99551755e-02, 1.83248430e-01, -4.85340282e-02,
          4.44782265e-02, 8.81673116e-03, 1.37421591e-02,
          -1.82616292e-03, 9.06163156e-02, -3.82102057e-02,
          -1.93638820e-02, 3.38955596e-02, 1.11279108e-01,
          3.96430418e-02, -4.07129303e-02, 3.45487222e-02,
          -4.93474416e-02, 3.49549390e-02, -1.55694187e-01,
          2.32455079e-02, -1.12576736e-02, 2.18262244e-02,
          -4.06397581e-02, 4.02414659e-03, -8.22743103e-02,
          -6.91910135e-03, 7.96904191e-02, -6.10573180e-02,
          -5.86578995e-02, 5.26395701e-02, 5.36349714e-02,
          3.65390396e-03, -1.23509340e-01, -2.77427565e-02,
          2.85597816e-02, 1.80947455e-03, -1.12485159e-02,
          -4.48216125e-02, -1.19679868e-01, 8.39841366e-02,
          -7.20602199e-02, 2.99702510e-02, -1.83360709e-03,
          -3.94410640e-02, -2.14956943e-02, -1.94544848e-02,
          -2.94244606e-02, 2.21322733e-03, 1.71064027e-02,
          7.98046868e-03, -4.39705513e-02, -3.31311896e-02,
          2.09915545e-02, -1.06506474e-01, -7.30654923e-04,
          -1.56768933e-02, -1.48694972e-02, -3.13657671e-02,
          6.73698485e-02, -1.31486654e-02, -1.46510620e-02 ]
      - [ 3.28187086e-02, -4.49227206e-02, 6.17040917e-02,
          3.42575237e-02, 1.22042701e-01, 2.24066004e-02,
          -7.34798983e-02, 1.46694146e-02, 3.83170322e-02,
          -2.60876361e-02, 3.68366949e-03, 5.17797424e-03,
          1.43627319e-02, 7.93684088e-03, 1.33394543e-02, 1.28457084e-01,
          -5.25849350e-02, -5.86112849e-02, 6.12235256e-03,
          -7.43629364e-03, -2.72859279e-02, -5.45417219e-02,
          -9.75911766e-02, -3.25750858e-02, 3.15980539e-02,
          4.37886566e-02, -2.52072997e-02, 1.89035255e-02,
          2.91670114e-02, 1.19391449e-01, 5.10404035e-02, 5.98559193e-02,
          -2.44016573e-02, -2.48569027e-02, -4.67598066e-02,
          -7.43362606e-02, 4.51847576e-02, -4.03531156e-02,
          -3.46032754e-02, 1.96337309e-02, 4.04324085e-02,
          1.30081207e-01, -4.89930138e-02, -7.28865433e-03,
          9.50300414e-03, 1.78530514e-02, -2.96477675e-02,
          6.73559457e-02, -4.58335616e-02, -2.41261516e-02,
          5.23715392e-02, 5.84804490e-02, 5.94655052e-02,
          -6.17530495e-02, 4.93476205e-02, -1.41621726e-02,
          3.54600884e-02, -9.10852402e-02, 5.97966881e-03,
          -5.45752682e-02, -5.45189064e-03, -5.27935997e-02,
          -5.49491942e-02, -1.87313359e-03, -4.70304936e-02,
          1.12996101e-01, -5.22744693e-02, -5.48551716e-02,
          2.90098246e-02, 7.30998740e-02, -9.39226337e-03,
          -4.05473299e-02, -3.21807787e-02, 3.93828899e-02,
          -2.07112841e-02, -2.67670359e-02, -5.87286167e-02,
          6.32005185e-02, 5.71665838e-02, -7.10510537e-02,
          1.76014919e-02, -3.32919508e-02, -2.63191350e-02,
          -1.12758130e-02, -3.84103134e-02, -1.91586874e-02,
          -3.44083160e-02, -9.35087504e-04, 1.05232550e-02,
          -7.53852054e-02, 1.42057389e-01, 1.80250313e-02,
          2.60512792e-02, -5.11942841e-02, -4.02934663e-02,
          -1.10274768e-02, -3.72634009e-02, 2.91040074e-02,
          -2.13510618e-02, -1.63880643e-02 ]
      - [ 2.72304881e-02, 8.11819639e-03, -8.70612822e-03,
          -3.33308568e-03, -1.25892134e-02, 1.92119332e-03,
          4.25725542e-02, -1.02449756e-03, -6.45349994e-02,
          1.78184453e-02, 3.10058938e-04, -2.37178374e-02,
          2.48808344e-03, 5.81290126e-02, -1.16418023e-02,
          -1.29755745e-02, 5.69749139e-02, 9.14233550e-03,
          -4.76709902e-02, 9.21939686e-03, -1.30874822e-02,
          -1.73820823e-03, 3.29513736e-02, 1.38098337e-02,
          -1.85654592e-02, -2.01483220e-02, 1.90386865e-02,
          -5.18068708e-02, -2.05363277e-02, -2.88638729e-03,
          -5.24349473e-02, 4.71196324e-03, 5.25078028e-02,
          -2.50117537e-02, 1.68402493e-02, -1.37819137e-04,
          -5.63798621e-02, 6.20504282e-02, 2.00458094e-02,
          -7.95380957e-03, -1.11301206e-02, 1.38525460e-02,
          3.23318690e-02, -2.89406683e-02, 1.55878440e-03,
          -2.50392780e-03, 2.53444854e-02, 2.08429969e-03,
          -1.02309454e-02, -2.49562459e-03, -9.33421761e-05,
          2.54177935e-02, -3.85899134e-02, 5.92890643e-02,
          -3.16187032e-02, -6.74736053e-02, -1.77299846e-02,
          -5.40254824e-02, -5.32812532e-03, 2.00861096e-02,
          -3.33989672e-02, 1.76508315e-02, -6.99100550e-03,
          3.47383349e-04, 1.59041844e-02, 5.78934001e-03, 4.54209112e-02,
          6.61851317e-02, -3.35174017e-02, 7.39050191e-03,
          1.59681141e-02, -5.98605815e-03, 1.64589584e-02,
          4.71179886e-03, 2.09872779e-02, -2.03317702e-02,
          -1.28592765e-02, -5.25756776e-02, -1.14398440e-02,
          -4.88274358e-02, -3.37306745e-02, 2.51213890e-02,
          5.33246668e-03, -2.59092711e-02, 2.56566890e-03,
          -3.16411220e-02, 2.11240761e-02, 4.28392785e-03,
          -8.33777231e-05, 8.05937778e-03, 1.66118611e-02,
          2.75787222e-03, -9.72050708e-04, -1.88959762e-02,
          2.05336772e-02, -4.26216837e-04, 2.50391159e-02,
          -1.58083830e-02, 9.74259824e-02, -1.07930670e-03 ]
      - [ -6.87033907e-02, 5.06004617e-02, -6.92891032e-02,
          -3.35373655e-02, -1.10912867e-01, -3.16767618e-02,
          8.39715451e-02, 8.53386056e-03, -5.28546870e-02,
          5.94791509e-02, 5.09866467e-03, 2.37012375e-02,
          -1.87911931e-02, 3.56889702e-02, 1.51473070e-02,
          -1.36420041e-01, 1.25360698e-01, 4.83854786e-02,
          -3.21528278e-02, 1.23559088e-02, 1.21189421e-02,
          -1.54288728e-02, 1.11626141e-01, 2.90188044e-02,
          -7.78578147e-02, 6.50135009e-03, 1.03575820e-02,
          -2.49188524e-02, 9.96524747e-03, -8.66353065e-02,
          -5.96289001e-02, -8.08344781e-02, 7.37048015e-02,
          -1.76448785e-02, 2.29992289e-02, 4.51372974e-02,
          -3.51972319e-02, 9.44086313e-02, 3.40057304e-03,
          1.88914724e-02, -3.32100019e-02, -6.46754652e-02,
          5.05139939e-02, -4.35876995e-02, 7.20536569e-03,
          -4.57131770e-04, 2.18762886e-02, 1.38211250e-02,
          4.83648060e-03, 8.82136263e-03, -8.66977125e-02,
          -2.26532593e-02, -1.24007873e-01, 8.40089917e-02,
          -4.19138446e-02, -2.94761788e-02, 6.15715375e-03,
          -4.88789100e-03, 2.32201815e-02, 6.95439577e-02,
          -3.18473391e-02, 4.74699959e-02, 3.63627411e-02,
          6.13491647e-02, 4.76350114e-02, -4.15190980e-02,
          4.61503789e-02, 6.44601882e-02, -8.50975439e-02,
          -1.00973576e-01, 2.67497748e-02, 1.64975021e-02,
          2.48719789e-02, -3.12454756e-02, 4.12796848e-02,
          -4.60275169e-03, 4.71322471e-03, -6.42396286e-02,
          -6.30520210e-02, -3.86260822e-03, -2.25361139e-02,
          3.73548456e-02, 7.33274641e-03, 3.65454145e-02, 2.90363787e-05,
          -4.50154357e-02, 3.78206819e-02, 2.29942780e-02,
          8.95239227e-03, 5.49766533e-02, -7.75886104e-02,
          4.92916023e-03, 7.46279731e-02, 9.26873274e-03, 2.74367686e-02,
          -4.29976406e-03, 3.15876007e-02, -4.15614881e-02,
          5.46213314e-02, -9.82412254e-04 ]
      - [ -7.15763569e-02, -8.85461271e-03, -1.04540018e-02,
          -1.85764837e-03, -2.71009039e-02, 4.77428362e-03,
          4.52209748e-02, 5.26538352e-05, 4.65009212e-02,
          -2.13640137e-03, -1.30783289e-03, -2.88241506e-02,
          -6.21334603e-03, 3.23547684e-02, 3.41310613e-02,
          -2.98506059e-02, 5.66800237e-02, 6.32795179e-03,
          -5.75217344e-02, 1.22702094e-02, -3.71376378e-03,
          5.00090478e-04, 3.79483327e-02, 1.38312075e-02,
          -7.10817613e-03, -1.43218720e-02, 1.67056452e-02,
          -4.98832427e-02, 2.28017494e-02, -2.41084229e-02,
          -4.88604791e-02, -6.82239095e-03, 2.25640107e-02,
          -9.94353555e-03, 2.66233515e-02, -3.43995704e-03,
          8.82414728e-03, 6.41599894e-02, 4.69680913e-02, 2.23991461e-02,
          -2.61671282e-02, -5.25406655e-03, 3.26608866e-02,
          -3.98207754e-02, -1.14393244e-02, -2.16604880e-04,
          1.17404759e-02, -2.18554530e-02, -1.74839813e-02,
          1.97214857e-02, 9.60491318e-03, -9.11725163e-02,
          -5.62084327e-03, 5.52000105e-02, -1.89873334e-02,
          6.66441694e-02, -1.14929648e-02, -4.12248001e-02,
          -2.15253606e-02, 1.72187109e-02, -3.43483016e-02,
          2.02098228e-02, -4.44409773e-02, 3.52042057e-02,
          -2.14062035e-02, -1.72940735e-02, 4.03514057e-02,
          6.90792054e-02, -3.16698626e-02, -4.83943801e-03,
          -1.51255783e-02, 4.33721170e-02, 1.79122575e-02,
          8.47465824e-03, 4.07521753e-03, -1.94014665e-02,
          4.48375661e-03, 3.03091072e-02, 5.59387449e-03,
          -3.51262204e-02, -3.65672894e-02, 4.38179122e-03,
          -7.19955564e-03, 2.05398723e-02, -1.31512515e-03,
          -2.97027603e-02, 1.28314290e-02, -3.32385562e-02,
          1.18901778e-03, -2.25112098e-03, -2.84415707e-02,
          -6.15659542e-03, 1.98717415e-02, -3.18616591e-02,
          2.60138325e-03, 4.36916575e-03, 1.55537184e-02,
          -2.71162950e-02, 6.78631887e-02, -9.03293490e-03 ]
      - [ -7.10144266e-02, 4.56047468e-02, -1.52545311e-02,
          -5.12894578e-02, -8.80603716e-02, -1.93466544e-02,
          1.06499352e-01, -1.51859387e-03, -7.18992725e-02,
          3.88724431e-02, -6.00666914e-04, -3.58247869e-02,
          -1.05434516e-02, 5.71625791e-02, -1.81527454e-02,
          -7.06903711e-02, 7.42485672e-02, 6.58715516e-02,
          -4.18289639e-02, -5.31694703e-02, 2.12613661e-02,
          4.39322554e-02, 1.35475531e-01, 4.89812233e-02,
          -1.97700430e-02, -5.86783402e-02, 4.86988947e-02,
          -3.17485668e-02, -1.12143189e-01, -3.74654382e-02,
          -5.60497344e-02, -8.18294361e-02, 1.02986336e-01,
          -1.20927868e-02, 4.95225079e-02, 5.80124259e-02,
          -1.25882849e-01, 1.38319626e-01, 4.93235886e-02,
          -1.15747086e-03, -6.35538846e-02, -5.27711539e-03,
          9.08779353e-02, -6.32795766e-02, -8.88708234e-03,
          -6.10569865e-03, 6.29140362e-02, -3.74698453e-02,
          3.27719413e-02, -3.87700461e-02, -3.27319093e-02,
          -4.62507345e-02, -5.57165146e-02, 1.40124500e-01,
          -1.46295922e-02, -9.54529792e-02, -2.19281204e-02,
          3.58602661e-03, -1.44103179e-02, 7.97231942e-02,
          -3.92128788e-02, 7.72836432e-02, 4.01115306e-02,
          -1.48346787e-02, 1.18296677e-02, -8.06685239e-02,
          7.90707543e-02, 8.88308808e-02, -1.90613836e-01,
          -4.26921248e-02, -1.20923920e-02, 1.45754572e-02,
          5.16988486e-02, 3.94383632e-03, 3.76332738e-02, 2.06002928e-02,
          3.62562723e-02, -1.07156023e-01, -1.20751865e-01,
          1.29107283e-02, -5.79302907e-02, 6.02411628e-02,
          4.31576520e-02, -2.07226947e-02, 1.00658415e-02,
          -2.57304441e-02, 7.45615512e-02, -1.71230417e-02,
          1.22340804e-03, 7.42197931e-02, -1.00434758e-01,
          -2.70370133e-02, -1.46036493e-02, 2.00213455e-02,
          5.18456213e-02, 6.38963480e-04, 5.97960576e-02,
          -1.01946332e-02, 1.16622530e-01, -9.63589828e-03 ]
      - [ -1.41343579e-01, 2.98897121e-02, -4.57509793e-02,
          -3.62901092e-02, -6.78657740e-02, -1.06261922e-02,
          7.43618533e-02, -1.11688916e-02, -4.01083566e-02,
          2.43714806e-02, 1.98978325e-03, 1.12924799e-02,
          -3.46943289e-02, 5.21813817e-02, -4.89257090e-03,
          -3.18761989e-02, 6.08461946e-02, 4.15818207e-02,
          -1.28039360e-01, 2.67640166e-02, 9.46473703e-03,
          -2.77141780e-02, 6.02325052e-02, 3.30578722e-02,
          -4.22829688e-02, 6.95278356e-03, 2.56451387e-02,
          -1.28595933e-01, 2.49435306e-02, -3.65152471e-02,
          -1.25088558e-01, -1.10707032e-02, 4.46449257e-02,
          -1.00371921e-02, 3.18232514e-02, 1.54152643e-02,
          1.00990729e-02, 9.77015793e-02, 4.42820117e-02,
          -1.82853378e-02, -5.39845824e-02, -4.17802595e-02,
          3.81471515e-02, -2.54089367e-02, 3.24116205e-03,
          -1.22557878e-02, 1.89169534e-02, 8.30008928e-03,
          -4.07473976e-03, 2.22659763e-02, -2.31065974e-02,
          -1.46576509e-01, -5.38862944e-02, 8.91598240e-02,
          1.15702413e-02, -1.70830265e-02, 4.03687684e-03,
          -1.98584348e-02, 1.28734298e-02, 4.03651707e-02,
          -2.31410768e-02, 5.28925210e-02, -2.43183859e-02,
          4.01509590e-02, 4.26148251e-02, -1.08205965e-02,
          7.34803304e-02, 9.12341923e-02, -5.33610806e-02,
          -2.94097196e-02, 3.87160927e-02, 4.18536477e-02,
          3.74282114e-02, -3.31257135e-02, 2.78004259e-02,
          -2.01245937e-02, 3.56026627e-02, -2.16442365e-02,
          5.66885667e-03, -4.22582626e-02, -6.70428053e-02,
          3.01230084e-02, 4.52751406e-02, 8.52052402e-03, 8.89282487e-03,
          -2.83221044e-02, 4.04142588e-02, 6.45228755e-03,
          -1.18467805e-03, 3.59078422e-02, -1.60320438e-02,
          -1.64656469e-03, 9.27947648e-03, -4.31435779e-02,
          3.28121148e-02, -3.71050695e-03, 2.77354736e-02,
          -4.94114831e-02, 9.39688534e-02, 1.57162007e-02 ]
      - [ 6.38883039e-02, 2.89005507e-02, -1.00621777e-02,
          3.83436820e-03, 5.50461700e-03, 1.32882250e-02,
          -5.42058125e-02, -3.93131264e-02, 8.77147838e-02,
          4.16807197e-02, 3.67014925e-03, 2.63619982e-02, 4.09341883e-03,
          3.40030738e-03, 1.06729399e-02, 2.08253413e-03, 1.29423544e-01,
          -5.59210926e-02, 1.99706834e-02, 4.65147607e-02,
          -4.48267050e-02, -3.59253287e-02, -9.98462290e-02,
          -2.01322809e-02, -4.31262655e-03, 2.14670636e-02,
          -3.56688611e-02, 1.67386103e-02, 6.17281087e-02,
          7.67999329e-03, 1.86230876e-02, 1.47443693e-02,
          -1.65285449e-02, 3.81337479e-04, -1.47015136e-02,
          -3.47942151e-02, 5.10818101e-02, -5.69150783e-02,
          6.92629209e-03, -1.14720995e-02, 2.36008596e-02,
          -1.05441259e-02, -1.61125828e-02, -8.46461393e-03,
          7.52026634e-03, -1.73307210e-02, -6.30501732e-02,
          2.70407926e-02, -2.88026426e-02, 3.35423909e-02,
          9.77958087e-03, -2.77721393e-03, -4.70678293e-04,
          -7.34100863e-02, -3.30983661e-02, 9.42817926e-02,
          9.93970595e-03, -7.81474519e-04, 2.48871967e-02,
          -7.35154599e-02, 7.98584800e-03, -6.85496703e-02,
          -3.03383009e-03, 6.02177829e-02, 1.96925271e-02,
          2.16041654e-02, -1.58090666e-02, -9.78008099e-03,
          2.42297146e-02, 1.90526173e-02, 3.02045923e-02, 5.17476164e-02,
          -1.26007786e-02, 5.29638585e-03, -2.35003941e-02,
          -3.55932452e-02, -6.21449165e-02, 7.80538246e-02,
          5.96448444e-02, -1.00982888e-02, 1.15620031e-04,
          -2.21794061e-02, -4.08845544e-02, 3.47385891e-02,
          -3.94401811e-02, -2.43276283e-02, 7.06860889e-03,
          7.01902574e-03, -1.04172342e-02, -6.77532107e-02,
          4.01193425e-02, 2.06011590e-02, 9.61546302e-02,
          -2.65923496e-02, -3.46222967e-02, -3.19143198e-02,
          -8.87350813e-02, 1.53542431e-02, -4.11259085e-02,
          1.22199701e-02 ]
      - [ 8.20079446e-02, 3.86300460e-02, -4.70810309e-02,
          2.77608857e-02, -1.77493259e-01, -3.69489007e-02,
          6.01089895e-02, 6.81780884e-03, -1.69310138e-01,
          1.75793301e-02, -4.62261029e-04, 1.81322284e-02,
          6.20969431e-03, 7.13287592e-02, -1.03661940e-02,
          -7.25343358e-03, 6.14759475e-02, 2.79390551e-02,
          -1.52601190e-02, 5.55077121e-02, 8.43832549e-03,
          3.12959664e-02, 1.07506692e-01, 1.97054874e-02,
          -7.63013959e-02, -7.13361753e-03, 1.63154937e-02,
          -1.29482327e-02, 3.20984758e-02, -1.63933057e-02,
          -7.26535693e-02, -2.45415922e-02, 9.81976390e-02,
          -4.07202616e-02, -1.62056424e-02, 3.57572176e-02,
          -2.54932176e-02, 7.34942928e-02, -1.08188968e-02,
          -1.75056774e-02, 1.17657762e-02, 2.90671643e-02,
          4.73721623e-02, -2.61468943e-02, 2.20543845e-03,
          3.54760350e-03, 5.26693314e-02, 8.82492808e-04,
          -7.25595048e-03, 1.13129262e-02, -4.52220514e-02,
          4.71010804e-02, -7.41858631e-02, 1.05087541e-01,
          -2.60642800e-03, -8.37991610e-02, -7.11364951e-03,
          -1.52788177e-01, 2.39470452e-02, 7.06432983e-02,
          -2.24473178e-02, 4.44415957e-02, 3.34413014e-02,
          -5.09193428e-02, 5.24231791e-02, -5.02729751e-02,
          4.23598029e-02, 8.05551037e-02, -2.56212838e-02,
          -2.56702490e-02, 4.16734330e-02, -8.05752873e-02,
          3.07027642e-02, 4.49483423e-03, 4.78574932e-02, 5.44369221e-04,
          3.85065423e-03, -2.16569528e-01, -2.76181288e-03,
          -8.69583413e-02, -3.40050682e-02, 5.26545271e-02,
          1.90114602e-02, -1.97007935e-02, 1.16464943e-02,
          -5.31038493e-02, 8.21949244e-02, 2.78284736e-02,
          2.40978552e-03, 3.49113531e-02, -1.69481531e-01,
          9.13850032e-03, -1.09135740e-01, 1.29250204e-02,
          3.79722193e-02, -2.37085368e-03, 3.99077572e-02,
          -1.56562869e-02, 1.28576666e-01, 5.82762668e-03 ]
      - [ 3.47629115e-02, 9.06697009e-03, -2.82575805e-02,
          -1.61358342e-02, -2.30901446e-02, -2.56240889e-02,
          4.66744788e-02, 9.01008863e-03, -4.72860597e-02,
          1.17044169e-02, 2.04480393e-03, -6.06330764e-03,
          -1.69055182e-02, 8.45377967e-02, 3.76812159e-03,
          -1.67583451e-02, 2.31080987e-02, 1.43270716e-02,
          -6.68548867e-02, 1.96728874e-02, 1.71504542e-03,
          -4.55495939e-02, 4.29063588e-02, 2.40510739e-02,
          -3.00134048e-02, -1.29724685e-02, 2.74837073e-02,
          -3.41669247e-02, 9.42856353e-03, -2.20888928e-02,
          -4.28815559e-02, -8.79079383e-03, 4.47646044e-02,
          -3.27904411e-02, 9.09626484e-03, -1.29091656e-02,
          -6.03812747e-03, 9.70617011e-02, 4.12023477e-02,
          3.05278879e-03, -2.77569946e-02, -2.41000541e-02,
          4.69131730e-02, -7.79137760e-02, 2.89171143e-03,
          7.65849557e-03, 2.48477273e-02, -2.23778728e-02,
          -1.48793058e-02, 6.55065710e-03, -2.67460756e-02,
          -5.69757400e-03, -5.43634035e-02, 8.40474218e-02,
          1.21924719e-02, -4.86138910e-02, -6.60850247e-03,
          -8.81792381e-02, 6.68120803e-03, 2.73257084e-02,
          -4.97254319e-02, 3.22877504e-02, -2.55320370e-02,
          2.94818338e-02, 1.23117864e-02, -1.69672873e-02,
          5.11426516e-02, 8.43578279e-02, -4.92510274e-02,
          -6.20534224e-03, 2.86272652e-02, 2.38671666e-03,
          2.62647420e-02, 1.53179420e-02, 2.53367350e-02,
          -1.49741499e-02, -1.00563494e-02, -3.36891524e-02,
          -2.95793675e-02, -8.59491751e-02, -4.63738255e-02,
          2.11961810e-02, 3.21333893e-02, -9.48091224e-03,
          -7.30933249e-03, -4.28380743e-02, 4.55733836e-02,
          9.78698302e-03, 4.95257135e-03, 3.49669741e-03, 5.70705254e-03,
          6.17197715e-03, 2.34220102e-02, -3.75386104e-02,
          1.33556491e-02, 1.47116650e-03, 3.40101235e-02,
          -5.39221279e-02, 1.20374277e-01, 4.09062486e-03 ]
      - [ -9.59338769e-02, 4.24822681e-02, -6.05829693e-02,
          -3.02042793e-02, -9.83236581e-02, -3.35979536e-02,
          4.13989909e-02, 9.55835823e-03, 1.16803115e-02, 4.16607037e-02,
          4.78860550e-03, 4.74190749e-02, -2.12792754e-02,
          -2.24400405e-02, 2.67891083e-02, -1.23444468e-01,
          6.83857799e-02, 3.92431431e-02, 1.55181615e-02, 3.13651212e-03,
          2.52064243e-02, -1.36906654e-02, 7.86747634e-02,
          1.52089708e-02, -5.92923574e-02, 2.66496725e-02,
          -8.68110359e-03, 2.68880185e-02, 3.05015743e-02,
          -8.37489143e-02, -7.19395373e-03, -8.55464414e-02,
          2.11969987e-02, 7.36687519e-03, 6.15897961e-03, 4.52751182e-02,
          2.11826283e-02, 3.23582031e-02, -1.66452378e-02,
          2.68452819e-02, -2.20798794e-02, -7.85280094e-02,
          1.81821268e-02, -1.46470321e-02, 5.64658130e-03,
          2.04679603e-03, -3.46819567e-03, 1.17368251e-02,
          1.50674265e-02, 1.13169877e-02, -8.66043717e-02,
          -4.80710529e-02, -8.54179561e-02, 2.47199293e-02,
          -1.02951443e-02, 3.79974246e-02, 2.38871388e-02,
          4.91375886e-02, 2.85483059e-02, 4.94578518e-02, 1.55162765e-03,
          2.98191626e-02, 4.33537476e-02, 6.10017814e-02, 3.17308269e-02,
          -4.73084375e-02, 7.29470165e-04, -1.72494422e-03,
          -5.15801460e-02, -1.08364083e-01, 1.07816616e-02,
          2.24835593e-02, 8.41301959e-03, -3.59572768e-02,
          2.02924069e-02, 1.57290176e-02, 1.75725017e-02,
          -1.16639510e-02, -5.16121797e-02, 4.49648276e-02,
          1.11945616e-02, 1.22334585e-02, 2.00027949e-03, 6.24546856e-02,
          -2.53663259e-03, -1.33743146e-02, 1.66966077e-02,
          1.87103506e-02, 9.03576985e-03, 4.69172746e-02,
          -9.42004696e-02, 2.17128801e-03, 7.56000280e-02,
          2.81647090e-02, 6.90309145e-03, -3.87354731e-03,
          6.54848386e-03, -2.57531051e-02, -4.28046510e-02,
          9.68944369e-05 ]
      - [ -9.88068432e-02, -1.69728082e-02, -1.74787373e-03,
          1.47543720e-03, -1.45116905e-02, 2.85309041e-03,
          2.64841970e-03, 1.07715139e-03, 1.11035921e-01,
          -1.99548472e-02, -1.61789183e-03, -5.10631315e-03,
          -8.70142970e-03, -2.57742442e-02, 4.57728617e-02,
          -1.68750323e-02, -2.94892030e-04, -2.81438348e-03,
          -9.85074602e-03, 3.05081205e-03, 9.37371794e-03,
          2.23829877e-03, 4.99695959e-03, 2.13742132e-05, 1.14572840e-02,
          5.82644995e-03, -2.33304012e-03, 1.92362804e-03,
          4.33380753e-02, -2.12220363e-02, 3.57446750e-03,
          -1.15343546e-02, -2.99437921e-02, 1.50682190e-02,
          9.78310220e-03, -3.30213783e-03, 6.52040094e-02,
          2.10955739e-03, 2.69222800e-02, 3.03529557e-02,
          -1.50370086e-02, -1.91066116e-02, 3.29016882e-04,
          -1.08801089e-02, -1.29981088e-02, 2.28732289e-03,
          -1.36040086e-02, -2.39397530e-02, -7.25303590e-03,
          2.22171098e-02, 9.69825592e-03, -1.16590306e-01,
          3.29690725e-02, -4.08905419e-03, 1.26313688e-02,
          1.34117782e-01, 6.23702025e-03, 1.28006814e-02,
          -1.61972363e-02, -2.86739878e-03, -9.49335808e-04,
          2.55899015e-03, -3.74499708e-02, 3.48568223e-02,
          -3.73103879e-02, -2.30834149e-02, -5.06950216e-03,
          2.89407279e-03, 1.84754084e-03, -1.22299399e-02,
          -3.10936924e-02, 4.93581742e-02, 1.45329861e-03,
          3.76285892e-03, -1.69120599e-02, 9.30302718e-04,
          1.73430331e-02, 8.28847811e-02, 1.70337185e-02, 1.37012163e-02,
          -2.83661159e-03, -2.07395963e-02, -1.25320228e-02,
          4.64491434e-02, -3.88079416e-03, 1.93836074e-03,
          -8.29264615e-03, -3.75224836e-02, 1.27239549e-03,
          -1.03104981e-02, -4.50534299e-02, -8.91446788e-03,
          2.08437927e-02, -1.29656829e-02, -1.79322939e-02,
          4.79538273e-03, -9.48539656e-03, -1.13079119e-02,
          -2.95627918e-02, -7.95362797e-03 ]
      - [ -9.82449129e-02, 3.74865532e-02, -6.54840330e-03,
          -4.79563735e-02, -7.54711628e-02, -2.12678481e-02,
          6.39267936e-02, -4.94096312e-04, -7.36427587e-03,
          2.10539978e-02, -9.10725794e-04, -1.21069504e-02,
          -1.30315349e-02, -9.66431457e-04, -6.51094271e-03,
          -5.77147938e-02, 1.72736552e-02, 5.67292199e-02,
          5.84202539e-03, -6.23888671e-02, 3.43488492e-02,
          4.56704646e-02, 1.02524154e-01, 3.51713896e-02,
          -1.20458333e-03, -3.85300182e-02, 2.96602063e-02,
          2.00583059e-02, -9.16068554e-02, -3.45790535e-02,
          -3.61478725e-03, -8.65413994e-02, 5.04785329e-02,
          1.29189668e-02, 3.26822586e-02, 5.81502467e-02,
          -6.95029795e-02, 7.62692019e-02, 2.92777792e-02,
          6.79633906e-03, -5.24237640e-02, -1.91296618e-02,
          5.85460663e-02, -3.43389101e-02, -1.04458667e-02,
          -3.60177085e-03, 3.75695489e-02, -3.95541452e-02,
          4.30028886e-02, -3.62744220e-02, -3.26385684e-02,
          -7.16685280e-02, -1.71266012e-02, 8.08354393e-02,
          1.69891100e-02, -2.79793721e-02, -4.19813534e-03,
          5.76115064e-02, -9.08219256e-03, 5.96370883e-02,
          -5.81391342e-03, 5.96328117e-02, 4.71025370e-02,
          -1.51820621e-02, -4.07451717e-03, -8.64578635e-02,
          3.36498432e-02, 2.26457510e-02, -1.57096431e-01,
          -5.00826277e-02, -2.80605052e-02, 2.05615144e-02,
          3.52398902e-02, -7.67962541e-04, 1.66459959e-02,
          4.09320630e-02, 4.91155498e-02, -5.45803457e-02,
          -1.09312020e-01, 6.17381632e-02, -2.41996143e-02,
          3.51197757e-02, 3.78251858e-02, 5.18657546e-03, 7.50017259e-03,
          5.91067784e-03, 5.34374751e-02, -2.14069691e-02,
          1.30678585e-03, 6.61604106e-02, -1.17046617e-01,
          -2.97948848e-02, -1.36315981e-02, 3.89173217e-02,
          3.13119441e-02, 1.06518029e-03, 3.47569436e-02, 5.61374892e-03,
          1.91965476e-02, -8.55659135e-03 ]
      - [ -1.68574065e-01, 2.17715167e-02, -3.70448492e-02,
          -3.29570249e-02, -5.52765653e-02, -1.25473849e-02,
          3.17892954e-02, -1.01443939e-02, 2.44266428e-02,
          6.55303523e-03, 1.67972420e-03, 3.50103155e-02,
          -3.71824093e-02, -5.94763039e-03, 6.74923090e-03,
          -1.89006254e-02, 3.87127814e-03, 3.24394852e-02,
          -8.03683698e-02, 1.75446197e-02, 2.25522183e-02,
          -2.59759706e-02, 2.72811297e-02, 1.92480385e-02,
          -2.37175096e-02, 2.71011051e-02, 6.60645217e-03,
          -7.67890587e-02, 4.54798564e-02, -3.36288624e-02,
          -7.26536065e-02, -1.57826655e-02, -7.86287803e-03,
          1.49745615e-02, 1.49830040e-02, 1.55530833e-02, 6.64789304e-02,
          3.56511548e-02, 2.42362022e-02, -1.03315283e-02,
          -4.28544618e-02, -5.56328073e-02, 5.81528340e-03,
          3.53173120e-03, 1.68237754e-03, -9.75186005e-03,
          -6.42753206e-03, 6.21578936e-03, 6.15620567e-03,
          2.47616004e-02, -2.30132565e-02, -1.71994314e-01,
          -1.52963800e-02, 2.98707634e-02, 4.31889407e-02,
          5.03905788e-02, 2.17668619e-02, 3.41670476e-02, 1.82015542e-02,
          2.02790629e-02, 1.02578904e-02, 3.52416895e-02,
          -1.73273813e-02, 3.98035757e-02, 2.67106406e-02,
          -1.66099370e-02, 2.80594174e-02, 2.50490587e-02,
          -1.98436771e-02, -3.68002206e-02, 2.27479767e-02,
          4.78397049e-02, 2.09692512e-02, -3.78375128e-02,
          6.81314804e-03, 2.07175181e-04, 4.84619364e-02, 3.09314411e-02,
          1.71087012e-02, 6.56917412e-03, -3.33121307e-02,
          5.00161946e-03, 3.99426743e-02, 3.44297960e-02, 6.32715551e-03,
          3.31901782e-03, 1.92901846e-02, 2.16835970e-03,
          -1.10130035e-03, 2.78484635e-02, -3.26439030e-02,
          -4.40443680e-03, 1.02515277e-02, -2.42476016e-02,
          1.22784367e-02, -3.28428997e-03, 2.69635813e-03,
          -3.36030982e-02, -3.45712923e-03, 1.67955086e-02 ]
      - [ 3.66578177e-02, 2.07823552e-02, -1.35604921e-03,
          7.16745388e-03, 1.80938300e-02, 1.13670314e-02,
          -9.67783630e-02, -3.82886268e-02, 1.52249783e-01,
          2.38622725e-02, 3.36009031e-03, 5.00798374e-02, 1.60533539e-03,
          -5.47287054e-02, 2.23147422e-02, 1.50581086e-02,
          7.24486262e-02, -6.50634244e-02, 6.76416755e-02,
          3.72953638e-02, -3.17392237e-02, -3.41871232e-02,
          -1.32797599e-01, -3.39421146e-02, 1.42528331e-02,
          4.16153856e-02, -5.47075495e-02, 6.85454831e-02,
          8.22644383e-02, 1.05663808e-02, 7.10580349e-02, 1.00324061e-02,
          -6.90363497e-02, 2.53930911e-02, -3.15417610e-02,
          -3.46563943e-02, 1.07461669e-01, -1.18965507e-01,
          -1.31195178e-02, -3.51828919e-03, 3.47309783e-02,
          -2.43966728e-02, -4.84444499e-02, 2.04760544e-02,
          5.96148195e-03, -1.48267923e-02, -8.83946568e-02,
          2.49564946e-02, -1.85716972e-02, 3.60380150e-02,
          9.87292361e-03, -2.81950086e-02, 3.81192341e-02,
          -1.32699147e-01, -1.47966365e-03, 1.61755398e-01,
          2.76696905e-02, 5.32440059e-02, 3.02153211e-02,
          -9.36015695e-02, 4.13848162e-02, -8.62005055e-02,
          3.95717565e-03, 5.98703995e-02, 3.78834247e-03, 1.58148259e-02,
          -6.12299740e-02, -7.59652108e-02, 5.77471182e-02,
          1.16621153e-02, 1.42364781e-02, 5.77336773e-02,
          -2.90597379e-02, 5.84586873e-04, -4.44876738e-02,
          -1.52614750e-02, -4.92856391e-02, 1.30629510e-01,
          7.10846856e-02, 3.87291461e-02, 3.38462964e-02,
          -4.73007932e-02, -4.62170206e-02, 6.06478602e-02,
          -4.20058519e-02, 7.31349410e-03, -1.40554663e-02,
          2.73509766e-03, -1.03338566e-02, -7.58125931e-02,
          2.35074833e-02, 1.78432856e-02, 9.71266776e-02,
          -7.69637479e-03, -5.51559739e-02, -3.14881019e-02,
          -1.13774195e-01, 3.11626252e-02, -1.38551891e-01,
          1.32992771e-02 ]
      - [ 5.47774620e-02, 3.05118486e-02, -3.83749045e-02,
          3.10939718e-02, -1.64904043e-01, -3.88700925e-02,
          1.75364353e-02, 7.84230605e-03, -1.04775146e-01,
          -2.39115529e-04, -7.72319967e-04, 4.18500639e-02,
          3.72161111e-03, 1.31997475e-02, 1.27560820e-03, 5.72214089e-03,
          4.50103171e-03, 1.87967196e-02, 3.24108712e-02, 4.62883152e-02,
          2.15258077e-02, 3.30341756e-02, 7.45553225e-02, 5.89565421e-03,
          -5.77359311e-02, 1.30147049e-02, -2.72319163e-03,
          3.88586372e-02, 5.26348017e-02, -1.35069182e-02,
          -2.02186257e-02, -2.92535555e-02, 4.56898361e-02,
          -1.57085080e-02, -3.30458917e-02, 3.58950384e-02,
          3.08866426e-02, 1.14438636e-02, -3.08647081e-02,
          -9.55186691e-03, 2.28958968e-02, 1.52146174e-02,
          1.50402915e-02, 2.79377378e-03, 6.46653934e-04, 6.05153106e-03,
          2.73248479e-02, -1.20180694e-03, 2.97499471e-03,
          1.38085512e-02, -4.51287106e-02, 2.16832869e-02,
          -3.55959535e-02, 4.57984731e-02, 2.90122740e-02,
          -1.63255557e-02, 1.06163360e-02, -9.87626985e-02,
          2.92751715e-02, 5.05571924e-02, 1.09516494e-02, 2.67907623e-02,
          4.04323079e-02, -5.12667298e-02, 3.65189947e-02,
          -5.60623147e-02, -3.06110550e-03, 1.43699674e-02,
          7.89611973e-03, -3.30607519e-02, 2.57053189e-02,
          -7.45892301e-02, 1.42438058e-02, -2.16964851e-04,
          2.68702153e-02, 2.08761394e-02, 1.67099312e-02,
          -1.63993865e-01, 8.67803209e-03, -3.81309055e-02,
          -2.74390535e-04, 2.75331382e-02, 1.36789931e-02,
          6.20847661e-03, 9.08082444e-03, -2.14627273e-02,
          6.10708520e-02, 2.35445462e-02, 2.49316311e-03, 2.68519763e-02,
          -1.86093390e-01, 6.38062833e-03, -1.08163692e-01,
          3.18209976e-02, 1.74385421e-02, -1.94463681e-03,
          1.48686394e-02, 1.52096167e-04, 3.11506912e-02, 6.90693362e-03 ]
      - [ 7.53242336e-03, 9.48774454e-04, -1.95514522e-02,
          -1.28027499e-02, -1.05009321e-02, -2.75452826e-02,
          4.10192180e-03, 1.00345863e-02, 1.72489416e-02,
          -6.11402886e-03, 1.73474499e-03, 1.76545288e-02,
          -1.93936005e-02, 2.64087860e-02, 1.54099232e-02,
          -3.78277013e-03, -3.38668153e-02, 5.18473610e-03,
          -1.91838965e-02, 1.04534905e-02, 1.48025276e-02,
          -4.38113846e-02, 9.95498523e-03, 1.02412412e-02,
          -1.14479447e-02, 7.17585348e-03, 8.44502170e-03,
          1.76399462e-02, 2.99648903e-02, -1.92025043e-02,
          9.55338962e-03, -1.35027571e-02, -7.74319796e-03,
          -7.77868601e-03, -7.74398400e-03, -1.27713466e-02,
          5.03417328e-02, 3.50112729e-02, 2.11565383e-02, 1.10065984e-02,
          -1.66268740e-02, -3.79525982e-02, 1.45813022e-02,
          -4.89731058e-02, 1.33292715e-03, 1.01624234e-02,
          -4.96756751e-04, -2.44621728e-02, -4.64836089e-03,
          9.04628169e-03, -2.66527329e-02, -3.11153680e-02,
          -1.57734882e-02, 2.47583538e-02, 4.38111722e-02,
          1.88597124e-02, 1.11214835e-02, -3.41537595e-02,
          1.20093329e-02, 7.23959878e-03, -1.63264647e-02,
          1.46369198e-02, -1.85410306e-02, 2.91344505e-02,
          -3.59239778e-03, -2.27566268e-02, 5.72174275e-03,
          1.81726962e-02, -1.57336257e-02, -1.35958446e-02,
          1.26591511e-02, 8.37277435e-03, 9.80578363e-03, 1.06061436e-02,
          4.34945757e-03, 5.35761937e-03, 2.80292681e-03, 1.88865252e-02,
          -1.81395225e-02, -3.71217392e-02, -1.26431501e-02,
          -3.92520661e-03, 2.68009230e-02, 1.64283570e-02,
          -9.87500139e-03, -1.11969523e-02, 2.44493093e-02,
          5.50305517e-03, 5.03594894e-03, -4.56268014e-03,
          -1.09048076e-02, 3.41410469e-03, 2.43940614e-02,
          -1.86426342e-02, -7.17802811e-03, 1.89738325e-03,
          8.97100661e-03, -3.81137468e-02, 2.29482949e-02,
          5.16993133e-03 ]
      - [ -2.87296763e-03, -5.94550744e-02, 5.88350967e-02,
          3.16797160e-02, 8.38119686e-02, 3.64510454e-02,
          -3.87505703e-02, -8.48120730e-03, 9.93556082e-02,
          -6.16155528e-02, -6.40649721e-03, -5.25253899e-02,
          1.25778466e-02, -3.33420304e-03, 1.89837534e-02,
          1.06569432e-01, -6.86806738e-02, -4.20575254e-02,
          -2.53689066e-02, -8.56999177e-05, -1.58327054e-02,
          1.59289632e-02, -7.36778006e-02, -1.51875960e-02,
          7.07496405e-02, -2.08232217e-02, 6.34806370e-03,
          -2.49643903e-02, 1.28365010e-02, 6.25268817e-02,
          1.07684210e-02, 7.40120858e-02, -5.11407927e-02,
          7.70134339e-03, 3.62412282e-03, -4.85772565e-02,
          4.40213792e-02, -3.02486457e-02, 4.35675196e-02,
          3.50767397e-03, 7.04287132e-03, 5.94214015e-02,
          -1.78531092e-02, 3.76692321e-03, -1.86446905e-02,
          2.40526890e-04, -1.01358136e-02, -3.56765762e-02,
          -2.23204624e-02, 1.09001230e-02, 9.63026285e-02,
          -6.85192570e-02, 1.18387029e-01, -2.88089830e-02,
          2.29265131e-02, 9.61203501e-02, -1.76501181e-02,
          -3.63369100e-02, -4.47455421e-02, -5.23252487e-02,
          -2.50096340e-03, -2.72601731e-02, -8.08037147e-02,
          -2.61449609e-02, -6.90412149e-02, 2.42250245e-02,
          -5.79897221e-03, 4.61901724e-03, 5.34276851e-02,
          9.61341411e-02, -4.18753549e-02, 2.68746130e-02,
          -6.95972145e-03, 3.97201329e-02, -3.72044668e-02,
          -1.47987148e-02, -2.29468278e-04, 9.45487320e-02,
          6.86459020e-02, -3.12636122e-02, -1.40311737e-02,
          -3.29730548e-02, -1.45323025e-02, -1.60055421e-02,
          -1.34416157e-03, 1.53126754e-02, -2.49892548e-02,
          -5.62328361e-02, -7.76337413e-03, -5.72277717e-02,
          4.91470397e-02, -1.10857561e-02, -5.47562353e-02,
          -4.11303900e-02, -2.48353854e-02, 8.66893027e-03,
          -1.60338804e-02, 1.44451931e-02, 1.32418582e-02,
          -8.05052277e-03 ]
      - [ -2.31103203e-03, -4.99571441e-03, 5.40345684e-02,
          -1.77520923e-02, 2.28524935e-02, 1.23301046e-02,
          2.25278065e-02, -1.00524547e-02, -1.90445874e-02,
          -2.06067059e-02, -5.69933141e-03, -5.95260262e-02,
          8.24774150e-03, 2.14736089e-02, -3.33000496e-02,
          6.57296702e-02, -5.11121266e-02, 1.74860749e-02,
          -9.67613608e-03, -6.55253753e-02, 9.14242305e-03,
          5.93611263e-02, 2.38493886e-02, 1.99624207e-02, 5.80877736e-02,
          -6.51796907e-02, 3.83413099e-02, -6.82971254e-03,
          -1.22108437e-01, 4.91698645e-02, 3.57916625e-03,
          -9.94959380e-04, 2.92815343e-02, 5.55209164e-03,
          2.65232809e-02, 1.28751295e-02, -9.06856135e-02,
          4.39110026e-02, 4.59230170e-02, -2.00489424e-02,
          -3.03438827e-02, 5.93983494e-02, 4.03639376e-02,
          -1.96918789e-02, -1.60924476e-02, -5.64856688e-03,
          4.10377420e-02, -5.12909703e-02, 2.79354602e-02,
          -4.75914069e-02, 5.39658032e-02, -2.35974770e-02,
          6.82913586e-02, 5.61155081e-02, 2.72842534e-02,
          -6.59767985e-02, -2.80852746e-02, 8.47391784e-03,
          -3.76304984e-02, 1.01792375e-02, -7.36554107e-03,
          2.98136491e-02, 3.74878896e-03, -7.61838406e-02,
          -3.58053446e-02, -3.91494259e-02, 3.29203717e-02,
          2.43706945e-02, -1.05516285e-01, 5.82814515e-02,
          -3.88421677e-02, -1.92204502e-03, 2.68268697e-02,
          3.51893120e-02, -3.64641077e-03, 2.52030455e-02,
          3.15430462e-02, -4.29163948e-02, -5.76998368e-02,
          1.67733356e-02, -3.53941768e-02, 2.28863172e-02,
          3.58249061e-02, -5.72681129e-02, 1.00368056e-02,
          1.92849915e-02, 3.67408656e-02, -4.01173197e-02,
          -7.72898411e-03, 1.92431398e-02, -2.28461456e-02,
          -3.19661722e-02, -8.92316252e-02, 1.07526127e-02,
          2.44088527e-02, 4.93872771e-03, 2.82084588e-02, 3.13668549e-02,
          6.20011985e-02, -8.65348615e-03 ]
      - [ -7.26401806e-02, -2.07107496e-02, 2.35381220e-02,
          -2.75274389e-03, 4.30470929e-02, 2.10505687e-02,
          -9.60969459e-03, -1.97027531e-02, 1.27463304e-02,
          -3.51076685e-02, -3.10888141e-03, -1.24087576e-02,
          -1.59031339e-02, 1.64924096e-02, -2.00398769e-02,
          1.04543842e-01, -6.45145029e-02, -6.80365833e-03,
          -9.58865285e-02, 1.44081069e-02, -2.65420554e-03,
          -1.22853052e-02, -5.13936356e-02, 4.03906871e-03,
          3.55748460e-02, 4.51433792e-04, 1.52875558e-02,
          -1.03677072e-01, 1.49782831e-02, 5.01200557e-02,
          -6.54596537e-02, 6.97637722e-02, -2.90598776e-02,
          7.60768633e-03, 8.82402435e-03, -2.97220349e-02,
          4.52963039e-02, 3.29294917e-03, 4.08814400e-02,
          -3.71768102e-02, -2.07745824e-02, 2.28952058e-02,
          -1.23668434e-02, 1.81787629e-02, -3.96420388e-03,
          -1.17986565e-02, -2.95933662e-03, -5.52103575e-03,
          -8.91122036e-03, 1.34446127e-02, 6.35911152e-02,
          -1.23923257e-01, 7.01215789e-02, 5.15083410e-03,
          5.34840859e-02, 1.23931523e-02, -2.12027691e-03,
          -1.49705429e-02, -1.03467517e-02, -2.91787870e-02,
          8.70626327e-03, 5.42252604e-03, -6.06811270e-02,
          -2.11982056e-02, -5.02018770e-03, 3.06985006e-02,
          2.73299478e-02, 2.67740022e-02, 3.17364670e-02, 7.15638623e-02,
          1.19663160e-02, 2.53561437e-02, 1.25562316e-02,
          -1.88023737e-03, -1.34792589e-02, -1.55218430e-02,
          3.08894366e-02, 4.25953902e-02, 6.87208772e-02,
          -3.83956544e-02, -4.45066914e-02, -7.23183900e-03,
          3.79423946e-02, -2.80248914e-02, 8.86378810e-03,
          1.66933313e-02, 2.59357644e-03, -1.65419914e-02,
          -1.01370700e-02, -1.90688111e-02, 6.15565665e-02,
          -6.57572504e-03, -6.53484985e-02, -5.24123088e-02,
          5.37534477e-03, 5.89257281e-04, -3.85212572e-03,
          -7.84999318e-03, 3.93475220e-02, 1.66986138e-02 ]
      - [ 1.32591695e-01, -2.16999128e-02, 5.92269227e-02,
          3.73717323e-02, 1.16417482e-01, 4.49649841e-02,
          -1.38177350e-01, -4.78469841e-02, 1.40569463e-01,
          -1.77984331e-02, -1.42851542e-03, 2.66076066e-03,
          2.28846110e-02, -3.22886631e-02, -4.47436655e-03,
          1.38502568e-01, 4.06284211e-03, -1.04306571e-01,
          5.21235131e-02, 3.41588520e-02, -5.69456480e-02,
          -2.04964560e-02, -2.11472362e-01, -4.91510853e-02,
          7.35451877e-02, 1.49657140e-02, -4.60264459e-02,
          4.16574627e-02, 5.17628603e-02, 9.43152979e-02, 7.82519877e-02,
          9.55788419e-02, -9.02333483e-02, 1.80262160e-02,
          -3.77007425e-02, -7.99315125e-02, 8.62790421e-02,
          -1.51323706e-01, 3.52571928e-03, -3.03635709e-02,
          5.68108596e-02, 5.41313402e-02, -6.66265786e-02,
          3.51230875e-02, 3.14900710e-04, -1.68735888e-02,
          -8.49264562e-02, 1.32196685e-02, -3.36391218e-02,
          2.47210283e-02, 9.64772925e-02, 1.98760442e-02, 1.23537198e-01,
          -1.57419086e-01, 8.81548133e-03, 1.23757973e-01,
          3.78255197e-03, 4.10641683e-03, 1.66701525e-03,
          -1.43059418e-01, 3.98331881e-02, -1.16019666e-01,
          -3.93965729e-02, -1.13138300e-03, -2.79424861e-02,
          6.31232634e-02, -6.19594455e-02, -7.42402673e-02,
          1.09327264e-01, 1.20026194e-01, 3.45481723e-03, 3.52501161e-02,
          -3.74727584e-02, 3.65418606e-02, -6.47800788e-02,
          -3.09904926e-02, -6.68581426e-02, 1.42293453e-01,
          1.22696869e-01, -6.23568101e-03, 2.26517338e-02,
          -5.95342517e-02, -4.82173003e-02, -1.80682784e-03,
          -3.94692160e-02, 2.06878092e-02, -3.07520758e-02,
          -1.59752537e-02, -1.93696264e-02, -1.22729868e-01,
          1.17707953e-01, 1.56719983e-02, 2.15266515e-02,
          -3.58610824e-02, -6.20590635e-02, -2.76145544e-02,
          -1.20322682e-01, 5.69157302e-02, -9.57472399e-02,
          1.32023823e-02 ]
      - [ 1.50711343e-01, -1.19704185e-02, 2.22080667e-02,
          6.12982512e-02, -6.65803924e-02, -5.27213980e-03,
          -2.38625538e-02, -1.71605195e-03, -1.16455458e-01,
          -4.18998189e-02, -5.56092570e-03, -5.56900911e-03,
          2.50008870e-02, 3.56397890e-02, -2.55135000e-02,
          1.29166603e-01, -6.38847500e-02, -2.04464234e-02,
          1.68927107e-02, 4.31518033e-02, -3.68061708e-03,
          4.67248410e-02, -4.11944371e-03, -9.31331608e-03,
          1.55642431e-03, -1.36349676e-02, 5.95791219e-03,
          1.19706197e-02, 2.21332274e-02, 7.02419952e-02,
          -1.30246719e-02, 5.62928803e-02, 2.44928375e-02,
          -2.30753832e-02, -3.92048694e-02, -9.38007981e-03,
          9.70401429e-03, -2.09143404e-02, -1.42194703e-02,
          -3.63971479e-02, 4.49757762e-02, 9.37426314e-02,
          -3.14183510e-03, 1.74408052e-02, -4.99992725e-03,
          4.00473503e-03, 3.07930429e-02, -1.29386326e-02,
          -1.20924311e-02, 2.49156356e-03, 4.14756611e-02,
          6.97543398e-02, 4.98220064e-02, 2.10785437e-02, 3.93074192e-02,
          -5.43229803e-02, -1.32708037e-02, -1.47900298e-01,
          7.26864673e-04, 1.09934097e-03, 9.40002222e-03,
          -3.02840024e-03, -2.92143901e-03, -1.12268507e-01,
          4.78816545e-03, -8.75387620e-03, -3.79057578e-03,
          1.60949118e-02, 5.94762638e-02, 7.53033310e-02, 1.49236573e-02,
          -9.70727876e-02, 5.83078526e-03, 3.57403085e-02,
          6.57780841e-03, 5.14712092e-03, -8.62570421e-04,
          -1.52329907e-01, 6.02902099e-02, -8.30957294e-02,
          -1.14689525e-02, 1.52996788e-02, 1.16787134e-02,
          -5.62462099e-02, 1.16174575e-02, -8.08841269e-03,
          4.43742424e-02, 4.83419513e-03, -6.54260674e-03,
          -2.00652983e-02, -9.18929204e-02, 4.20934055e-03,
          -1.83763713e-01, 3.65628744e-03, 1.05354516e-02,
          1.92891038e-03, 8.32015648e-03, 2.59052012e-02, 7.39553422e-02,
          6.81003928e-03 ]
      - [ 1.03466302e-01, -4.15334925e-02, 4.10315208e-02,
          1.74015295e-02, 8.78227204e-02, 6.05267053e-03,
          -3.72970663e-02, 4.76227433e-04, 5.56862913e-03,
          -4.77747321e-02, -3.05386074e-03, -2.97645461e-02,
          1.88567536e-03, 4.88488264e-02, -1.13791851e-02,
          1.19661696e-01, -1.02252595e-01, -3.40584069e-02,
          -3.47020589e-02, 7.31697818e-03, -1.04038967e-02,
          -3.01207211e-02, -6.87197745e-02, -4.96772910e-03,
          4.78444137e-02, -1.94738172e-02, 1.71261262e-02,
          -9.24807228e-03, -5.36684296e-04, 6.45464137e-02,
          1.67473443e-02, 7.20436797e-02, -2.89401971e-02,
          -1.51455617e-02, -1.39029641e-02, -5.80464639e-02,
          2.91591045e-02, 2.65307049e-03, 3.78017761e-02,
          -1.58386827e-02, 5.45300683e-03, 4.05754112e-02,
          -3.60082393e-03, -3.43260728e-02, -4.31365427e-03,
          8.11562687e-03, 2.97143892e-03, -3.61989960e-02,
          -1.97157860e-02, -2.27070577e-03, 5.99516369e-02,
          1.69556849e-02, 6.96444735e-02, 3.84255327e-05, 5.41063175e-02,
          -1.91377122e-02, -1.27656562e-02, -8.32913518e-02,
          -1.65389739e-02, -4.22182530e-02, -1.78780928e-02,
          -1.51822437e-02, -6.18947782e-02, -3.18673328e-02,
          -3.53232250e-02, 2.45518107e-02, 4.99227270e-03,
          1.98976398e-02, 3.58465202e-02, 9.47682336e-02, 1.87749008e-03,
          -1.41107850e-02, 1.39276334e-03, 4.65634167e-02,
          -1.59429498e-02, -1.03713982e-02, -1.47695746e-02,
          3.05504762e-02, 3.34726572e-02, -8.20865631e-02,
          -2.38377117e-02, -1.61586646e-02, 2.48006433e-02,
          -4.60263267e-02, -7.33836880e-03, 2.17736186e-03,
          7.75270024e-03, -1.32072950e-02, -3.99982091e-03,
          -5.14799543e-02, 8.32956657e-02, 1.24281680e-03,
          -5.12059666e-02, -4.68073413e-02, -1.40811196e-02,
          5.77093055e-03, 2.42252299e-03, -1.23606417e-02,
          6.57529458e-02, 5.07303700e-03 ]
      - [ 5.61935420e-04, 5.44593595e-02, -4.80052922e-03,
          -4.94318083e-02, -6.09594695e-02, -2.41209380e-02,
          6.12783767e-02, -1.57124770e-03, -1.18400194e-01,
          4.10088450e-02, 7.07165978e-04, -7.00063771e-03,
          -4.33010561e-03, 2.48078126e-02, -5.22838049e-02,
          -4.08397615e-02, 1.75685473e-02, 5.95436022e-02,
          1.56927723e-02, -6.54396787e-02, 2.49751285e-02,
          4.34321649e-02, 9.75271910e-02, 3.51500176e-02,
          -1.26618668e-02, -4.43564691e-02, 3.19932476e-02,
          1.81346778e-02, -1.34944931e-01, -1.33570153e-02,
          -7.18925474e-03, -7.50070438e-02, 8.04223269e-02,
          -2.14925199e-03, 2.28991583e-02, 6.14523850e-02,
          -1.34706989e-01, 7.41596445e-02, 2.35549873e-03,
          -2.35566162e-02, -3.73867527e-02, -2.30488022e-05,
          5.82170486e-02, -2.34588012e-02, 2.55224179e-03,
          -5.88909397e-03, 5.11735566e-02, -1.56143922e-02,
          5.02559245e-02, -5.84915318e-02, -4.23368253e-02,
          4.49217781e-02, -5.00956737e-02, 8.49244967e-02,
          4.35774028e-03, -1.62097141e-01, -1.04351556e-02,
          4.48108278e-02, 7.11504277e-03, 6.25044852e-02,
          -4.86457767e-03, 5.70738204e-02, 8.45525041e-02,
          -5.00388853e-02, 3.32358703e-02, -6.33744523e-02,
          3.87193449e-02, 1.97516773e-02, -1.58943966e-01,
          -3.78526859e-02, 3.03318677e-03, -2.87966579e-02,
          3.37865911e-02, -4.53082146e-03, 3.35580558e-02,
          4.00017612e-02, 3.17725167e-02, -1.37465134e-01,
          -1.26345739e-01, 4.80369478e-02, -2.13630032e-02,
          5.58593720e-02, 5.03572077e-02, -4.12625670e-02,
          1.13809668e-02, 3.97231709e-03, 6.17301203e-02, 1.61155164e-02,
          3.43902866e-05, 7.64709115e-02, -7.19931871e-02,
          -2.08804179e-02, -3.44753899e-02, 5.18830046e-02,
          4.92442399e-02, -3.73020233e-03, 4.42423411e-02,
          1.69216618e-02, 4.87593375e-02, -6.02963148e-04 ]
      - [ -6.97672144e-02, 3.87443230e-02, -3.52969766e-02,
          -3.44324596e-02, -4.07648720e-02, -1.54004758e-02,
          2.91408747e-02, -1.12215448e-02, -8.66092816e-02,
          2.65078824e-02, 3.29761603e-03, 4.01166305e-02,
          -2.84809824e-02, 1.98266134e-02, -3.90236303e-02,
          -2.02559307e-03, 4.16617002e-03, 3.52538675e-02,
          -7.05176219e-02, 1.44938072e-02, 1.31785003e-02,
          -2.82142684e-02, 2.22841706e-02, 1.92266647e-02,
          -3.51747945e-02, 2.12746561e-02, 8.93949252e-03,
          -7.87126869e-02, 2.14178138e-03, -1.24068251e-02,
          -7.62280747e-02, -4.24831174e-03, 2.20809150e-02,
          -9.36571523e-05, 5.19990176e-03, 1.88552216e-02,
          1.27492507e-03, 3.35415974e-02, -2.68607936e-03,
          -4.06844839e-02, -2.78174523e-02, -3.65261957e-02,
          5.48626622e-03, 1.44118397e-02, 1.46804862e-02,
          -1.20391836e-02, 7.17647653e-03, 3.01555414e-02,
          1.34092420e-02, 2.54448922e-03, -3.27115096e-02,
          -5.54040000e-02, -4.82654497e-02, 3.39598171e-02,
          3.05575728e-02, -8.37271959e-02, 1.55298421e-02,
          2.13663653e-02, 3.43987904e-02, 2.31464617e-02, 1.12072267e-02,
          3.26826982e-02, 2.01225895e-02, 4.94675338e-03, 6.40210286e-02,
          6.47347746e-03, 3.31289209e-02, 2.21549850e-02,
          -2.16912180e-02, -2.45702807e-02, 5.38416691e-02,
          -1.51846907e-03, 1.95159521e-02, -4.16003726e-02,
          2.37252098e-02, -7.23127509e-04, 3.11189052e-02,
          -5.19533418e-02, 7.49822066e-05, -7.13204267e-03,
          -3.04755177e-02, 2.57412158e-02, 5.24746962e-02,
          -1.20193493e-02, 1.02079492e-02, 1.38065696e-03,
          2.75828317e-02, 3.96908447e-02, -2.37369584e-03,
          3.81589606e-02, 1.24095259e-02, 4.51003108e-03,
          -1.05922651e-02, -1.12819178e-02, 3.02107297e-02,
          -8.07967316e-03, 1.21817552e-02, -2.22951863e-02,
          2.61056628e-02, 2.47491356e-02 ]
      - [ 1.35464668e-01, 3.77551615e-02, 3.91824462e-04, 5.69201633e-03,
          3.26055214e-02, 8.51394143e-03, -9.94267836e-02,
          -3.93657796e-02, 4.12138589e-02, 4.38171178e-02,
          4.97798203e-03, 5.51861487e-02, 1.03067644e-02,
          -2.89544612e-02, -2.34581195e-02, 3.19331400e-02,
          7.27435127e-02, -6.22490421e-02, 7.74924234e-02,
          3.42445523e-02, -4.11129408e-02, -3.64254192e-02,
          -1.37794554e-01, -3.39634903e-02, 2.79554934e-03,
          3.57889347e-02, -5.23745082e-02, 6.66218549e-02,
          3.89263593e-02, 3.17884162e-02, 6.74835667e-02, 2.15667598e-02,
          -3.90925556e-02, 1.03248730e-02, -4.13248651e-02,
          -3.13542560e-02, 4.22576629e-02, -1.21075064e-01,
          -4.00418006e-02, -3.38712446e-02, 4.97679897e-02,
          -5.29005984e-03, -4.87734675e-02, 3.13561633e-02,
          1.89595912e-02, -1.71141159e-02, -7.47906491e-02,
          4.88962457e-02, -1.13186603e-02, 1.38209052e-02,
          1.74667905e-04, 8.83952975e-02, 5.15016494e-03,
          -1.28610104e-01, -1.41110327e-02, 2.76376251e-02,
          2.14326698e-02, 4.04433236e-02, 4.64125574e-02,
          -9.07341689e-02, 4.23341505e-02, -8.87594968e-02,
          4.14071456e-02, 2.50135772e-02, 4.10987325e-02, 3.88982408e-02,
          -5.61604723e-02, -7.88592845e-02, 5.58995754e-02,
          2.38920562e-02, 4.53301705e-02, 8.37550312e-03,
          -3.05130370e-02, -3.17827216e-03, -2.75756121e-02,
          -1.61917787e-02, -6.66286722e-02, 4.77447212e-02,
          5.40509708e-02, 2.50279307e-02, 3.66829075e-02,
          -2.65611988e-02, -3.36849988e-02, 1.41987149e-02,
          -3.81250568e-02, 5.37513336e-03, -5.76282013e-03,
          4.02575843e-02, -1.16062518e-02, -6.55020922e-02,
          6.85609132e-02, 2.67577544e-02, 7.62828887e-02, 5.26930811e-03,
          -3.72236781e-02, -3.62834856e-02, -1.04288802e-01,
          4.24705371e-02, -1.08989097e-01, 2.12529041e-02 ]
      - [ 1.53584301e-01, 4.74846549e-02, -3.66270319e-02,
          2.96185352e-02, -1.50392354e-01, -4.17231843e-02,
          1.48880146e-02, 6.76515512e-03, -2.15811059e-01,
          1.97157320e-02, 8.45571863e-04, 4.69563790e-02, 1.24230403e-02,
          3.89739908e-02, -4.44972552e-02, 2.25971732e-02,
          4.79592336e-03, 2.16111038e-02, 4.22616191e-02, 4.32375036e-02,
          1.21520888e-02, 3.07958759e-02, 6.95583597e-02, 5.87427989e-03,
          -6.91932142e-02, 7.18825497e-03, -3.90151399e-04,
          3.69350091e-02, 9.29672644e-03, 7.71511765e-03,
          -2.37930939e-02, -1.77192017e-02, 7.56336302e-02,
          -3.07767261e-02, -4.28289920e-02, 3.91971767e-02,
          -3.43173668e-02, 9.33430623e-03, -5.77869862e-02,
          -3.99048217e-02, 3.79329063e-02, 3.43212299e-02,
          1.47112738e-02, 1.36738820e-02, 1.36447623e-02, 3.76420841e-03,
          4.09288555e-02, 2.27379464e-02, 1.02280313e-02,
          -8.40855949e-03, -5.48269674e-02, 1.38273597e-01,
          -6.85650259e-02, 4.98875268e-02, 1.63809042e-02,
          -1.50443330e-01, 4.37931530e-03, -1.11563385e-01,
          4.54724059e-02, 5.34245893e-02, 1.19009856e-02, 2.42317729e-02,
          7.78822750e-02, -8.61235484e-02, 7.38293827e-02,
          -3.29788998e-02, 2.00839643e-03, 1.14758946e-02,
          6.04857877e-03, -2.08308119e-02, 5.67990094e-02,
          -1.23947404e-01, 1.27905067e-02, -3.97982402e-03,
          4.37822752e-02, 1.99458357e-02, -6.33102143e-04,
          -2.46878639e-01, -8.35568737e-03, -5.18321209e-02,
          2.56222091e-03, 4.82727326e-02, 2.62110159e-02,
          -4.02406678e-02, 1.29616186e-02, -2.34010871e-02,
          6.93634972e-02, 6.10670298e-02, 1.22076762e-03, 3.71624753e-02,
          -1.41039968e-01, 1.52950957e-02, -1.29007488e-01,
          4.47866768e-02, 3.53708379e-02, -6.74001966e-03,
          2.43540369e-02, 1.14600081e-02, 6.07134812e-02, 1.48605620e-02 ]
      - [ 1.06339268e-01, 1.79215837e-02, -1.78035777e-02,
          -1.42781865e-02, 4.01075883e-03, -3.03983726e-02,
          1.45350210e-03, 8.95743445e-03, -9.37869772e-02,
          1.38408178e-02, 3.35263670e-03, 2.27608420e-02,
          -1.06921718e-02, 5.21830283e-02, -3.03629395e-02,
          1.30922617e-02, -3.35719250e-02, 7.99911935e-03,
          -9.33315139e-03, 7.40267849e-03, 5.42880921e-03,
          -4.60496843e-02, 4.95802565e-03, 1.02198673e-02,
          -2.29052287e-02, 1.34940387e-03, 1.07780620e-02,
          1.57163180e-02, -1.33731859e-02, 2.01953156e-03,
          5.97892283e-03, -1.96840265e-03, 2.22005937e-02,
          -2.28469055e-02, -1.75270867e-02, -9.46920831e-03,
          -1.48622748e-02, 3.29017155e-02, -5.76574262e-03,
          -1.93463583e-02, -1.58986473e-03, -1.88459866e-02,
          1.42522855e-02, -3.80929969e-02, 1.43310362e-02,
          7.87509978e-03, 1.31072523e-02, -5.22419694e-04,
          2.60467548e-03, -1.31708290e-02, -3.63509879e-02,
          8.54749382e-02, -4.87425588e-02, 2.88474094e-02,
          3.11798044e-02, -1.15258060e-01, 4.88446280e-03,
          -4.69544418e-02, 2.82065682e-02, 1.01069976e-02,
          -1.53771294e-02, 1.20779295e-02, 1.89089384e-02,
          -5.72237186e-03, 3.37179899e-02, 3.26786394e-04,
          1.07912449e-02, 1.52786234e-02, -1.75811667e-02,
          -1.36590411e-03, 4.37528417e-02, -4.09853980e-02,
          8.35248455e-03, 6.84328424e-03, 2.12615188e-02, 4.42731660e-03,
          -1.45401061e-02, -6.39982596e-02, -3.51732410e-02,
          -5.08229546e-02, -9.80653893e-03, 1.68143902e-02,
          3.93329449e-02, -3.00207864e-02, -5.99420723e-03,
          -1.31353131e-02, 3.27419564e-02, 4.30255421e-02,
          3.76355345e-03, 5.74781839e-03, 3.41486223e-02, 1.23285726e-02,
          3.55026801e-03, -5.67695126e-03, 1.07542658e-02,
          -2.89799948e-03, 1.84564032e-02, -2.68058348e-02,
          5.25110848e-02, 1.31235598e-02 ]
      - [ -7.03291520e-02, -1.57150365e-02, -3.04964464e-02,
          1.49993487e-02, 2.01945975e-02, 8.72046314e-03,
          -3.21374983e-02, -9.65029746e-03, 3.17909196e-02,
          -1.45009626e-02, 2.59044999e-03, 4.71172668e-02,
          -2.41508763e-02, -4.98119928e-03, 1.32601736e-02,
          3.88141684e-02, -1.34023763e-02, -2.42897328e-02,
          -8.62103924e-02, 7.99334869e-02, -1.17966291e-02,
          -7.16464296e-02, -7.52430260e-02, -1.59233529e-02,
          -2.25129277e-02, 6.56311214e-02, -2.30537541e-02,
          -9.68473628e-02, 1.37086719e-01, 9.50191054e-04,
          -6.90388158e-02, 7.07587302e-02, -5.83414100e-02,
          2.05559493e-03, -1.76992565e-02, -4.25971635e-02,
          1.35981917e-01, -4.06180508e-02, -5.04157832e-03,
          -1.71278678e-02, 9.56930034e-03, -3.65031473e-02,
          -5.27307838e-02, 3.78706418e-02, 1.21282442e-02,
          -6.15008967e-03, -4.39970791e-02, 4.57699336e-02,
          -3.68466824e-02, 6.10360205e-02, 9.62531287e-03,
          -1.00325778e-01, 1.83022139e-03, -5.09646758e-02,
          2.61998326e-02, 7.83699527e-02, 2.59649977e-02,
          -2.34444607e-02, 2.72837486e-02, -3.93580273e-02,
          1.60718039e-02, -2.43911240e-02, -6.44299164e-02,
          5.49856387e-02, 3.07851564e-02, 6.98479265e-02,
          -5.59042580e-03, 2.40330817e-03, 1.37252748e-01,
          1.32824061e-02, 5.08084819e-02, 2.72781886e-02,
          -1.42706381e-02, -3.70695516e-02, -9.83284786e-03,
          -4.07248884e-02, -6.53611380e-04, 8.55117887e-02,
          1.26420721e-01, -5.51689900e-02, -9.11251456e-03,
          -3.01181562e-02, 2.11749040e-03, 2.92432196e-02,
          -1.17301720e-03, -2.59166001e-03, -3.41472887e-02,
          2.35753283e-02, -2.40808609e-03, -3.83119509e-02,
          8.44027102e-02, 2.53904480e-02, 2.38831267e-02,
          -6.31649196e-02, -1.90335084e-02, -4.34947014e-03,
          -3.20605859e-02, -3.92168500e-02, -2.26536766e-02,
          2.53520999e-02 ]
      - [ 1.34902731e-01, -1.67041980e-02, 5.19235386e-03,
          5.51238246e-02, 9.35649946e-02, 3.26348804e-02,
          -1.60705164e-01, -3.77945304e-02, 1.59614056e-01,
          2.80827424e-03, 4.27081622e-03, 6.21867850e-02, 1.46368705e-02,
          -5.37622720e-02, 2.88256854e-02, 7.27729052e-02,
          5.51749691e-02, -1.21792644e-01, 6.17996491e-02,
          9.96842310e-02, -6.60880730e-02, -7.98575878e-02,
          -2.35321760e-01, -6.91135079e-02, 1.54574169e-02,
          8.01454037e-02, -8.43677521e-02, 4.84871753e-02,
          1.73871294e-01, 4.51454334e-02, 7.46728182e-02, 9.65738073e-02,
          -1.19514883e-01, 1.24741243e-02, -6.42240196e-02,
          -9.28066447e-02, 1.76964656e-01, -1.95234716e-01,
          -4.23972979e-02, -1.03146285e-02, 8.71547461e-02,
          -5.26701100e-03, -1.06990516e-01, 5.48149645e-02,
          1.64073482e-02, -1.12250214e-02, -1.25964209e-01,
          6.45106360e-02, -6.15745820e-02, 7.23124370e-02,
          4.25114930e-02, 4.34735231e-02, 5.52458391e-02,
          -2.13534594e-01, -1.84687730e-02, 1.89734772e-01,
          3.18678282e-02, -4.36750101e-03, 3.92975137e-02,
          -1.53238654e-01, 4.71987277e-02, -1.45833313e-01,
          -4.31453623e-02, 7.50524625e-02, 7.86285941e-03,
          1.02272689e-01, -9.48798209e-02, -9.86109674e-02,
          2.14843541e-01, 6.17447421e-02, 4.22969833e-02, 3.71721610e-02,
          -6.42996281e-02, 1.35254941e-03, -6.11336678e-02,
          -5.61935380e-02, -9.84011889e-02, 1.85209855e-01,
          1.80396706e-01, -2.30090171e-02, 5.80459125e-02,
          -8.24205726e-02, -8.40422064e-02, 5.54612838e-02,
          -4.95060235e-02, 1.40281627e-03, -6.74929395e-02,
          2.41420660e-02, -1.16406428e-02, -1.41973004e-01,
          1.40554100e-01, 4.76381704e-02, 1.10758275e-01,
          -4.66136970e-02, -8.64679143e-02, -3.25532816e-02,
          -1.48531139e-01, 2.55488753e-02, -1.57748431e-01,
          2.18558684e-02 ]
      - [ 1.53022364e-01, -6.97470363e-03, -3.18264998e-02,
          7.90503472e-02, -8.94328877e-02, -1.76022444e-02,
          -4.63903621e-02, 8.33640248e-03, -9.74108651e-02,
          -2.12931130e-02, 1.38405856e-04, 5.39570153e-02,
          1.67531464e-02, 1.41661791e-02, 7.78655056e-03, 6.34369329e-02,
          -1.27726234e-02, -3.79325002e-02, 2.65688449e-02,
          1.08677179e-01, -1.28230406e-02, -1.26362881e-02,
          -2.79688332e-02, -2.92757377e-02, -5.65313473e-02,
          5.15447222e-02, -3.23833972e-02, 1.88003331e-02,
          1.44241661e-01, 2.10721344e-02, -1.66038387e-02,
          5.72878420e-02, -4.78869630e-03, -2.86274739e-02,
          -6.57281503e-02, -2.22552102e-02, 1.00389622e-01,
          -6.48253411e-02, -6.01424873e-02, -1.63482055e-02,
          7.53196552e-02, 3.43442783e-02, -4.35057729e-02,
          3.71326841e-02, 1.10925213e-02, 9.65330191e-03,
          -1.02447011e-02, 3.83523367e-02, -4.00278904e-02,
          5.00829704e-02, -1.24901421e-02, 9.33518186e-02,
          -1.84693504e-02, -3.50369662e-02, 1.20231649e-02,
          1.16538173e-02, 1.48144709e-02, -1.56374216e-01,
          3.83573659e-02, -9.07989684e-03, 1.67655628e-02,
          -3.28420512e-02, -6.67022774e-03, -3.60846668e-02,
          4.05935086e-02, 3.03955507e-02, -3.67109478e-02,
          -8.27578269e-03, 1.64992556e-01, 1.70218758e-02,
          5.37658222e-02, -9.51507464e-02, -2.09960844e-02,
          5.50997676e-04, 1.02242194e-02, -2.00559236e-02,
          -3.24056186e-02, -1.09413512e-01, 1.17990047e-01,
          -9.98690724e-02, 2.39252243e-02, -7.58663751e-03,
          -2.41461918e-02, 1.02190126e-03, 1.58065208e-03,
          -2.73734052e-02, 7.63337733e-03, 4.49515134e-02,
          1.18637737e-03, -3.93084362e-02, -6.90467730e-02,
          3.61755118e-02, -9.45320949e-02, -7.09632551e-03,
          -1.38734020e-02, -3.00981710e-03, -1.98883023e-02,
          -5.46165276e-03, 1.19541436e-02, 1.54635245e-02 ]
      - [ 1.05777331e-01, -3.65377776e-02, -1.30030485e-02,
          3.51536237e-02, 6.49702325e-02, -6.27743453e-03,
          -5.98248728e-02, 1.05286818e-02, 2.46132165e-02,
          -2.71680262e-02, 2.64547090e-03, 2.97614802e-02,
          -6.36206567e-03, 2.73752175e-02, 2.19208654e-02,
          5.39320223e-02, -5.11404686e-02, -5.15444838e-02,
          -2.50259228e-02, 7.28423595e-02, -1.95463207e-02,
          -8.94818455e-02, -9.25691649e-02, -2.49301493e-02,
          -1.02433609e-02, 4.57058735e-02, -2.12151855e-02,
          -2.41835974e-03, 1.21571749e-01, 1.53765474e-02,
          1.31681776e-02, 7.30386376e-02, -5.82217313e-02,
          -2.06976533e-02, -4.04262431e-02, -7.09215924e-02,
          1.19844712e-01, -4.12579291e-02, -8.12124088e-03,
          4.21025977e-03, 3.57968882e-02, -1.88229382e-02,
          -4.39647622e-02, -1.46341957e-02, 1.17787942e-02,
          1.37641942e-02, -3.80663052e-02, 1.50919734e-02,
          -4.76512462e-02, 4.53207046e-02, 5.98583557e-03,
          4.05531637e-02, 1.35311240e-03, -5.60770854e-02,
          2.68220641e-02, 4.68390845e-02, 1.53196184e-02,
          -9.17652696e-02, 2.10915264e-02, -5.23974895e-02,
          -1.05125513e-02, -4.49958928e-02, -6.56435713e-02,
          4.43165116e-02, 4.82119474e-04, 6.37012348e-02,
          -2.79281009e-02, -4.47305385e-03, 1.41362801e-01,
          3.64867821e-02, 4.07196581e-02, -1.21887401e-02,
          -2.54341066e-02, 1.13741057e-02, -1.22965388e-02,
          -3.55744436e-02, -4.63126227e-02, 7.34668747e-02,
          9.11724940e-02, -9.88599062e-02, 1.15564642e-02,
          -3.90449800e-02, -1.10242618e-02, 1.12417825e-02,
          -1.73751749e-02, -1.71076301e-02, -2.89881658e-02,
          2.69100238e-02, 3.72916320e-03, -7.07230940e-02,
          1.06141806e-01, 3.32089886e-02, 3.80256586e-02,
          -5.75599559e-02, -3.84899713e-02, 8.32202961e-04,
          -2.57859360e-02, -4.37274948e-02, 3.75174731e-03,
          1.37265222e-02 ]
      - [ 2.05231875e-01, -9.89162014e-04, 3.56887989e-02,
          4.01244760e-02, 7.33703971e-02, 2.39144173e-02,
          -1.28567666e-01, -2.81442329e-02, 1.27823144e-01,
          1.73092373e-02, 1.68036600e-03, 1.50695182e-02, 3.87877449e-02,
          -4.87810746e-02, 1.55655108e-02, 3.39587331e-02,
          6.85773417e-02, -9.75029096e-02, 1.48010045e-01,
          1.97507460e-02, -5.42914420e-02, -8.21115170e-03,
          -1.60078734e-01, -5.31901531e-02, 3.79703455e-02,
          1.45142805e-02, -6.13140017e-02, 1.45334542e-01,
          3.67845781e-02, 4.41952422e-02, 1.43711641e-01, 2.58150715e-02,
          -6.11734688e-02, 1.04185296e-02, -4.65247668e-02,
          -5.02094775e-02, 4.09827344e-02, -1.54616654e-01,
          -3.73557210e-02, 6.81323931e-03, 7.75854439e-02,
          3.12361345e-02, -5.42597361e-02, 1.69443227e-02,
          4.27910453e-03, -5.07493224e-03, -8.19671229e-02,
          1.87407043e-02, -2.47279014e-02, 1.12764155e-02,
          3.28861773e-02, 1.43799305e-01, 5.34156151e-02,
          -1.62569910e-01, -4.46686074e-02, 1.11364827e-01,
          5.90282865e-03, 1.90769602e-02, 1.20137669e-02,
          -1.13880627e-01, 3.11269239e-02, -1.21442191e-01,
          2.12845560e-02, 2.00668238e-02, -2.29222979e-02,
          3.24247628e-02, -8.92893970e-02, -1.01014271e-01,
          7.75907934e-02, 4.84623387e-02, -8.51149857e-03,
          9.89397150e-03, -5.00289872e-02, 3.84221002e-02,
          -5.13008200e-02, -1.54686505e-02, -9.77475792e-02,
          9.96980593e-02, 5.39759882e-02, 3.21599729e-02, 6.71584234e-02,
          -5.23024127e-02, -8.61596987e-02, 2.62180641e-02,
          -4.83330041e-02, 3.99447605e-03, -3.33456509e-02,
          5.66737959e-04, -9.23255645e-03, -1.03661053e-01,
          5.61513864e-02, 2.22477224e-02, 8.68751481e-02, 1.65512264e-02,
          -6.74344078e-02, -2.82038115e-02, -1.16470553e-01,
          6.47657216e-02, -1.35094762e-01, -3.49623128e-03 ]
      - [ 2.23351523e-01, 8.74033198e-03, -1.33005460e-03,
          6.40509948e-02, -1.09627485e-01, -2.63227075e-02,
          -1.42528601e-02, 1.79866999e-02, -1.29201785e-01,
          -6.79215090e-03, -2.45204428e-03, 6.83974894e-03,
          4.09040228e-02, 1.91473775e-02, -5.47362259e-03,
          2.46227663e-02, 6.29753282e-04, -1.36427656e-02,
          1.12779237e-01, 2.87436955e-02, -1.02641154e-03,
          5.90101443e-02, 4.72741909e-02, -1.33523848e-02,
          -3.40184234e-02, -1.40864011e-02, -9.32964403e-03,
          1.15647696e-01, 7.15494528e-03, 2.01219432e-02, 5.24349809e-02,
          -1.34708900e-02, 5.35527132e-02, -3.06830704e-02,
          -4.80288938e-02, 2.03419533e-02, -3.55922915e-02,
          -2.42072903e-02, -5.51009104e-02, 7.79661466e-04,
          6.57503605e-02, 7.08474219e-02, 9.22500808e-03,
          -7.37957540e-04, -1.03572360e-03, 1.58033911e-02,
          3.37523781e-02, -7.41759641e-03, -3.18121072e-03,
          -1.09530492e-02, -2.21154559e-02, 1.93677589e-01,
          -2.02995725e-02, 1.59277096e-02, -1.41766686e-02,
          -6.67161345e-02, -1.11505268e-02, -1.32929742e-01,
          1.10736163e-02, 3.02781295e-02, 6.93759008e-04,
          -8.45092628e-03, 5.77596910e-02, -9.10703018e-02,
          9.80835315e-03, -3.94523777e-02, -3.11205238e-02,
          -1.06790913e-02, 2.77397968e-02, 3.73946992e-03,
          2.95734103e-03, -1.22428931e-01, -6.72544586e-03,
          3.76205482e-02, 2.00570673e-02, 2.06689630e-02,
          -3.17520052e-02, -1.94925293e-01, -8.43066908e-03,
          -4.47000787e-02, 3.30377370e-02, 2.25315187e-02,
          -2.62636822e-02, -2.82213185e-02, 2.75366940e-03,
          -2.47817449e-02, 4.17806692e-02, 2.13761851e-02,
          3.59446346e-03, -9.96486051e-04, -1.53449491e-01,
          1.07850656e-02, -1.18415222e-01, 5.60685955e-02,
          5.16010681e-03, 1.33965316e-03, 1.21722817e-02, 3.37551944e-02,
          3.46078202e-02, -9.88857448e-03 ]
      - [ 1.76106483e-01, -2.08227411e-02, 1.74933970e-02,
          2.01542731e-02, 4.47756313e-02, -1.49978977e-02,
          -2.76873726e-02, 2.01789793e-02, -7.17770122e-03,
          -1.26670646e-02, 5.50207515e-05, -1.73557885e-02,
          1.77888107e-02, 3.23564149e-02, 8.66069272e-03, 1.51178548e-02,
          -3.77380922e-02, -2.72547491e-02, 6.11844696e-02,
          -7.09112827e-03, -7.74969114e-03, -1.78354159e-02,
          -1.73261445e-02, -9.00679734e-03, 1.22695658e-02,
          -1.99252516e-02, 1.83856953e-03, 9.44290012e-02,
          -1.55149670e-02, 1.44263562e-02, 8.22069943e-02,
          2.27990933e-03, 1.19679673e-04, -2.27532480e-02,
          -2.27269884e-02, -2.83244289e-02, -1.61371995e-02,
          -6.39878621e-04, -3.07966303e-03, 2.13381276e-02,
          2.62275878e-02, 1.76802073e-02, 8.76601879e-03,
          -5.25048375e-02, -3.49450420e-04, 1.99142843e-02,
          5.93077531e-03, -3.06779612e-02, -1.08045666e-02,
          -1.57153178e-02, -3.63947754e-03, 1.40878946e-01,
          -4.77108988e-04, -5.11240866e-03, 6.22230640e-04,
          -3.15308645e-02, -1.06453793e-02, -6.83208033e-02,
          -6.19222177e-03, -1.30394632e-02, -2.65843552e-02,
          -2.06047688e-02, -1.21365034e-03, -1.06691252e-02,
          -3.03030368e-02, -6.14669081e-03, -2.23376751e-02,
          -6.87636202e-03, 4.11005178e-03, 2.32043769e-02,
          -1.00888256e-02, -3.94669287e-02, -1.11634675e-02,
          4.84436564e-02, -2.46369047e-03, 5.15044387e-03,
          -4.56590094e-02, -1.20449159e-02, -3.52482237e-02,
          -4.36909124e-02, 2.06689797e-02, -8.92682560e-03,
          -1.31417522e-02, -1.80014372e-02, -1.62021574e-02,
          -1.45159708e-02, 5.15912380e-03, 3.33469547e-03,
          6.13724953e-03, -3.24111432e-02, 2.17390973e-02,
          7.81854149e-03, 1.41425328e-02, 5.60496701e-03,
          -1.94564648e-02, 5.18167345e-03, 6.27464894e-03,
          -4.51064808e-03, 2.64054239e-02, -1.16255768e-02 ]
      - [ 1.81196425e-02, 9.72949434e-03, -3.70188542e-02,
          2.39265189e-02, -1.82997882e-01, -5.02371266e-02,
          1.14314802e-01, 4.61309329e-02, -2.57024914e-01,
          -2.41013877e-02, -4.13241005e-03, -8.22976977e-03,
          2.11627549e-03, 6.79284483e-02, -2.10391339e-02,
          -9.33596771e-03, -6.79475889e-02, 8.38601440e-02,
          -3.52308005e-02, 8.99294950e-03, 5.32650314e-02,
          6.72212988e-02, 2.07352921e-01, 3.98377702e-02,
          -7.19887689e-02, -2.86006816e-02, 5.19843586e-02,
          -2.96868440e-02, -2.96296328e-02, -2.40732990e-02,
          -9.12766606e-02, -3.92859615e-02, 1.14726186e-01,
          -4.11016010e-02, -1.50412880e-03, 7.05514327e-02,
          -7.65750259e-02, 1.30409375e-01, -1.77451894e-02,
          -6.03357796e-03, -1.18350834e-02, 3.96112911e-02,
          6.34847432e-02, -1.76822804e-02, -5.31482790e-03,
          2.08783243e-02, 1.15719505e-01, -2.61583012e-02,
          2.15466917e-02, -2.22294647e-02, -5.50016351e-02,
          4.98782955e-02, -7.37151876e-02, 1.78497627e-01,
          3.04919370e-02, -1.78080961e-01, -1.70533564e-02,
          -1.52006716e-01, -9.40150581e-04, 1.44158766e-01,
          -3.04331649e-02, 1.12991266e-01, 3.64751332e-02,
          -1.11137129e-01, 3.27306502e-02, -7.18771368e-02,
          5.81688695e-02, 9.03351828e-02, -4.98509966e-02,
          -4.47228663e-02, 1.14688398e-02, -1.32322907e-01,
          4.33035418e-02, -8.01551738e-04, 7.13578910e-02,
          3.61376144e-02, 6.59955665e-02, -2.94623375e-01,
          -6.24066591e-02, -7.68600553e-02, -3.41206864e-02,
          7.48339295e-02, 5.98960146e-02, -5.44393808e-02,
          5.10866754e-02, -2.87762210e-02, 7.51263201e-02,
          2.08094474e-02, 1.28270201e-02, 1.02664568e-01,
          -2.09600881e-01, -1.14626577e-02, -2.05290377e-01,
          3.95173691e-02, 7.25945160e-02, 2.95434650e-02, 1.28642842e-01,
          -3.10105290e-02, 1.69702575e-01, -6.39234297e-03 ]
      - [ -2.91253943e-02, -1.98335797e-02, -1.81954019e-02,
          -1.99702028e-02, -2.85947621e-02, -3.89123149e-02,
          1.00880288e-01, 4.83232141e-02, -1.35000840e-01,
          -2.99763009e-02, -1.62534520e-03, -3.24253067e-02,
          -2.09989361e-02, 8.11374933e-02, -6.90481858e-03,
          -1.88408792e-02, -1.06315441e-01, 7.02481642e-02,
          -8.68255720e-02, -2.68418752e-02, 4.65417504e-02,
          -9.62426420e-03, 1.42752588e-01, 4.41833548e-02,
          -2.57007778e-02, -3.44395339e-02, 6.31525666e-02,
          -5.09055369e-02, -5.22995442e-02, -2.97688860e-02,
          -6.15046434e-02, -2.35351622e-02, 6.12931512e-02,
          -3.31717767e-02, 2.37977784e-02, 2.18850486e-02,
          -5.71199358e-02, 1.53976783e-01, 3.42760570e-02,
          1.45248882e-02, -5.13578542e-02, -1.35559272e-02,
          6.30257502e-02, -6.94491640e-02, -4.62855492e-03,
          2.49892157e-02, 8.78978968e-02, -4.94186655e-02,
          1.39233358e-02, -2.69917343e-02, -3.65256555e-02,
          -2.92035984e-03, -5.38927242e-02, 1.57457501e-01,
          4.52908352e-02, -1.42895684e-01, -1.65482089e-02,
          -8.73977691e-02, -1.82059892e-02, 1.00841165e-01,
          -5.77112809e-02, 1.00837424e-01, -2.24982072e-02,
          -3.07359491e-02, -7.38074025e-03, -3.85714546e-02,
          6.69517219e-02, 9.41379070e-02, -7.34807402e-02,
          -2.52579600e-02, -1.57732726e-03, -4.93609011e-02,
          3.88655216e-02, 1.00215562e-02, 4.88371290e-02, 2.06190944e-02,
          5.20885661e-02, -1.11742981e-01, -8.92242119e-02,
          -7.58508891e-02, -4.64894474e-02, 4.33755890e-02,
          7.30179474e-02, -4.42195013e-02, 3.21308486e-02,
          -1.85104460e-02, 3.85047756e-02, 2.76795751e-03,
          1.53698055e-02, 7.12499097e-02, -3.44122909e-02,
          -1.44291809e-02, -7.27326199e-02, -1.09462589e-02,
          4.79779430e-02, 3.33854854e-02, 1.22745201e-01,
          -6.92763701e-02, 1.61500186e-01, -8.12934525e-03 ]
      - [ -4.72450368e-02, -2.95630731e-02, 1.88234523e-02,
          -4.38967198e-02, 1.54403120e-01, 1.13248099e-02,
          -1.34345125e-02, 2.19227932e-03, 1.22024082e-01,
          -5.87491319e-03, 2.50706496e-03, -2.41955370e-02,
          -2.31152121e-02, 1.32090384e-02, 1.41343158e-02,
          -9.50491056e-03, -3.83678488e-02, -1.36119835e-02,
          -5.15947677e-02, -3.58348228e-02, -6.72327960e-03,
          -7.68455639e-02, -6.46003336e-02, 4.34558699e-03,
          4.62879874e-02, -5.83885098e-03, 1.11682136e-02,
          -2.12186929e-02, -2.26699114e-02, -5.69558609e-03,
          2.97720153e-02, 1.57507993e-02, -5.34330346e-02,
          7.92982150e-03, 2.53019072e-02, -4.86663841e-02,
          1.94550902e-02, 2.35674102e-02, 5.20212464e-02, 2.05584653e-02,
          -3.95227708e-02, -5.31672165e-02, -4.58988943e-04,
          -5.17668799e-02, 6.86273153e-04, 4.11089184e-03,
          -2.78216042e-02, -2.32603662e-02, -7.62335537e-03,
          -4.76226909e-03, 1.84759777e-02, -5.27986549e-02,
          1.98224634e-02, -2.10401192e-02, 1.47988992e-02,
          3.51852700e-02, 5.05147444e-04, 6.46089464e-02,
          -1.72658376e-02, -4.33175936e-02, -2.72781141e-02,
          -1.21538434e-02, -5.89733385e-02, 8.04011747e-02,
          -4.01113890e-02, 3.33056860e-02, 8.78284778e-03,
          3.80272930e-03, -2.36297455e-02, 1.94649082e-02,
          -1.30461669e-02, 8.29620063e-02, -4.43802215e-03,
          1.08231083e-02, -2.25207582e-02, -1.55185191e-02,
          -1.39070041e-02, 1.82880387e-01, -2.68175546e-02,
          1.00916578e-03, -1.23687601e-02, -3.14583443e-02,
          1.31219300e-02, 1.02198813e-02, -1.89558268e-02,
          1.02657741e-02, -3.66215445e-02, -1.80414896e-02,
          2.54278583e-03, -3.14146578e-02, 1.75188586e-01,
          -2.96652364e-03, 1.32557750e-01, -5.04636280e-02,
          -2.46165711e-02, 3.84202017e-03, -5.89763327e-03,
          -3.82658429e-02, -8.20239633e-03, -1.73700228e-03 ]
   uncompressed_sv_total: 800
   uncompressed_support_vectors:
      - [ 1.69491526e-02, 0., 5.08474559e-02, 2.03389823e-02,
          1.01694912e-02, 2.03389823e-02, 0., 0., 3.72881368e-02, 0., 0.,
          0., 1.35593219e-02, 3.38983047e-03, 0., 3.72881368e-02,
          3.38983047e-03, 0., 0., 0., 0., 6.77966094e-03, 0., 0.,
          6.44067824e-02, 0., 0., 3.38983047e-03, 6.77966094e-03,
          3.72881368e-02, 0., 3.38983051e-02, 0., 1.69491526e-02, 0., 0.,
          2.37288140e-02, 3.38983047e-03, 1.35593219e-02, 3.38983047e-03,
          6.77966094e-03, 6.10169470e-02, 3.38983047e-03, 5.76271191e-02,
          0., 0., 0., 0., 0., 0., 5.08474559e-02, 1.01694912e-02,
          1.01694912e-02, 3.38983047e-03, 6.77966094e-03, 2.37288140e-02,
          0., 1.35593219e-02, 0., 0., 2.03389823e-02, 6.77966094e-03, 0.,
          0., 0., 1.01694912e-02, 0., 0., 2.03389823e-02, 6.44067824e-02,
          3.38983047e-03, 6.77966094e-03, 0., 0., 0., 3.38983047e-03,
          6.77966094e-03, 6.44067824e-02, 1.01694912e-02, 1.69491526e-02,
          1.01694912e-02, 0., 0., 0., 3.38983047e-03, 1.69491526e-02, 0.,
          0., 0., 0., 2.37288140e-02, 0., 3.38983047e-03, 0., 0., 0., 0.,
          3.05084735e-02, 3.38983047e-03, 0. ]
      - [ 2.18340615e-03, 6.55021844e-03, 1.52838435e-02, 6.55021844e-03,
          1.74672492e-02, 2.18340615e-03, 8.73362459e-03, 6.55021844e-03,
          6.55021844e-03, 1.74672492e-02, 0., 0., 1.09170303e-02,
          8.73362459e-03, 5.89519665e-02, 1.09170303e-02, 1.09170303e-02,
          2.18340615e-03, 1.74672492e-02, 0., 8.73362459e-03,
          6.55021844e-03, 1.31004369e-02, 4.36681230e-03, 1.96506549e-02,
          0., 1.31004369e-02, 3.49344984e-02, 2.18340615e-03,
          1.52838435e-02, 3.27510908e-02, 6.55021844e-03, 5.89519665e-02,
          1.09170303e-02, 2.18340615e-03, 0., 2.18340615e-03,
          1.74672492e-02, 4.36681230e-03, 1.74672492e-02, 2.18340615e-03,
          4.36681230e-03, 8.73362459e-03, 1.09170303e-02, 0.,
          6.55021844e-03, 1.96506549e-02, 8.73362459e-03, 6.55021844e-03,
          2.18340615e-03, 0., 1.31004369e-02, 1.31004369e-02,
          1.31004369e-02, 8.73362459e-03, 1.52838435e-02, 2.18340615e-03,
          0., 2.18340615e-03, 1.09170303e-02, 6.55021844e-03,
          4.36681230e-03, 1.96506549e-02, 2.40174681e-02, 1.52838435e-02,
          4.36681230e-03, 0., 4.36681230e-03, 1.31004369e-02,
          8.73362459e-03, 4.36681230e-03, 2.18340615e-03, 6.55021844e-03,
          6.55021844e-03, 4.36681230e-03, 6.55021844e-03, 0.,
          4.36681230e-03, 6.55021844e-03, 0., 6.55021844e-03,
          1.52838435e-02, 4.36681230e-03, 8.73362459e-03, 2.18340605e-02,
          1.31004369e-02, 1.96506549e-02, 2.18340615e-03, 1.96506549e-02,
          2.18340615e-03, 2.18340615e-03, 2.18340615e-03, 3.71179059e-02,
          6.55021844e-03, 1.74672492e-02, 4.36681230e-03, 6.55021844e-03,
          2.18340605e-02, 1.31004369e-02, 4.36681230e-03 ]
      - [ 8.40336177e-03, 8.40336177e-03, 5.04201725e-02, 0.,
          1.68067235e-02, 2.10084040e-02, 0., 4.20168089e-03,
          4.62184884e-02, 8.40336177e-03, 0., 0., 0., 8.40336177e-03,
          4.62184884e-02, 1.68067235e-02, 4.62184884e-02, 0.,
          1.26050431e-02, 4.20168089e-03, 0., 1.26050431e-02, 0.,
          4.20168089e-03, 2.52100863e-02, 4.20168089e-03, 0.,
          2.94117667e-02, 0., 1.68067235e-02, 4.20168089e-03,
          4.20168089e-03, 4.20168089e-03, 8.40336177e-03, 0.,
          4.20168089e-03, 1.68067235e-02, 1.26050431e-02, 8.40336177e-03,
          8.40336177e-03, 4.20168089e-03, 4.20168089e-03, 8.40336177e-03,
          4.20168089e-03, 0., 8.40336177e-03, 0., 8.40336177e-03,
          1.26050431e-02, 1.26050431e-02, 8.40336177e-03, 4.20168089e-03,
          3.36134471e-02, 8.40336177e-03, 4.20168089e-03, 6.30252138e-02,
          0., 0., 0., 4.20168089e-03, 8.40336177e-03, 0., 0., 0., 0.,
          1.26050431e-02, 8.40336177e-03, 4.20168089e-03, 8.40336177e-03,
          4.20168079e-02, 4.20168089e-03, 1.68067235e-02, 8.40336177e-03,
          4.20168089e-03, 0., 1.26050431e-02, 8.40336177e-03,
          2.94117667e-02, 0., 1.26050431e-02, 0., 1.68067235e-02,
          8.40336177e-03, 4.20168089e-03, 2.94117667e-02, 4.20168089e-03,
          4.20168089e-03, 0., 0., 0., 8.40336177e-03, 4.20168089e-03,
          3.36134471e-02, 4.20168089e-03, 4.20168089e-03, 4.20168089e-03,
          4.20168089e-03, 1.26050431e-02, 1.26050431e-02, 1.26050431e-02 ]
      - [ 1.74418613e-02, 0., 1.16279069e-02, 3.48837227e-02,
          1.16279069e-02, 1.16279069e-02, 5.81395347e-03, 5.81395347e-03,
          2.90697664e-02, 8.72093067e-03, 5.81395347e-03, 5.81395347e-03,
          5.81395347e-03, 8.72093067e-03, 2.32558139e-02, 1.16279069e-02,
          1.45348832e-02, 0., 5.81395347e-03, 2.90697673e-03,
          2.90697673e-03, 0., 0., 8.72093067e-03, 1.16279069e-02,
          3.48837227e-02, 5.81395347e-03, 5.81395347e-03, 2.61627901e-02,
          1.16279069e-02, 2.90697664e-02, 8.72093067e-03, 2.90697673e-03,
          2.90697673e-03, 2.90697673e-03, 0., 1.45348832e-02,
          2.32558139e-02, 8.72093067e-03, 5.81395347e-03, 2.03488376e-02,
          5.81395347e-03, 0., 5.81395347e-03, 0., 0., 2.90697673e-03,
          8.72093067e-03, 2.90697673e-03, 5.81395347e-03, 8.72093067e-03,
          4.94186059e-02, 2.03488376e-02, 0., 1.16279069e-02,
          2.03488376e-02, 0., 8.72093067e-03, 1.74418613e-02,
          2.90697673e-03, 2.90697673e-03, 2.90697673e-03, 1.45348832e-02,
          1.16279069e-02, 8.72093067e-03, 3.19767445e-02, 5.81395347e-03,
          2.90697673e-03, 8.72093067e-03, 1.16279069e-02, 2.90697673e-03,
          2.90697673e-03, 5.81395347e-03, 3.19767445e-02, 1.74418613e-02,
          2.90697673e-03, 1.16279069e-02, 1.74418613e-02, 2.90697664e-02,
          1.16279069e-02, 2.03488376e-02, 2.90697673e-03, 0.,
          5.81395347e-03, 5.81395347e-03, 2.90697673e-03, 8.72093067e-03,
          8.72093067e-03, 0., 0., 2.03488376e-02, 1.16279069e-02,
          4.94186059e-02, 0., 2.90697673e-03, 2.90697673e-03, 0., 0., 0.,
          2.90697673e-03 ]
      - [ 1.69902910e-02, 0., 1.21359229e-02, 2.66990289e-02,
          1.21359229e-02, 3.15533988e-02, 0., 0., 2.91262139e-02, 0., 0.,
          0., 1.45631069e-02, 4.85436898e-03, 0., 5.33980578e-02,
          2.42718449e-03, 0., 9.70873795e-03, 2.91262139e-02,
          7.28155347e-03, 2.42718449e-03, 0., 2.42718449e-03,
          2.42718458e-02, 7.28155347e-03, 0., 2.42718449e-03,
          4.12621349e-02, 4.61165048e-02, 7.28155347e-03, 7.28155347e-03,
          0., 4.85436898e-03, 0., 0., 2.66990289e-02, 4.85436898e-03,
          4.85436898e-03, 0., 5.82524277e-02, 6.79611638e-02,
          9.70873795e-03, 1.69902910e-02, 0., 0., 2.42718449e-03, 0.,
          4.85436898e-03, 7.28155347e-03, 2.91262139e-02, 0.,
          1.45631069e-02, 0., 2.42718458e-02, 1.69902910e-02, 0., 0.,
          7.28155347e-03, 0., 7.28155347e-03, 2.42718449e-03,
          4.85436898e-03, 0., 0., 5.82524277e-02, 4.85436898e-03,
          4.85436898e-03, 2.91262139e-02, 1.69902910e-02, 2.42718449e-03,
          7.28155347e-03, 2.42718449e-03, 0., 0., 9.70873795e-03, 0.,
          2.18446609e-02, 2.91262139e-02, 4.85436898e-03, 9.70873795e-03,
          0., 0., 0., 4.85436898e-03, 7.28155347e-03, 0., 0., 0.,
          2.42718449e-03, 3.88349518e-02, 7.28155347e-03, 0.,
          4.85436898e-03, 0., 9.70873795e-03, 0., 1.45631069e-02, 0.,
          2.42718449e-03 ]
      - [ 3.09597515e-03, 0., 3.40557247e-02, 3.09597515e-02,
          2.47678012e-02, 9.28792544e-03, 1.23839006e-02, 0.,
          1.23839006e-02, 3.09597515e-03, 0., 0., 6.19195029e-03,
          1.54798757e-02, 0., 3.40557247e-02, 3.09597515e-03,
          9.28792544e-03, 0., 2.78637763e-02, 0., 9.28792544e-03,
          3.09597515e-03, 9.28792544e-03, 2.47678012e-02, 9.28792544e-03,
          6.19195029e-03, 9.28792544e-03, 1.85758509e-02, 2.47678012e-02,
          6.19195029e-03, 1.23839006e-02, 3.09597515e-03, 6.19195029e-03,
          9.28792544e-03, 0., 1.54798757e-02, 1.23839006e-02,
          1.54798757e-02, 0., 2.47678012e-02, 3.40557247e-02,
          3.09597515e-03, 3.71517017e-02, 0., 0., 3.09597515e-03, 0.,
          6.19195029e-03, 3.09597515e-03, 9.28792544e-03, 6.19195029e-03,
          9.28792544e-03, 1.23839006e-02, 2.47678012e-02, 2.16718260e-02,
          0., 0., 6.19195029e-03, 0., 1.54798757e-02, 1.23839006e-02,
          3.09597515e-03, 0., 6.19195029e-03, 2.47678012e-02,
          3.09597515e-03, 3.09597515e-03, 3.71517017e-02, 1.23839006e-02,
          1.85758509e-02, 9.28792544e-03, 0., 6.19195029e-03,
          6.19195029e-03, 6.19195029e-03, 1.23839006e-02, 3.09597515e-03,
          4.33436520e-02, 6.19195029e-03, 2.16718260e-02, 0.,
          6.19195029e-03, 0., 2.16718260e-02, 3.09597515e-03, 0.,
          6.19195029e-03, 0., 0., 2.78637763e-02, 1.23839006e-02, 0., 0.,
          3.09597515e-03, 6.19195029e-03, 3.09597515e-03, 1.23839006e-02,
          2.16718260e-02, 3.09597515e-03 ]
      - [ 2.88461540e-02, 6.41025649e-03, 2.88461540e-02, 6.41025649e-03,
          1.28205130e-02, 4.16666679e-02, 6.41025649e-03, 0.,
          6.08974360e-02, 0., 0., 0., 6.41025649e-03, 3.20512825e-03,
          3.20512825e-03, 3.20512839e-02, 3.20512825e-03, 9.61538497e-03,
          0., 1.28205130e-02, 9.61538497e-03, 3.20512825e-03,
          3.20512825e-03, 3.20512825e-03, 2.24358980e-02, 0.,
          6.41025649e-03, 0., 1.92307699e-02, 4.48717959e-02, 0.,
          1.92307699e-02, 3.20512825e-03, 9.61538497e-03, 9.61538497e-03,
          6.41025649e-03, 2.56410260e-02, 3.20512825e-03, 1.92307699e-02,
          0., 1.60256419e-02, 4.16666679e-02, 0., 1.92307699e-02, 0., 0.,
          0., 0., 6.41025649e-03, 9.61538497e-03, 4.16666679e-02,
          6.41025649e-03, 1.92307699e-02, 6.41025649e-03, 2.24358980e-02,
          5.44871800e-02, 0., 0., 0., 0., 6.41025649e-03, 3.20512825e-03,
          3.20512825e-03, 0., 0., 6.41025649e-03, 3.20512825e-03,
          1.28205130e-02, 1.28205130e-02, 3.52564119e-02, 3.20512825e-03,
          9.61538497e-03, 9.61538497e-03, 0., 3.20512825e-03,
          3.20512825e-03, 1.92307699e-02, 5.12820520e-02, 1.92307699e-02,
          6.41025649e-03, 3.20512825e-03, 3.20512825e-03, 3.20512825e-03,
          0., 6.41025649e-03, 0., 0., 0., 0., 9.61538497e-03,
          1.92307699e-02, 0., 0., 3.20512825e-03, 0., 9.61538497e-03, 0.,
          1.28205130e-02, 0., 6.41025649e-03 ]
      - [ 4.86891381e-02, 3.74531839e-03, 2.62172297e-02, 1.12359552e-02,
