%YAML:1.0
---
opencv_ml_svm:
   format: 3
   svmType: C_SVC
   kernel:
      type: LINEAR
   C: 1.0000000000000001e-01
   term_criteria: { iterations:100 }
   var_count: 100
   class_count: 10
   class_labels: !!opencv-matrix
      rows: 10
      cols: 1
      dt: i
      data: [ 0, 1, 2, 3, 4, 5, 6, 7, 8, 9 ]
   sv_total: 45
   support_vectors:
      - [ 6.80076331e-02, 1.14070596e-02, 1.12306654e-01,
          -4.98098247e-02, -7.58427521e-03, -2.38105580e-02,
          -1.61262304e-02, -6.64660195e-03, 1.12481900e-01,
          -4.01437841e-02, 7.19182268e-02, -4.98597277e-04,
          -4.13366780e-02, -1.60884131e-02, 5.64746149e-02,
          -6.40746672e-03, -4.37340550e-02, 6.40861988e-02,
          1.74456369e-02, 6.34273328e-03, -3.23905610e-02,
          -3.73982675e-02, -1.01079484e-02, -3.96252982e-02,
          -3.85180637e-02, -3.69882062e-02, -8.27439949e-02,
          4.52154465e-02, 3.13326269e-01, -1.00326734e-02,
          6.48150370e-02, -2.75685303e-02, 4.53042649e-02,
          1.05362855e-01, 2.42045969e-02, -4.67046089e-02,
          -9.81982239e-03, -3.26965488e-02, 2.82812770e-03,
          -2.45301332e-02, -3.07820737e-02, -4.72320653e-02,
          -6.86050355e-02, 6.31362991e-03, -6.57824753e-03,
          8.73987451e-02, -2.40171067e-02, -2.37518344e-02,
          -4.06536311e-02, -4.83198613e-02, 1.21986628e-01,
          8.79668072e-03, -5.96013889e-02, -5.32804355e-02,
          -3.26298340e-03, -1.75920762e-02, -1.52033484e-02,
          -2.37209704e-02, -2.18711365e-02, 3.56413163e-02,
          -4.77773994e-02, -2.34906655e-02, -1.83917340e-02,
          -1.51822139e-02, -6.14869781e-02, -1.42117711e-02,
          -1.93176344e-02, -7.54273012e-02, 8.40668082e-02,
          -1.51775377e-02, -5.79390600e-02, -4.25199680e-02,
          -4.56983373e-02, -2.76355986e-02, 7.12892180e-03,
          -2.36277618e-02, -3.37670557e-02, -1.89744420e-02,
          -3.93693103e-03, -2.57367641e-02, -4.71116863e-02,
          -1.67997796e-02, 1.39438482e-02, -3.77605110e-02,
          4.50982042e-02, -3.72204669e-02, -4.15213294e-02,
          -4.26829681e-02, -1.64329074e-02, -1.13203479e-02,
          8.64849389e-02, 9.65821519e-02, -4.93024439e-02,
          1.10579506e-01, 2.12676823e-01, 1.21726776e-02, 3.57907191e-02,
          -1.18655956e-03, -6.23789579e-02, 1.36116138e-02 ]
      - [ 6.49346188e-02, 1.94691941e-02, 8.76899809e-02,
          -4.73169833e-02, -5.38336523e-02, -4.78765648e-03,
          -1.70918424e-02, -1.26007535e-02, -6.10718839e-02,
          -1.03365900e-02, 3.14708389e-02, -1.89536717e-02,
          -1.75824072e-02, -1.29443584e-02, 3.06863859e-02,
          -2.30404194e-02, -4.00329828e-02, 3.72006185e-02,
          3.71403806e-02, -1.20434444e-02, -2.96932496e-02,
          -3.50899845e-02, -3.84814246e-03, -6.75550941e-03,
          4.80622926e-04, -1.88385434e-02, -3.47612314e-02,
          6.77222908e-02, 1.71555370e-01, -3.88618559e-02,
          -1.19124681e-01, -4.41520363e-02, 1.98718868e-02,
          5.33170290e-02, 2.12091953e-02, -1.13641499e-02,
          -7.13934144e-03, -9.48131923e-03, 2.40854383e-03,
          -3.15805385e-03, -1.70994587e-02, -1.52787510e-02,
          -3.04695740e-02, -2.81075668e-03, -2.92317942e-03,
          7.84705579e-02, -1.77610572e-02, -2.57583223e-02,
          -3.16863321e-02, -7.29089649e-03, 2.50975303e-02,
          -4.91876854e-03, -1.93865094e-02, -8.49995296e-03,
          5.85192256e-03, -1.29520101e-02, -9.05596744e-03,
          -1.47496797e-02, -2.05431376e-02, 3.59849855e-02,
          -1.87138729e-02, -7.10541429e-03, -7.04622886e-04,
          -8.15411285e-03, -2.08198205e-02, 7.94960652e-03,
          3.04513308e-03, -1.55543899e-02, 4.63289879e-02,
          -2.42782496e-02, -1.26189534e-02, -1.67980473e-02,
          -1.34070013e-02, 2.66143354e-03, -4.91967611e-03,
          -8.55272822e-03, -3.62734348e-02, -3.11785545e-02,
          2.88709253e-03, -9.45039000e-03, -3.83186638e-02,
          3.36354901e-03, 3.62097174e-02, -3.41466139e-03,
          4.03664028e-03, -1.99486017e-02, -2.04833783e-02,
          -2.03388091e-02, -2.97470181e-03, -1.59618817e-03,
          5.90258464e-02, 5.89607172e-02, -1.48629127e-02,
          8.54348466e-02, 1.91040799e-01, 3.78214158e-02,
          -1.91530504e-03, -3.20851840e-02, -4.38945815e-02,
          3.41236144e-02 ]
      - [ 1.99765246e-02, 9.30164289e-03, 5.67063689e-02,
          -6.10183999e-02, 2.05160421e-03, -3.78650688e-02,
          -1.78102162e-02, -4.02500108e-02, 1.27666309e-01,
          -2.04601400e-02, 8.12693611e-02, 2.09476277e-02,
          -9.57846234e-04, -2.14798898e-02, 1.23089803e-02,
          -8.46191682e-03, -1.39709944e-02, 4.69792336e-02,
          3.18953162e-03, 2.51067448e-02, -3.73302065e-02,
          -4.62572137e-03, 2.07373151e-03, -3.52502652e-02,
          -1.06830485e-02, 1.32658973e-03, -3.30602713e-02,
          -2.42978204e-02, 2.46759400e-01, -9.38071031e-03,
          3.25949155e-02, -1.63736548e-02, 5.56573942e-02,
          8.89895856e-02, -7.84014259e-03, -1.35992104e-02,
          -1.31840250e-02, -6.24236360e-04, -1.89081598e-02,
          1.53872231e-03, 5.74084884e-03, -4.48476151e-02,
          -2.46074628e-02, 8.76895990e-03, -1.39746591e-02,
          3.57644819e-02, 1.04662143e-02, 2.23634619e-04,
          -3.53547521e-02, 6.21857867e-03, 9.96457711e-02,
          1.37009500e-02, -4.40900512e-02, -2.40203179e-02,
          1.82720355e-03, -7.31590204e-04, -8.89228284e-03,
          -5.55899553e-02, -5.41344471e-02, 9.10538808e-03,
          -3.47313769e-02, -2.79813539e-02, -4.43351939e-02,
          -7.19167897e-03, -4.41920236e-02, -3.28909345e-02,
          -2.86084730e-02, -6.58631674e-04, 5.37064858e-02,
          1.30297635e-02, -4.61391136e-02, -7.03644892e-03,
          -3.76074538e-02, -1.03707528e-02, 2.25903951e-02,
          -5.33481799e-02, -2.45444998e-02, -7.91126303e-03,
          -2.35464852e-02, -2.43834276e-02, -1.03957430e-01,
          1.08428719e-02, 2.18364950e-02, -1.04852626e-02,
          3.99143361e-02, -2.28351224e-02, -2.34032478e-02,
          -2.35323384e-02, -2.63406094e-02, -2.33196933e-02,
          6.04704432e-02, 5.46545014e-02, -3.59162167e-02,
          8.39276910e-02, 5.75955473e-02, 1.63196102e-02, 2.07150001e-02,
          9.48733371e-03, -2.10278351e-02, 8.97336472e-03 ]
      - [ 6.29995316e-02, 9.95604135e-03, 7.66723379e-02,
          -4.20153067e-02, -5.90173565e-02, 1.66672859e-02,
          1.19682159e-02, 6.90794690e-03, 1.45398200e-01,
          -2.57494021e-02, 2.33154371e-02, -1.99426394e-02,
          -2.27930266e-02, -7.23989331e-04, 6.35450780e-02,
          4.01767017e-03, -4.49155904e-02, 2.27747709e-02,
          1.62397679e-02, -1.91584229e-02, -2.46766042e-02,
          2.68656723e-02, 2.71908706e-04, -2.32880935e-02,
          -2.84516569e-02, -3.42670456e-02, -5.05960993e-02,
          9.96697918e-02, 3.56181443e-01, -2.15366818e-02,
          -7.62960240e-02, -4.18300964e-02, 1.63241755e-02,
          6.54993355e-02, 1.26262205e-02, 8.13041627e-03, 6.36218174e-04,
          -1.21803889e-02, -5.74105699e-03, -6.74692728e-03,
          -1.47574535e-02, -4.13644277e-02, -3.05238944e-02,
          -2.08284035e-02, -1.46895358e-02, 4.32745442e-02,
          -1.87354218e-02, -4.48856726e-02, -3.16841230e-02,
          1.56726688e-02, -2.22322587e-02, 3.27215507e-03,
          -2.59069074e-02, -3.35128582e-03, -2.83614686e-03,
          -2.07891949e-02, -3.00097093e-02, -1.66555922e-02,
          -2.59811040e-02, 4.62907776e-02, -3.78744863e-02,
          -1.75229274e-02, -1.08513478e-02, -1.32667366e-02,
          -3.59402113e-02, -2.64303777e-02, -1.96036622e-02,
          -9.94709972e-03, 4.11172770e-02, 2.96513885e-02,
          -2.83394568e-02, -2.92484649e-02, -2.19351482e-02,
          -9.94939916e-03, 3.41513492e-02, -7.92243052e-03,
          -3.56843509e-02, -3.76510397e-02, -1.57047175e-02,
          -2.53360644e-02, -5.10198697e-02, -6.34836731e-03,
          1.72119625e-02, -1.57904830e-02, -6.04270864e-03,
          -3.34298350e-02, -2.27333270e-02, -3.00783087e-02,
          -2.77103465e-02, -5.40745910e-03, 3.31367627e-02,
          4.35046814e-02, -1.81948300e-02, 7.42684975e-02,
          1.55067161e-01, 6.55294512e-04, -2.59185350e-03,
          -2.32105479e-02, -3.57757770e-02, 2.75720889e-03 ]
      - [ 4.75226948e-03, 2.00218875e-02, 6.30680025e-02,
          -6.26368728e-03, 6.36158418e-03, 6.35075336e-03,
          -7.25369677e-02, 2.18700040e-02, -1.57729685e-01,
          1.02560967e-02, 3.22335958e-02, 4.25709970e-02, 1.41859278e-02,
          -1.76639890e-03, 1.77698899e-02, -5.72574474e-02,
          4.18392738e-04, 1.76321547e-02, -4.60916162e-02,
          3.19482423e-02, -7.49635929e-03, -4.37355563e-02,
          2.15783473e-02, 2.50810180e-02, 2.13627629e-02, 1.13273095e-02,
          -2.54989741e-03, 2.22394485e-02, -1.27071375e-02,
          9.05475859e-03, 7.28632137e-03, 1.84474047e-02, 7.41156284e-03,
          6.80080354e-02, 2.05105487e-02, -2.49392688e-02,
          -6.77720364e-03, -1.86711866e-02, -8.16574469e-02,
          3.63705046e-02, 2.16567088e-02, 4.86478908e-03, 6.30984362e-03,
          -2.21956149e-03, 1.62953585e-02, -9.61668715e-02,
          2.95815412e-02, 5.38810343e-03, 3.90562997e-03,
          -6.33890480e-02, 3.56687047e-02, 6.59544254e-03,
          1.73271447e-02, -1.69492420e-02, -1.11129768e-02,
          -4.65887263e-02, -5.33032417e-03, 2.90506473e-03,
          -3.91792357e-02, 4.72792238e-02, 5.08665852e-03,
          1.97316743e-02, -4.82462421e-02, 2.32616477e-02,
          1.04443198e-02, -7.72187137e-04, 4.02904674e-03,
          2.82679535e-02, 3.41126844e-02, -3.03152055e-02,
          -1.45012134e-04, 9.00639780e-03, -2.01932294e-03,
          2.50800736e-02, -1.61881112e-02, -9.72664952e-02,
          3.86543595e-03, -4.25463207e-02, 1.65267792e-02,
          1.37529336e-02, -1.42527074e-02, 2.72275158e-03,
          -4.57872637e-02, 2.83862203e-02, 3.06016225e-02,
          2.87808571e-03, 1.24075748e-02, 1.54442228e-02, 6.69344515e-03,
          6.87382463e-03, 2.92675123e-02, 4.33743261e-02, 1.27039505e-02,
          3.45714502e-02, -5.73305897e-02, -1.84813067e-02,
          2.97401194e-02, 2.74478067e-02, -6.43210765e-03,
          -3.12751532e-02 ]
      - [ 2.66444311e-03, 1.81520879e-02, 4.46170755e-02,
          -2.82569486e-03, -3.82896103e-02, -8.54661874e-03,
          -1.40925907e-02, -2.76660006e-02, 7.25857541e-02,
          -6.38717366e-03, -1.70186500e-03, -4.79286630e-03,
          -2.27879756e-03, 1.96901150e-03, 9.83702019e-03,
          -4.34216997e-03, -1.67035814e-02, 3.24193500e-02,
          2.49150638e-02, -5.84348664e-03, -1.74222421e-02,
          -1.60609726e-02, 7.52264028e-03, -5.23786386e-03,
          -1.31139094e-02, -1.44975232e-02, -2.67785564e-02,
          1.29360920e-02, 2.36374393e-01, -1.11077847e-02,
          -1.29558206e-01, -3.03620063e-02, -1.48461142e-03,
          4.53539155e-02, -1.32001750e-02, -5.31481067e-03,
          1.58879645e-02, -1.50670614e-02, 7.09621934e-03,
          5.18562784e-03, 1.06332474e-03, -1.11850500e-02,
          -1.21075306e-02, -7.57729285e-04, 2.04284675e-03,
          2.18954887e-02, 8.70188698e-03, -4.69021387e-02,
          -8.73617921e-03, 4.10475506e-04, -4.03500721e-02,
          1.49808340e-02, -1.26454029e-02, -6.17462350e-03,
          6.99826935e-03, -1.77412964e-02, -1.30406478e-02,
          -1.96224097e-02, -4.32526082e-04, 1.31042693e-02,
          -1.02321990e-02, -1.24114595e-04, 5.44927130e-03,
          -2.98570306e-03, -1.89820658e-02, -1.87904052e-02,
          8.61953199e-03, 2.76530301e-03, 1.46327831e-03,
          -8.58143158e-03, -1.50829414e-02, -1.56821720e-02,
          -6.67915959e-03, -2.60508209e-02, 9.41002090e-03,
          5.94973611e-03, -2.08244417e-02, -2.01298222e-02,
          1.23944310e-02, -1.22053642e-02, -2.10154355e-02,
          4.12162626e-03, 2.64007878e-02, 1.03035904e-02,
          -1.76474135e-02, -1.20689385e-02, -1.24446256e-03,
          -2.87315845e-02, -2.45472174e-02, 9.96799581e-03,
          2.29857545e-02, 2.96083707e-02, 4.72601922e-03, 5.80818579e-02,
          9.53996032e-02, 1.13630434e-02, 5.21781016e-03,
          -8.05058889e-03, -1.98353771e-02, 9.21357016e-04 ]
      - [ 8.32158700e-02, 5.00105927e-03, 1.26812890e-01,
          -1.63077861e-02, -1.07333018e-02, -2.50159521e-02,
          3.75103652e-02, -5.65819517e-02, -6.83905408e-02,
          -3.34174484e-02, 8.00787061e-02, -4.49754968e-02,
          -1.02869146e-01, -1.57700554e-02, 1.38549963e-02,
          3.91777903e-02, -7.68819749e-02, 3.18221562e-02,
          6.61252588e-02, -4.28745747e-02, -6.35011196e-02,
          4.82756905e-02, -2.23508831e-02, -3.46109644e-02,
          -3.58192399e-02, -1.34288400e-01, -1.51522696e-01,
          1.01273783e-01, 4.00448352e-01, -2.77812257e-02,
          8.79022777e-02, -1.46405883e-02, 6.48660585e-02,
          1.26166672e-01, 1.03593701e-02, 1.90806258e-02, 6.32491056e-03,
          1.28228189e-02, 6.51842263e-03, -1.39711797e-02,
          -7.28990883e-02, -8.30165148e-02, -1.52760938e-01,
          2.41884552e-02, 1.01008255e-03, 1.10907950e-01,
          -1.62422210e-01, -3.31910104e-02, -5.78117557e-02,
          4.13117260e-02, 1.36943310e-01, 1.32894339e-02,
          -3.62533517e-02, 5.76916384e-03, 5.07973088e-03,
          2.93929875e-02, 1.80468708e-02, -3.89684476e-02,
          2.76572560e-03, 2.28638481e-02, -9.75036919e-02,
          -2.50427257e-02, 1.28944553e-02, -2.74218544e-02,
          -1.10070318e-01, -1.71088912e-02, -4.49623959e-03,
          -3.90851721e-02, 9.01668295e-02, 5.83357327e-02,
          -5.34948818e-02, -8.66348296e-02, -2.39540674e-02,
          -1.20107015e-03, -4.02894802e-02, -1.17637319e-02,
          -2.09478550e-02, 2.11891681e-02, -3.29541899e-02,
          -4.09320854e-02, -7.10764676e-02, 3.55262980e-02,
          7.85073861e-02, -2.17399672e-02, 5.25335558e-02,
          -9.73374620e-02, -5.66640273e-02, -6.91040903e-02,
          -3.12721208e-02, -8.17755051e-03, 7.70505667e-02,
          9.21430513e-02, -3.87124531e-02, 1.16065413e-01,
          2.49184757e-01, 2.05215607e-02, 1.65087115e-02,
          -6.13456778e-03, -5.90111054e-02, 2.19238549e-02 ]
      - [ 2.41548456e-02, 4.00984241e-03, 5.30157834e-02, 1.86224352e-05,
          -8.61929636e-03, -2.76890974e-02, 1.14855077e-02,
          -4.09151241e-03, 9.36186537e-02, -1.63295306e-02,
          6.85047954e-02, 3.44253927e-02, -1.77396592e-02,
          -4.35892753e-02, 6.67876191e-03, 7.88090471e-03,
          -3.89909446e-02, 2.80310661e-02, -3.33470590e-02,
          6.29590545e-03, -2.64011230e-02, -1.47840632e-02,
          -1.28518622e-02, -7.79646775e-03, 1.82488724e-03,
          -1.25535997e-02, -3.17869037e-02, -1.69253200e-02,
          1.57575056e-01, -5.33848405e-02, 6.79958090e-02,
          -4.01288569e-02, 3.84617709e-02, 5.38052134e-02,
          -1.77044924e-02, -1.72380041e-02, 1.29373930e-02,
          -9.99284349e-03, 1.82772037e-02, 2.81078555e-03,
          -2.08657924e-02, -1.23497592e-02, -1.26729757e-02,
          -5.01360802e-04, -1.63178667e-02, 5.76865450e-02,
          2.16667559e-02, 1.62444310e-03, -2.40859874e-02,
          2.51336093e-03, 6.92555979e-02, 1.56195331e-02,
          -3.51501219e-02, -3.88620142e-03, -1.91090361e-03,
          -2.25709900e-02, -5.63763827e-03, -3.11876573e-02,
          -2.63283476e-02, 1.17191961e-02, -1.03900852e-02,
          -5.65804355e-03, -1.59895010e-02, -1.22372862e-02,
          -1.65227856e-02, -4.08500694e-02, -1.72412284e-02,
          -2.29883846e-02, 4.45971079e-02, -3.54112312e-02,
          -2.34932899e-02, -2.56167557e-02, -6.70441380e-03,
          -2.53221653e-02, 3.17464918e-02, 4.43921424e-03,
          -1.33046582e-02, -5.07282242e-02, -1.77621748e-02,
          -2.03185938e-02, -3.06927357e-02, -2.63125636e-03,
          -3.28573063e-02, -3.79739003e-03, 7.05369189e-03,
          -1.86533071e-02, -2.32513323e-02, -1.25786746e-02,
          -1.78613327e-02, -3.37322131e-02, 3.97258289e-02,
          4.59883213e-02, -1.66941490e-02, 7.65953511e-02,
          1.19765669e-01, 1.89414304e-02, -6.49474049e-03,
          -1.18086925e-02, -3.43624949e-02, 1.06181558e-02 ]
      - [ -2.17316207e-02, 4.85145263e-02, 6.29362315e-02,
          -3.35176885e-02, -4.03576456e-02, 1.28861459e-03,
          3.51391546e-02, -4.66612130e-02, 7.77059197e-02,
          -8.63047375e-04, -6.44742977e-03, -5.38509451e-02,
          -1.99671253e-03, -1.25953536e-02, -2.05307472e-02,
          2.51077749e-02, -4.31664623e-02, 3.69261787e-03,
          1.06468741e-02, -4.19722404e-03, -2.38698050e-02,
          -5.05210971e-03, 2.20686514e-02, -5.48092369e-03,
          -3.84859927e-02, -2.12212373e-02, -3.01590506e-02,
          -4.43764310e-03, 2.57668346e-01, -2.87431292e-02,
          -8.64388645e-02, -4.42833975e-02, 2.71260627e-02,
          4.99633104e-02, 2.87929340e-03, 2.29040850e-02, 4.17589135e-02,
          4.21088561e-03, 2.19881088e-02, 2.84849852e-02, 3.49229272e-03,
          -3.68461385e-02, -2.34283675e-02, -1.82791650e-02,
          -7.18540093e-03, -1.24961585e-02, -4.43472639e-02,
          -6.15387447e-02, -1.39822736e-02, 2.17725150e-02,
          -3.10055888e-03, 4.74188104e-02, 5.64624090e-03,
          1.51170921e-02, 3.40994522e-02, -8.72480683e-03,
          -1.34216538e-02, -1.72058325e-02, 1.51469484e-02,
          8.40665866e-03, -9.05735511e-03, 6.39201375e-03,
          2.30363850e-02, -1.34438779e-02, -4.84975381e-03,
          -1.33436453e-02, -3.41532403e-03, -8.74765217e-03,
          -3.34120989e-02, 4.79400996e-03, 5.94632281e-03,
          -1.42169530e-02, 1.35010779e-02, -4.95620770e-03,
          1.49626983e-02, 2.30803024e-02, -7.14240223e-03,
          -3.11391186e-02, -2.86153927e-02, -1.12862634e-02,
          -1.63453966e-02, 2.68456005e-02, 1.02912392e-02,
          2.42018048e-02, 2.07913038e-03, -1.39016965e-02,
          -1.10112522e-02, -1.71821250e-03, -5.61574800e-03,
          -1.63131133e-02, -2.03158800e-02, -2.97605153e-02,
          3.00276699e-03, 1.40934028e-02, 1.18496969e-01,
          -1.51917711e-03, -1.89726762e-02, -1.10619701e-02,
          -1.60371624e-02, -5.06462669e-03 ]
      - [ -3.07301152e-03, 8.06213450e-03, -2.46166717e-02,
          2.49284063e-03, -4.62493747e-02, 1.90229006e-02,
          -9.65611485e-04, -5.95415104e-03, -1.73553780e-01,
          2.98071932e-02, -4.04473841e-02, -1.84550751e-02,
          2.37542707e-02, 3.14405421e-03, -2.57882290e-02,
          -1.66329537e-02, 3.70107219e-03, -2.68855821e-02,
          1.96947418e-02, -1.83861777e-02, 2.69731088e-03,
          2.30828184e-03, 6.25980552e-03, 3.28697897e-02, 3.89986858e-02,
          1.81496628e-02, 4.79827635e-02, 2.25068480e-02,
          -1.41770899e-01, -2.88291834e-02, -1.83939725e-01,
          -1.65835060e-02, -2.54323799e-02, -5.20458259e-02,
          -2.99540232e-03, 3.53404619e-02, 2.68048048e-03,
          2.32152306e-02, -4.19583812e-04, 2.13720798e-02,
          1.36826150e-02, 3.19533125e-02, 3.81354615e-02,
          -9.12438706e-03, 3.65506788e-03, -8.92819185e-03,
          6.25605043e-03, -2.00648769e-03, 8.96729808e-03,
          4.10289653e-02, -9.68891010e-02, -1.37154488e-02,
          4.02148813e-02, 4.47804816e-02, 9.11490619e-03, 4.64006513e-03,
          6.14738092e-03, 8.97129159e-03, 1.32799905e-03, 3.43668915e-04,
          2.90635284e-02, 1.63852498e-02, 1.76871102e-02, 7.02810101e-03,
          4.06671576e-02, 2.21613776e-02, 2.23627687e-02, 5.98729067e-02,
          -3.77378166e-02, -9.10071190e-03, 4.53201085e-02,
          2.57219188e-02, 3.22913378e-02, 3.02970316e-02,
          -1.20485974e-02, 1.50750335e-02, -2.50638090e-03,
          -1.22041125e-02, 6.82402356e-03, 1.62863750e-02,
          8.79302528e-03, 2.01633293e-02, 2.22658683e-02, 3.43458466e-02,
          -4.10615653e-02, 1.72718652e-02, 2.10379492e-02,
          2.23441590e-02, 1.34582063e-02, 9.72415973e-03,
          -2.74590887e-02, -3.76214348e-02, 3.44395302e-02,
          -2.51446553e-02, -2.16360278e-02, 2.56487392e-02,
          -3.77060249e-02, -3.08986232e-02, 1.84843745e-02,
          2.05119997e-02 ]
      - [ -4.80311066e-02, -2.10541650e-03, -5.56002855e-02,
          -1.12085752e-02, 9.63587966e-03, -1.40545098e-02,
          -1.68398500e-03, -3.36034112e-02, 1.51844062e-02,
          1.96836423e-02, 9.35113523e-03, 2.14462243e-02, 4.03788313e-02,
          -5.39147807e-03, -4.41656336e-02, -2.05445033e-03,
          2.97630597e-02, -1.71069689e-02, -1.42561058e-02,
          1.87640116e-02, -4.93964506e-03, 3.27725448e-02,
          1.21816797e-02, 4.37503308e-03, 2.78350133e-02, 3.83147970e-02,
          4.96837236e-02, -6.95132688e-02, -6.65668547e-02,
          6.51962298e-04, -3.22201252e-02, 1.11948745e-02,
          1.03531284e-02, -1.63732748e-02, -3.20447385e-02,
          3.31053995e-02, -3.36420257e-03, 3.20723131e-02,
          -2.17362866e-02, 2.60688551e-02, 3.65229212e-02,
          2.38444936e-03, 4.39975746e-02, 2.45532999e-03,
          -7.39641162e-03, -5.16342670e-02, 3.44833210e-02,
          2.39754692e-02, 5.29887620e-03, 5.45384400e-02,
          -2.23408565e-02, 4.90426924e-03, 1.55113377e-02,
          2.92601157e-02, 5.09018730e-03, 1.68604851e-02, 6.31106552e-03,
          -3.18689831e-02, -3.22633125e-02, -2.65359282e-02,
          1.30460225e-02, -4.49068984e-03, -2.59434618e-02,
          7.99053442e-03, 1.72949564e-02, -1.86791662e-02,
          -9.29083861e-03, 7.47686699e-02, -3.03603206e-02,
          2.82073021e-02, 1.17999464e-02, 3.54835168e-02, 8.09088629e-03,
          1.72648448e-02, 1.54614728e-02, -2.97204200e-02,
          9.22255497e-03, 1.10631781e-02, -1.96095537e-02,
          1.35333603e-03, -5.68457432e-02, 2.76426524e-02,
          7.89264776e-03, 2.72752475e-02, -5.18386997e-03,
          1.43853445e-02, 1.81180798e-02, 1.91506296e-02,
          -9.90770012e-03, -1.19993445e-02, -2.60144919e-02,
          -4.19276468e-02, 1.33862253e-02, -2.66518127e-02,
          -1.55081272e-01, 4.14693216e-03, -1.50757199e-02,
          1.06738927e-02, 4.13511209e-02, -4.63824905e-03 ]
      - [ -5.00810379e-03, -1.45101792e-03, -3.56343165e-02,
          7.79451476e-03, -5.14330827e-02, 4.04778421e-02,
          2.80944463e-02, 1.35545488e-02, 3.29163037e-02, 1.43943792e-02,
          -4.86027896e-02, -1.94440428e-02, 1.85436532e-02,
          1.53644234e-02, 7.07046455e-03, 1.04251364e-02,
          -1.18153763e-03, -4.13114317e-02, -1.20586960e-03,
          -2.55011562e-02, 7.71395629e-03, 6.42639399e-02,
          1.03798574e-02, 1.63372066e-02, 1.00664049e-02, 2.72115972e-03,
          3.21478993e-02, 5.44543453e-02, 4.28551733e-02,
          -1.15040084e-02, -1.41111061e-01, -1.42615652e-02,
          -2.89800894e-02, -3.98635194e-02, -1.15783773e-02,
          5.48350252e-02, 1.04560405e-02, 2.05161609e-02,
          -8.56918469e-03, 1.77832060e-02, 1.60246193e-02,
          5.86763676e-03, 3.80811431e-02, -2.71420348e-02,
          -8.11128784e-03, -4.41242047e-02, 5.28168632e-03,
          -2.11338382e-02, 8.96950532e-03, 6.39925301e-02,
          -1.44218892e-01, -5.52452542e-03, 3.36944833e-02,
          4.99291494e-02, 4.26836748e-04, -3.19711911e-03,
          -1.48063600e-02, 7.06537860e-03, -4.10996750e-03,
          1.06494604e-02, 9.90291592e-03, 5.96773764e-03, 7.54038524e-03,
          1.91547710e-03, 2.55467668e-02, -1.22186076e-02,
          -2.86027964e-04, 6.54802024e-02, -4.29495275e-02,
          4.48289253e-02, 2.95996033e-02, 1.32715013e-02, 2.37631910e-02,
          1.76861994e-02, 2.70224269e-02, 1.57053322e-02,
          -1.91729679e-03, -1.86765976e-02, -1.17677869e-02,
          4.00699675e-04, -3.90818110e-03, 1.04514128e-02,
          3.26811359e-03, 2.19700262e-02, -5.11409119e-02,
          3.79063189e-03, 1.87880006e-02, 1.26046585e-02,
          -1.12774372e-02, 5.91288880e-03, -5.33481762e-02,
          -5.30774705e-02, 3.11076120e-02, -3.63110043e-02,
          -5.76096550e-02, -1.15173832e-02, -3.83825749e-02,
          -2.20239889e-02, 2.66031772e-02, -1.08544044e-02 ]
      - [ -6.32553622e-02, 8.61482695e-03, -4.92386520e-02,
          4.35461365e-02, 1.39458589e-02, 3.01613118e-02,
          -5.64107373e-02, 2.85166055e-02, -2.70211577e-01,
          5.03998809e-02, -3.96846272e-02, 4.30695936e-02,
          5.55226058e-02, 1.43220136e-02, -3.87047268e-02,
          -5.08499816e-02, 4.41524461e-02, -4.64540459e-02,
          -6.35372549e-02, 2.56055091e-02, 2.48942003e-02,
          -6.33728737e-03, 3.16862948e-02, 6.47063181e-02,
          5.98808266e-02, 4.83155176e-02, 8.01941007e-02,
          -2.29759961e-02, -3.26033413e-01, 1.90874320e-02,
          -5.75287156e-02, 4.60159332e-02, -3.78927030e-02,
          -3.73548195e-02, -3.69404955e-03, 2.17653401e-02,
          3.04261851e-03, 1.40253622e-02, -8.44855756e-02,
          6.09006360e-02, 5.24387807e-02, 5.20968549e-02, 7.49148801e-02,
          -8.53319187e-03, 2.28736065e-02, -1.83565617e-01,
          5.35986498e-02, 2.91399378e-02, 4.45592590e-02,
          -1.50691830e-02, -8.63179266e-02, -2.20123818e-03,
          7.69285336e-02, 3.63311917e-02, -7.84999318e-03,
          -2.89966501e-02, 9.87302419e-03, 2.66260356e-02,
          -1.73081011e-02, 1.16379065e-02, 5.28640598e-02,
          4.32223417e-02, -2.98545081e-02, 3.84438634e-02,
          7.19312951e-02, 1.34395836e-02, 2.33466811e-02, 1.03695251e-01,
          -4.99541201e-02, -1.51376687e-02, 5.77940494e-02,
          5.15263639e-02, 4.36790176e-02, 5.27156740e-02,
          -2.33170316e-02, -7.36387298e-02, 3.76324914e-02,
          -2.35718805e-02, 2.04637107e-02, 3.94896977e-02,
          3.28589790e-02, 1.95225328e-02, -5.97311109e-02,
          6.61467314e-02, -1.44965816e-02, 4.00985517e-02,
          5.39289042e-02, 5.81271909e-02, 2.31263544e-02, 1.81941725e-02,
          -5.72174266e-02, -5.32078221e-02, 6.20063953e-02,
          -7.60080516e-02, -2.70007402e-01, -3.06539834e-02,
          -6.05060020e-03, 2.86343675e-02, 5.59468493e-02,
          -4.48867641e-02 ]
      - [ -6.53431863e-02, 6.74502831e-03, -6.76895827e-02,
          4.69841287e-02, -3.07053365e-02, 1.52639383e-02,
          2.03363993e-03, -2.10193973e-02, -3.98961455e-02,
          3.37566100e-02, -7.36200884e-02, -4.29426879e-03,
          3.90578806e-02, 1.80574246e-02, -4.66375947e-02,
          2.06529652e-03, 2.70304717e-02, -3.16668525e-02,
          7.46942637e-03, -1.21862199e-02, 1.49683179e-02,
          2.13372931e-02, 1.76305883e-02, 3.43874358e-02, 2.54041534e-02,
          2.24906839e-02, 5.59654385e-02, -3.22793536e-02,
          -7.69518614e-02, -1.07511133e-03, -1.94373235e-01,
          -2.79347692e-03, -4.67888787e-02, -6.00089431e-02,
          -3.74047719e-02, 4.13898006e-02, 2.57077869e-02,
          1.76294874e-02, 4.26809164e-03, 2.97157615e-02, 3.18453982e-02,
          3.60470153e-02, 5.64975068e-02, -7.07135955e-03,
          8.62109382e-03, -6.55032620e-02, 3.27189937e-02,
          -2.31503043e-02, 3.19174491e-02, 4.87303361e-02,
          -1.62336707e-01, 6.18415372e-03, 4.69559878e-02,
          4.71058115e-02, 1.02612525e-02, -1.49219748e-04,
          2.16270029e-03, 4.09856159e-03, 2.14386098e-02,
          -2.25370470e-02, 3.75452042e-02, 2.33665500e-02,
          2.38410048e-02, 1.21965110e-02, 4.25049141e-02,
          -4.57863510e-03, 2.79371664e-02, 7.81925991e-02,
          -8.26035291e-02, 6.59610564e-03, 4.28561196e-02,
          2.68377941e-02, 3.90191786e-02, 1.58477691e-03, 2.28109933e-03,
          2.95774974e-02, 1.29426131e-02, -1.15538051e-03,
          1.63313616e-02, 1.35313999e-02, 2.60962509e-02, 2.09214073e-02,
          1.24569386e-02, 4.80640978e-02, -6.27456158e-02,
          2.51515284e-02, 4.02768664e-02, 1.39513826e-02,
          -8.11430998e-03, 2.12883446e-02, -6.34991825e-02,
          -6.69737756e-02, 5.40284626e-02, -5.24976440e-02,
          -1.17277220e-01, -8.09633581e-04, -3.05729099e-02,
          -6.86402898e-03, 4.25435789e-02, -1.26902563e-02 ]
      - [ 1.52082387e-02, -6.40599988e-03, 1.45062376e-02,
          3.35020386e-02, -3.14902700e-03, -1.20539509e-03,
          5.36365956e-02, -4.99353483e-02, -1.80872440e-01,
          6.72633387e-03, 8.16048030e-03, -4.44769002e-02,
          -6.15324713e-02, 3.18357575e-04, -4.26196195e-02,
          4.55852561e-02, -3.31479199e-02, -3.22640464e-02,
          4.86796238e-02, -4.92173098e-02, -3.11105624e-02,
          8.56739581e-02, -1.22429337e-02, 5.01433667e-03,
          2.69882171e-03, -9.73002017e-02, -6.87786937e-02,
          5.60583323e-02, 8.71221051e-02, -1.77485533e-02,
          2.30872408e-02, 1.29279420e-02, 1.95617937e-02, 2.08038129e-02,
          -1.38452277e-02, 6.57852367e-02, 1.61447320e-02,
          4.55193706e-02, 3.69029469e-03, 1.05589535e-02,
          -4.21170108e-02, -3.57844494e-02, -8.41558948e-02,
          1.78748257e-02, 7.58833019e-03, 2.35092007e-02,
          -1.38405100e-01, -9.43917409e-03, -1.71581265e-02,
          8.96315873e-02, 1.49566885e-02, 4.49275272e-03, 2.33480353e-02,
          5.90495989e-02, 8.34271405e-03, 4.69850637e-02, 3.32502201e-02,
          -1.52474781e-02, 2.46368609e-02, -1.27774682e-02,
          -4.97262925e-02, -1.55206141e-03, 3.12861875e-02,
          -1.22396415e-02, -4.85833436e-02, -2.89712055e-03,
          1.48213953e-02, 3.63421254e-02, 6.10002363e-03, 7.35132694e-02,
          4.44418052e-03, -4.41148654e-02, 2.17442717e-02,
          2.64345277e-02, -4.74184006e-02, 1.18640298e-02,
          1.28191998e-02, 4.01636101e-02, -2.90172584e-02,
          -1.51953222e-02, -2.39647813e-02, 5.23260795e-02,
          6.45635352e-02, 1.60205420e-02, 7.43534975e-03,
          -6.01169951e-02, -1.51426978e-02, -2.64211260e-02,
          -1.48392133e-02, 3.14279716e-03, -9.43437312e-03,
          -4.43909550e-03, 1.05899917e-02, 5.48591092e-03,
          3.65079343e-02, 8.34888406e-03, -1.92820095e-02,
          -4.94800834e-03, 3.36785265e-03, 8.31224024e-03 ]
      - [ -4.38527875e-02, -7.39721721e-03, -5.92908710e-02,
          4.98284474e-02, -1.03502104e-03, -3.87854036e-03,
          2.76117381e-02, 2.55508954e-03, -1.88632421e-02,
          2.38142516e-02, -3.41342785e-03, 3.49239893e-02,
          2.35970188e-02, -2.75008623e-02, -4.97958511e-02,
          1.42883714e-02, 4.74311085e-03, -3.60551365e-02,
          -5.07926941e-02, -4.68278522e-05, 5.98943792e-03,
          2.26142034e-02, -2.74391426e-03, 3.18288319e-02,
          4.03429493e-02, 2.44346075e-02, 5.09570912e-02,
          -6.21407665e-02, -1.55751213e-01, -4.33521643e-02,
          3.18076764e-03, -1.25603275e-02, -6.84249680e-03,
          -5.15576452e-02, -4.19090912e-02, 2.94666067e-02,
          2.27572154e-02, 2.27037054e-02, 1.54490760e-02, 2.73409188e-02,
          9.91628040e-03, 3.48823033e-02, 5.59320599e-02,
          -6.81499066e-03, -9.73961968e-03, -2.97122020e-02,
          4.56838645e-02, 2.53762770e-02, 1.65676419e-02, 5.08332215e-02,
          -5.27310297e-02, 6.82285288e-03, 2.44512688e-02,
          4.93942350e-02, 1.35207991e-03, -4.97891381e-03,
          9.56571009e-03, -7.46668596e-03, -4.45721205e-03,
          -2.39221212e-02, 3.73873152e-02, 1.78326219e-02,
          2.40223249e-03, 2.94492743e-03, 4.49641906e-02,
          -2.66382992e-02, 2.07640580e-03, 5.24389148e-02,
          -3.94696966e-02, -2.02336945e-02, 3.44457738e-02,
          1.69032104e-02, 3.89939249e-02, 2.31343275e-03, 2.46175714e-02,
          2.80669760e-02, 2.04623956e-02, -3.17537859e-02,
          -1.38252443e-02, 5.41817071e-03, 1.64189525e-02,
          1.41685242e-02, -4.68011536e-02, 3.39631177e-02,
          -3.80445123e-02, 1.85671598e-02, 1.82699971e-02,
          3.01042926e-02, -1.42842426e-03, -2.24118661e-02,
          -4.67591099e-02, -5.05938306e-02, 3.26082930e-02,
          -3.39841507e-02, -9.29111466e-02, 6.76875282e-03,
          -4.22854610e-02, -1.06221326e-02, 2.80164629e-02,
          -2.99345725e-03 ]
      - [ -8.97392556e-02, 3.71074677e-02, -4.93704230e-02,
          1.62921324e-02, -3.27733718e-02, 2.50991713e-02,
          5.12653850e-02, -4.00146097e-02, -3.47759798e-02,
          3.92807350e-02, -7.83656538e-02, -5.33523448e-02,
          3.93399671e-02, 3.49305850e-03, -7.70053640e-02,
          3.15152407e-02, 5.67591109e-04, -6.03935830e-02,
          -6.79876423e-03, -1.05399573e-02, 8.52075499e-03,
          3.23461555e-02, 3.21765989e-02, 3.41443755e-02, 3.20688814e-05,
          1.57669690e-02, 5.25849462e-02, -4.96530905e-02,
          -5.56579046e-02, -1.87104568e-02, -1.51253909e-01,
          -1.67148672e-02, -1.81782041e-02, -5.53995483e-02,
          -2.13253051e-02, 6.96086958e-02, 5.15787378e-02,
          3.69074345e-02, 1.91599801e-02, 5.30151203e-02, 3.42743658e-02,
          1.03859259e-02, 4.51766662e-02, -2.45927945e-02,
          -6.07153459e-04, -9.98949036e-02, -2.03301571e-02,
          -3.77869084e-02, 2.66713556e-02, 7.00923800e-02,
          -1.25087187e-01, 3.86221297e-02, 6.52476326e-02,
          6.83975294e-02, 3.73624340e-02, 8.86726845e-03, 1.78169459e-03,
          6.51513925e-03, 3.70180830e-02, -2.72346586e-02,
          3.87200452e-02, 2.98826788e-02, 4.14281189e-02, 1.73833617e-03,
          5.66372238e-02, 8.68125528e-04, 1.59023106e-02, 6.66796491e-02,
          -1.17478907e-01, 1.99715476e-02, 6.38853833e-02,
          2.83030123e-02, 5.91994151e-02, 2.26793904e-02, 7.83377606e-03,
          4.67080660e-02, 2.66246535e-02, -1.21646784e-02,
          -2.46784613e-02, 1.44504998e-02, 3.07662915e-02,
          4.36453819e-02, -3.65260872e-03, 6.19623140e-02,
          -4.30190749e-02, 2.33187713e-02, 3.05100754e-02,
          4.09647562e-02, 1.08171599e-02, -4.99276584e-03,
          -1.06800817e-01, -1.26342669e-01, 5.23052104e-02,
          -9.64860991e-02, -9.41798538e-02, -1.36918547e-02,
          -5.47633953e-02, -9.87541117e-03, 4.63417917e-02,
          -1.86762400e-02 ]
      - [ -4.49580960e-02, -1.01675512e-02, -3.09836138e-02,
          -1.37014156e-02, 5.58852553e-02, -3.30774114e-02,
          -7.18373514e-04, -2.76492592e-02, 1.88738182e-01,
          -1.01235509e-02, 4.97985221e-02, 3.99012975e-02,
          1.66245606e-02, -8.53553228e-03, -1.83774047e-02,
          1.45785026e-02, 2.60619875e-02, 9.77861322e-03,
          -3.39508466e-02, 3.71501893e-02, -7.63695594e-03,
          3.04642636e-02, 5.92187420e-03, -2.84947567e-02,
          -1.11636715e-02, 2.01651342e-02, 1.70096080e-03,
          -9.20201167e-02, 7.52040371e-02, 2.94811465e-02,
          1.51719600e-01, 2.77783796e-02, 3.57855074e-02, 3.56725529e-02,
          -2.90493369e-02, -2.23506056e-03, -6.04468305e-03,
          8.85708258e-03, -2.13167034e-02, 4.69677616e-03,
          2.28403080e-02, -2.95688640e-02, 5.86211029e-03,
          1.15797166e-02, -1.10514797e-02, -4.27060723e-02,
          2.82272715e-02, 2.59819571e-02, -3.66842165e-03,
          1.35094747e-02, 7.45482445e-02, 1.86197180e-02,
          -2.47035436e-02, -1.55203650e-02, -4.02471935e-03,
          1.22204199e-02, 1.63684628e-04, -4.08402756e-02,
          -3.35913114e-02, -2.68795975e-02, -1.60175059e-02,
          -2.08759401e-02, -4.36305739e-02, 9.62433987e-04,
          -2.33722012e-02, -4.08405438e-02, -3.16536054e-02,
          1.48957586e-02, 7.37749459e-03, 3.73080112e-02,
          -3.35201621e-02, 9.76159889e-03, -2.42004506e-02,
          -1.30321868e-02, 2.75100712e-02, -4.47954535e-02,
          1.17289359e-02, 2.32672915e-02, -2.64335778e-02,
          -1.49330385e-02, -6.56387657e-02, 7.47932307e-03,
          -1.43732205e-02, -7.07060145e-03, 3.58776934e-02,
          -2.88652116e-03, -2.91986926e-03, -3.19352979e-03,
          -2.33659074e-02, -2.17235051e-02, 1.44459703e-03,
          -4.30621393e-03, -2.10533049e-02, -1.50715839e-03,
          -1.33445248e-01, -2.15018075e-02, 2.26303060e-02,
          4.15725149e-02, 2.28667464e-02, -2.51502488e-02 ]
      - [ -1.93509203e-03, -9.51315276e-03, -1.10176438e-02,
          5.30167436e-03, -5.18370559e-03, 2.14549433e-02,
          2.90600583e-02, 1.95087008e-02, 2.06470087e-01,
          -1.54128131e-02, -8.15540273e-03, -9.88968182e-04,
          -5.21061849e-03, 1.22203687e-02, 3.28586921e-02,
          2.70580892e-02, -4.88260994e-03, -1.44258486e-02,
          -2.09006108e-02, -7.11497897e-03, 5.01664495e-03,
          6.19556569e-02, 4.12005140e-03, -1.65325832e-02,
          -2.89322808e-02, -1.54285030e-02, -1.58348661e-02,
          3.19474973e-02, 1.84626073e-01, 1.73251759e-02, 4.28286605e-02,
          2.32194108e-03, -3.54771013e-03, 1.21823084e-02,
          -8.58297478e-03, 1.94945652e-02, 7.77555956e-03,
          -2.69906968e-03, -8.14960152e-03, -3.58887319e-03,
          2.34200456e-03, -2.60856766e-02, -5.43207971e-05,
          -1.80176478e-02, -1.17663564e-02, -3.51960137e-02,
          -9.74364229e-04, -1.91273503e-02, 2.20794459e-06,
          2.29635648e-02, -4.73297909e-02, 8.19092337e-03,
          -6.52039936e-03, 5.14866691e-03, -8.68806988e-03,
          -7.83718470e-03, -2.09537409e-02, -1.90591335e-03,
          -5.43796644e-03, 1.03057912e-02, -1.91606134e-02,
          -1.04175126e-02, -1.01467250e-02, -5.11262380e-03,
          -1.51203917e-02, -3.43799852e-02, -2.26487964e-02,
          5.60729066e-03, -5.21171093e-03, 5.39296381e-02,
          -1.57205034e-02, -1.24504166e-02, -8.52814782e-03,
          -1.26108332e-02, 3.90710235e-02, 6.30297582e-04,
          5.89084113e-04, -6.47248421e-03, -1.85918119e-02,
          -1.58856753e-02, -1.27012059e-02, -9.71191656e-03,
          -1.89977549e-02, -1.23758214e-02, -1.00793485e-02,
          -1.34812333e-02, -2.24994775e-03, -9.73950047e-03,
          -2.47356445e-02, -3.81127070e-03, -2.58890875e-02,
          -1.54560357e-02, -3.33191827e-03, -1.11663481e-02,
          -3.59736271e-02, -3.71661223e-02, -6.76548399e-04,
          8.87463521e-03, 8.11880454e-03, -3.13664041e-02 ]
      - [ -6.01823516e-02, 5.52692974e-04, -2.46219803e-02,
          4.10532951e-02, 6.01952337e-02, 1.11384094e-02,
          -5.54451272e-02, 3.44707556e-02, -9.66577977e-02,
          2.05926858e-02, 7.62756390e-04, 6.15246706e-02, 3.17683332e-02,
          1.11779589e-02, -1.29164960e-02, -3.42170261e-02,
          4.04513739e-02, -1.95684638e-02, -8.32319930e-02,
          4.39916886e-02, 2.21968908e-02, -8.64556897e-03,
          2.54264884e-02, 3.18365283e-02, 2.08821408e-02, 3.01658548e-02,
          3.22113335e-02, -4.54828441e-02, -1.84262499e-01,
          4.79166172e-02, 1.26411006e-01, 6.25994429e-02,
          -1.24603231e-02, 1.46910073e-02, -6.98647229e-04,
          -1.35751199e-02, 3.62137944e-04, -9.18986741e-03,
          -8.40659961e-02, 3.95285562e-02, 3.87561657e-02,
          2.01435406e-02, 3.67794186e-02, 5.91195188e-04, 1.92185380e-02,
          -1.74637422e-01, 4.73425984e-02, 3.11464258e-02,
          3.55919600e-02, -5.60981482e-02, 1.05711743e-02,
          1.15142111e-02, 3.67136523e-02, -8.44928902e-03,
          -1.69648994e-02, -3.36367153e-02, 3.72564350e-03,
          1.76547449e-02, -1.86361000e-02, 1.12942373e-02,
          2.38005314e-02, 2.68370900e-02, -4.75416183e-02,
          3.14157605e-02, 3.12641412e-02, -8.72179400e-03,
          9.83913429e-04, 4.38223444e-02, -1.22163054e-02,
          -6.03695679e-03, 1.24739408e-02, 2.58044451e-02,
          1.13876788e-02, 2.24186406e-02, -1.12684341e-02,
          -8.87137651e-02, 4.01388705e-02, -1.13677680e-02,
          1.36396866e-02, 2.32033227e-02, 2.40659565e-02,
          -6.40797254e-04, -8.19969773e-02, 3.18008810e-02,
          2.65649837e-02, 2.28266865e-02, 3.28909531e-02, 3.57830301e-02,
          9.66814719e-03, 8.47001281e-03, -2.97583360e-02,
          -1.55863902e-02, 2.75668632e-02, -5.08633964e-02,
          -2.48371378e-01, -5.63027225e-02, 3.16554271e-02,
          5.95329888e-02, 3.74624729e-02, -6.53987676e-02 ]
      - [ -6.22701794e-02, -1.31710584e-03, -4.30729091e-02,
          4.44912873e-02, 1.55440392e-02, -3.75896273e-03,
          2.99925148e-03, -1.50652463e-02, 1.33657634e-01,
          3.94941634e-03, -3.31727043e-02, 1.41608054e-02,
          1.53036090e-02, 1.49133699e-02, -2.08493657e-02,
          1.86982490e-02, 2.33293995e-02, -4.78126854e-03,
          -1.22253150e-02, 6.19995780e-03, 1.22710075e-02,
          1.90290119e-02, 1.13707827e-02, 1.51764543e-03,
          -1.35945315e-02, 4.34102118e-03, 7.98267499e-03,
          -5.47862016e-02, 6.48190305e-02, 2.77540721e-02,
          -1.04335174e-02, 1.37900291e-02, -2.13564988e-02,
          -7.96311535e-03, -3.44093703e-02, 6.04933873e-03,
          2.30273064e-02, -5.58574265e-03, 4.68767527e-03,
          8.34368169e-03, 1.81627832e-02, 4.09370102e-03, 1.83620434e-02,
          2.05302751e-03, 4.96602617e-03, -5.65750673e-02,
          2.64629442e-02, -2.11438164e-02, 2.29501519e-02,
          7.70137180e-03, -6.54476061e-02, 1.98996030e-02,
          6.74110604e-03, 2.32532923e-03, 1.14634656e-03,
          -4.78928490e-03, -3.98468040e-03, -4.87273000e-03,
          2.01106109e-02, -2.28807162e-02, 8.48167390e-03,
          6.98129972e-03, 6.15389412e-03, 5.16841002e-03, 1.83775532e-03,
          -2.67400127e-02, 5.57439914e-03, 1.83196943e-02,
          -4.48657125e-02, 1.56968180e-02, -2.46398826e-03,
          1.11587602e-03, 6.72784168e-03, -2.87122559e-02,
          1.43296970e-02, 1.45024639e-02, 1.54489940e-02, 1.10487323e-02,
          9.50733852e-03, -2.75497395e-03, 1.73032265e-02,
          7.58077309e-04, -9.80892871e-03, 1.37182511e-02,
          -2.16840543e-02, 7.87966233e-03, 1.92389172e-02,
          -8.39277543e-03, -2.15725154e-02, 1.15641840e-02,
          -3.60400937e-02, -2.93523464e-02, 1.95889324e-02,
          -2.73529887e-02, -9.56411883e-02, -2.64583733e-02,
          7.13311555e-03, 2.40345951e-02, 2.40592044e-02,
          -3.32022570e-02 ]
      - [ 1.82812493e-02, -1.44681344e-02, 3.91229093e-02,
          3.10091972e-02, 4.31003496e-02, -2.02282965e-02,
          5.46022095e-02, -4.39811982e-02, -7.31865317e-03,
          -2.30808593e-02, 4.86078672e-02, -2.60218233e-02,
          -8.52867439e-02, -2.82569672e-03, -1.68313887e-02,
          6.22182116e-02, -3.68489921e-02, -5.37846284e-03,
          2.89848819e-02, -3.08311321e-02, -3.38078737e-02,
          8.33656788e-02, -1.85027402e-02, -2.78554540e-02,
          -3.62998620e-02, -1.15449861e-01, -1.16761461e-01,
          3.35514843e-02, 2.28892997e-01, 1.10806320e-02, 2.07026958e-01,
          2.95114480e-02, 4.49941717e-02, 7.28496388e-02,
          -1.08498251e-02, 3.04447748e-02, 1.34642525e-02,
          2.23041382e-02, 4.10987856e-03, -1.08131254e-02,
          -5.57996258e-02, -6.77377582e-02, -1.22291356e-01,
          2.69992128e-02, 3.93326208e-03, 3.24373916e-02,
          -1.44661143e-01, -7.43268616e-03, -2.61254255e-02,
          4.86026220e-02, 1.11845784e-01, 1.82082020e-02,
          -1.68668441e-02, 1.42691173e-02, -7.72191852e-04,
          4.23449986e-02, 2.71028373e-02, -2.42187697e-02,
          2.33088620e-02, -1.31211374e-02, -7.87898228e-02,
          -1.79373119e-02, 1.35990791e-02, -1.92677416e-02,
          -8.92504975e-02, -2.50584986e-02, -7.54137244e-03,
          -2.35307831e-02, 4.38378379e-02, 8.26139823e-02,
          -4.08759266e-02, -6.98367804e-02, -1.05470652e-02,
          -3.86250368e-03, -3.53698023e-02, -3.21100373e-03,
          1.53255807e-02, 5.23677208e-02, -3.58412825e-02,
          -3.14816982e-02, -3.27578075e-02, 3.21627520e-02,
          4.22976688e-02, -1.83253065e-02, 4.84969132e-02,
          -7.73888603e-02, -3.61806452e-02, -4.87652831e-02,
          -2.82974206e-02, -6.58136234e-03, 1.80247165e-02,
          3.31823379e-02, -2.38495395e-02, 3.06305662e-02,
          5.81439584e-02, -1.72998551e-02, 1.84240174e-02,
          2.59506162e-02, -1.51165212e-02, -1.21997595e-02 ]
      - [ -4.07797769e-02, -1.54593512e-02, -3.46741974e-02,
          4.73356061e-02, 4.52143550e-02, -2.29014419e-02,
          2.85773501e-02, 8.50924011e-03, 1.54690549e-01,
          -5.99294109e-03, 3.70339565e-02, 5.33790663e-02,
          -1.57252885e-04, -3.06449160e-02, -2.40076240e-02,
          3.09213251e-02, 1.04203855e-03, -9.16955434e-03,
          -7.04874396e-02, 1.83393508e-02, 3.29212681e-03,
          2.03059223e-02, -9.00372025e-03, -1.04095798e-03,
          1.34426437e-03, 6.28494471e-03, 2.97432812e-03,
          -8.46476108e-02, -1.39803141e-02, -1.45229818e-02,
          1.87120482e-01, 4.02317848e-03, 1.85898822e-02, 4.88183519e-04,
          -3.89136858e-02, -5.87385381e-03, 2.00767349e-02,
          -5.11524151e-04, 1.58686601e-02, 5.96883940e-03,
          -3.76633438e-03, 2.92899157e-03, 1.77965984e-02,
          2.30939593e-03, -1.33946873e-02, -2.07840092e-02,
          3.94278131e-02, 2.73827650e-02, 7.60034379e-03, 9.80425719e-03,
          4.41580676e-02, 2.05383021e-02, -1.57636125e-02,
          4.61375155e-03, -7.76282651e-03, -9.61897895e-03,
          3.41832917e-03, -1.64379776e-02, -5.78521099e-03,
          -2.42657904e-02, 8.32378771e-03, 1.44737063e-03,
          -1.52848782e-02, -4.08317335e-03, 4.29703481e-03,
          -4.87996750e-02, -2.02863626e-02, -7.43399328e-03,
          -1.73188106e-03, -1.11329835e-02, -1.08743357e-02,
          -8.81870743e-03, 6.70258794e-03, -2.79836003e-02,
          3.66661698e-02, 1.29919425e-02, 2.29687765e-02,
          -1.95496716e-02, -2.06492674e-02, -1.08682038e-02,
          7.62592768e-03, -5.99480560e-03, -6.90670237e-02,
          -3.82728671e-04, 3.01705208e-03, 1.29529450e-03,
          -2.76795262e-03, 7.76013406e-03, -1.48866307e-02,
          -3.21360268e-02, -1.93000212e-02, -1.29723968e-02,
          -1.83123560e-03, -8.83949734e-03, -7.12751225e-02,
          -1.88799854e-02, -4.57943557e-03, 2.02764906e-02,
          9.53208935e-03, -2.35054567e-02 ]
      - [ -8.66662413e-02, 2.90453322e-02, -2.47537531e-02,
          1.37992930e-02, 1.34760039e-02, 6.07627071e-03, 5.22309989e-02,
          -3.40604596e-02, 1.38777807e-01, 9.47354268e-03,
          -3.79182696e-02, -3.48972715e-02, 1.55856945e-02,
          3.49004113e-04, -5.12171313e-02, 4.81481962e-02,
          -3.13348114e-03, -3.35080028e-02, -2.64935046e-02,
          7.84622040e-03, 5.82344411e-03, 3.00378762e-02, 2.59167943e-02,
          1.27458572e-03, -3.89666148e-02, -2.38269335e-03,
          4.60218033e-03, -7.21599385e-02, 8.61129910e-02,
          1.01187276e-02, 3.26858163e-02, -1.31360692e-04,
          7.25417584e-03, -3.35372146e-03, -1.83299016e-02,
          3.42682339e-02, 4.88982573e-02, 1.36922048e-02, 1.95795652e-02,
          3.16430405e-02, 2.05917507e-02, -2.15673875e-02,
          7.04120519e-03, -1.54684084e-02, -4.26222151e-03,
          -9.09667164e-02, -2.65862066e-02, -3.57804224e-02,
          1.77040584e-02, 2.90634111e-02, -2.81980895e-02,
          5.23375794e-02, 2.50327494e-02, 2.36170441e-02, 2.82475278e-02,
          4.22720332e-03, -4.36568633e-03, -2.45615235e-03,
          3.56900841e-02, -2.75783278e-02, 9.65651777e-03,
          1.34974280e-02, 2.37410087e-02, -5.28976461e-03,
          1.59700681e-02, -2.12932527e-02, -6.46045711e-03,
          6.80673821e-03, -7.97410905e-02, 2.90722586e-02,
          1.85652766e-02, 2.58109486e-03, 2.69080792e-02,
          -7.61764077e-03, 1.98823735e-02, 3.16330306e-02,
          2.91310344e-02, 3.94345261e-05, -3.15024853e-02,
          -1.83587405e-03, 2.19732653e-02, 2.34820507e-02,
          -2.59184763e-02, 2.76164673e-02, -1.95750967e-03,
          6.04690518e-03, 9.47212707e-03, 1.86205953e-02,
          -2.64104642e-03, -1.47169251e-02, -7.93417245e-02,
          -8.87212306e-02, 1.78656802e-02, -7.13414475e-02,
          -7.25438297e-02, -3.93405929e-02, -1.70573704e-02,
          2.10232120e-02, 2.78574191e-02, -3.91882397e-02 ]
      - [ 4.30230051e-02, 6.54398522e-04, 1.99659709e-02, 1.90030895e-02,
          -6.10689595e-02, 5.45323528e-02, 2.97784321e-02,
          4.71579581e-02, 1.77318975e-02, -5.28926216e-03,
          -5.79539239e-02, -4.08902690e-02, -2.18351800e-02,
          2.07559019e-02, 5.12361005e-02, 1.24795875e-02,
          -3.09445970e-02, -2.42044609e-02, 1.30502367e-02,
          -4.42651697e-02, 1.26536014e-02, 3.14913914e-02,
          -1.80182292e-03, 1.19621726e-02, -1.77686084e-02,
          -3.55936363e-02, -1.75358281e-02, 1.23967610e-01,
          1.09422028e-01, -1.21559706e-02, -1.08890936e-01,
          -2.54564397e-02, -3.93332168e-02, -2.34902445e-02,
          2.04663631e-02, 2.17296258e-02, 1.38202431e-02,
          -1.15561523e-02, 1.31671019e-02, -8.28564912e-03,
          -2.04983037e-02, 3.48318741e-03, -5.91643108e-03,
          -2.95973644e-02, -7.14876631e-04, 7.51006044e-03,
          -2.92016342e-02, -4.51093093e-02, 3.67062958e-03,
          9.45409015e-03, -1.21878028e-01, -1.04287947e-02,
          1.81831438e-02, 2.06690319e-02, -4.66335053e-03,
          -2.00576056e-02, -2.11174265e-02, 3.89343612e-02,
          2.81533450e-02, 3.71853895e-02, -3.14310729e-03,
          1.04584275e-02, 3.34838480e-02, -6.07505767e-03,
          8.25181045e-03, 6.46055769e-03, 9.00481082e-03,
          -9.28846747e-03, -1.25892060e-02, 1.66216251e-02,
          1.77996568e-02, -2.22120155e-02, 1.56723037e-02,
          4.21353499e-04, 1.15609542e-02, 4.54257503e-02,
          -1.11398511e-02, -2.97397748e-02, 7.84176681e-03,
          -9.52636357e-04, 5.29375598e-02, -1.71912387e-02,
          -4.62453393e-03, -5.30522037e-03, -4.59570438e-02,
          -1.05947126e-02, 6.69921516e-04, -6.54597068e-03,
          -1.36973732e-03, 1.79122332e-02, -2.73336843e-02,
          -1.11498218e-02, 1.77213866e-02, -9.65918973e-03,
          9.74716172e-02, -1.56643149e-02, -2.33068541e-02,
          -3.26978825e-02, -1.47479428e-02, -6.21615537e-03 ]
      - [ -1.52242556e-02, 1.07202437e-02, 6.36163494e-03,
          5.47547117e-02, 4.30997973e-03, 4.42158207e-02,
          -5.47267534e-02, 6.21200167e-02, -2.85395980e-01,
          3.07162367e-02, -4.90357652e-02, 2.16233693e-02,
          1.51437735e-02, 1.97134912e-02, 5.46090910e-03,
          -4.87955287e-02, 1.43893873e-02, -2.93470770e-02,
          -4.92811464e-02, 6.84149750e-03, 2.98338458e-02,
          -3.91098335e-02, 1.95046160e-02, 6.03312850e-02,
          3.20458114e-02, 1.00007206e-02, 3.05103734e-02, 4.65372689e-02,
          -2.59466529e-01, 1.84354689e-02, -2.53085922e-02,
          3.48210596e-02, -4.82458323e-02, -2.09815465e-02,
          2.83506904e-02, -1.13400593e-02, 6.40682131e-03,
          -1.80469509e-02, -6.27492890e-02, 3.48317809e-02,
          1.59158595e-02, 4.97124046e-02, 3.09173074e-02,
          -1.09885214e-02, 3.02700177e-02, -1.31931350e-01,
          1.91153288e-02, 5.16446913e-03, 3.92603837e-02,
          -6.96076229e-02, -6.39770702e-02, -7.10550742e-03,
          6.14171959e-02, 7.07107596e-03, -1.29401805e-02,
          -4.58571352e-02, 3.56195890e-03, 5.84950186e-02,
          1.49552105e-02, 3.81738357e-02, 3.98180373e-02, 4.77130301e-02,
          -3.91104538e-03, 3.04533280e-02, 5.46363443e-02,
          3.21187489e-02, 3.26375179e-02, 2.89265849e-02,
          -1.95937995e-02, -4.33449708e-02, 4.59941030e-02,
          1.60428472e-02, 3.55881304e-02, 3.54508273e-02,
          -3.87785062e-02, -4.39183116e-02, 2.84099355e-02,
          -3.46350595e-02, 4.00732644e-02, 3.81363593e-02,
          8.97047222e-02, -8.12012050e-03, -6.76237568e-02,
          3.88714820e-02, -9.31271166e-03, 2.57132091e-02,
          3.58108245e-02, 3.89765613e-02, 3.30340527e-02, 3.01935170e-02,
          -3.12029328e-02, -1.12801753e-02, 4.86201681e-02,
          -4.93562371e-02, -1.14926137e-01, -3.48009169e-02,
          9.02511925e-03, 1.79604739e-02, 1.45957274e-02,
          -4.02485169e-02 ]
      - [ -1.73120815e-02, 8.85044504e-03, -1.20892935e-02,
          5.81927039e-02, -4.03412171e-02, 2.93184482e-02,
          3.71762505e-03, 1.25840120e-02, -5.50805517e-02,
          1.40729668e-02, -8.29712227e-02, -2.57404931e-02,
          -1.32095139e-03, 2.34489013e-02, -2.47195968e-03,
          4.11974685e-03, -2.73258775e-03, -1.45598808e-02,
          2.17255317e-02, -3.09502315e-02, 1.99079625e-02,
          -1.14352526e-02, 5.44890855e-03, 3.00124027e-02,
          -2.43086042e-03, -1.58241130e-02, 6.28171442e-03,
          3.72339115e-02, -1.03850076e-02, -1.72707369e-03,
          -1.62153110e-01, -1.39883514e-02, -5.71420044e-02,
          -4.36356701e-02, -5.36003243e-03, 8.28439929e-03,
          2.90719904e-02, -1.44428257e-02, 2.60043778e-02,
          3.64690530e-03, -4.67752432e-03, 3.36625651e-02,
          1.24999331e-02, -9.52668954e-03, 1.60175059e-02,
          -1.38689941e-02, -1.76432705e-03, -4.71257716e-02,
          2.66185738e-02, -5.80810336e-03, -1.39995843e-01,
          1.27988437e-03, 3.14446501e-02, 1.78456940e-02, 5.17106568e-03,
          -1.70097053e-02, -4.14836500e-03, 3.59675437e-02,
          5.37019223e-02, 3.99888121e-03, 2.44991798e-02, 2.78572403e-02,
          4.97844666e-02, 4.20597568e-03, 2.52099559e-02, 1.41005302e-02,
          3.72280069e-02, 3.42393480e-03, -5.22432067e-02,
          -2.16111951e-02, 3.10561731e-02, -8.64572264e-03,
          3.09282932e-02, -1.56800691e-02, -1.31803732e-02,
          5.92979155e-02, 3.72005813e-03, -1.22185592e-02,
          3.59409153e-02, 1.21780643e-02, 8.29419941e-02,
          -6.72124606e-03, 4.56429133e-03, 2.07888521e-02,
          -5.75617477e-02, 1.07661840e-02, 2.21587867e-02,
          -5.19924611e-03, 1.79339072e-03, 3.32876891e-02,
          -3.74846905e-02, -2.50461325e-02, 4.06422354e-02,
          -2.58458313e-02, 3.78040560e-02, -4.95656580e-03,
          -1.54971909e-02, -1.75379217e-02, 1.19245832e-03,
          -8.05200730e-03 ]
      - [ 6.32393435e-02, -4.30058362e-03, 7.01065212e-02,
          4.47106138e-02, -1.27849067e-02, 1.28491148e-02,
          5.53205796e-02, -1.63319409e-02, -1.96056843e-01,
          -1.29573084e-02, -1.19065470e-03, -6.59231246e-02,
          -1.01911299e-01, 5.70983533e-03, 1.54601620e-03,
          4.76397090e-02, -6.29109815e-02, -1.51570756e-02,
          6.29357249e-02, -6.79813251e-02, -2.61709169e-02,
          5.29014096e-02, -2.44246144e-02, 6.39303238e-04,
          -2.51361914e-02, -1.35614991e-01, -1.18462421e-01,
          1.25571594e-01, 1.53688967e-01, -1.84005145e-02,
          5.53073660e-02, 1.73306733e-03, 9.20866523e-03, 3.71770859e-02,
          1.81995127e-02, 3.26798335e-02, 1.95089355e-02, 1.34470556e-02,
          2.54265815e-02, -1.55099016e-02, -7.86399320e-02,
          -3.81688960e-02, -1.28153473e-01, 1.54194953e-02,
          1.49847418e-02, 7.51434639e-02, -1.72888413e-01,
          -3.34146433e-02, -2.24570036e-02, 3.50931473e-02,
          3.72975431e-02, -4.11516347e-04, 7.83669855e-03,
          2.97894813e-02, 3.25252721e-03, 3.01245786e-02, 2.69391537e-02,
          1.66215058e-02, 5.69001734e-02, 1.37584610e-02,
          -6.27723187e-02, 2.93862843e-03, 5.72296530e-02,
          -2.02301759e-02, -6.58782944e-02, 1.57820452e-02,
          2.41122339e-02, -3.84265408e-02, 3.64603437e-02,
          4.53059673e-02, -7.35576591e-03, -7.95983821e-02,
          1.36533855e-02, 9.16968286e-03, -6.28798753e-02,
          4.15844508e-02, 3.59664485e-03, 2.91004311e-02,
          -9.40770376e-03, -1.65486578e-02, 3.28809619e-02,
          2.46834271e-02, 5.66708893e-02, -1.12547046e-02,
          1.26192197e-02, -7.45023414e-02, -3.32607776e-02,
          -4.55717556e-02, -4.93151322e-03, 1.51421418e-02,
          1.65801197e-02, 3.74885537e-02, -2.79623410e-03,
          3.21377255e-02, 1.91589206e-01, 4.20195144e-03,
          -4.20628954e-03, -1.56219015e-02, -3.79832685e-02,
          1.29504902e-02 ]
      - [ 4.17831959e-03, -5.29180048e-03, -3.69058480e-03,
          6.10370226e-02, -1.06709003e-02, 1.01759695e-02,
          2.92957239e-02, 3.61584984e-02, -3.40476483e-02,
          4.13060980e-03, -1.27645629e-02, 1.34777650e-02,
          -1.67818144e-02, -2.21093837e-02, -5.63021796e-03,
          1.63428225e-02, -2.50199493e-02, -1.89481676e-02,
          -3.65365893e-02, -1.88108403e-02, 1.09290825e-02,
          -1.01583423e-02, -1.49255944e-02, 2.74537988e-02,
          1.25079360e-02, -1.38801895e-02, 1.27336732e-03,
          7.37250084e-03, -8.91843513e-02, -4.40041274e-02,
          3.54008935e-02, -2.37552021e-02, -1.71956252e-02,
          -3.51843685e-02, -9.86434892e-03, -3.63879302e-03,
          2.61214171e-02, -9.36860684e-03, 3.71853635e-02,
          1.27206324e-03, -2.66066417e-02, 3.24978568e-02,
          1.19344881e-02, -9.27032065e-03, -2.34320806e-03,
          2.19220649e-02, 1.12005426e-02, 1.40080845e-03, 1.12687657e-02,
          -3.70521774e-03, -3.03901751e-02, 1.91858364e-03,
          8.93993117e-03, 2.01341175e-02, -3.73810716e-03,
          -2.18393989e-02, 3.25464457e-03, 2.44022980e-02,
          2.78060995e-02, 2.61380803e-03, 2.43412927e-02, 2.23233104e-02,
          2.83456948e-02, -5.04560769e-03, 2.76692361e-02,
          -7.95913301e-03, 1.13672437e-02, -2.23297514e-02,
          -9.10937600e-03, -4.84409966e-02, 2.26458255e-02,
          -1.85803063e-02, 3.09030395e-02, -1.49514135e-02,
          9.15609766e-03, 5.77873960e-02, 1.12398416e-02,
          -4.28169630e-02, 5.78430993e-03, 4.06483468e-03,
          7.32646957e-02, -1.34741282e-02, -5.46937995e-02,
          6.68787258e-03, -3.28606442e-02, 4.18181578e-03,
          1.51916684e-04, 1.09536638e-02, 8.47927574e-03,
          -1.04125217e-02, -2.07446180e-02, -8.66618287e-03,
          1.92220695e-02, -7.33233895e-03, 6.21701218e-02,
          2.62182043e-03, -2.72097420e-02, -2.12960262e-02,
          -1.33346580e-02, 1.64479180e-03 ]
      - [ -4.17081453e-02, 3.92128825e-02, 6.22986117e-03,
          2.75007077e-02, -4.24092524e-02, 3.91536802e-02,
          5.29493727e-02, -6.41120132e-03, -4.99603860e-02,
          1.95970926e-02, -8.77167881e-02, -7.47985691e-02,
          -1.03886623e-03, 8.88453610e-03, -3.28397267e-02,
          3.35696936e-02, -2.91954689e-02, -4.32866141e-02,
          7.45734200e-03, -2.93039698e-02, 1.34603996e-02,
          -4.26388578e-04, 1.99949201e-02, 2.97693424e-02,
          -2.78029442e-02, -2.25478280e-02, 2.90121953e-03,
          1.98601782e-02, 1.09089520e-02, -1.93624180e-02,
          -1.19033784e-01, -2.79097408e-02, -2.85313316e-02,
          -3.90262753e-02, 1.07194362e-02, 3.65032963e-02,
          5.49429394e-02, 4.83512226e-03, 4.08962667e-02, 2.69462634e-02,
          -2.24855635e-03, 8.00147653e-03, 1.17909501e-03,
          -2.70481259e-02, 6.78925822e-03, -4.82606404e-02,
          -5.48134781e-02, -6.17623776e-02, 2.13724803e-02,
          1.55539364e-02, -1.02746330e-01, 3.37178633e-02,
          4.97362912e-02, 3.91374081e-02, 3.22722457e-02,
          -7.99321663e-03, -4.52937093e-03, 3.83841246e-02,
          6.92813993e-02, -6.98729185e-04, 2.56740227e-02,
          3.43733691e-02, 6.73715845e-02, -6.25219848e-03,
          3.93422693e-02, 1.95472911e-02, 2.51931492e-02,
          -8.08901992e-03, -8.71185809e-02, -8.23575351e-03,
          5.20854369e-02, -7.18050404e-03, 5.11085317e-02,
          5.41454554e-03, -7.62769626e-03, 7.64284879e-02,
          1.74020976e-02, -2.32278574e-02, -5.06890751e-03,
          1.30971642e-02, 8.76120329e-02, 1.60027277e-02,
          -1.15452558e-02, 3.46870683e-02, -3.78352031e-02,
          8.93342588e-03, 1.23919966e-02, 2.18141265e-02, 2.07248610e-02,
          7.00657908e-03, -8.07863250e-02, -8.44150186e-02,
          3.89189832e-02, -6.98342845e-02, 6.09014183e-02,
          -1.78387873e-02, -3.96876782e-02, -2.05493048e-02,
          4.99067223e-03, -1.40379909e-02 ]
      - [ -5.82472607e-02, 1.00658452e-02, -1.36043355e-02,
          3.57516222e-02, 6.53789416e-02, -1.03165330e-02,
          -8.45051855e-02, 1.49620567e-02, -3.03127885e-01,
          3.60055007e-02, 8.91815964e-03, 6.25136346e-02, 3.69789526e-02,
          -1.04240957e-03, -4.57751900e-02, -6.12751171e-02,
          4.53339852e-02, -5.14261564e-03, -6.23313822e-02,
          5.11066653e-02, 1.71802454e-02, -7.06012249e-02,
          2.13064384e-02, 4.83691096e-02, 4.98144217e-02, 4.55943570e-02,
          4.80462015e-02, -7.74303451e-02, -3.68888587e-01,
          3.05914395e-02, 8.35823417e-02, 6.02774993e-02,
          -8.91261362e-03, 2.50869943e-03, 7.88432732e-03,
          -3.30696851e-02, -7.41342176e-03, -6.49079820e-03,
          -7.59163946e-02, 4.31174301e-02, 3.64141613e-02,
          4.62292172e-02, 3.68337370e-02, 1.86088420e-02, 3.09848934e-02,
          -1.39441416e-01, 4.83169630e-02, 5.02737761e-02,
          3.55897546e-02, -7.90617168e-02, 5.79009615e-02,
          3.32328747e-03, 4.32340540e-02, -1.35979559e-02,
          -8.27682950e-03, -2.57995315e-02, 2.46793851e-02,
          1.95606574e-02, -1.31981345e-02, 9.88446642e-04,
          4.29611430e-02, 3.72546017e-02, -3.73948924e-02,
          3.65283862e-02, 4.63845320e-02, 2.56581921e-02, 2.36327089e-02,
          3.82150523e-02, -7.00459490e-03, -5.99665940e-02,
          2.81944443e-02, 3.82548608e-02, 1.99158266e-02, 3.50294746e-02,
          -5.03394604e-02, -8.93440619e-02, 3.95497866e-02,
          -4.89528337e-03, 3.22314985e-02, 3.90889980e-02,
          3.67671624e-02, 9.07111913e-03, -6.29992262e-02,
          4.41767052e-02, 3.66443321e-02, 3.63079198e-02, 3.51409018e-02,
          4.55225334e-02, 3.44037898e-02, 1.22812837e-02,
          -3.86924902e-03, -1.30353859e-04, 3.08987815e-02,
          -3.96970473e-02, -2.12397754e-01, -1.91366002e-02,
          3.23319733e-02, 5.06583564e-02, 2.93436702e-02,
          -3.40323597e-02 ]
      - [ -6.03350848e-02, 8.19604658e-03, -3.20552625e-02,
          3.91896144e-02, 2.07277443e-02, -2.52139047e-02,
          -2.60608066e-02, -3.45739461e-02, -7.28124455e-02,
          1.93622299e-02, -2.50173025e-02, 1.51497740e-02,
          2.05142274e-02, 2.69300072e-03, -5.37080579e-02,
          -8.35984014e-03, 2.82120109e-02, 9.64458007e-03,
          8.67529586e-03, 1.33149372e-02, 7.25436211e-03,
          -4.29266468e-02, 7.25073181e-03, 1.80502292e-02,
          1.53377485e-02, 1.97695233e-02, 2.38175429e-02,
          -8.67336988e-02, -1.19807035e-01, 1.04288971e-02,
          -5.32621779e-02, 1.14680883e-02, -1.78087875e-02,
          -2.01454237e-02, -2.58263946e-02, -1.34452265e-02,
          1.52517464e-02, -2.88667274e-03, 1.28372768e-02,
          1.19325547e-02, 1.58207789e-02, 3.01793776e-02, 1.84163637e-02,
          2.00706739e-02, 1.67323817e-02, -2.13790555e-02,
          2.74373088e-02, -2.01646588e-03, 2.29479447e-02,
          -1.52621940e-02, -1.81178153e-02, 1.17086787e-02,
          1.32615054e-02, -2.82333768e-03, 9.83441621e-03,
          3.04789934e-03, 1.69690605e-02, -2.96681677e-03,
          2.55485773e-02, -3.31865065e-02, 2.76422873e-02,
          1.73988119e-02, 1.63006186e-02, 1.02810338e-02, 1.69581473e-02,
          7.63997249e-03, 2.82231942e-02, 1.27124023e-02,
          -3.96540016e-02, -3.82328182e-02, 1.32565154e-02,
          1.35662928e-02, 1.52559895e-02, -1.61014218e-02,
          -2.47413274e-02, 1.38721662e-02, 1.48599092e-02,
          1.75212156e-02, 2.80991495e-02, 1.31307002e-02, 3.00044324e-02,
          1.04699936e-02, 9.18882526e-03, 2.60940734e-02,
          -1.16047058e-02, 2.13608965e-02, 2.14888640e-02,
          1.34672481e-03, 3.16312793e-03, 1.53754549e-02,
          -1.01510063e-02, -1.38963098e-02, 2.29208507e-02,
          -1.61866415e-02, -5.96675612e-02, 1.07077491e-02,
          7.80966366e-03, 1.51599590e-02, 1.59404017e-02,
          -1.83585193e-03 ]
      - [ 2.02163421e-02, -4.95498208e-03, 5.01405522e-02,
          2.57075224e-02, 4.82840538e-02, -4.16832380e-02,
          2.55421493e-02, -6.34898990e-02, -2.13788748e-01,
          -7.66804582e-03, 5.67632690e-02, -2.50328556e-02,
          -8.00761208e-02, -1.50460657e-02, -4.96900827e-02,
          3.51601206e-02, -3.19663845e-02, 9.04738531e-03,
          4.98854928e-02, -2.37161517e-02, -3.88245173e-02,
          2.14100182e-02, -2.26227902e-02, -1.13228690e-02,
          -7.36758299e-03, -1.00021362e-01, -1.00926593e-01,
          1.60398870e-03, 4.42669317e-02, -6.24454441e-03,
          1.64198294e-01, 2.71895062e-02, 4.85418811e-02, 6.06673323e-02,
          -2.26685056e-03, 1.09502086e-02, 5.68869244e-03,
          2.50032078e-02, 1.22594796e-02, -7.22425245e-03,
          -5.81416301e-02, -4.16520834e-02, -1.22237042e-01,
          4.50168587e-02, 1.56996176e-02, 6.76334053e-02,
          -1.43686786e-01, 1.16946641e-02, -2.61276327e-02,
          2.56390590e-02, 1.59175575e-01, 1.00172786e-02,
          -1.03464453e-02, 9.12044942e-03, 7.91587774e-03,
          5.01821823e-02, 4.80565801e-02, -2.23128572e-02,
          2.87468284e-02, -2.34269276e-02, -5.96292093e-02,
          -7.51979928e-03, 2.37458032e-02, -1.41551187e-02,
          -7.41301104e-02, 9.32148658e-03, 1.51074231e-02,
          -2.91380733e-02, 4.90495488e-02, 2.86843423e-02,
          -2.51554232e-02, -5.73863648e-02, -2.01891805e-03,
          8.74832924e-03, -7.44408295e-02, -3.84130143e-03,
          1.47364959e-02, 5.88402078e-02, -1.72494706e-02,
          -1.55960219e-02, -2.00565998e-02, 4.18746658e-02,
          6.12954237e-02, -5.94948465e-03, 5.85762635e-02,
          -6.39076233e-02, -3.39307003e-02, -3.90257835e-02,
          -3.56177613e-03, -2.77009164e-03, 4.39138040e-02,
          4.86383736e-02, -2.05176212e-02, 4.17969152e-02,
          9.41175893e-02, 1.98662672e-02, 1.91005655e-02, 1.70759801e-02,
          -2.32353248e-02, 1.91666447e-02 ]
      - [ -3.88446860e-02, -5.94619894e-03, -2.36565545e-02,
          4.20339294e-02, 5.03980592e-02, -4.43563834e-02,
          -4.82707546e-04, -1.09994598e-02, -5.17795458e-02,
          9.41987243e-03, 4.51893620e-02, 5.43680340e-02, 5.05336607e-03,
          -4.28652838e-02, -5.68663180e-02, 3.86323477e-03,
          5.92464861e-03, 5.25629427e-03, -4.95868251e-02,
          2.54543293e-02, -1.72451837e-03, -4.16497365e-02,
          -1.31237712e-02, 1.54916262e-02, 3.02765444e-02,
          2.17134468e-02, 1.88091956e-02, -1.16595112e-01,
          -1.98606387e-01, -3.18481587e-02, 1.44291833e-01,
          1.70123752e-03, 2.21375935e-02, -1.16941249e-02,
          -3.03307120e-02, -2.53684185e-02, 1.23011749e-02,
          2.18754564e-03, 2.40182616e-02, 9.55771282e-03,
          -6.10833894e-03, 2.90146675e-02, 1.78509187e-02,
          2.03270428e-02, -1.62833137e-03, 1.44120036e-02,
          4.04021777e-02, 4.65101153e-02, 7.59813609e-03,
          -1.31593086e-02, 9.14878547e-02, 1.23473788e-02,
          -9.24321264e-03, -5.34915423e-04, 9.25243134e-04,
          -1.78179482e-03, 2.43720710e-02, -1.45320641e-02,
          -3.47244495e-04, -3.45715806e-02, 2.74844002e-02,
          1.18648838e-02, -5.13815321e-03, 1.02945021e-03,
          1.94174256e-02, -1.44196907e-02, 2.36243382e-03,
          -1.30412839e-02, 3.47982976e-03, -6.50626197e-02,
          4.84616822e-03, 3.63170961e-03, 1.52307348e-02,
          -1.53727662e-02, -2.40485650e-03, 1.23616448e-02,
          2.23796926e-02, -1.30771874e-02, -2.05745711e-03,
          5.01747103e-03, 2.03271341e-02, 3.71711096e-03,
          -5.00692651e-02, 1.19930925e-02, 1.30964005e-02,
          1.47765279e-02, -5.18004817e-04, 1.74996350e-02,
          9.84901283e-03, -2.83247549e-02, 6.58906670e-03,
          2.48363917e-03, 1.50068256e-03, 2.32685101e-03,
          -3.53014953e-02, 1.82861350e-02, -3.90288723e-03,
          1.14018554e-02, 1.41328492e-03, 7.86094740e-03 ]
      - [ -8.47311467e-02, 3.85584868e-02, -1.37361092e-02,
          8.49761814e-03, 1.86597090e-02, -1.53786717e-02,
          2.31709406e-02, -5.35691604e-02, -6.76922873e-02,
          2.48863548e-02, -2.97628678e-02, -3.39083038e-02,
          2.07963139e-02, -1.18713649e-02, -8.40758234e-02,
          2.10901052e-02, 1.74912880e-03, -1.90821532e-02,
          -5.59289427e-03, 1.49611998e-02, 8.06798751e-04,
          -3.19177806e-02, 2.17967425e-02, 1.78071689e-02,
          -1.00343358e-02, 1.30458092e-02, 2.04370469e-02,
          -1.04107432e-01, -9.85130817e-02, -7.20644789e-03,
          -1.01428460e-02, -2.45330180e-03, 1.08018862e-02,
          -1.55360298e-02, -9.74692684e-03, 1.47736697e-02,
          4.11226973e-02, 1.63912755e-02, 2.77291667e-02, 3.52319144e-02,
          1.82497464e-02, 4.51828912e-03, 7.09552597e-03, 2.54923897e-03,
          7.50413490e-03, -5.57707027e-02, -2.56118439e-02,
          -1.66530721e-02, 1.77018512e-02, 6.09984575e-03,
          1.91316996e-02, 4.41466570e-02, 3.15531492e-02, 1.84683781e-02,
          3.69355977e-02, 1.20643880e-02, 1.65880546e-02,
          -5.50238998e-04, 4.11280505e-02, -3.78841199e-02,
          2.88171303e-02, 2.39149407e-02, 3.38877328e-02,
          -1.77140915e-04, 3.10904589e-02, 1.30867334e-02,
          1.61883384e-02, 1.19944778e-03, -7.45293796e-02,
          -2.48573776e-02, 3.42857800e-02, 1.50315119e-02,
          3.54362279e-02, 4.99319192e-03, -1.91886518e-02,
          3.10027339e-02, 2.85419486e-02, 6.51191873e-03,
          -1.29106743e-02, 1.40498001e-02, 3.46744731e-02,
          3.31939682e-02, -6.92072231e-03, 3.99922878e-02,
          8.12183879e-03, 1.95281394e-02, 1.17220748e-02, 2.83600967e-02,
          2.20945980e-02, -1.09056542e-02, -5.34526408e-02,
          -7.32651949e-02, 2.11975984e-02, -6.01750948e-02,
          -3.65701988e-02, -2.17447150e-03, -1.63808223e-02,
          1.21485777e-02, 1.97386146e-02, -7.82183558e-03 ]
      - [ -2.08782637e-03, -1.86979887e-03, -1.84509289e-02,
          3.43799242e-03, -4.46511954e-02, -1.48973726e-02,
          5.84443770e-02, -4.95360047e-02, 2.30315432e-01,
          -1.66432709e-02, -3.39354612e-02, -4.73638624e-02,
          -1.64647251e-02, 3.73541052e-03, -7.93286879e-03,
          5.29152788e-02, -1.71219744e-02, 1.47871953e-02,
          7.10066780e-02, -3.77917290e-02, -9.92588326e-03,
          2.76745819e-02, -1.40557066e-02, -3.03188823e-02,
          -3.44766714e-02, -2.58248337e-02, -2.42286585e-02,
          -9.30335652e-03, 2.49081537e-01, -2.01625433e-02,
          -1.36844516e-01, -4.88094129e-02, -8.89617484e-03,
          -2.26541236e-02, -3.37107219e-02, 1.96244586e-02,
          2.26651691e-02, 3.60412523e-03, 8.87536705e-02,
          -3.11848763e-02, -2.05933843e-02, -1.60498396e-02,
          -1.84173733e-02, 1.46183232e-03, -1.42525118e-02,
          1.18062362e-01, -2.08796561e-02, -5.22902422e-02,
          -1.26418089e-02, 6.37995228e-02, -7.60187805e-02,
          8.38539191e-03, -2.99725477e-02, 1.07746180e-02,
          1.81112457e-02, 2.88474318e-02, -7.71032413e-03,
          -2.25274749e-02, 3.87467109e-02, -3.41749527e-02,
          -1.53188575e-02, -1.98557898e-02, 5.36955111e-02,
          -2.62473505e-02, -2.94263866e-02, -1.80182178e-02,
          4.59048571e-03, -2.55026501e-02, -3.26494053e-02,
          2.17337739e-02, -1.49379289e-02, -2.46885698e-02,
          -4.65983665e-03, -5.11308946e-02, 2.55981311e-02,
          1.03216231e-01, -2.46898774e-02, 2.24165004e-02,
          -4.13234811e-03, -2.59582978e-02, -6.76272903e-03,
          1.39887456e-03, 7.21880496e-02, -1.80826299e-02,
          -4.82490361e-02, -1.49470242e-02, -1.36520369e-02,
          -4.41758074e-02, -3.12406626e-02, 3.09417117e-03,
          -6.28175726e-03, -1.37659563e-02, -7.97793176e-03,
          2.35104077e-02, 1.52730197e-01, 2.98443511e-02,
          -2.45223101e-02, -3.54983956e-02, -1.34032695e-02,
          3.21965106e-02 ]
      - [ 7.84635991e-02, -1.50208278e-02, 6.37448877e-02,
          -1.00440988e-02, -1.70948859e-02, -3.13667059e-02,
          1.10047333e-01, -7.84519538e-02, 8.93391445e-02,
          -4.36735451e-02, 4.78451103e-02, -8.75464901e-02,
          -1.17055073e-01, -1.40036559e-02, -3.91489314e-03,
          9.64352414e-02, -7.73003697e-02, 1.41900014e-02,
          1.12216875e-01, -7.48228207e-02, -5.60047626e-02,
          9.20112431e-02, -4.39292304e-02, -5.96919805e-02,
          -5.71820028e-02, -1.45615712e-01, -1.48972794e-01,
          7.90343285e-02, 4.13155496e-01, -3.68359834e-02,
          8.06159601e-02, -3.30879912e-02, 5.74544966e-02,
          5.81586324e-02, -1.01511776e-02, 4.40198928e-02,
          1.31021142e-02, 3.14940065e-02, 8.81758705e-02,
          -5.03416844e-02, -9.45557952e-02, -8.78813043e-02,
          -1.59070775e-01, 2.64080167e-02, -1.52852759e-02,
          2.07074821e-01, -1.92003742e-01, -3.85791138e-02,
          -6.17173873e-02, 1.04700774e-01, 1.01274610e-01,
          6.69399090e-03, -5.35804965e-02, 2.27184054e-02,
          1.61927082e-02, 7.59817138e-02, 2.33771950e-02,
          -4.18735147e-02, 4.19449620e-02, -2.44153757e-02,
          -1.02590352e-01, -4.47744019e-02, 6.11406974e-02,
          -5.06835021e-02, -1.20514639e-01, -1.63367037e-02,
          -8.52528587e-03, -6.73531294e-02, 5.60541451e-02,
          8.86509344e-02, -5.33498675e-02, -9.56412256e-02,
          -2.19347440e-02, -2.62811445e-02, -2.41013691e-02,
          8.55027586e-02, -2.48132907e-02, 6.37354925e-02,
          -4.94809672e-02, -5.46850190e-02, -5.68237603e-02,
          3.28035466e-02, 1.24294646e-01, -5.01261875e-02,
          2.19319314e-02, -1.00215547e-01, -6.90715984e-02,
          -8.45483169e-02, -3.79655659e-02, -1.50513751e-02,
          4.77830507e-02, 4.87687290e-02, -5.14164008e-02,
          8.14939663e-02, 3.06515336e-01, 3.90028693e-02,
          -1.32314088e-02, -3.35823745e-02, -5.25789969e-02,
          5.31990044e-02 ]
      - [ 1.94025747e-02, -1.60120446e-02, -1.00522200e-02,
          6.28231000e-03, -1.49808796e-02, -3.40398513e-02,
          8.40224773e-02, -2.59615164e-02, 2.51348346e-01,
          -2.65856273e-02, 3.62711996e-02, -8.14560428e-03,
          -3.19255888e-02, -4.18228768e-02, -1.10911271e-02,
          6.51383549e-02, -3.94093357e-02, 1.03989104e-02,
          1.27445580e-02, -2.56523378e-02, -1.89047623e-02,
          2.89514922e-02, -3.44302095e-02, -3.28774862e-02,
          -1.95378754e-02, -2.38809101e-02, -2.92370059e-02,
          -3.91647704e-02, 1.70282185e-01, -6.24395981e-02,
          6.07094839e-02, -5.85762635e-02, 3.10502052e-02,
          -1.42028239e-02, -3.82150412e-02, 7.70126609e-03,
          1.97145976e-02, 8.67834315e-03, 9.99346524e-02,
          -3.35597172e-02, -4.25225012e-02, -1.72145478e-02,
          -1.89828184e-02, 1.71820074e-03, -3.26132253e-02,
          1.53853416e-01, -7.91478623e-03, -3.76366056e-03,
          -2.79916171e-02, 6.59024045e-02, 3.35868932e-02,
          9.02409106e-03, -5.24772666e-02, 1.30630406e-02,
          9.20207333e-03, 2.40177363e-02, -3.07314156e-04,
          -3.40927206e-02, 1.28508899e-02, -3.55600268e-02,
          -1.54767437e-02, -2.53897198e-02, 3.22567411e-02,
          -3.54989357e-02, -2.69671064e-02, -4.00778838e-02,
          -2.12702751e-02, -5.12563363e-02, 1.04844244e-02,
          -5.09602716e-03, -2.33482774e-02, -3.46231535e-02,
          -4.68509085e-03, -5.04022390e-02, 4.79346029e-02,
          1.01705708e-01, -1.71700940e-02, -8.18190351e-03,
          -3.42889540e-02, -3.40715274e-02, -1.64400283e-02,
          -5.35400817e-03, 1.29299592e-02, -3.21836099e-02,
          -2.35479306e-02, -2.15313919e-02, -3.56589071e-02,
          -2.80228984e-02, -2.45547779e-02, -4.06060368e-02,
          1.04583157e-02, 2.61399313e-03, -2.93980986e-02,
          4.20239009e-02, 1.77096263e-01, 3.74227352e-02,
          -3.62348594e-02, -3.92564982e-02, -2.79303864e-02,
          4.18933071e-02 ]
      - [ -2.64838897e-02, 2.84926407e-02, -1.31773704e-04,
          -2.72540022e-02, -4.67192307e-02, -5.06213913e-03,
          1.07676126e-01, -6.85312152e-02, 2.35435605e-01,
          -1.11191440e-02, -3.86810265e-02, -9.64219421e-02,
          -1.61826406e-02, -1.08289551e-02, -3.83006372e-02,
          8.23652223e-02, -4.35848571e-02, -1.39395380e-02,
          5.67384884e-02, -3.61454673e-02, -1.63734462e-02,
          3.86834443e-02, 4.90305247e-04, -3.05619407e-02,
          -5.98487556e-02, -3.25485468e-02, -2.76091527e-02,
          -2.66770925e-02, 2.70375490e-01, -3.77978869e-02,
          -9.37251896e-02, -6.27308041e-02, 1.97144989e-02,
          -1.80447288e-02, -1.76312551e-02, 4.78433557e-02,
          4.85361181e-02, 2.28820723e-02, 1.03645556e-01,
          -7.88551848e-03, -1.81644149e-02, -4.17109281e-02,
          -2.97382120e-02, -1.60596035e-02, -2.34807599e-02,
          8.36707130e-02, -7.39288032e-02, -6.69268519e-02,
          -1.78879034e-02, 8.51615593e-02, -3.87692638e-02,
          4.08233702e-02, -1.16809029e-02, 3.20663340e-02,
          4.52124253e-02, 3.78639176e-02, -8.09132960e-03,
          -2.01108959e-02, 5.43261878e-02, -3.88725661e-02,
          -1.41440136e-02, -1.33396611e-02, 7.12826252e-02,
          -3.67055275e-02, -1.52940741e-02, -1.25714578e-02,
          -7.44437054e-03, -3.70156057e-02, -6.75247833e-02,
          3.51092145e-02, 6.09133532e-03, -2.32233498e-02,
          1.55204004e-02, -3.00362818e-02, 3.11508086e-02,
          1.20346799e-01, -1.10078380e-02, 1.14072021e-02,
          -4.51421738e-02, -2.50391960e-02, -2.09268951e-03,
          2.41228491e-02, 5.60785048e-02, -4.18441510e-03,
          -2.85224933e-02, -1.67797823e-02, -2.34188270e-02,
          -1.71624348e-02, -1.23091936e-02, -2.31869388e-02,
          -4.95833904e-02, -7.31348395e-02, -9.70118400e-03,
          -2.04780474e-02, 1.75827563e-01, 1.69621296e-02,
          -4.87127975e-02, -3.85097787e-02, -9.60505567e-03,
          2.62105260e-02 ]
      - [ 8.05514306e-02, -1.31510282e-02, 8.21958184e-02,
          -1.34820910e-02, 2.75563095e-02, -1.64693333e-02,
          5.16029559e-02, -2.89159510e-02, -1.40976295e-01,
          -2.70302743e-02, 8.17805678e-02, -4.01826315e-02,
          -1.00590348e-01, -1.77390669e-02, 4.01797565e-03,
          4.35199626e-02, -6.01783916e-02, -5.97194303e-04,
          4.12101969e-02, -3.70310880e-02, -4.60788794e-02,
          6.43366650e-02, -2.98735220e-02, -2.93730982e-02,
          -2.27053314e-02, -1.19790882e-01, -1.24744132e-01,
          8.83376896e-02, 1.64073974e-01, -1.66734420e-02,
          2.17460483e-01, 1.57214180e-02, 6.63506687e-02, 8.08127522e-02,
          2.35595442e-02, 2.43954360e-02, -9.56305396e-03,
          2.78898813e-02, -5.77796891e-04, -1.91568080e-02,
          -7.39624128e-02, -7.18314648e-02, -1.40653402e-01,
          2.49461848e-02, -1.03276421e-03, 8.90124589e-02,
          -1.71124086e-01, 1.37111302e-02, -4.90755774e-02,
          4.09012511e-02, 1.77293390e-01, -1.69140066e-03,
          -2.36079507e-02, 1.19437873e-02, -1.91853847e-03,
          4.71342839e-02, 3.10875196e-02, -1.93460397e-02,
          3.19825159e-03, 9.75957979e-03, -8.72714967e-02,
          -2.49186121e-02, 7.44518451e-03, -2.44361516e-02,
          -9.10882577e-02, 1.68151432e-03, -1.31157720e-02,
          -4.18504775e-02, 8.87035504e-02, 6.69171661e-02,
          -3.84119377e-02, -7.09526613e-02, -1.72749069e-02,
          2.48497520e-02, -4.96995002e-02, -1.77134685e-02,
          -1.23413280e-04, 4.13189903e-02, -4.53486182e-02,
          -2.87267230e-02, -5.00610322e-02, 3.14046741e-02,
          5.21065965e-02, -3.20435576e-02, 7.01809675e-02,
          -8.52685198e-02, -5.54195642e-02, -4.03725095e-02,
          -6.72490383e-03, -1.81455463e-02, 5.40648103e-02,
          6.25346825e-02, -4.34384719e-02, 5.79835549e-02,
          1.53785154e-01, 9.15851723e-03, 1.12909013e-02, 1.91602076e-03,
          -3.91757265e-02, 2.10024975e-02 ]
      - [ 2.14904025e-02, -1.41422451e-02, 8.39870889e-03,
          2.84431735e-03, 2.96703149e-02, -1.91424787e-02,
          2.55780984e-02, 2.35744864e-02, 2.10329033e-02,
          -9.94235743e-03, 7.02066645e-02, 3.92182581e-02,
          -1.54608618e-02, -4.55582850e-02, -3.15825804e-03,
          1.22230751e-02, -2.22873613e-02, -4.38828580e-03,
          -5.82621209e-02, 1.21393921e-02, -8.97888001e-03,
          1.27691007e-03, -2.03745030e-02, -2.55860342e-03,
          1.49387959e-02, 1.94392377e-03, -5.00834733e-03,
          -2.98614129e-02, -7.87993446e-02, -4.22770530e-02,
          1.97554007e-01, -9.76685062e-03, 3.99463810e-02,
          8.45129881e-03, -4.50431695e-03, -1.19231930e-02,
          -2.95057171e-03, 5.07421838e-03, 1.11809848e-02,
          -2.37484206e-03, -2.19291169e-02, -1.16470933e-03,
          -5.65444701e-04, 2.56368483e-04, -1.83607135e-02,
          3.57910581e-02, 1.29648689e-02, 4.85265814e-02,
          -1.53498081e-02, 2.10288540e-03, 1.09605670e-01,
          6.38699275e-04, -2.25047171e-02, 2.28842231e-03,
          -8.90917331e-03, -4.82969405e-03, 7.40301004e-03,
          -1.15652476e-02, -2.58958228e-02, -1.38507341e-03,
          -1.57886301e-04, -5.53392898e-03, -2.14387719e-02,
          -9.25158337e-03, 2.45927949e-03, -2.20596641e-02,
          -2.58607604e-02, -2.57536862e-02, 4.31338288e-02,
          -2.68298015e-02, -8.41034763e-03, -9.93458275e-03,
          -2.52539521e-05, 7.28655781e-04, 2.23364718e-02,
          -1.51052175e-03, 7.51978345e-03, -3.05984039e-02,
          -3.01566068e-02, -8.11322965e-03, -9.67729930e-03,
          -6.75288262e-03, -5.92580922e-02, -1.41009800e-02,
          2.47011054e-02, -6.58436818e-03, -2.20068693e-02,
          1.61529090e-02, 6.68588514e-03, -4.37002108e-02,
          1.67400725e-02, 1.63799487e-02, -2.14201678e-02,
          1.85134914e-02, 2.43660677e-02, 7.57838646e-03,
          -1.17125511e-02, -3.75810359e-03, -1.45271160e-02,
          9.69679933e-03 ]
      - [ -2.43960638e-02, 3.03624384e-02, 1.83191542e-02,
          -3.06919944e-02, -2.06803554e-03, 9.83523391e-03,
          4.92317453e-02, -1.89952124e-02, 5.12016425e-03,
          5.52412635e-03, -4.74556489e-03, -4.90580760e-02,
          2.82085151e-04, -1.45643651e-02, -3.03677674e-02,
          2.94499453e-02, -2.64628809e-02, -2.87267342e-02,
          -1.42681906e-02, 1.64626271e-03, -6.44756295e-03,
          1.10088633e-02, 1.45460116e-02, -2.43059709e-04,
          -2.53720842e-02, -6.72371453e-03, -3.38049489e-03,
          -1.73737351e-02, 2.12939586e-02, -1.76353455e-02,
          4.31193337e-02, -1.39213903e-02, 2.86106747e-02,
          4.60939389e-03, 1.60794687e-02, 2.82188971e-02, 2.58709509e-02,
          1.92779470e-02, 1.48918889e-02, 2.32993588e-02, 2.42896797e-03,
          -2.56610885e-02, -1.13208378e-02, -1.75214354e-02,
          -9.22824722e-03, -3.43916453e-02, -5.30491509e-02,
          -1.46366060e-02, -5.24609396e-03, 2.13620402e-02,
          3.72495130e-02, 3.24379764e-02, 1.82916448e-02, 2.12917160e-02,
          2.71011814e-02, 9.01648868e-03, -3.81005753e-04,
          2.41657789e-03, 1.55794751e-02, -4.69761062e-03,
          1.17484387e-03, 6.51612831e-03, 1.75871141e-02,
          -1.04581742e-02, 1.41323116e-02, 5.44676045e-03,
          -1.20348567e-02, -1.15129547e-02, -3.48753780e-02,
          1.33754415e-02, 2.10292637e-02, 1.46521884e-03, 2.01802365e-02,
          2.10946146e-02, 5.55267697e-03, 1.71305668e-02, 1.36820395e-02,
          -1.10092973e-02, -4.10098247e-02, 9.19099955e-04,
          4.67003928e-03, 2.27239747e-02, -1.61095466e-02,
          1.38982153e-02, 1.97265446e-02, -1.83275749e-03,
          -9.76678915e-03, 2.70133726e-02, 1.89314689e-02,
          -2.62811091e-02, -4.33016345e-02, -5.93688861e-02,
          -1.72325224e-03, -4.39884551e-02, 2.30973642e-02,
          -1.28822206e-02, -2.41904855e-02, -3.01138195e-03,
          3.79821402e-03, -5.98598365e-03 ]
      - [ -5.90610281e-02, -9.91216977e-04, -7.37971067e-02,
          1.63264088e-02, 2.11400585e-03, -2.67314515e-03,
          -2.60248575e-02, 5.24904393e-02, 1.62009194e-01,
          1.70879178e-02, -1.15739089e-02, 7.94008896e-02,
          8.51294845e-02, -2.78192200e-02, -7.17623392e-03,
          -3.12968865e-02, 3.78910303e-02, -3.79109150e-03,
          -9.94723141e-02, 4.91704829e-02, 3.70999984e-02,
          -6.30597547e-02, 9.49901994e-03, 2.68144961e-02,
          3.76441292e-02, 1.21734805e-01, 1.19735785e-01,
          -1.18199103e-01, -2.42873311e-01, -2.56036129e-02,
          -1.99064743e-02, -2.54882686e-02, -2.64042895e-02,
          -7.23614544e-02, -2.80638617e-02, -3.63186300e-02,
          6.61248248e-03, -2.28156634e-02, 1.17587810e-02,
          1.67819653e-02, 5.20332903e-02, 7.06667528e-02, 1.40087962e-01,
          -2.46898159e-02, -1.73279494e-02, -5.32214008e-02,
          1.84088960e-01, 3.48154530e-02, 3.37257683e-02,
          -3.87983657e-02, -6.76877201e-02, 2.33009993e-03,
          1.10323261e-03, -9.65536572e-03, -6.99063437e-03,
          -5.19639775e-02, -2.36845091e-02, 7.78079219e-03,
          -2.90940739e-02, -1.11446530e-02, 8.71136114e-02,
          1.93846822e-02, -2.88839564e-02, 1.51845692e-02,
          9.35475379e-02, -2.37411782e-02, -1.27449892e-02,
          1.60967894e-02, -4.55697216e-02, -9.37469602e-02,
          3.00015919e-02, 6.10180758e-02, 1.72496531e-02,
          -2.41210964e-02, 7.20359683e-02, 1.62029453e-02,
          7.64319673e-03, -7.19173923e-02, 1.51920132e-02,
          2.06134934e-02, 4.03837338e-02, -3.81575562e-02,
          -1.11364692e-01, 1.79425776e-02, -4.54798602e-02,
          7.86841586e-02, 3.34126949e-02, 5.65254204e-02, 1.34107890e-02,
          -2.55546626e-02, -3.73247378e-02, -4.61547337e-02,
          2.20183041e-02, -3.94700617e-02, -1.29419088e-01,
          -1.58013112e-03, -2.30034515e-02, -5.67412423e-03,
          2.46486105e-02, -1.13056982e-02 ]
      - [ -1.04947492e-01, 4.35134657e-02, -6.38766587e-02,
          -1.72099043e-02, -2.96243448e-02, 2.63045672e-02,
          -2.37120967e-03, 9.92073864e-03, 1.46096453e-01,
          3.25544029e-02, -8.65261331e-02, -8.87544826e-03,
          1.00872435e-01, 3.17470077e-03, -3.43857445e-02,
          -1.40700163e-02, 3.37155126e-02, -2.81295385e-02,
          -5.54783866e-02, 3.86773534e-02, 3.96313146e-02,
          -5.33277988e-02, 4.44195345e-02, 2.91300397e-02,
          -2.66675279e-03, 1.13067165e-01, 1.21363640e-01,
          -1.05711423e-01, -1.42780006e-01, -9.61903541e-04,
          -1.74341142e-01, -2.96428092e-02, -3.77399959e-02,
          -7.62033612e-02, -7.48007698e-03, 3.82346031e-03,
          3.54340039e-02, -8.61193333e-03, 1.54696861e-02,
          4.24561650e-02, 7.63913766e-02, 4.61703725e-02, 1.29332572e-01,
          -4.24676202e-02, -8.19548313e-03, -1.23404108e-01,
          1.18074939e-01, -2.83477362e-02, 4.38294820e-02,
          -1.95392128e-02, -1.40043870e-01, 3.41293775e-02,
          4.18995954e-02, 9.34792776e-03, 2.90197190e-02,
          -3.81177962e-02, -3.14685255e-02, 2.17626169e-02,
          1.23812230e-02, -1.44571904e-02, 8.84463415e-02,
          3.14347409e-02, 1.01419296e-02, 1.39779774e-02, 1.05220564e-01,
          3.76524613e-03, 1.08091533e-03, 3.03375218e-02,
          -1.23578928e-01, -5.35417199e-02, 5.94412051e-02,
          7.24178776e-02, 3.74551453e-02, -3.75513732e-03,
          5.52521758e-02, 3.48440334e-02, 1.38054527e-02,
          -5.23282886e-02, 4.33879578e-03, 2.96458229e-02,
          5.47310710e-02, -8.68069939e-03, -6.82161450e-02,
          4.59417738e-02, -5.04544228e-02, 8.34357664e-02,
          4.56527732e-02, 6.73858821e-02, 2.56563742e-02,
          -8.13556276e-03, -9.73664448e-02, -1.21903569e-01,
          4.17152196e-02, -1.01972014e-01, -1.30687788e-01,
          -2.20407378e-02, -3.54813859e-02, -4.92740283e-03,
          4.29739393e-02, -2.69884802e-02 ]
      - [ -4.58864644e-02, 4.45046835e-02, 9.92044620e-03,
          -3.35363112e-02, -3.17383520e-02, 2.89777126e-02,
          2.36536469e-02, -4.25697006e-02, -1.59127377e-02,
          1.54664833e-02, -7.49522299e-02, -8.82763341e-02,
          1.57429483e-02, 3.09939198e-02, -2.72095092e-02,
          1.72268692e-02, -4.17551957e-03, -2.43384484e-02,
          4.39939313e-02, -1.04931295e-02, 2.53131706e-03,
          9.73195303e-03, 3.49205136e-02, 2.31554382e-03,
          -4.03108820e-02, -8.66763853e-03, 1.62785233e-03,
          1.24876769e-02, 1.00093305e-01, 2.46417094e-02,
          -1.54434666e-01, -4.15453920e-03, -1.13357063e-02,
          -3.84190492e-03, 2.05837861e-02, 4.01420891e-02,
          2.88215224e-02, 1.42037291e-02, 3.71090486e-03, 2.56741997e-02,
          2.43580863e-02, -2.44963784e-02, -1.07553927e-02,
          -1.77778043e-02, 9.13246628e-03, -7.01827034e-02,
          -6.60140216e-02, -6.31631911e-02, 1.01037147e-02,
          1.92591548e-02, -7.23561570e-02, 3.17992792e-02,
          4.07963619e-02, 1.90032925e-02, 3.60103548e-02, 1.38461823e-02,
          -7.78401550e-03, 1.39818257e-02, 4.14752960e-02,
          -3.31253721e-03, 1.33273017e-03, 1.20500578e-02,
          3.90258878e-02, -1.20659114e-03, 1.16730323e-02,
          2.75064241e-02, 1.38259046e-02, 1.42407315e-02,
          -7.80092105e-02, 4.02052440e-02, 2.94396114e-02,
          1.13998018e-02, 2.02054903e-02, 2.03659590e-02,
          -1.67837944e-02, 1.86410882e-02, 6.16225647e-03,
          1.95891056e-02, -1.08532179e-02, 9.03232954e-03,
          1.43473390e-02, 2.94768568e-02, 4.31485437e-02, 2.79991962e-02,
          -4.97456174e-03, 4.75161057e-03, 1.22400792e-02,
          1.08604617e-02, 1.22455843e-02, 1.74190998e-02,
          -6.00417070e-02, -7.57488385e-02, 1.96969155e-02,
          -6.25019446e-02, -1.26870407e-03, -2.04606075e-02,
          -1.24779353e-02, 7.46721635e-04, 1.83253307e-02,
          -1.56827830e-02 ]
   uncompressed_sv_total: 800
   uncompressed_support_vectors:
      - [ 1.68269239e-02, 2.40384624e-03, 1.68269239e-02, 2.40384624e-03,
          9.61538497e-03, 9.61538497e-03, 4.80769249e-03, 2.40384624e-03,
          2.64423080e-02, 9.61538497e-03, 2.40384624e-03, 2.40384624e-03,
          2.40384624e-03, 1.44230779e-02, 1.68269239e-02, 1.68269239e-02,
          0., 2.40384624e-03, 1.68269239e-02, 1.20192310e-02,
          9.61538497e-03, 1.92307699e-02, 9.61538497e-03, 4.80769249e-03,
          9.61538497e-03, 9.61538497e-03, 7.21153896e-03, 4.08653878e-02,
          3.84615399e-02, 1.92307699e-02, 9.61538497e-03, 1.68269239e-02,
          7.21153896e-03, 9.61538497e-03, 1.92307699e-02, 1.20192310e-02,
          9.61538497e-03, 1.20192310e-02, 7.21153896e-03, 4.80769249e-03,
          4.80769249e-03, 4.80769249e-03, 4.80769249e-03, 1.20192310e-02,
          1.68269239e-02, 7.21153896e-03, 2.40384624e-03, 4.80769249e-03,
          9.61538497e-03, 9.61538497e-03, 4.80769249e-03, 1.20192310e-02,
          9.61538497e-03, 1.68269239e-02, 1.20192310e-02, 4.80769249e-03,
          7.21153896e-03, 0., 9.61538497e-03, 2.40384624e-03,
          1.20192310e-02, 9.61538497e-03, 2.16346160e-02, 9.61538497e-03,
          4.80769249e-03, 1.44230779e-02, 1.44230779e-02, 7.21153896e-03,
          4.80769249e-03, 9.61538497e-03, 1.20192310e-02, 9.61538497e-03,
          1.44230779e-02, 1.44230779e-02, 0., 1.44230779e-02,
          7.21153896e-03, 1.44230779e-02, 1.20192310e-02, 4.80769249e-03,
          0., 7.21153896e-03, 1.44230779e-02, 1.68269239e-02,
          4.80769249e-03, 2.40384624e-03, 9.61538497e-03, 9.61538497e-03,
          9.61538497e-03, 9.61538497e-03, 1.20192310e-02, 9.61538497e-03,
          1.92307699e-02, 7.21153896e-03, 7.21153896e-03, 2.40384624e-03,
          4.80769249e-03, 1.68269239e-02, 2.40384624e-03, 2.40384624e-03 ]
      - [ 1.35135129e-02, 5.79150580e-03, 1.93050189e-03, 2.12355200e-02,
          5.79150580e-03, 5.79150580e-03, 1.93050189e-03, 5.79150580e-03,
          0., 1.15830116e-02, 3.86100379e-03, 2.89575290e-02,
          1.54440152e-02, 1.93050189e-03, 0., 1.93050189e-03, 0.,
          3.66795361e-02, 5.79150580e-03, 7.72200758e-03, 5.79150580e-03,
          3.86100379e-03, 1.15830116e-02, 1.15830116e-02, 1.35135129e-02,
          2.50965245e-02, 1.35135129e-02, 9.65250935e-03, 3.86100379e-03,
          3.86100379e-03, 1.93050189e-03, 7.72200758e-03, 1.15830116e-02,
          0., 5.79150580e-03, 0., 1.54440152e-02, 3.86100379e-03,
          1.54440152e-02, 7.72200758e-03, 9.65250935e-03, 1.54440152e-02,
          9.65250935e-03, 9.65250935e-03, 1.35135129e-02, 1.93050189e-03,
          1.93050189e-03, 9.65250935e-03, 1.73745174e-02, 5.79150580e-03,
          1.93050189e-03, 1.73745174e-02, 1.15830116e-02, 5.79150580e-03,
          5.79150580e-03, 9.65250935e-03, 7.72200758e-03, 5.79150580e-03,
          9.65250935e-03, 5.79150580e-03, 1.15830116e-02, 1.73745174e-02,
          1.15830116e-02, 1.15830116e-02, 1.93050187e-02, 1.15830116e-02,
          1.73745174e-02, 3.86100379e-03, 7.72200758e-03, 0.,
          1.73745174e-02, 7.72200758e-03, 7.72200758e-03, 1.35135129e-02,
          5.79150580e-03, 1.15830116e-02, 7.72200758e-03, 0.,
          3.86100374e-02, 1.54440152e-02, 2.50965245e-02, 1.35135129e-02,
          1.15830116e-02, 1.54440152e-02, 0., 2.12355200e-02,
          1.15830116e-02, 1.73745174e-02, 9.65250935e-03, 5.79150580e-03,
          5.79150580e-03, 5.79150580e-03, 7.72200758e-03, 1.15830116e-02,
          1.15830116e-02, 2.50965245e-02, 9.65250935e-03, 3.86100379e-03,
          3.86100379e-03, 2.31660232e-02 ]
      - [ 1.08695654e-02, 1.63043477e-02, 1.08695654e-02, 5.43478271e-03,
          2.17391308e-02, 0., 1.63043477e-02, 1.08695654e-02,
          2.71739140e-02, 0., 1.63043477e-02, 2.17391308e-02, 0.,
          5.43478271e-03, 5.43478271e-03, 1.08695654e-02, 0.,
          3.80434804e-02, 1.08695654e-02, 5.43478271e-03, 0.,
          1.08695654e-02, 0., 0., 4.34782617e-02, 5.43478271e-03,
          1.08695654e-02, 2.17391308e-02, 2.71739140e-02, 5.43478271e-03,
          5.97826093e-02, 0., 2.17391308e-02, 5.43478271e-03, 0.,
          5.43478271e-03, 0., 1.08695654e-02, 1.63043477e-02,
          5.43478271e-03, 0., 5.43478271e-03, 0., 1.08695654e-02,
          5.43478271e-03, 1.08695654e-02, 0., 0., 5.43478271e-03,
          1.08695654e-02, 1.08695654e-02, 5.43478271e-03, 2.17391308e-02,
          2.17391308e-02, 0., 5.43478271e-03, 4.34782617e-02, 0.,
          5.43478271e-03, 5.43478271e-03, 0., 5.43478271e-03,
          1.08695654e-02, 5.43478271e-03, 0., 5.43478271e-03, 0.,
          1.63043477e-02, 3.26086953e-02, 5.43478271e-03, 0.,
          5.43478271e-03, 5.43478271e-03, 1.08695654e-02, 1.63043477e-02,
          1.08695654e-02, 1.63043477e-02, 0., 1.08695654e-02, 0., 0.,
          1.08695654e-02, 5.43478271e-03, 5.43478271e-03, 5.43478271e-03,
          0., 0., 0., 0., 5.43478271e-03, 2.17391308e-02, 1.63043477e-02,
          0., 5.97826093e-02, 1.08695654e-02, 1.63043477e-02,
          2.17391308e-02, 0., 0., 1.08695654e-02 ]
      - [ 3.84615399e-02, 3.84615385e-03, 3.84615385e-03, 0.,
          3.84615385e-03, 1.15384618e-02, 7.69230770e-03, 2.30769236e-02,
          8.07692334e-02, 0., 1.53846154e-02, 0., 7.69230770e-03, 0.,
          1.15384618e-02, 7.69230770e-03, 0., 2.69230772e-02,
          3.84615385e-03, 1.15384618e-02, 3.84615385e-03, 1.15384618e-02,
          3.84615385e-03, 7.69230770e-03, 3.84615385e-03, 1.92307699e-02,
          3.84615385e-03, 1.92307699e-02, 5.76923080e-02, 0., 0., 0.,
          3.84615385e-03, 1.92307699e-02, 1.53846154e-02, 1.15384618e-02,
          3.84615385e-03, 7.69230770e-03, 3.84615385e-03, 3.84615385e-03,
          7.69230770e-03, 3.84615385e-03, 0., 3.84615385e-03, 0.,
          2.69230772e-02, 1.15384618e-02, 1.15384618e-02, 0.,
          1.15384618e-02, 2.30769236e-02, 0., 1.15384618e-02,
          3.84615385e-03, 7.69230770e-03, 1.92307699e-02, 7.69230770e-03,
          7.69230770e-03, 0., 0., 1.53846154e-02, 0., 0., 7.69230770e-03,
          3.84615385e-03, 7.69230770e-03, 0., 3.84615385e-03,
          1.53846154e-02, 1.15384618e-02, 0., 3.84615385e-03, 0.,
          7.69230770e-03, 2.30769236e-02, 3.84615385e-03, 7.69230770e-03,
          3.84615385e-03, 7.69230770e-03, 1.92307699e-02, 3.84615385e-03,
          3.84615385e-03, 3.46153863e-02, 7.69230770e-03, 3.84615385e-03,
          1.15384618e-02, 3.84615385e-03, 1.92307699e-02, 3.07692308e-02,
          3.84615385e-03, 1.53846154e-02, 2.69230772e-02, 7.69230770e-03,
          3.46153863e-02, 3.84615385e-03, 1.15384618e-02, 7.69230770e-03,
          0., 3.84615385e-03, 7.69230770e-03 ]
      - [ 6.41025649e-03, 1.28205130e-02, 3.84615399e-02, 0.,
          1.28205130e-02, 2.56410260e-02, 0., 2.56410260e-02, 0.,
          6.41025649e-03, 6.41025649e-03, 0., 1.28205130e-02, 0., 0., 0.,
          0., 6.41025649e-03, 0., 0., 6.41025649e-03, 1.92307699e-02,
          1.28205130e-02, 1.92307699e-02, 0., 1.28205130e-02,
          1.28205130e-02, 1.92307699e-02, 4.48717959e-02, 0., 0.,
          1.28205130e-02, 1.28205130e-02, 1.92307699e-02, 1.92307699e-02,
          0., 6.41025649e-03, 1.92307699e-02, 0., 1.28205130e-02,
          1.28205130e-02, 6.41025649e-03, 1.28205130e-02, 1.28205130e-02,
          6.41025649e-03, 0., 1.28205130e-02, 6.41025649e-03,
          1.28205130e-02, 2.56410260e-02, 6.41025649e-03, 0.,
          6.41025649e-03, 1.92307699e-02, 6.41025649e-03, 6.41025649e-03,
          6.41025649e-03, 0., 1.28205130e-02, 1.92307699e-02,
          6.41025649e-03, 6.41025649e-03, 1.28205130e-02, 1.28205130e-02,
          0., 0., 6.41025649e-03, 6.41025649e-03, 1.92307699e-02,
          1.92307699e-02, 1.28205130e-02, 0., 1.92307699e-02,
          1.28205130e-02, 1.92307699e-02, 1.28205130e-02, 1.28205130e-02,
          1.28205130e-02, 1.28205130e-02, 0., 1.28205130e-02,
          6.41025649e-03, 6.41025649e-03, 6.41025649e-03, 0., 0., 0.,
          1.28205130e-02, 0., 1.28205130e-02, 1.28205130e-02,
          6.41025649e-03, 6.41025649e-03, 6.41025649e-03, 4.48717959e-02,
          3.20512839e-02, 1.28205130e-02, 6.41025649e-03, 6.41025649e-03,
          6.41025649e-03 ]
      - [ 3.44827585e-02, 5.74712642e-03, 1.72413792e-02, 0., 0.,
          5.74712642e-03, 0., 0., 0., 0., 1.14942528e-02, 1.72413792e-02,
          0., 1.72413792e-02, 0., 1.14942528e-02, 5.74712642e-03,
          2.87356321e-02, 5.74712642e-03, 0., 0., 5.74712642e-03, 0.,
          2.29885057e-02, 1.14942528e-02, 1.14942528e-02, 0.,
          1.14942528e-02, 2.87356321e-02, 0., 2.87356321e-02, 0.,
          1.72413792e-02, 0., 2.29885057e-02, 0., 5.74712642e-03, 0., 0.,
          0., 0., 0., 5.74712642e-03, 5.74712642e-03, 1.14942528e-02,
          6.32183924e-02, 5.74712642e-03, 1.14942528e-02, 5.74712642e-03,
          0., 0., 0., 5.74712642e-03, 1.14942528e-02, 0., 2.29885057e-02,
          5.74712642e-03, 5.74712642e-03, 0., 1.14942528e-02, 0.,
          1.72413792e-02, 5.74712642e-03, 0., 1.14942528e-02,
          2.87356321e-02, 0., 5.74712642e-03, 1.72413792e-02,
          1.14942528e-02, 0., 5.74712642e-03, 0., 5.74712642e-03,
          1.14942528e-02, 0., 5.74712642e-03, 5.74712642e-03,
          5.74712642e-03, 0., 0., 5.74712642e-03, 5.74712642e-03,
          5.74712642e-03, 2.29885057e-02, 0., 1.14942528e-02,
          5.74712642e-03, 5.74712642e-03, 1.72413792e-02, 3.44827585e-02,
          6.89655170e-02, 5.74712642e-03, 3.44827585e-02, 9.19540226e-02,
          1.72413792e-02, 5.74712642e-03, 2.29885057e-02, 0., 0. ]
      - [ 3.55555564e-02, 4.44444455e-03, 0., 0., 1.33333337e-02,
          1.33333337e-02, 0., 8.88888910e-03, 8.88888910e-03,
          4.44444455e-03, 8.88888910e-03, 4.44444455e-03, 0.,
          4.44444455e-03, 1.33333337e-02, 1.33333337e-02, 0.,
          4.44444455e-03, 1.33333337e-02, 1.33333337e-02, 0.,
          3.55555564e-02, 1.33333337e-02, 2.22222228e-02, 8.88888910e-03,
          0., 0., 4.88888919e-02, 4.88888919e-02, 8.88888910e-03,
          4.44444455e-03, 4.44444455e-03, 4.44444455e-03, 4.44444455e-03,
          2.22222228e-02, 8.88888910e-03, 4.44444455e-03, 1.33333337e-02,
          4.44444455e-03, 8.88888910e-03, 8.88888910e-03, 0., 0.,
          4.44444455e-03, 8.88888910e-03, 3.11111119e-02, 4.44444455e-03,
          1.33333337e-02, 8.88888910e-03, 1.77777782e-02, 4.44444455e-03,
          1.77777782e-02, 1.77777782e-02, 1.77777782e-02, 0.,
          1.33333337e-02, 4.44444455e-03, 4.44444455e-03, 8.88888910e-03,
          8.88888910e-03, 4.44444455e-03, 8.88888910e-03, 1.77777782e-02,
