%YAML:1.0
---
opencv_ml_svm:
   format: 3
   svmType: C_SVC
   kernel:
      type: LINEAR
   C: 1.0000000000000001e-01
   term_criteria: { iterations:100 }
   var_count: 100
   class_count: 2
   class_labels: !!opencv-matrix
      rows: 2
      cols: 1
      dt: i
      data: [ 0, 1 ]
   sv_total: 1
   support_vectors:
      - [ -2.21369714e-02, -3.09169013e-02, -1.64569970e-02,
          -4.25499380e-02, 3.45273837e-02, 1.37397926e-03,
          -2.76583117e-02, 7.83099383e-02, -3.50222504e-03,
          6.77270675e-03, 4.40263711e-02, -1.27994288e-02,
          -2.53831819e-02, 1.04469890e-02, 5.94256222e-02,
          -4.41206768e-02, -5.59487045e-02, 4.69864123e-02,
          5.67149930e-02, -5.57144023e-02, -2.29258928e-02,
          -1.35282045e-02, 5.60219809e-02, 1.52993051e-03,
          1.16903307e-02, 5.57194948e-02, 3.81560368e-03,
          -1.48322964e-02, -4.00047153e-02, -3.93714115e-04,
          1.50664030e-02, -6.75735772e-02, -5.25305346e-02,
          5.13505074e-04, 1.04580363e-02, 1.32486634e-02,
          -3.64291556e-02, -1.58265650e-01, -2.17276588e-02,
          -6.65366417e-03, 7.28442967e-02, 1.98390838e-02,
          -6.08449895e-03, -3.87694240e-02, -3.54540944e-02,
          9.48454812e-03, 2.82087289e-02, 7.54191652e-02, 5.68181276e-03,
          -1.76615305e-02, 1.87055115e-02, 1.89683121e-02,
          -4.17910069e-02, -7.57615939e-02, -2.09733192e-02,
          5.25669083e-02, -1.67443696e-02, -5.46060652e-02,
          -2.80312300e-02, 3.53075713e-02, 5.62941656e-02,
          5.40298633e-02, 7.02279201e-03, 7.59214489e-03,
          -3.88215743e-02, -2.44201310e-02, -1.08108912e-02,
          -2.53369752e-02, -5.06243818e-02, -1.21143814e-02,
          2.05930453e-02, 6.51607588e-02, -3.95090319e-02,
          2.17423793e-02, -1.21086566e-02, 4.15137708e-02,
          7.14285970e-02, 1.03135277e-02, -4.03428636e-02,
          2.24336069e-02, 8.86813924e-02, -1.60027053e-02,
          -1.66125987e-02, 1.06302045e-01, 3.95214260e-02,
          -1.34144619e-03, -2.76289154e-02, 1.47657497e-02,
          -2.78831925e-02, -1.18964184e-02, 1.08220791e-02,
          4.66650948e-02, 6.76865829e-03, -2.92318221e-02,
          -6.87952787e-02, 7.40375649e-03, -7.96721899e-04,
          -5.63391373e-02, -1.37758506e-02, 8.95937681e-02 ]
   uncompressed_sv_total: 100
   uncompressed_support_vectors:
      - [ 0., 1.29533671e-02, 0., 5.18134702e-03, 5.18134702e-03,
          2.59067351e-03, 0., 2.33160611e-02, 0., 7.77202053e-03,
          1.03626940e-02, 0., 5.18134702e-03, 3.36787552e-02,
          1.81347150e-02, 5.18134702e-03, 7.77202053e-03, 2.07253881e-02,
          3.10880821e-02, 0., 0., 2.59067351e-03, 3.10880821e-02,
          1.29533671e-02, 1.29533671e-02, 3.10880821e-02, 2.07253881e-02,
          0., 1.55440411e-02, 7.77202053e-03, 7.77202053e-03,
          7.77202053e-03, 1.81347150e-02, 0., 0., 2.07253881e-02, 0., 0.,
          0., 0., 7.77202025e-02, 0., 0., 0., 0., 0., 0., 3.62694301e-02,
          0., 1.55440411e-02, 0., 0., 5.18134702e-03, 0., 7.77202053e-03,
          1.03626940e-02, 1.03626940e-02, 1.03626940e-02, 0., 0.,
          4.40414511e-02, 2.84974091e-02, 0., 0., 2.59067351e-03, 0.,
          2.07253881e-02, 0., 0., 2.59067351e-03, 3.62694301e-02,
          2.33160611e-02, 7.77202053e-03, 0., 7.77202053e-03,
          2.84974091e-02, 1.29533671e-02, 0., 1.29533671e-02,
          7.77202053e-03, 0., 0., 0., 4.40414511e-02, 7.77202053e-03, 0.,
          5.18134702e-03, 7.77202053e-03, 0., 1.03626940e-02, 0.,
          2.59067342e-02, 0., 5.18134702e-03, 7.77202053e-03,
          7.77202053e-03, 5.18134702e-03, 1.03626940e-02, 1.81347150e-02,
          5.69948182e-02 ]
      - [ 5.03778318e-03, 1.76322404e-02, 1.25944577e-02, 2.01511327e-02,
          2.51889159e-03, 5.03778318e-03, 2.51889159e-03, 2.51889159e-03,
          1.76322404e-02, 0., 0., 2.51889154e-02, 2.51889159e-03,
          1.00755664e-02, 1.76322404e-02, 1.51133500e-02, 5.03778309e-02,
          1.25944577e-02, 7.55667500e-03, 0., 2.01511327e-02,
          1.51133500e-02, 2.26700250e-02, 2.51889159e-03, 1.00755664e-02,
          1.00755664e-02, 1.00755664e-02, 0., 2.51889154e-02,
          5.03778318e-03, 5.03778318e-03, 1.00755664e-02, 1.00755664e-02,
          1.76322404e-02, 5.03778318e-03, 2.01511327e-02, 5.03778318e-03,
          0., 5.03778318e-03, 2.51889159e-03, 2.51889154e-02, 0., 0.,
          5.03778318e-03, 1.00755664e-02, 0., 1.00755664e-02,
          7.55667500e-03, 0., 7.55667500e-03, 0., 0., 1.51133500e-02,
          2.51889159e-03, 1.25944577e-02, 0., 1.76322404e-02,
          2.26700250e-02, 7.55667500e-03, 0., 3.52644809e-02,
          1.76322404e-02, 0., 5.03778318e-03, 1.00755664e-02,
          1.76322404e-02, 7.55667500e-03, 2.51889159e-03, 1.76322404e-02,
          1.00755664e-02, 1.00755664e-02, 1.00755664e-02, 5.03778318e-03,
          0., 5.03778318e-03, 1.76322404e-02, 1.00755664e-02,
          2.51889159e-03, 7.55667500e-03, 7.55667500e-03, 2.77078077e-02,
          0., 1.25944577e-02, 2.01511327e-02, 5.03778318e-03, 0.,
          2.77078077e-02, 2.26700250e-02, 2.51889159e-03, 1.25944577e-02,
          0., 5.03778318e-03, 2.51889159e-03, 1.25944577e-02,
          2.51889159e-03, 1.00755664e-02, 2.51889159e-03, 4.28211577e-02,
          7.55667500e-03, 1.25944577e-02 ]
      - [ 1.96078438e-02, 8.40336177e-03, 0., 0., 2.24089641e-02,
          1.12044821e-02, 2.24089641e-02, 4.20168079e-02, 8.40336177e-03,
          0., 2.80112051e-03, 0., 5.60224103e-03, 1.68067235e-02,
          3.92156877e-02, 0., 2.80112051e-03, 5.60224103e-03,
          1.68067235e-02, 2.80112051e-03, 0., 0., 3.92156877e-02,
          2.80112051e-03, 2.52100844e-02, 2.80112051e-03, 2.24089641e-02,
          8.40336177e-03, 1.68067235e-02, 2.80112051e-03, 2.80112051e-03,
          0., 1.12044821e-02, 0., 0., 3.92156877e-02, 0., 0., 0., 0.,
          2.52100844e-02, 0., 1.12044821e-02, 1.96078438e-02, 0., 0.,
          1.40056023e-02, 4.76190485e-02, 0., 8.40336177e-03, 0.,
          5.60224103e-03, 1.12044821e-02, 0., 1.40056023e-02,
          1.40056023e-02, 8.40336177e-03, 8.40336177e-03, 0., 0.,
          1.96078438e-02, 2.52100844e-02, 0., 0., 1.40056023e-02, 0.,
          1.40056023e-02, 5.60224103e-03, 3.08123250e-02, 5.60224103e-03,
          2.52100844e-02, 8.40336177e-03, 2.80112047e-02, 0.,
          5.60224103e-03, 8.40336177e-03, 5.04201688e-02, 0.,
          8.40336177e-03, 1.40056023e-02, 8.40336177e-03, 0.,
          1.96078438e-02, 4.20168079e-02, 0., 0., 0., 5.60224103e-03, 0.,
          8.40336177e-03, 0., 1.40056023e-02, 8.40336177e-03,
          2.80112051e-03, 0., 8.40336177e-03, 1.12044821e-02,
          5.60224103e-03, 1.12044821e-02, 2.80112051e-03 ]
      - [ 7.59493653e-03, 5.06329117e-03, 0., 5.06329117e-03,
          1.26582282e-02, 0., 1.01265823e-02, 4.05063294e-02,
          2.53164559e-03, 0., 5.06329117e-03, 0., 5.06329117e-03,
          1.26582282e-02, 4.55696210e-02, 1.51898731e-02, 2.53164559e-03,
          4.05063294e-02, 2.78481022e-02, 2.53164559e-03, 0.,
          5.06329117e-03, 4.30379733e-02, 2.53164559e-03, 1.77215189e-02,
          7.59493653e-03, 2.02531647e-02, 7.59493653e-03, 1.01265823e-02,
          5.06329117e-03, 2.53164559e-03, 2.53164559e-03, 5.06329117e-03,
          0., 0., 2.02531647e-02, 0., 0., 0., 0., 3.03797461e-02,
          2.53164559e-03, 7.59493653e-03, 2.53164559e-03, 2.53164559e-03,
          0., 5.06329117e-03, 6.83544278e-02, 0., 1.26582282e-02, 0., 0.,
          7.59493653e-03, 0., 7.59493653e-03, 2.27848105e-02,
          2.53164559e-03, 1.01265823e-02, 0., 0., 3.03797461e-02,
          4.30379733e-02, 0., 2.53164559e-03, 2.53164559e-03, 0.,
          2.53164559e-03, 0., 1.51898731e-02, 0., 2.02531647e-02,
          1.01265823e-02, 1.26582282e-02, 0., 2.53164559e-03,
          1.77215189e-02, 2.53164563e-02, 0., 7.59493653e-03,
          3.29113938e-02, 0., 0., 1.01265823e-02, 4.30379733e-02,
          3.03797461e-02, 0., 5.06329117e-03, 7.59493653e-03, 0.,
          2.53164559e-03, 0., 1.51898731e-02, 0., 5.06329117e-03, 0.,
          3.54430377e-02, 0., 2.53164559e-03, 5.06329117e-03,
          4.05063294e-02 ]
      - [ 1.73410401e-02, 2.02312134e-02, 2.89017335e-03, 1.44508667e-02,
          2.89017335e-02, 5.78034669e-03, 5.78034669e-03, 8.67052004e-03,
          2.31213868e-02, 5.78034669e-03, 2.60115601e-02, 0.,
          5.78034669e-03, 1.44508667e-02, 3.75722535e-02, 2.89017335e-03,
          5.78034669e-03, 3.17919068e-02, 2.02312134e-02, 2.89017335e-03,
          0., 5.78034669e-03, 2.02312134e-02, 8.67052004e-03,
          2.02312134e-02, 8.67052004e-03, 2.60115601e-02, 2.89017335e-03,
          1.44508667e-02, 1.15606934e-02, 2.89017335e-03, 0.,
          2.02312134e-02, 0., 0., 0., 2.89017335e-03, 0., 0., 0.,
          2.02312134e-02, 0., 5.78034669e-03, 8.67052004e-03,
          1.15606934e-02, 0., 1.15606934e-02, 1.73410401e-02, 0.,
          1.15606934e-02, 0., 0., 5.78034669e-03, 1.15606934e-02,
          5.78034669e-03, 3.75722535e-02, 5.78034669e-03, 5.78034669e-03,
          0., 0., 3.75722535e-02, 1.44508667e-02, 0., 2.89017335e-03,
          8.67052004e-03, 0., 1.15606934e-02, 5.78034669e-03,
          1.15606934e-02, 2.89017335e-03, 1.15606934e-02, 2.02312134e-02,
          1.44508667e-02, 0., 0., 2.60115601e-02, 1.73410401e-02, 0., 0.,
          1.73410401e-02, 2.89017335e-03, 0., 1.73410401e-02,
          1.44508667e-02, 2.31213868e-02, 0., 8.67052004e-03,
          1.44508667e-02, 0., 1.73410401e-02, 0., 2.02312134e-02,
          8.67052004e-03, 0., 5.78034669e-03, 8.67052004e-03,
          1.44508667e-02, 5.78034669e-03, 8.67052004e-03, 4.33526002e-02 ]
      - [ 1.57728717e-02, 9.46372282e-03, 0., 1.57728717e-02,
          2.52365936e-02, 3.15457419e-03, 6.30914839e-03, 4.41640392e-02,
          3.15457419e-03, 3.15457419e-03, 3.15457433e-02, 3.15457419e-03,
          1.26182968e-02, 1.89274456e-02, 3.78548913e-02, 0.,
          6.30914839e-03, 3.15457419e-03, 2.83911675e-02, 0.,
          6.30914839e-03, 9.46372282e-03, 1.26182968e-02, 3.15457419e-03,
          9.46372282e-03, 6.30914839e-03, 2.52365936e-02, 6.30914839e-03,
          1.57728717e-02, 3.15457419e-03, 9.46372282e-03, 0.,
          1.57728717e-02, 9.46372282e-03, 3.15457419e-03, 2.52365936e-02,
          0., 3.15457419e-03, 0., 0., 0., 0., 3.15457419e-03,
          6.30914839e-03, 3.15457419e-03, 0., 1.57728717e-02,
          1.57728717e-02, 1.89274456e-02, 1.26182968e-02, 0.,
          6.30914839e-03, 6.30914839e-03, 3.15457419e-03, 1.57728717e-02,
          1.89274456e-02, 1.26182968e-02, 9.46372282e-03, 0., 0.,
          9.46372282e-03, 2.20820196e-02, 0., 0., 3.15457419e-03, 0.,
          1.26182968e-02, 1.26182968e-02, 2.83911675e-02, 6.30914839e-03,
          2.20820196e-02, 1.89274456e-02, 1.57728717e-02, 6.30914839e-03,
          0., 9.46372282e-03, 9.46372282e-03, 3.15457419e-03,
          6.30914839e-03, 1.57728717e-02, 1.89274456e-02, 3.15457419e-03,
          6.30914839e-03, 2.83911675e-02, 0., 0., 1.89274456e-02, 0., 0.,
          1.26182968e-02, 0., 1.89274456e-02, 2.20820196e-02,
          6.30914839e-03, 2.83911675e-02, 1.26182968e-02, 1.26182968e-02,
          3.15457419e-03, 1.57728717e-02, 9.46372282e-03 ]
      - [ 7.75193796e-03, 1.55038759e-02, 0., 2.58397944e-02,
          7.75193796e-03, 1.29198972e-02, 2.58397940e-03, 6.20155036e-02,
          5.16795879e-03, 2.58397940e-03, 2.32558139e-02, 0., 0.,
          1.80878565e-02, 2.32558139e-02, 1.55038759e-02, 1.29198972e-02,
          2.84237731e-02, 1.80878565e-02, 0., 1.03359176e-02,
          5.16795879e-03, 5.42635657e-02, 2.58397940e-03, 5.16795879e-03,
          1.80878565e-02, 2.58397940e-03, 2.58397940e-03, 1.80878565e-02,
          2.32558139e-02, 5.16795879e-03, 0., 5.16795879e-03, 0., 0.,
          1.03359176e-02, 1.55038759e-02, 0., 0., 0., 1.55038759e-02,
          1.03359176e-02, 2.58397940e-03, 0., 5.16795879e-03,
          2.58397940e-03, 2.58397940e-03, 3.87596898e-02, 0., 0., 0.,
          5.16795879e-03, 0., 0., 0., 1.29198972e-02, 7.75193796e-03,
          7.75193796e-03, 0., 0., 3.87596898e-02, 1.80878565e-02, 0.,
          2.58397940e-03, 2.58397940e-03, 0., 1.03359176e-02,
          5.16795879e-03, 7.75193796e-03, 0., 2.58397940e-03,
          3.61757129e-02, 1.03359176e-02, 7.75193796e-03, 2.58397940e-03,
          1.80878565e-02, 5.68475462e-02, 2.58397940e-03, 2.58397940e-03,
          1.03359176e-02, 7.75193796e-03, 0., 2.58397940e-03,
          2.58397944e-02, 2.58397944e-02, 0., 0., 0., 0., 2.58397940e-03,
          7.75193796e-03, 2.32558139e-02, 0., 7.75193796e-03,
          1.03359176e-02, 1.80878565e-02, 2.58397940e-03, 2.84237731e-02,
          7.75193796e-03, 2.32558139e-02 ]
      - [ 1.46341464e-02, 7.31707318e-03, 1.95121951e-02, 2.19512191e-02,
          1.95121951e-02, 4.87804879e-03, 1.70731712e-02, 9.75609757e-03,
          0., 2.43902439e-03, 1.46341464e-02, 1.46341464e-02, 0.,
          4.87804879e-03, 1.95121951e-02, 0., 7.31707318e-03, 0., 0., 0.,
          0., 2.43902439e-03, 0., 0., 2.43902439e-03, 7.31707318e-03,
          9.75609757e-03, 0., 0., 0., 9.75609757e-03, 2.43902439e-03,
          9.75609757e-03, 7.31707318e-03, 7.31707318e-03, 9.75609757e-03,
          2.43902439e-03, 0., 4.87804879e-03, 0., 0., 0., 3.41463424e-02,
          2.19512191e-02, 7.31707318e-03, 4.87804879e-03, 4.39024381e-02,
          9.75609757e-03, 4.87804879e-03, 2.43902439e-03, 2.92682927e-02,
          4.39024381e-02, 4.87804879e-03, 2.43902439e-03, 2.43902439e-03,
          3.90243903e-02, 2.43902439e-03, 2.43902439e-03, 0.,
          4.63414639e-02, 4.87804879e-03, 7.31707318e-03, 0.,
          9.75609757e-03, 4.87804879e-03, 2.43902439e-03, 1.46341464e-02,
          1.21951215e-02, 7.31707318e-03, 2.43902430e-02, 2.43902439e-03,
          9.75609757e-03, 7.31707318e-03, 3.17073166e-02, 1.21951215e-02,
          2.43902439e-03, 1.21951215e-02, 9.75609757e-03, 0.,
          3.65853645e-02, 6.58536553e-02, 2.43902439e-03, 0.,
          1.46341464e-02, 1.21951215e-02, 0., 1.46341464e-02, 0.,
          7.31707318e-03, 2.43902439e-03, 7.31707318e-03, 2.19512191e-02,
          1.46341464e-02, 7.31707318e-03, 2.43902439e-03, 7.31707318e-03,
          1.70731712e-02, 4.87804879e-03, 2.43902430e-02, 4.87804879e-03 ]
      - [ 5.68181835e-03, 1.42045459e-02, 2.27272734e-02, 5.68181835e-03,
          5.68181835e-03, 8.52272753e-03, 2.84090918e-03, 1.98863633e-02,
          5.68181835e-03, 5.68181835e-03, 2.27272734e-02, 0.,
          5.68181835e-03, 1.98863633e-02, 2.55681835e-02, 1.70454551e-02,
          8.52272753e-03, 1.13636367e-02, 2.84090918e-03, 0.,
          2.84090918e-02, 2.84090918e-02, 2.27272734e-02, 0.,
          5.68181835e-03, 4.54545468e-02, 2.84090918e-03, 2.84090918e-03,
          3.97727266e-02, 0., 8.52272753e-03, 0., 2.84090918e-03,
          5.68181835e-03, 1.13636367e-02, 1.13636367e-02, 0., 0., 0.,
          2.84090918e-03, 3.40909101e-02, 0., 0., 0., 0., 0.,
          1.13636367e-02, 2.27272734e-02, 0., 8.52272753e-03, 0.,
          2.84090918e-03, 8.52272753e-03, 8.52272753e-03, 2.84090918e-02,
          5.68181835e-03, 8.52272753e-03, 2.84090918e-03, 0., 0.,
          1.70454551e-02, 3.12500000e-02, 0., 0., 2.84090918e-03, 0.,
          8.52272753e-03, 0., 1.13636367e-02, 5.68181835e-03,
          2.27272734e-02, 5.68181835e-03, 1.13636367e-02, 0.,
          1.13636367e-02, 5.68181835e-03, 2.27272734e-02, 2.84090918e-03,
          2.55681835e-02, 5.68181835e-03, 5.68181835e-03, 2.84090918e-03,
          8.52272753e-03, 8.52272753e-03, 1.98863633e-02, 0.,
          1.13636367e-02, 2.84090918e-02, 0., 1.98863633e-02, 0.,
          1.13636367e-02, 0., 1.70454551e-02, 5.68181835e-03,
          1.42045459e-02, 5.68181835e-03, 3.40909101e-02, 0.,
          4.54545468e-02 ]
      - [ 1.15384618e-02, 1.15384618e-02, 3.84615385e-03, 1.53846154e-02,
          1.15384618e-02, 0., 3.84615385e-03, 5.00000007e-02, 0., 0., 0.,
          0., 0., 2.69230772e-02, 2.69230772e-02, 7.69230770e-03,
          5.76923080e-02, 2.30769236e-02, 3.84615385e-03, 0.,
          1.92307699e-02, 7.69230770e-03, 3.07692308e-02, 3.84615385e-03,
          1.15384618e-02, 1.15384618e-02, 0., 7.69230770e-03,
          2.30769236e-02, 0., 3.84615385e-03, 0., 7.69230770e-03, 0., 0.,
          5.76923080e-02, 3.84615385e-03, 0., 0., 0., 4.23076935e-02, 0.,
          0., 3.84615385e-03, 0., 0., 0., 2.69230772e-02, 0.,
          3.84615385e-03, 0., 0., 0., 3.84615385e-03, 0., 0.,
          1.15384618e-02, 3.84615385e-03, 0., 0., 4.61538471e-02,
          3.84615385e-03, 0., 0., 0., 0., 1.15384618e-02, 0.,
          3.84615385e-03, 7.69230770e-03, 3.07692308e-02, 1.15384618e-02,
          7.69230770e-03, 0., 0., 1.53846154e-02, 4.23076935e-02, 0.,
          1.53846154e-02, 1.15384618e-02, 0., 0., 3.84615385e-03,
          4.61538471e-02, 3.07692308e-02, 0., 1.15384618e-02,
          3.46153863e-02, 3.84615385e-03, 0., 0., 2.69230772e-02, 0.,
          1.15384618e-02, 0., 3.84615385e-03, 0., 6.92307726e-02, 0.,
          1.15384618e-02 ]
      - [ 1.19760484e-02, 1.79640725e-02, 8.98203626e-03, 8.98203626e-03,
          1.49700604e-02, 2.99401209e-03, 1.19760484e-02, 8.98203626e-03,
          5.98802418e-03, 0., 5.08982055e-02, 2.99401209e-03,
          8.98203626e-03, 1.19760484e-02, 2.09580846e-02, 0.,
          2.09580846e-02, 1.19760484e-02, 1.79640725e-02, 2.99401209e-03,
          8.98203626e-03, 1.19760484e-02, 8.98203626e-03, 2.99401209e-03,
          5.98802418e-03, 0., 1.49700604e-02, 2.99401209e-03,
          1.49700604e-02, 8.98203626e-03, 8.98203626e-03, 1.49700604e-02,
          5.98802418e-03, 2.99401209e-03, 8.98203626e-03, 1.19760484e-02,
          2.99401209e-03, 0., 5.98802418e-03, 0., 1.19760484e-02,
          2.99401209e-03, 2.99401209e-03, 5.98802418e-03, 2.99401209e-03,
          1.19760484e-02, 8.98203626e-03, 2.39520967e-02, 8.98203626e-03,
          0., 2.99401209e-03, 1.19760484e-02, 2.99401209e-03,
          2.99401209e-03, 0., 1.79640725e-02, 2.99401209e-03,
          2.99401209e-03, 5.98802418e-03, 2.39520967e-02, 2.99401209e-03,
          1.49700604e-02, 2.99401209e-03, 1.79640725e-02, 2.99401209e-03,
          2.99401209e-03, 2.99401209e-02, 8.98203626e-03, 8.98203626e-03,
          2.39520967e-02, 2.99401209e-03, 2.09580846e-02, 2.99401209e-03,
          0., 0., 5.98802418e-03, 1.49700604e-02, 2.39520967e-02,
          2.99401209e-03, 2.69461088e-02, 5.98802418e-03, 2.99401209e-03,
          5.98802418e-03, 3.59281451e-02, 2.69461088e-02, 0.,
          5.98802418e-03, 0., 0., 5.98802418e-03, 5.98802418e-03,
          4.49101813e-02, 8.98203626e-03, 2.99401209e-03, 0.,
          2.99401209e-02, 2.09580846e-02, 1.19760484e-02, 1.19760484e-02,
          1.19760484e-02 ]
      - [ 3.07692308e-03, 6.15384616e-03, 2.46153846e-02, 2.76923068e-02,
          1.23076923e-02, 1.23076923e-02, 3.07692308e-03, 3.07692308e-02,
          1.53846154e-02, 2.76923068e-02, 1.84615385e-02, 3.07692308e-03,
          3.07692308e-03, 1.53846154e-02, 2.46153846e-02, 0., 0.,
          1.23076923e-02, 2.15384625e-02, 3.07692308e-03, 1.23076923e-02,
          9.23076924e-03, 6.15384616e-03, 0., 1.23076923e-02,
          3.07692308e-02, 1.23076923e-02, 1.23076923e-02, 6.15384616e-03,
          1.53846154e-02, 0., 3.07692308e-03, 1.53846154e-02,
          6.15384616e-03, 0., 3.07692308e-03, 0., 0., 3.07692308e-03, 0.,
          1.23076923e-02, 1.23076923e-02, 0., 6.15384616e-03,
          3.07692308e-03, 3.07692308e-03, 9.23076924e-03, 3.07692308e-03,
          9.23076924e-03, 6.15384616e-03, 6.15384616e-03, 0., 0.,
          6.15384616e-03, 0., 5.23076914e-02, 0., 0., 0., 1.53846154e-02,
          6.15384616e-03, 1.53846154e-02, 0., 6.15384616e-03,
          3.07692308e-03, 0., 3.07692308e-03, 6.15384616e-03,
          6.15384616e-03, 3.07692308e-03, 0., 4.61538471e-02,
          3.07692308e-03, 0., 1.84615385e-02, 1.23076923e-02,
          6.15384616e-03, 3.07692308e-03, 0., 2.15384625e-02,
          1.53846154e-02, 0., 0., 3.38461548e-02, 1.84615385e-02, 0.,
          1.23076923e-02, 1.23076923e-02, 0., 3.07692308e-02,
          9.23076924e-03, 1.84615385e-02, 1.53846154e-02, 3.07692308e-03,
          3.07692308e-03, 9.23076924e-03, 1.53846154e-02, 0.,
          1.53846154e-02, 7.07692280e-02 ]
      - [ 0., 9.80392192e-03, 2.45098048e-03, 6.37254938e-02,
          4.90196096e-03, 0., 0., 6.12745136e-02, 0., 2.45098048e-03,
          2.69607846e-02, 4.90196096e-03, 0., 2.45098048e-03,
          2.69607846e-02, 2.94117667e-02, 1.71568636e-02, 4.90196096e-03,
          1.22549022e-02, 2.45098048e-03, 2.45098048e-03, 4.90196096e-03,
          4.90196096e-03, 4.90196096e-03, 9.80392192e-03, 4.90196096e-03,
          1.22549022e-02, 4.90196096e-03, 1.22549022e-02, 1.47058833e-02,
          7.35294167e-03, 9.80392192e-03, 7.35294167e-03, 4.90196096e-03,
          0., 9.80392192e-03, 2.45098048e-03, 0., 0., 0., 7.35294167e-03,
          9.80392192e-03, 2.45098048e-03, 0., 4.90196096e-03,
          1.22549022e-02, 4.90196096e-03, 1.47058833e-02, 2.45098048e-03,
          7.35294167e-03, 7.35294167e-03, 7.35294167e-03, 0.,
          2.45098048e-03, 0., 7.35294167e-03, 2.45098048e-03,
          2.45098048e-03, 0., 1.96078438e-02, 2.45098048e-03,
          1.22549022e-02, 2.45098048e-03, 1.47058833e-02, 2.45098048e-03,
          0., 7.35294167e-03, 7.35294167e-03, 7.35294167e-03,
          7.35294167e-03, 1.22549022e-02, 6.12745136e-02, 4.90196096e-03,
          2.45098048e-03, 9.80392192e-03, 7.35294167e-03, 4.41176482e-02,
          0., 2.45098048e-03, 1.96078438e-02, 6.37254938e-02,
          2.45098048e-03, 0., 5.14705889e-02, 1.47058833e-02,
          7.35294167e-03, 0., 0., 2.45098048e-03, 2.45098048e-03,
          1.71568636e-02, 3.18627469e-02, 4.90196096e-03, 1.96078438e-02,
          2.45098048e-03, 7.35294167e-03, 4.90196096e-03, 1.96078438e-02,
          4.90196096e-03, 9.80392192e-03 ]
      - [ 1.02301789e-02, 7.67263398e-03, 1.02301789e-02, 2.81329919e-02,
          5.11508947e-03, 0., 2.55754478e-02, 2.55754474e-03,
          1.02301789e-02, 5.11508947e-03, 1.27877239e-02, 0.,
          1.27877239e-02, 1.53452680e-02, 5.11508947e-03, 5.11508947e-03,
          2.81329919e-02, 0., 0., 0., 0., 1.53452680e-02, 1.53452680e-02,
          0., 0., 3.83631699e-02, 7.67263398e-03, 5.11508947e-03,
          1.02301789e-02, 5.11508947e-03, 2.55754474e-03, 1.79028139e-02,
          5.11508947e-03, 7.67263398e-03, 1.79028139e-02, 5.11508947e-03,
          2.55754474e-03, 1.02301789e-02, 2.55754474e-03, 2.81329919e-02,
          2.30179019e-02, 0., 1.53452680e-02, 1.02301789e-02,
          5.11508947e-03, 0., 3.06905359e-02, 0., 5.11508947e-03,
          5.11508947e-03, 2.04603579e-02, 0., 5.11508947e-03,
          2.55754474e-03, 5.11508947e-03, 1.27877239e-02, 0.,
          1.27877239e-02, 1.02301789e-02, 3.06905359e-02, 2.81329919e-02,
          1.27877239e-02, 2.30179019e-02, 5.11508947e-03, 2.55754474e-03,
          1.53452680e-02, 7.67263398e-03, 2.55754474e-03, 0.,
          2.55754474e-03, 2.55754474e-03, 1.27877239e-02, 5.11508947e-03,
          4.85933498e-02, 2.55754474e-03, 2.55754474e-03, 1.27877239e-02,
          1.27877239e-02, 1.27877239e-02, 1.02301789e-02, 1.02301789e-02,
          2.55754474e-03, 0., 1.27877239e-02, 2.30179019e-02,
          1.27877239e-02, 1.02301789e-02, 1.02301789e-02, 5.11508947e-03,
          5.11508947e-03, 2.55754474e-03, 3.32480818e-02, 0.,
          7.67263398e-03, 2.55754474e-03, 2.04603579e-02, 0.,
          3.32480818e-02, 5.11508947e-03, 5.11508947e-03 ]
      - [ 0., 1.51515156e-02, 2.52525252e-03, 2.52525248e-02,
          2.52525252e-03, 2.52525252e-03, 0., 2.27272734e-02, 0.,
          2.52525252e-03, 2.02020202e-02, 0., 5.05050505e-03,
          1.26262624e-02, 1.76767670e-02, 7.57575780e-03, 7.57575780e-03,
          1.76767670e-02, 2.77777780e-02, 0., 5.05050505e-03,
          1.51515156e-02, 3.78787890e-02, 2.52525252e-03, 7.57575780e-03,
          4.04040404e-02, 5.05050505e-03, 0., 3.03030312e-02,
          1.01010101e-02, 0., 0., 7.57575780e-03, 1.51515156e-02,
          2.52525252e-03, 2.27272734e-02, 7.57575780e-03, 0., 0., 0.,
          2.77777780e-02, 2.52525252e-03, 5.05050505e-03, 1.01010101e-02,
          7.57575780e-03, 5.05050505e-03, 0., 2.52525248e-02,
          1.01010101e-02, 5.05050505e-03, 5.05050505e-03, 5.05050505e-03,
          1.01010101e-02, 0., 2.52525252e-03, 1.26262624e-02, 0.,
          1.51515156e-02, 0., 2.52525252e-03, 2.27272734e-02,
          1.26262624e-02, 2.52525252e-03, 7.57575780e-03, 5.05050505e-03,
          0., 1.51515156e-02, 0., 0., 5.05050505e-03, 3.53535339e-02,
          2.02020202e-02, 5.05050505e-03, 1.01010101e-02, 2.52525248e-02,
          1.51515156e-02, 1.76767670e-02, 0., 7.57575780e-03,
          1.51515156e-02, 1.01010101e-02, 0., 1.01010101e-02,
          4.54545468e-02, 3.28282826e-02, 0., 0., 7.57575780e-03, 0.,
          7.57575780e-03, 0., 2.02020202e-02, 0., 2.52525252e-03,
          7.57575780e-03, 1.51515156e-02, 0., 1.76767670e-02,
          1.51515156e-02, 3.53535339e-02 ]
      - [ 0., 4.31034490e-02, 1.29310340e-02, 1.72413792e-02,
          8.62068962e-03, 2.15517245e-02, 4.31034481e-03, 8.62068962e-03,
          4.31034481e-03, 0., 1.72413792e-02, 0., 8.62068962e-03,
          1.72413792e-02, 1.72413792e-02, 2.15517245e-02, 8.62068962e-03,
          0., 1.72413792e-02, 4.31034481e-03, 1.72413792e-02,
          1.72413792e-02, 3.44827585e-02, 1.72413792e-02, 1.29310340e-02,
          1.29310340e-02, 8.62068962e-03, 1.72413792e-02, 1.72413792e-02,
          0., 4.31034481e-03, 2.15517245e-02, 8.62068962e-03,
          1.29310340e-02, 0., 1.29310340e-02, 0., 0., 4.31034481e-03, 0.,
          2.58620679e-02, 0., 4.31034481e-03, 8.62068962e-03, 0., 0., 0.,
          2.58620679e-02, 0., 0., 0., 4.31034481e-03, 0., 0.,
          3.01724132e-02, 4.31034481e-03, 1.72413792e-02, 1.29310340e-02,
          0., 0., 3.01724132e-02, 3.87931019e-02, 0., 0., 0.,
          4.31034481e-03, 2.15517245e-02, 8.62068962e-03, 4.31034481e-03,
          0., 3.01724132e-02, 8.62068962e-03, 0., 0., 0., 1.29310340e-02,
          3.01724132e-02, 0., 1.29310340e-02, 8.62068962e-03,
          8.62068962e-03, 0., 0., 1.72413792e-02, 2.58620679e-02, 0.,
          1.72413792e-02, 1.72413792e-02, 4.31034481e-03, 8.62068962e-03,
          0., 2.58620679e-02, 0., 1.29310340e-02, 0., 3.01724132e-02, 0.,
          2.58620679e-02, 0., 8.62068962e-03 ]
      - [ 1.29870130e-02, 1.29870130e-02, 0., 9.74025950e-02,
          3.89610380e-02, 0., 3.24675324e-03, 1.62337665e-02,
          3.24675324e-03, 6.49350649e-03, 3.89610380e-02, 0.,
          9.74025950e-03, 0., 1.29870130e-02, 1.94805190e-02,
          6.49350649e-03, 3.24675324e-03, 0., 3.24675324e-03, 0.,
          6.49350649e-03, 3.24675324e-03, 3.24675324e-03, 6.49350649e-03,
          1.94805190e-02, 3.24675324e-03, 3.24675324e-03, 6.49350649e-03,
          6.49350649e-03, 3.24675324e-03, 3.24675324e-03, 3.24675324e-03,
          3.24675324e-03, 0., 6.49350649e-03, 9.74025950e-03, 0., 0.,
          3.24675324e-03, 3.24675324e-03, 1.62337665e-02, 1.62337665e-02,
          0., 3.24675324e-03, 1.94805190e-02, 1.29870130e-02,
          1.29870130e-02, 1.94805190e-02, 3.24675324e-03, 3.89610380e-02,
          0., 6.49350649e-03, 3.24675324e-03, 3.24675324e-03,
          3.24675324e-03, 0., 6.49350649e-03, 0., 3.89610380e-02, 0.,
          9.74025950e-03, 0., 1.29870130e-02, 3.24675324e-03, 0.,
          9.74025950e-03, 6.49350649e-03, 6.49350649e-03, 9.74025950e-03,
          6.49350649e-03, 1.62337665e-02, 9.74025950e-03, 1.29870130e-02,
          0., 3.24675324e-03, 2.27272734e-02, 3.24675324e-03,
          3.24675324e-03, 2.92207785e-02, 9.74025950e-03, 0.,
          1.29870130e-02, 1.62337665e-02, 2.92207785e-02, 0., 0., 0., 0.,
          3.24675324e-03, 2.27272734e-02, 2.27272734e-02, 1.29870130e-02,
          0., 0., 4.22077924e-02, 3.89610380e-02, 1.62337665e-02,
          1.29870130e-02, 9.74025950e-03 ]
      - [ 0., 0., 0., 4.46428591e-03, 1.78571437e-02, 8.92857183e-03, 0.,
          2.23214291e-02, 0., 4.46428591e-03, 4.46428591e-03, 0., 0.,
          1.33928582e-02, 3.12500000e-02, 0., 1.33928582e-02,
          5.35714328e-02, 5.35714328e-02, 0., 0., 0., 3.57142873e-02,
          2.23214291e-02, 8.92857183e-03, 2.67857164e-02, 4.46428591e-03,
          0., 8.92857183e-03, 4.46428591e-03, 0., 0., 0., 0., 0.,
          4.46428591e-03, 0., 0., 0., 0., 1.78571437e-02, 0.,
          4.46428591e-03, 0., 0., 0., 0., 1.33928582e-02, 0.,
          1.33928582e-02, 0., 0., 0., 0., 0., 4.46428582e-02, 0.,
          4.46428591e-03, 0., 0., 5.80357164e-02, 4.46428591e-03, 0., 0.,
          0., 0., 4.46428591e-03, 8.92857183e-03, 4.46428591e-03, 0.,
          8.92857183e-03, 1.20535716e-01, 1.33928582e-02, 0.,
          1.33928582e-02, 7.58928582e-02, 1.78571437e-02, 0.,
          4.46428591e-03, 4.46428591e-03, 0., 0., 0., 4.91071455e-02,
          4.46428591e-03, 0., 0., 1.33928582e-02, 0., 0., 0.,
          4.01785746e-02, 0., 4.46428591e-03, 0., 1.78571437e-02,
          4.46428591e-03, 0., 8.92857183e-03, 7.58928582e-02 ]
      - [ 0., 1.33689847e-02, 2.94117648e-02, 2.67379694e-02,
          1.33689847e-02, 5.34759369e-03, 0., 1.87165774e-02,
          1.33689847e-02, 1.60427801e-02, 1.06951874e-02, 1.06951874e-02,
          8.02139007e-03, 1.60427801e-02, 1.60427801e-02, 2.67379684e-03,
          1.33689847e-02, 1.87165774e-02, 1.06951874e-02, 0.,
          8.02139007e-03, 1.06951874e-02, 2.40641721e-02, 1.06951874e-02,
          8.02139007e-03, 2.67379694e-02, 8.02139007e-03, 0.,
          2.67379684e-03, 1.60427801e-02, 0., 1.33689847e-02,
          1.06951874e-02, 5.34759369e-03, 2.94117648e-02, 5.34759369e-03,
          0., 0., 2.67379684e-03, 5.34759369e-03, 8.02139007e-03,
          1.06951874e-02, 8.02139007e-03, 5.34759369e-03, 1.06951874e-02,
          2.67379684e-03, 1.60427801e-02, 2.40641721e-02, 5.34759369e-03,
          0., 1.60427801e-02, 2.67379684e-03, 0., 2.67379684e-03,
          2.67379684e-03, 1.33689847e-02, 2.67379684e-03, 0.,
          1.87165774e-02, 4.01069522e-02, 2.67379694e-02, 2.13903747e-02,
          5.34759369e-03, 0., 0., 2.67379684e-03, 1.06951874e-02,
          2.67379684e-03, 2.67379684e-03, 8.02139007e-03, 8.02139007e-03,
          2.67379684e-03, 0., 1.06951874e-02, 2.13903747e-02,
          1.33689847e-02, 1.33689847e-02, 2.67379684e-03, 2.67379684e-03,
          2.67379684e-03, 1.87165774e-02, 5.34759369e-03, 2.67379684e-03,
          1.87165774e-02, 2.40641721e-02, 5.34759369e-03, 2.67379684e-03,
          8.02139007e-03, 1.33689847e-02, 8.02139007e-03, 1.60427801e-02,
          1.60427801e-02, 1.33689847e-02, 5.34759369e-03, 8.02139007e-03,
          1.87165774e-02, 1.60427801e-02, 2.67379684e-03, 2.67379684e-03,
          1.60427801e-02 ]
      - [ 7.54716992e-03, 3.77358496e-03, 1.50943398e-02, 7.54716992e-03,
          0., 3.77358496e-03, 0., 3.01886797e-02, 3.77358496e-03,
          2.26415098e-02, 7.54716992e-03, 3.77358496e-03, 1.13207549e-02,
          7.54716992e-03, 3.77358496e-02, 1.50943398e-02, 2.64150947e-02,
          2.64150947e-02, 2.64150947e-02, 0., 2.64150947e-02,
          7.54716992e-03, 1.50943398e-02, 0., 1.88679248e-02,
          5.28301895e-02, 2.26415098e-02, 1.13207549e-02, 1.50943398e-02,
          0., 3.77358496e-03, 0., 7.54716992e-03, 1.50943398e-02,
          3.77358496e-03, 7.54716992e-03, 0., 0., 0., 3.77358496e-03,
          2.26415098e-02, 0., 0., 0., 7.54716992e-03, 0., 1.13207549e-02,
          2.64150947e-02, 0., 7.54716992e-03, 0., 3.77358496e-03,
          3.77358496e-03, 7.54716992e-03, 0., 3.77358496e-03,
          3.77358496e-03, 3.77358496e-03, 3.77358496e-03, 0.,
          2.26415098e-02, 2.26415098e-02, 7.54716992e-03, 0., 0.,
          3.77358496e-03, 1.50943398e-02, 0., 0., 1.50943398e-02,
          1.13207549e-02, 3.77358496e-02, 1.50943398e-02, 0.,
          2.64150947e-02, 7.54716992e-03, 2.26415098e-02, 0.,
          3.77358496e-03, 3.77358496e-03, 3.39622647e-02, 3.77358496e-03,
          7.54716992e-03, 2.64150947e-02, 0., 7.54716992e-03,
          1.50943398e-02, 2.26415098e-02, 0., 7.54716992e-03, 0., 0., 0.,
          7.54716992e-03, 0., 3.77358496e-03, 3.77358496e-03,
          3.77358496e-03, 0., 6.79245293e-02 ]
      - [ 2.99401209e-03, 1.79640725e-02, 0., 2.99401209e-03,
          1.49700604e-02, 8.98203626e-03, 8.98203626e-03, 3.89221571e-02,
          5.98802418e-03, 1.19760484e-02, 8.98203626e-03, 0.,
          2.99401209e-03, 2.09580846e-02, 1.49700604e-02, 0., 0.,
          4.19161692e-02, 5.98802418e-03, 2.99401209e-03, 0.,
          2.99401209e-03, 5.68862297e-02, 2.99401209e-03, 4.19161692e-02,
          8.98203626e-03, 2.39520967e-02, 5.98802418e-03, 1.49700604e-02,
          8.98203626e-03, 2.99401209e-03, 0., 5.98802418e-03,
          2.99401209e-03, 0., 2.09580846e-02, 2.99401209e-03,
          2.99401209e-03, 0., 0., 6.88622743e-02, 8.98203626e-03, 0.,
          1.19760484e-02, 5.98802418e-03, 0., 0., 1.79640725e-02,
          8.98203626e-03, 1.19760484e-02, 2.99401209e-03, 0.,
          2.99401209e-03, 5.98802418e-03, 1.19760484e-02, 5.98802418e-03,
          0., 8.98203626e-03, 0., 0., 2.39520967e-02, 2.69461088e-02, 0.,
          0., 5.98802418e-03, 0., 8.98203626e-03, 8.98203626e-03, 0.,
          2.99401209e-03, 3.89221571e-02, 2.69461088e-02, 8.98203626e-03,
          0., 1.79640725e-02, 2.09580846e-02, 1.49700604e-02, 0.,
          5.98802418e-03, 1.19760484e-02, 5.98802418e-03, 0.,
          2.99401209e-03, 3.89221571e-02, 2.39520967e-02, 0.,
          2.99401209e-03, 2.39520967e-02, 0., 0., 0., 5.98802418e-03, 0.,
          2.99401209e-03, 8.98203626e-03, 2.69461088e-02, 0.,
          2.99401209e-03, 0., 3.59281451e-02 ]
      - [ 2.25225231e-03, 2.02702712e-02, 4.50450461e-03, 2.47747749e-02,
          6.75675692e-03, 9.00900923e-03, 4.50450461e-03, 1.57657657e-02,
          4.50450461e-03, 9.00900923e-03, 2.70270277e-02, 0., 0.,
          3.15315314e-02, 2.02702712e-02, 9.00900923e-03, 1.57657657e-02,
          1.80180185e-02, 2.47747749e-02, 0., 6.75675692e-03,
          1.80180185e-02, 3.82882878e-02, 4.50450461e-03, 2.47747749e-02,
          3.15315314e-02, 6.75675692e-03, 2.25225231e-03, 1.80180185e-02,
          4.50450461e-03, 4.50450461e-03, 1.35135138e-02, 2.02702712e-02,
          0., 0., 9.00900923e-03, 2.25225231e-03, 2.25225231e-03,
          2.25225231e-03, 0., 3.15315314e-02, 0., 0., 2.25225231e-03,
          4.50450461e-03, 2.25225231e-03, 1.12612620e-02, 3.60360369e-02,
          0., 6.75675692e-03, 0., 0., 0., 0., 6.75675692e-03,
          2.25225240e-02, 1.12612620e-02, 2.47747749e-02, 2.25225231e-03,
          0., 2.02702712e-02, 2.25225240e-02, 0., 4.50450461e-03,
          6.75675692e-03, 0., 9.00900923e-03, 2.25225231e-03,
          9.00900923e-03, 9.00900923e-03, 1.80180185e-02, 2.02702712e-02,
          1.12612620e-02, 0., 4.50450461e-03, 1.35135138e-02,
          2.02702712e-02, 0., 6.75675692e-03, 2.02702712e-02,
          4.50450461e-03, 0., 2.25225231e-03, 2.25225240e-02,
          2.92792805e-02, 0., 0., 2.25225240e-02, 0., 2.25225231e-03, 0.,
          3.82882878e-02, 2.25225231e-03, 6.75675692e-03, 2.25225231e-03,
          9.00900923e-03, 2.25225231e-03, 1.12612620e-02, 6.75675692e-03,
          2.02702712e-02 ]
      - [ 0., 1.31578948e-02, 0., 3.50877196e-02, 8.77192989e-03, 0.,
          4.38596494e-03, 4.38596494e-02, 1.31578948e-02, 0.,
          2.19298247e-02, 0., 8.77192989e-03, 1.75438598e-02,
          1.75438598e-02, 1.31578948e-02, 1.31578948e-02, 1.31578948e-02,
          2.19298247e-02, 0., 4.38596494e-03, 1.75438598e-02,
          1.75438598e-02, 0., 8.77192989e-03, 1.75438598e-02,
          1.31578948e-02, 0., 0., 8.77192989e-03, 1.75438598e-02,
          4.38596494e-03, 0., 4.38596494e-03, 0., 2.63157897e-02,
          4.38596494e-03, 0., 0., 0., 1.75438598e-02, 0., 0.,
          8.77192989e-03, 8.77192989e-03, 0., 8.77192989e-03,
          4.38596494e-02, 0., 1.31578948e-02, 0., 0., 4.38596494e-03,
          4.38596494e-03, 0., 1.75438598e-02, 4.38596494e-03,
          4.38596494e-03, 0., 0., 2.19298247e-02, 3.94736826e-02, 0., 0.,
          0., 0., 4.38596494e-03, 4.38596494e-03, 0., 0., 1.75438598e-02,
          3.50877196e-02, 0., 0., 4.38596494e-03, 3.07017546e-02,
          2.63157897e-02, 0., 1.31578948e-02, 8.77192989e-03,
          3.94736826e-02, 0., 4.38596494e-03, 1.31578948e-02,
          1.75438598e-02, 0., 0., 8.77192989e-03, 0., 0., 0.,
          5.70175424e-02, 0., 8.77192989e-03, 0., 2.19298247e-02,
          8.77192989e-03, 1.31578948e-02, 8.77192989e-03, 6.57894760e-02 ]
      - [ 4.66200477e-03, 1.63170174e-02, 0., 2.79720277e-02,
          6.99300691e-03, 1.16550121e-02, 2.33100238e-03, 9.32400953e-03,
          2.33100238e-03, 2.33100238e-03, 4.42890450e-02, 0.,
          4.66200477e-03, 6.99300691e-03, 1.86480191e-02, 6.99300691e-03,
          1.16550121e-02, 0., 9.32400953e-03, 6.99300691e-03,
          2.33100238e-03, 1.16550121e-02, 1.39860138e-02, 2.33100238e-03,
          2.56410260e-02, 1.16550121e-02, 1.39860138e-02, 4.66200477e-03,
          1.39860138e-02, 6.99300691e-03, 6.99300691e-03, 4.66200477e-03,
          1.63170174e-02, 4.66200477e-03, 2.33100238e-03, 1.39860138e-02,
          6.99300691e-03, 6.99300691e-03, 0., 0., 3.96270417e-02, 0., 0.,
          2.33100238e-03, 1.16550121e-02, 2.33100238e-03, 4.66200477e-03,
          6.99300691e-03, 2.33100238e-03, 9.32400953e-03, 0., 0., 0., 0.,
          9.32400953e-03, 9.32400953e-03, 1.16550121e-02, 2.33100243e-02,
          0., 0., 2.09790207e-02, 4.19580415e-02, 0., 0., 6.99300691e-03,
          0., 1.16550121e-02, 0., 6.99300691e-03, 9.32400953e-03,
          2.56410260e-02, 4.19580415e-02, 9.32400953e-03, 4.66200477e-03,
          1.16550121e-02, 2.09790207e-02, 2.33100243e-02, 4.66200477e-03,
          2.09790207e-02, 1.39860138e-02, 1.63170174e-02, 0.,
          6.99300691e-03, 1.16550121e-02, 1.63170174e-02, 0.,
          1.16550121e-02, 1.86480191e-02, 0., 4.66200477e-03,
          6.99300691e-03, 9.32400953e-03, 4.66200477e-03, 1.16550121e-02,
          0., 1.16550121e-02, 9.32400953e-03, 1.39860138e-02,
          2.79720277e-02, 4.66200486e-02 ]
      - [ 1.01010110e-02, 2.02020211e-03, 6.06060633e-03, 1.81818195e-02,
          2.02020211e-03, 2.02020211e-03, 8.08080845e-03, 8.08080845e-03,
          0., 2.02020211e-03, 2.62626279e-02, 2.82828286e-02,
          1.21212127e-02, 2.02020211e-03, 2.02020211e-03, 4.04040422e-03,
          2.42424253e-02, 0., 6.06060633e-03, 0., 8.08080845e-03,
          8.08080845e-03, 1.21212127e-02, 2.02020211e-03, 6.06060633e-03,
          2.82828286e-02, 6.06060633e-03, 2.02020211e-03, 8.08080845e-03,
          8.08080845e-03, 6.06060633e-03, 1.01010110e-02, 2.02020211e-03,
          2.02020211e-03, 0., 1.81818195e-02, 2.02020211e-03,
          2.02020211e-03, 1.41414143e-02, 6.06060633e-03, 2.02020211e-03,
          3.03030312e-02, 1.21212127e-02, 0., 0., 1.01010110e-02,
          9.09090936e-02, 6.06060633e-03, 1.21212127e-02, 1.21212127e-02,
          2.02020211e-03, 5.85858598e-02, 1.01010110e-02, 0.,
          4.04040422e-03, 2.82828286e-02, 6.06060633e-03, 2.02020211e-03,
          0., 1.41414143e-02, 1.01010110e-02, 6.06060633e-03,
          2.02020211e-03, 6.06060633e-03, 0., 2.02020211e-03,
          8.08080845e-03, 6.06060633e-03, 2.02020211e-03, 3.03030312e-02,
          1.21212127e-02, 2.02020220e-02, 6.06060633e-03, 0., 0.,
          2.02020220e-02, 4.04040422e-03, 2.02020211e-03, 4.04040422e-03,
          6.06060633e-03, 7.67676830e-02, 4.04040422e-03, 2.02020211e-03,
          8.08080845e-03, 3.03030312e-02, 1.61616169e-02, 2.02020211e-03,
          4.04040422e-03, 0., 0., 6.06060633e-03, 2.82828286e-02,
          1.01010110e-02, 2.02020211e-03, 4.04040422e-03, 6.06060633e-03,
          6.06060633e-03, 6.06060633e-03, 2.22222228e-02, 2.02020211e-03 ]
      - [ 0., 8.52878485e-03, 8.52878485e-03, 2.13219621e-03,
          1.06609808e-02, 1.06609808e-02, 6.39658887e-03, 1.27931777e-02,
          8.52878485e-03, 1.06609808e-02, 2.13219621e-03, 0., 0.,
          1.06609808e-02, 2.98507474e-02, 8.52878485e-03, 1.91897657e-02,
          1.70575697e-02, 6.39658887e-03, 2.13219621e-03, 1.06609808e-02,
          2.77185515e-02, 1.70575697e-02, 2.13219621e-03, 8.52878485e-03,
          2.98507474e-02, 1.49253737e-02, 1.06609808e-02, 2.55863555e-02,
          4.26439242e-03, 2.13219621e-03, 6.39658887e-03, 8.52878485e-03,
          1.06609808e-02, 2.13219621e-03, 3.41151394e-02, 0.,
          2.13219621e-03, 0., 0., 3.41151394e-02, 0., 2.13219621e-03,
          4.26439242e-03, 1.06609808e-02, 0., 2.13219621e-03,
          3.19829434e-02, 2.13219621e-03, 6.39658887e-03, 0., 0.,
          1.27931777e-02, 1.06609808e-02, 1.06609808e-02, 2.13219621e-03,
          6.39658887e-03, 0., 4.26439242e-03, 0., 1.91897657e-02,
          3.19829434e-02, 4.26439242e-03, 0., 1.06609808e-02, 0.,
          1.27931777e-02, 2.13219621e-03, 8.52878485e-03, 4.26439242e-03,
          2.13219617e-02, 8.52878485e-03, 6.39658887e-03, 0.,
          2.13219617e-02, 4.26439242e-03, 4.47761193e-02, 0.,
          1.27931777e-02, 4.26439242e-03, 0., 0., 6.39658887e-03,
          5.54371029e-02, 1.70575697e-02, 2.13219621e-03, 6.39658887e-03,
          2.13219617e-02, 2.13219621e-03, 1.27931777e-02, 0.,
          6.39658887e-03, 2.13219621e-03, 3.41151394e-02, 2.13219621e-03,
          1.06609808e-02, 0., 4.26439242e-03, 2.13219621e-03,
          6.39658868e-02 ]
      - [ 7.01754401e-03, 3.50877200e-03, 1.75438598e-02, 7.01754401e-03,
          3.50877200e-03, 1.05263162e-02, 7.01754401e-03, 2.10526325e-02,
          2.45614033e-02, 1.05263162e-02, 3.50877200e-03, 0.,
          1.40350880e-02, 1.75438598e-02, 3.50877196e-02, 0.,
          1.40350880e-02, 2.80701760e-02, 2.45614033e-02, 0.,
          2.10526325e-02, 1.40350880e-02, 1.75438598e-02, 0.,
          1.40350880e-02, 1.05263162e-02, 3.50877200e-03, 1.75438598e-02,
          1.05263162e-02, 1.40350880e-02, 3.50877200e-03, 0., 0.,
          3.50877200e-03, 7.01754401e-03, 0., 0., 0., 0., 3.50877200e-03,
          2.45614033e-02, 7.01754401e-03, 0., 0., 3.50877200e-03,
          1.05263162e-02, 1.40350880e-02, 7.01754401e-03, 7.01754401e-03,
          7.01754401e-03, 1.40350880e-02, 3.50877200e-03, 0.,
          3.50877200e-03, 7.01754401e-03, 1.40350880e-02, 7.01754401e-03,
          0., 0., 1.75438598e-02, 7.71929845e-02, 3.15789469e-02,
          7.01754401e-03, 3.50877200e-03, 7.01754401e-03, 0.,
          7.01754401e-03, 3.50877200e-03, 3.50877200e-03, 1.40350880e-02,
          7.01754401e-03, 1.40350880e-02, 3.50877200e-03, 1.05263162e-02,
          1.75438598e-02, 1.75438598e-02, 4.21052650e-02, 3.50877200e-03,
          1.05263162e-02, 0., 0., 0., 7.01754401e-03, 3.15789469e-02,
          3.50877200e-03, 0., 0., 1.75438598e-02, 7.01754401e-03,
          1.75438598e-02, 1.40350880e-02, 1.05263162e-02, 1.05263162e-02,
          7.01754401e-03, 0., 0., 7.01754401e-03, 0., 3.50877200e-03,
          4.56140377e-02 ]
      - [ 0., 8.08625296e-03, 0., 2.96495948e-02, 2.69541778e-02,
          2.69541773e-03, 0., 3.77358496e-02, 0., 0., 2.69541778e-02, 0.,
          2.69541773e-03, 1.34770889e-02, 3.77358496e-02, 2.69541773e-03,
          0., 1.34770889e-02, 4.85175177e-02, 0., 0., 5.39083546e-03,
          7.81671107e-02, 2.69541773e-03, 1.07816709e-02, 5.39083546e-03,
          8.08625296e-03, 0., 1.07816709e-02, 1.07816709e-02,
          5.39083546e-03, 0., 8.08625296e-03, 0., 0., 2.69541773e-03,
          8.08625296e-03, 0., 0., 0., 1.07816709e-02, 2.69541773e-03, 0.,
          2.69541773e-03, 0., 2.69541773e-03, 0., 2.42587589e-02, 0.,
          5.39083546e-03, 0., 0., 0., 0., 0., 5.39083555e-02,
          1.07816709e-02, 5.39083546e-03, 0., 5.39083546e-03,
          2.15633418e-02, 8.08625296e-03, 0., 0., 2.69541773e-03, 0.,
          1.07816709e-02, 2.69541773e-03, 1.34770889e-02, 5.39083546e-03,
          5.39083546e-03, 4.04312648e-02, 2.69541773e-03, 0.,
          2.69541773e-03, 7.27762803e-02, 3.23450118e-02, 0., 0.,
          2.42587589e-02, 0., 0., 0., 8.35579485e-02, 3.50404307e-02, 0.,
          8.08625296e-03, 0., 0., 2.69541773e-03, 2.69541773e-03,
          2.96495948e-02, 2.69541773e-03, 2.69541773e-03, 2.69541773e-03,
          1.07816709e-02, 1.34770889e-02, 2.69541773e-03, 5.39083546e-03,
          2.15633418e-02 ]
      - [ 2.75482098e-03, 4.13223132e-02, 1.10192839e-02, 5.50964195e-03,
          0., 1.10192839e-02, 8.26446339e-03, 8.26446339e-03,
          8.26446339e-03, 0., 1.65289268e-02, 1.65289268e-02,
          1.37741044e-02, 8.26446339e-03, 1.37741044e-02, 2.75482098e-03,
          2.75482088e-02, 0., 0., 2.75482098e-03, 8.26446339e-03,
          1.65289268e-02, 1.65289268e-02, 1.65289268e-02, 1.92837473e-02,
          1.10192839e-02, 1.65289268e-02, 5.50964195e-03, 3.03030312e-02,
          2.75482098e-03, 2.75482098e-03, 1.92837473e-02, 1.37741044e-02,
          8.26446339e-03, 2.75482098e-03, 1.10192839e-02, 0.,
          8.26446339e-03, 0., 0., 1.92837473e-02, 0., 1.10192839e-02,
          8.26446339e-03, 5.50964195e-03, 2.75482098e-03, 8.26446339e-03,
          2.47933883e-02, 0., 0., 0., 0., 8.26446339e-03, 2.75482098e-03,
          1.92837473e-02, 5.50964195e-03, 2.75482098e-03, 1.92837473e-02,
          0., 0., 8.26446339e-03, 2.47933883e-02, 8.26446339e-03, 0.,
          5.50964195e-03, 5.50964195e-03, 2.47933883e-02, 8.26446339e-03,
          1.92837473e-02, 1.37741044e-02, 2.47933883e-02, 1.65289268e-02,
          1.37741044e-02, 2.75482098e-03, 2.75482098e-03, 1.65289268e-02,
          5.50964195e-03, 2.75482098e-03, 1.65289268e-02, 2.75482098e-03,
          5.50964195e-03, 2.75482098e-03, 2.75482098e-03, 2.47933883e-02,
          3.30578536e-02, 0., 1.10192839e-02, 1.92837473e-02,
          2.75482098e-03, 1.65289268e-02, 0., 2.47933883e-02, 0.,
          1.92837473e-02, 2.75482098e-03, 2.20385678e-02, 0.,
          1.65289268e-02, 1.37741044e-02, 1.37741044e-02 ]
      - [ 0., 4.08163248e-03, 1.63265299e-02, 2.04081628e-02, 0.,
          4.08163248e-03, 8.16326495e-03, 0., 2.04081628e-02,
          1.22448970e-02, 0., 2.85714269e-02, 0., 3.26530598e-02,
          8.16326495e-03, 4.08163257e-02, 6.12244867e-02, 0.,
          4.08163248e-03, 0., 2.04081628e-02, 3.67346928e-02,
          2.85714269e-02, 0., 0., 6.12244867e-02, 8.16326495e-03, 0.,
          5.30612208e-02, 0., 4.08163248e-03, 0., 0., 4.08163248e-03,
          4.08163248e-03, 2.44897939e-02, 8.16326495e-03, 8.16326495e-03,
          4.08163248e-03, 8.16326495e-03, 3.26530598e-02, 8.16326495e-03,
          8.16326495e-03, 1.63265299e-02, 0., 0., 2.04081628e-02,
          4.08163248e-03, 4.08163248e-03, 0., 0., 0., 4.08163248e-03, 0.,
          0., 0., 8.16326495e-03, 0., 4.08163248e-03, 0., 8.16326495e-03,
          1.22448970e-02, 4.89795879e-02, 8.16326495e-03, 4.08163248e-03,
          4.08163248e-03, 0., 0., 0., 4.08163248e-03, 8.16326495e-03,
          8.16326495e-03, 2.44897939e-02, 0., 2.04081628e-02,
          4.08163248e-03, 4.08163248e-03, 4.08163248e-03, 2.85714269e-02,
          1.63265299e-02, 2.04081628e-02, 1.22448970e-02, 1.63265299e-02,
          0., 0., 0., 0., 2.04081628e-02, 1.63265299e-02, 0., 0., 0., 0.,
          3.26530598e-02, 4.08163248e-03, 0., 0., 1.22448970e-02, 0.,
          1.22448970e-02 ]
      - [ 3.87596898e-03, 2.32558139e-02, 0., 1.16279069e-02, 0.,
          7.75193796e-03, 1.16279069e-02, 3.87596898e-03, 0., 0.,
          3.87596898e-02, 0., 3.87596898e-03, 1.55038759e-02,
          1.55038759e-02, 7.75193796e-03, 1.55038759e-02, 4.26356569e-02,
          1.55038759e-02, 0., 0., 1.55038759e-02, 1.93798449e-02,
          7.75193796e-03, 2.32558139e-02, 3.87596898e-03, 3.87596898e-03,
          1.16279069e-02, 1.16279069e-02, 7.75193796e-03, 2.32558139e-02,
          3.87596898e-03, 1.16279069e-02, 0., 0., 3.48837227e-02, 0., 0.,
          0., 0., 3.10077518e-02, 0., 0., 7.75193796e-03, 3.87596898e-03,
          0., 3.87596898e-03, 7.75193796e-03, 3.87596898e-03,
          3.10077518e-02, 0., 0., 3.87596898e-03, 0., 7.75193796e-03,
          1.16279069e-02, 7.75193796e-03, 2.32558139e-02, 0., 0.,
          5.03875986e-02, 3.48837227e-02, 0., 3.87596898e-03,
          3.87596898e-03, 0., 1.16279069e-02, 7.75193796e-03,
          7.75193796e-03, 7.75193796e-03, 2.32558139e-02, 1.55038759e-02,
          7.75193796e-03, 0., 1.16279069e-02, 2.71317828e-02,
          1.93798449e-02, 0., 7.75193796e-03, 3.87596898e-03,
          3.87596898e-03, 0., 1.16279069e-02, 1.16279069e-02,
          1.93798449e-02, 0., 3.87596898e-03, 3.87596898e-03, 0.,
          1.16279069e-02, 0., 5.03875986e-02, 0., 3.87596898e-03, 0.,
          2.71317828e-02, 0., 2.32558139e-02, 1.55038759e-02,
          3.10077518e-02 ]
      - [ 3.74531839e-03, 1.87265910e-02, 1.12359552e-02, 2.24719103e-02,
          7.49063678e-03, 0., 0., 1.12359552e-02, 3.74531839e-03, 0.,
          1.49812736e-02, 0., 3.74531839e-03, 7.49063678e-03,
          2.62172297e-02, 1.87265910e-02, 1.49812736e-02, 0.,
          1.87265910e-02, 0., 0., 2.24719103e-02, 2.99625471e-02,
          7.49063678e-03, 3.74531839e-03, 2.24719103e-02, 7.49063678e-03,
          3.74531839e-03, 1.87265910e-02, 0., 2.99625471e-02,
          3.74531839e-03, 3.74531839e-03, 7.49063678e-03, 0.,
          2.24719103e-02, 1.87265910e-02, 3.74531839e-03, 0.,
          3.74531839e-03, 2.99625471e-02, 0., 3.74531839e-03, 0., 0., 0.,
          7.49063678e-03, 4.11985032e-02, 1.12359552e-02, 3.74531839e-03,
          0., 0., 7.49063678e-03, 3.74531839e-03, 7.49063678e-03,
          3.74531839e-03, 7.49063678e-03, 1.87265910e-02, 0., 0.,
          1.87265910e-02, 7.11610466e-02, 3.74531839e-03, 0.,
          3.74531839e-03, 0., 2.62172297e-02, 0., 0., 1.12359552e-02,
          1.49812736e-02, 1.87265910e-02, 0., 3.74531839e-03, 0.,
          7.49063678e-03, 3.74531839e-03, 7.49063678e-03, 1.12359552e-02,
          7.49063678e-03, 3.37078646e-02, 3.74531839e-03, 1.12359552e-02,
          1.49812736e-02, 1.87265910e-02, 0., 7.49063678e-03,
          2.62172297e-02, 3.74531839e-03, 0., 0., 1.12359552e-02, 0.,
          7.49063678e-03, 2.24719103e-02, 2.62172297e-02, 3.74531839e-03,
          3.37078646e-02, 0., 2.62172297e-02 ]
      - [ 0., 2.61780107e-03, 2.09424086e-02, 5.23560215e-03,
          1.30890049e-02, 1.04712043e-02, 0., 1.30890049e-02,
          5.23560215e-03, 2.61780107e-03, 0., 2.61780107e-03,
          2.61780107e-03, 1.04712043e-02, 7.85340369e-03, 1.57068074e-02,
          4.71204184e-02, 1.57068074e-02, 3.40314135e-02, 0.,
          5.23560215e-03, 2.35602092e-02, 3.66492160e-02, 1.57068074e-02,
          1.57068074e-02, 4.18848172e-02, 1.83246080e-02, 2.61780107e-03,
          2.35602092e-02, 1.57068074e-02, 2.61780107e-03, 7.85340369e-03,
          0., 5.23560215e-03, 0., 3.66492160e-02, 7.85340369e-03,
          5.23560215e-03, 0., 0., 3.92670147e-02, 0., 0., 2.61780107e-03,
          2.61780107e-03, 0., 5.23560215e-03, 1.57068074e-02, 0., 0., 0.,
          2.09424086e-02, 2.61780107e-03, 0., 5.23560215e-03,
          2.61780107e-03, 5.23560215e-03, 0., 2.61780107e-03, 0.,
          2.35602092e-02, 4.18848172e-02, 0., 0., 0., 0., 2.61780107e-03,
          0., 5.23560215e-03, 1.57068074e-02, 3.92670147e-02,
          2.61780107e-03, 7.85340369e-03, 0., 7.85340369e-03,
          1.30890049e-02, 2.61780098e-02, 0., 2.61780098e-02,
          7.85340369e-03, 3.92670147e-02, 0., 2.61780107e-03,
          2.09424086e-02, 7.85340369e-03, 0., 0., 1.04712043e-02, 0.,
          1.04712043e-02, 0., 1.57068074e-02, 0., 2.35602092e-02,
          2.61780107e-03, 1.57068074e-02, 0., 3.66492160e-02,
          5.23560215e-03, 1.04712043e-02 ]
      - [ 2.46913591e-03, 7.40740774e-03, 1.23456791e-02, 4.69135828e-02,
          2.71604955e-02, 0., 2.46913591e-03, 1.23456791e-02,
          2.46913591e-03, 7.40740774e-03, 4.93827183e-03, 1.48148155e-02,
          2.46913591e-03, 4.93827183e-03, 4.93827183e-03, 1.23456791e-02,
          2.46913591e-03, 0., 2.46913591e-03, 0., 2.46913591e-03,
          4.93827183e-03, 9.87654366e-03, 0., 2.46913591e-03,
          7.40740774e-03, 0., 2.46913591e-03, 9.87654366e-03,
          4.93827183e-03, 2.46913591e-03, 1.48148155e-02, 2.46913591e-03,
          1.23456791e-02, 1.23456791e-02, 9.87654366e-03, 2.46913591e-03,
          0., 2.46913591e-03, 0., 2.22222228e-02, 0., 0., 0., 0.,
          1.97530873e-02, 1.72839519e-02, 1.23456791e-02, 9.87654366e-03,
          0., 1.48148155e-02, 1.97530873e-02, 0., 4.93827183e-03, 0.,
          7.40740774e-03, 4.93827183e-03, 4.93827183e-03, 9.87654366e-03,
          2.22222228e-02, 0., 1.72839519e-02, 1.72839519e-02,
          4.93827183e-03, 4.93827183e-03, 0., 2.46913582e-02,
          2.46913591e-03, 0., 1.97530873e-02, 0., 1.72839519e-02,
          4.93827183e-03, 1.48148155e-02, 9.87654366e-03, 2.46913591e-03,
          1.72839519e-02, 9.87654366e-03, 4.93827183e-03, 4.93827183e-03,
          1.70370385e-01, 2.46913591e-03, 0., 9.87654366e-03,
          1.23456791e-02, 2.46913591e-03, 7.40740774e-03, 1.48148155e-02,
          4.93827183e-03, 2.46913591e-03, 1.72839519e-02, 1.72839519e-02,
          2.22222228e-02, 1.97530873e-02, 0., 2.71604955e-02,
          1.48148155e-02, 2.46913591e-03, 4.93827183e-03, 2.46913582e-02 ]
      - [ 1.99999996e-02, 1.81818183e-03, 3.63636366e-03, 3.09090912e-02,
          1.09090907e-02, 3.63636366e-03, 4.90909107e-02, 7.27272732e-03,
          3.63636366e-03, 1.81818183e-03, 3.09090912e-02, 0.,
          1.63636357e-02, 3.63636366e-03, 5.45454537e-03, 1.27272727e-02,
          3.09090912e-02, 0., 0., 0., 9.09090880e-03, 3.63636352e-02, 0.,
          3.63636366e-03, 1.09090907e-02, 0., 1.81818176e-02,
          5.45454537e-03, 3.09090912e-02, 1.81818183e-03, 7.27272732e-03,
          1.99999996e-02, 7.27272732e-03, 9.09090880e-03, 7.27272732e-03,
          7.27272732e-03, 7.27272732e-03, 1.81818183e-03, 1.09090907e-02,
          5.45454547e-02, 1.63636357e-02, 1.81818183e-03, 3.63636352e-02,
          1.27272727e-02, 1.81818183e-03, 1.81818183e-03, 5.45454547e-02,
          0., 3.63636366e-03, 0., 0., 5.45454537e-03, 7.27272732e-03, 0.,
          1.81818183e-03, 0., 7.27272732e-03, 1.63636357e-02,
          5.45454537e-03, 0., 5.45454537e-03, 1.45454546e-02,
          3.45454551e-02, 0., 0., 9.09090880e-03, 1.09090907e-02, 0.,
          5.45454537e-03, 1.45454546e-02, 0., 0., 5.45454537e-03, 0., 0.,
          1.81818183e-03, 0., 0., 1.99999996e-02, 3.63636366e-03,
          1.09090907e-02, 1.63636357e-02, 3.63636366e-03, 0.,
          1.45454546e-02, 7.27272732e-03, 7.27272732e-03, 9.09090880e-03,
          9.09090880e-03, 0., 5.45454537e-03, 1.45454546e-02,
          9.09090880e-03, 3.81818190e-02, 0., 2.36363634e-02,
          3.63636366e-03, 4.72727269e-02, 0., 0. ]
      - [ 0., 1.00334445e-02, 3.34448158e-03, 1.67224072e-02,
          6.68896316e-03, 6.68896316e-03, 6.68896316e-03, 6.68896316e-03,
          1.00334445e-02, 0., 3.34448144e-02, 3.34448158e-03, 0.,
          6.68896316e-03, 1.33779263e-02, 1.00334445e-02, 5.35117052e-02,
          0., 2.00668890e-02, 0., 1.00334445e-02, 2.00668890e-02,
          2.67558526e-02, 1.67224072e-02, 6.68896316e-03, 4.01337780e-02,
          6.68896316e-03, 1.33779263e-02, 3.67892981e-02, 6.68896316e-03,
          1.33779263e-02, 6.68896316e-03, 6.68896316e-03, 0., 0.,
          1.00334445e-02, 0., 0., 0., 0., 3.67892981e-02, 0., 0.,
          6.68896316e-03, 6.68896316e-03, 0., 1.33779263e-02,
          1.33779263e-02, 0., 3.34448158e-03, 3.34448158e-03, 0.,
          6.68896316e-03, 3.34448158e-03, 3.34448158e-03, 1.33779263e-02,
          1.33779263e-02, 1.00334445e-02, 0., 0., 1.67224072e-02,
          2.67558526e-02, 0., 0., 3.34448158e-03, 3.34448158e-03,
          1.67224072e-02, 3.34448158e-03, 2.67558526e-02, 3.34448158e-03,
          2.34113708e-02, 1.67224072e-02, 1.33779263e-02, 3.34448158e-03,
          0., 1.67224072e-02, 1.00334445e-02, 3.34448158e-03,
          1.67224072e-02, 1.33779263e-02, 1.67224072e-02, 3.34448158e-03,
          3.34448158e-03, 0., 2.34113708e-02, 0., 1.33779263e-02,
          6.68896316e-03, 3.34448158e-03, 3.34448158e-03, 0.,
          4.01337780e-02, 3.34448158e-03, 1.67224072e-02, 0.,
          1.67224072e-02, 3.34448158e-03, 3.34448144e-02, 1.33779263e-02,
          2.00668890e-02 ]
      - [ 4.52488707e-03, 2.26244349e-02, 0., 0., 3.16742100e-02,
          9.04977415e-03, 0., 4.52488707e-03, 2.71493234e-02, 0.,
          2.26244349e-02, 9.04977415e-03, 9.04977415e-03, 1.35746617e-02,
          4.97737564e-02, 9.04977415e-03, 1.80995483e-02, 0.,
          9.04977415e-03, 0., 9.04977415e-03, 1.35746617e-02,
          1.35746617e-02, 4.52488707e-03, 4.52488707e-03, 9.04977415e-03,
          0., 4.52488707e-03, 4.52488707e-03, 4.52488707e-03,
          4.52488707e-03, 0., 2.26244349e-02, 1.35746617e-02,
          9.04977415e-03, 2.71493234e-02, 4.52488707e-03, 0., 0., 0.,
          4.52488707e-03, 0., 4.52488707e-03, 1.35746617e-02,
          9.04977415e-03, 4.52488707e-03, 2.26244349e-02, 1.35746617e-02,
          9.04977415e-03, 0., 0., 9.04977415e-03, 4.52488707e-03,
          1.35746617e-02, 0., 1.35746617e-02, 4.52488707e-03,
          4.52488707e-03, 0., 4.52488707e-03, 1.80995483e-02,
          3.16742100e-02, 0., 1.35746617e-02, 0., 0., 1.35746617e-02,
          1.35746617e-02, 9.04977415e-03, 4.52488707e-03, 4.52488707e-03,
          1.35746617e-02, 9.04977415e-03, 4.52488707e-03, 4.52488707e-03,
          4.52488707e-03, 3.61990966e-02, 4.52488707e-03, 4.52488707e-03,
          1.80995483e-02, 2.26244349e-02, 0., 1.35746617e-02,
          1.80995483e-02, 5.42986467e-02, 0., 1.80995483e-02,
          9.04977415e-03, 0., 9.04977415e-03, 0., 2.26244349e-02, 0.,
          4.52488707e-03, 9.04977415e-03, 2.71493234e-02, 2.71493234e-02,
          9.04977415e-03, 4.52488707e-03, 1.80995483e-02 ]
      - [ 2.67379684e-03, 1.33689847e-02, 5.34759369e-03, 8.02139007e-03,
          0., 2.67379684e-03, 8.02139007e-03, 1.87165774e-02,
          5.34759369e-03, 1.33689847e-02, 8.02139007e-03, 1.87165774e-02,
          2.67379684e-03, 2.13903747e-02, 2.94117648e-02, 5.34759369e-03,
          2.67379684e-03, 3.47593576e-02, 1.87165774e-02, 2.67379684e-03,
          8.02139007e-03, 2.67379684e-03, 2.67379694e-02, 0.,
          2.40641721e-02, 1.33689847e-02, 1.60427801e-02, 0., 0.,
          1.06951874e-02, 2.67379684e-03, 0., 2.67379684e-03, 0.,
          3.20855603e-02, 1.06951874e-02, 0., 0., 5.34759369e-03, 0.,
          1.60427801e-02, 2.67379684e-03, 1.33689847e-02, 2.67379684e-03,
          5.34759369e-03, 1.06951874e-02, 2.13903747e-02, 1.87165774e-02,
          5.34759369e-03, 2.67379684e-03, 1.60427801e-02, 0., 0.,
          5.34759369e-03, 5.34759369e-03, 2.13903747e-02, 5.34759369e-03,
          0., 2.67379684e-03, 1.33689847e-02, 4.01069522e-02,
          1.06951874e-02, 0., 2.67379684e-03, 5.34759369e-03, 0.,
          8.02139007e-03, 8.02139007e-03, 2.67379684e-03, 5.34759369e-03,
          2.67379684e-03, 1.87165774e-02, 1.60427801e-02, 8.02139007e-03,
          8.02139007e-03, 2.13903747e-02, 2.67379694e-02, 5.34759369e-03,
          2.67379684e-03, 5.34759369e-03, 2.13903747e-02, 0.,
          2.67379684e-03, 3.74331549e-02, 1.60427801e-02, 0.,
          5.34759369e-03, 8.02139007e-03, 2.67379684e-03, 1.33689847e-02,
          5.34759387e-02, 5.34759369e-03, 1.60427801e-02, 8.02139007e-03,
          0., 2.67379694e-02, 1.06951874e-02, 0., 1.60427801e-02,
          1.33689847e-02 ]
      - [ 2.13523135e-02, 8.89679696e-03, 8.89679708e-04, 4.35943045e-02,
          8.89679696e-03, 1.24555156e-02, 4.09252681e-02, 3.55871883e-03,
          1.77935939e-02, 1.77935942e-03, 2.58007124e-02, 0.,
          1.15658361e-02, 5.33807836e-03, 1.51245547e-02, 8.89679696e-03,
          1.42348753e-02, 3.55871883e-03, 1.77935942e-03, 9.78647638e-03,
          8.89679696e-03, 5.33807836e-03, 6.22775778e-03, 4.44839848e-03,
          9.78647638e-03, 8.89679708e-04, 3.29181477e-02, 4.44839848e-03,
          1.69039145e-02, 1.60142351e-02, 1.77935939e-02, 2.66903918e-03,
          1.69039145e-02, 3.55871883e-03, 8.89679708e-04, 9.78647638e-03,
          3.55871883e-03, 2.66903918e-03, 0., 0., 7.11743766e-03,
          3.55871883e-03, 2.31316723e-02, 2.58007124e-02, 1.15658361e-02,
          3.55871883e-03, 3.29181477e-02, 1.77935942e-03, 8.89679696e-03,
          1.24555156e-02, 3.55871883e-03, 0., 5.33807836e-03,
          4.44839848e-03, 1.33451959e-02, 9.78647638e-03, 3.55871883e-03,
          2.66903918e-03, 0., 2.66903918e-03, 5.33807836e-03,
          1.69039145e-02, 0., 8.00711755e-03, 2.22419929e-02,
          8.89679708e-04, 1.42348753e-02, 2.04626340e-02, 2.22419929e-02,
          1.51245547e-02, 3.55871883e-03, 1.24555156e-02, 3.46975103e-02,
          2.66903918e-03, 3.55871883e-03, 0., 5.33807836e-03,
          2.66903918e-03, 1.24555156e-02, 7.11743766e-03, 8.89679696e-03,
          0., 2.22419929e-02, 5.33807836e-03, 1.95729528e-02, 0.,
          7.11743766e-03, 1.77935942e-03, 0., 1.77935939e-02,
          3.55871883e-03, 1.51245547e-02, 1.06761567e-02, 6.22775778e-03,
          8.89679708e-04, 8.89679696e-03, 4.18149456e-02, 8.89679696e-03,
          7.11743766e-03, 8.00711755e-03 ]
      - [ 7.40740774e-03, 2.46913591e-03, 2.22222228e-02, 1.97530873e-02,
          7.40740774e-03, 0., 9.87654366e-03, 1.72839519e-02,
          2.46913582e-02, 4.93827183e-03, 9.87654366e-03, 9.87654366e-03,
          1.48148155e-02, 2.46913591e-03, 1.23456791e-02, 2.71604955e-02,
          7.40740774e-03, 4.93827183e-03, 4.93827183e-03, 0.,
          7.40740774e-03, 1.23456791e-02, 7.40740774e-03, 0., 0.,
          3.95061746e-02, 4.93827183e-03, 2.46913591e-03, 7.40740774e-03,
          2.46913591e-03, 4.93827183e-03, 7.40740774e-03, 1.72839519e-02,
          2.46913591e-03, 2.46913582e-02, 0., 0., 0., 7.40740774e-03, 0.,
          7.40740774e-03, 4.44444455e-02, 2.46913582e-02, 9.87654366e-03,
          7.40740774e-03, 0., 8.39506239e-02, 7.40740774e-03,
          4.93827183e-03, 0., 2.22222228e-02, 9.87654366e-03,
          2.46913591e-03, 0., 4.93827183e-03, 9.87654366e-03,
          2.46913591e-03, 2.46913591e-03, 2.46913591e-03, 1.72839519e-02,
          1.23456791e-02, 4.93827183e-03, 7.40740774e-03, 1.48148155e-02,
          0., 2.46913591e-03, 2.46913591e-03, 4.93827183e-03,
          1.23456791e-02, 1.23456791e-02, 2.46913591e-03, 2.96296310e-02,
          2.46913591e-03, 3.45679037e-02, 9.87654366e-03, 0.,
          7.40740774e-03, 4.93827183e-03, 9.87654366e-03, 1.72839519e-02,
          2.71604955e-02, 2.46913591e-03, 2.46913591e-03, 1.23456791e-02,
          2.96296310e-02, 0., 7.40740774e-03, 2.46913591e-03,
          1.23456791e-02, 0., 0., 2.96296310e-02, 2.22222228e-02,
          2.46913591e-03, 0., 4.93827183e-03, 9.87654366e-03,
          4.93827183e-03, 9.87654366e-03, 4.93827183e-03 ]
      - [ 0., 7.75193796e-03, 0., 1.03359176e-02, 2.58397944e-02,
          5.16795879e-03, 5.16795879e-03, 5.16795889e-02, 2.58397940e-03,
          0., 3.87596898e-02, 0., 2.58397940e-03, 4.39276509e-02,
          3.10077518e-02, 7.75193796e-03, 2.58397940e-03, 5.16795879e-03,
          1.29198972e-02, 0., 0., 2.58397940e-03, 1.55038759e-02,
          2.58397940e-03, 2.58397944e-02, 2.58397944e-02, 1.80878565e-02,
          5.16795879e-03, 2.58397940e-03, 1.29198972e-02, 0., 0.,
          7.75193796e-03, 0., 0., 0., 0., 0., 0., 0., 4.13436703e-02,
          1.80878565e-02, 2.58397940e-03, 0., 2.58397940e-03, 0., 0.,
          3.35917324e-02, 5.16795879e-03, 7.75193796e-03, 0., 0.,
          2.58397940e-03, 0., 5.16795879e-03, 5.16795879e-03,
          1.03359176e-02, 1.55038759e-02, 0., 2.58397940e-03,
          1.55038759e-02, 1.29198972e-02, 0., 0., 0., 0., 1.55038759e-02,
          5.16795879e-03, 5.16795879e-03, 2.58397940e-03, 1.29198972e-02,
          4.65116277e-02, 1.03359176e-02, 0., 0., 1.03359176e-02,
          1.80878565e-02, 0., 5.16795879e-03, 3.87596898e-02,
          5.16795879e-03, 0., 2.58397940e-03, 7.23514259e-02,
          6.20155036e-02, 0., 5.16795879e-03, 5.16795879e-03, 0., 0., 0.,
          4.13436703e-02, 2.58397940e-03, 0., 5.16795879e-03,
          2.84237731e-02, 2.58397940e-03, 0., 1.03359176e-02,
          3.35917324e-02 ]
      - [ 0., 2.34113708e-02, 3.34448158e-03, 4.68227416e-02, 0.,
          3.34448158e-03, 0., 3.01003344e-02, 1.33779263e-02, 0.,
          1.33779263e-02, 3.34448158e-03, 6.68896316e-03, 1.00334445e-02,
          1.33779263e-02, 3.67892981e-02, 2.00668890e-02, 6.68896316e-03,
          6.68896316e-03, 6.68896316e-03, 0., 1.00334445e-02,
          3.67892981e-02, 0., 0., 2.67558526e-02, 3.34448158e-03, 0.,
          2.34113708e-02, 0., 2.34113708e-02, 1.00334445e-02,
          6.68896316e-03, 6.68896316e-03, 1.33779263e-02, 2.67558526e-02,
          3.34448158e-03, 3.34448158e-03, 3.34448158e-03, 3.34448158e-03,
          4.01337780e-02, 3.34448158e-03, 6.68896316e-03, 6.68896316e-03,
          3.34448158e-03, 6.68896316e-03, 6.68896316e-03, 2.67558526e-02,
          0., 3.34448158e-03, 3.34448158e-03, 0., 3.34448158e-03, 0.,
          3.34448158e-03, 2.00668890e-02, 6.68896316e-03, 3.34448158e-03,
          6.68896316e-03, 3.34448158e-03, 1.00334445e-02, 1.33779263e-02,
          3.01003344e-02, 1.33779263e-02, 0., 0., 3.34448158e-03, 0.,
          3.34448158e-03, 1.33779263e-02, 2.00668890e-02, 0.,
          3.34448158e-03, 0., 3.34448158e-03, 0., 6.68896316e-03,
          3.34448158e-03, 2.67558526e-02, 6.68896316e-03, 6.02006689e-02,
          0., 6.68896316e-03, 1.67224072e-02, 1.00334445e-02, 0.,
          6.68896316e-03, 1.00334445e-02, 0., 2.00668890e-02,
          3.34448158e-03, 1.67224072e-02, 0., 1.67224072e-02,
          6.68896316e-03, 1.00334445e-02, 6.68896316e-03, 4.01337780e-02,
          1.00334445e-02, 3.34448158e-03 ]
      - [ 1.05263153e-02, 3.57894711e-02, 4.21052612e-03, 1.05263153e-02,
          1.89473666e-02, 4.21052612e-03, 6.31578919e-03, 2.94736829e-02,
          4.21052612e-03, 0., 1.89473666e-02, 0., 1.05263153e-02,
          1.26315784e-02, 3.99999991e-02, 2.10526306e-03, 0.,
          1.89473666e-02, 2.52631567e-02, 4.21052612e-03, 2.10526306e-03,
          0., 1.68421045e-02, 2.10526306e-03, 3.15789469e-02,
          6.31578919e-03, 1.68421045e-02, 0., 2.10526306e-03,
          2.10526306e-02, 1.89473666e-02, 0., 2.73684189e-02,
          4.21052612e-03, 0., 4.21052612e-03, 4.21052612e-03, 0., 0., 0.,
          0., 0., 0., 4.21052612e-03, 8.42105225e-03, 2.10526306e-03,
          6.31578919e-03, 2.73684189e-02, 6.31578919e-03, 8.42105225e-03,
          0., 2.10526306e-03, 2.10526306e-02, 0., 6.31578919e-03,
          1.68421045e-02, 4.21052612e-03, 1.05263153e-02, 0.,
          2.10526306e-03, 1.26315784e-02, 1.89473666e-02, 0.,
          4.21052612e-03, 8.42105225e-03, 0., 6.31578919e-03,
          6.31578919e-03, 3.99999991e-02, 2.73684189e-02, 6.31578919e-03,
          4.84210514e-02, 8.42105225e-03, 2.10526306e-03, 6.31578919e-03,
          2.31578946e-02, 2.73684189e-02, 1.05263153e-02, 0.,
          2.52631567e-02, 0., 0., 6.31578919e-03, 2.31578946e-02,
          1.68421045e-02, 0., 4.21052612e-03, 2.10526306e-03, 0.,
          4.21052612e-03, 0., 2.52631567e-02, 4.21052612e-03, 0., 0.,
          2.31578946e-02, 2.94736829e-02, 6.31578919e-03, 1.47368414e-02,
          1.68421045e-02 ]
      - [ 0., 4.14937781e-03, 2.48962678e-02, 1.65975112e-02, 0.,
          4.14937781e-03, 0., 4.14937781e-03, 4.14937781e-03, 0.,
          2.90456451e-02, 0., 4.14937781e-03, 1.65975112e-02, 0., 0.,
          3.73443998e-02, 0., 0., 0., 2.90456451e-02, 5.39419129e-02, 0.,
          4.14937781e-03, 4.14937781e-03, 1.24481339e-02, 2.07468886e-02,
          0., 5.39419129e-02, 0., 1.65975112e-02, 1.24481339e-02,
          8.29875562e-03, 1.24481339e-02, 1.65975112e-02, 3.31950225e-02,
          1.65975112e-02, 0., 0., 4.14937781e-03, 2.90456451e-02,
          4.14937781e-03, 0., 0., 1.24481339e-02, 0., 3.31950225e-02,
          2.07468886e-02, 0., 0., 0., 0., 4.14937781e-03, 1.24481339e-02,
          4.14937781e-03, 8.29875562e-03, 8.29875562e-03, 4.14937781e-03,
          8.29875562e-03, 0., 4.14937781e-03, 2.07468886e-02,
          8.29875562e-03, 0., 1.24481339e-02, 0., 1.65975112e-02, 0.,
          4.14937781e-03, 0., 4.14937781e-03, 2.07468886e-02,
          4.14937781e-03, 0., 8.29875562e-03, 0., 4.14937781e-03, 0.,
          1.65975112e-02, 4.14937781e-03, 6.63900450e-02, 8.29875562e-03,
          1.24481339e-02, 8.29875562e-03, 1.65975112e-02, 0.,
          2.07468886e-02, 1.65975112e-02, 4.14937781e-03, 0., 0.,
          2.48962678e-02, 0., 3.31950225e-02, 0., 1.65975112e-02,
          8.29875562e-03, 2.90456451e-02, 0., 1.24481339e-02 ]
      - [ 2.82485876e-03, 8.47457629e-03, 0., 2.54237279e-02,
          5.64971752e-03, 2.82485876e-03, 0., 3.67231630e-02, 0., 0.,
          6.77966103e-02, 0., 2.82485876e-03, 2.54237279e-02,
          3.67231630e-02, 2.82485876e-03, 2.82485876e-03, 5.64971752e-03,
          3.10734473e-02, 0., 0., 5.64971752e-03, 8.47457629e-03,
          2.82485876e-03, 2.82485876e-03, 8.47457629e-03, 5.64971752e-03,
          0., 2.82485876e-03, 5.64971752e-03, 1.97740123e-02,
          1.12994350e-02, 0., 0., 0., 4.51977402e-02, 0., 0., 0., 0.,
          1.69491526e-02, 0., 0., 2.82485876e-03, 0., 8.47457629e-03,
          5.64971752e-03, 3.95480245e-02, 5.64971752e-03, 5.64971752e-03,
          2.82485876e-03, 5.64971752e-03, 0., 0., 1.12994350e-02,
          5.64971752e-03, 0., 8.47457629e-03, 0., 1.97740123e-02,
          1.12994350e-02, 8.47457629e-03, 0., 1.69491526e-02, 0., 0.,
          2.25988701e-02, 2.82485876e-03, 5.64971752e-03, 2.82485876e-03,
          3.95480245e-02, 1.41242938e-02, 2.82485876e-03, 2.82485876e-03,
          0., 5.64971752e-03, 4.23728824e-02, 0., 2.82485876e-03,
          3.95480245e-02, 3.38983051e-02, 0., 0., 3.67231630e-02,
          3.95480245e-02, 2.82485876e-03, 2.82485876e-03, 8.47457629e-03,
          0., 0., 2.82485876e-03, 5.08474559e-02, 2.82485876e-03,
          2.82485876e-03, 2.82485876e-03, 2.82485876e-02, 1.41242938e-02,
          2.82485876e-03, 1.12994350e-02, 2.25988701e-02 ]
      - [ 0., 4.20168089e-03, 8.40336177e-03, 5.04201725e-02,
          2.10084040e-02, 0., 4.20168089e-03, 2.52100863e-02, 0.,
          4.20168089e-03, 1.26050431e-02, 4.20168089e-03, 0.,
          4.20168089e-03, 2.52100863e-02, 2.10084040e-02, 1.68067235e-02,
          0., 1.68067235e-02, 0., 1.68067235e-02, 0., 1.68067235e-02, 0.,
          8.40336177e-03, 8.40336177e-03, 1.26050431e-02, 4.20168089e-03,
          4.20168089e-03, 4.20168089e-03, 8.40336177e-03, 0., 0., 0.,
          8.40336177e-03, 2.10084040e-02, 4.20168089e-03, 0., 0., 0.,
          4.20168089e-03, 3.36134471e-02, 1.26050431e-02, 4.20168089e-03,
          0., 8.40336177e-03, 0., 0., 0., 4.20168089e-03, 2.10084040e-02,
          0., 0., 1.68067235e-02, 4.20168089e-03, 1.26050431e-02,
          4.20168089e-03, 8.40336177e-03, 0., 2.52100863e-02, 0., 0.,
          1.26050431e-02, 1.68067235e-02, 0., 0., 4.20168089e-03,
          8.40336177e-03, 8.40336177e-03, 4.20168089e-03, 0., 0.,
          4.20168089e-03, 9.24369767e-02, 0., 0., 4.20168089e-03,
          4.20168089e-03, 4.20168089e-03, 1.68067235e-02, 7.14285746e-02,
          0., 0., 5.46218529e-02, 3.78151275e-02, 0., 4.20168089e-03,
          4.20168089e-03, 0., 0., 8.40336177e-03, 2.94117667e-02,
          4.20168089e-03, 4.20168089e-03, 4.20168089e-03, 3.36134471e-02,
          4.20168089e-03, 2.10084040e-02, 3.36134471e-02, 8.40336177e-03 ]
      - [ 5.71428565e-03, 1.14285713e-02, 5.71428565e-03, 1.14285713e-02,
          1.14285713e-02, 2.28571426e-02, 3.99999991e-02, 1.14285713e-02,
          1.14285713e-02, 0., 0., 5.71428565e-03, 1.14285713e-02,
          1.71428565e-02, 1.14285713e-02, 3.42857130e-02, 7.99999982e-02,
          5.71428565e-03, 5.71428565e-03, 0., 2.28571426e-02,
          2.28571426e-02, 2.28571426e-02, 0., 3.42857130e-02, 0.,
          1.71428565e-02, 0., 1.71428565e-02, 0., 0., 5.71428565e-03,
          2.28571426e-02, 1.14285713e-02, 3.99999991e-02, 5.71428565e-03,
          5.71428565e-03, 0., 0., 0., 3.42857130e-02, 0., 3.99999991e-02,
          0., 1.71428565e-02, 5.71428565e-03, 5.14285713e-02,
          5.71428565e-03, 0., 2.28571426e-02, 0., 0., 5.71428565e-03, 0.,
          2.85714287e-02, 0., 0., 2.28571426e-02, 0., 0., 1.14285713e-02,
          1.14285713e-02, 0., 0., 2.28571426e-02, 0., 5.71428565e-03, 0.,
          1.14285713e-02, 1.14285713e-02, 5.71428565e-03, 0.,
          1.14285713e-02, 0., 0., 5.71428565e-03, 5.71428565e-03, 0., 0.,
          5.71428565e-03, 5.71428565e-03, 0., 5.71428565e-03, 0.,
          2.28571426e-02, 0., 0., 5.71428565e-03, 0., 1.14285713e-02, 0.,
          0., 5.71428565e-03, 1.71428565e-02, 0., 5.71428565e-03,
          1.14285713e-02, 1.14285713e-02, 5.71428565e-03, 1.71428565e-02 ]
      - [ 0., 1.16279069e-02, 7.75193796e-03, 5.81395328e-02,
          1.55038759e-02, 0., 0., 1.16279069e-02, 3.87596898e-03,
          3.87596898e-03, 3.87596898e-03, 3.87596898e-03, 7.75193796e-03,
          7.75193796e-03, 1.93798449e-02, 1.55038759e-02, 1.16279069e-02,
          3.87596898e-03, 7.75193796e-03, 0., 0., 3.87596898e-03,
          3.87596898e-03, 0., 0., 7.75193796e-02, 3.87596898e-03, 0.,
          1.16279069e-02, 0., 3.87596898e-03, 3.87596898e-03,
          3.87596898e-03, 0., 3.87596898e-03, 1.55038759e-02,
          3.87596898e-03, 0., 7.75193796e-03, 0., 0., 1.55038759e-02,
          3.87596898e-03, 3.87596898e-03, 3.87596898e-03, 0.,
          7.75193796e-03, 3.87596898e-03, 1.16279069e-02, 7.75193796e-03,
          3.48837227e-02, 1.55038759e-02, 0., 0., 7.75193796e-03,
          2.71317828e-02, 0., 3.87596898e-03, 0., 6.20155036e-02,
          1.16279069e-02, 3.87596898e-03, 0., 1.55038759e-02,
          7.75193796e-03, 0., 3.87596898e-03, 3.87596898e-02, 0., 0.,
          3.87596898e-03, 1.16279069e-02, 3.87596898e-03, 4.65116277e-02,
          7.75193796e-03, 3.87596898e-03, 7.75193796e-03, 3.87596898e-03,
          0., 3.10077518e-02, 3.87596898e-02, 3.87596898e-03,
          3.87596898e-03, 7.75193796e-03, 3.87596898e-02, 0.,
          2.32558139e-02, 0., 0., 0., 1.55038759e-02, 2.32558139e-02,
          2.32558139e-02, 3.87596898e-03, 3.87596898e-03, 2.32558139e-02,
          1.55038759e-02, 7.75193796e-03, 1.93798449e-02, 0. ]
      - [ 0., 4.03225794e-03, 2.82258056e-02, 8.06451589e-03,
          4.03225794e-03, 8.06451589e-03, 0., 4.03225794e-03, 0.,
          1.20967738e-02, 8.06451589e-03, 4.03225794e-03, 8.06451589e-03,
          2.41935477e-02, 8.06451589e-03, 8.06451589e-03, 1.61290318e-02,
          4.03225794e-03, 2.01612897e-02, 0., 1.20967738e-02,
          2.01612897e-02, 2.01612897e-02, 0., 1.61290318e-02,
          7.66129047e-02, 4.03225794e-03, 4.03225794e-03, 6.45161271e-02,
          0., 2.41935477e-02, 1.20967738e-02, 8.06451589e-03, 0.,
          2.01612897e-02, 2.41935477e-02, 0., 4.03225794e-03,
          8.06451589e-03, 0., 2.82258056e-02, 0., 0., 0., 0.,
          4.03225794e-03, 4.03225794e-03, 4.03225794e-03, 1.61290318e-02,
          0., 0., 2.01612897e-02, 8.06451589e-03, 1.20967738e-02,
          4.03225794e-03, 1.20967738e-02, 4.03225794e-03, 4.03225794e-03,
          0., 4.03225794e-03, 1.61290318e-02, 1.61290318e-02,
          4.03225794e-03, 0., 1.20967738e-02, 0., 4.03225794e-03, 0.,
          4.03225794e-03, 8.06451589e-03, 4.03225794e-03, 1.20967738e-02,
          2.01612897e-02, 0., 1.20967738e-02, 0., 1.20967738e-02, 0.,
          2.41935477e-02, 0., 1.16935477e-01, 0., 0., 4.03225794e-03, 0.,
          8.06451589e-03, 2.01612897e-02, 2.01612897e-02, 8.06451589e-03,
          4.03225794e-03, 0., 4.03225794e-03, 4.03225794e-03,
          4.03225794e-03, 4.03225794e-03, 0., 8.06451589e-03,
          1.20967738e-02, 0., 2.01612897e-02 ]
      - [ 2.76243105e-03, 1.93370171e-02, 0., 6.07734844e-02,
          1.65745858e-02, 0., 2.76243105e-03, 4.14364673e-02, 0., 0.,
          3.03867422e-02, 0., 2.76243105e-03, 0., 3.31491716e-02,
          2.76243105e-03, 2.76243105e-03, 1.38121555e-02, 1.10497242e-02,
          5.52486209e-03, 0., 2.76243105e-03, 2.20994484e-02, 0.,
          1.38121555e-02, 1.10497242e-02, 5.52486209e-03, 8.28729291e-03,
          5.52486209e-03, 1.10497242e-02, 1.93370171e-02, 0.,
          1.10497242e-02, 0., 0., 1.10497242e-02, 0., 0., 0., 0.,
          1.65745858e-02, 5.52486209e-03, 0., 0., 0., 1.65745858e-02,
          2.76243105e-03, 1.38121555e-02, 2.76243105e-03, 8.28729291e-03,
          5.52486209e-03, 0., 1.10497242e-02, 2.76243105e-03,
          1.10497242e-02, 1.93370171e-02, 2.76243105e-03, 5.52486209e-03,
          0., 1.65745858e-02, 2.76243105e-03, 1.10497242e-02, 0.,
          3.59116048e-02, 5.52486209e-03, 0., 2.48618796e-02,
          1.65745858e-02, 8.28729291e-03, 2.76243105e-03, 0.,
          4.14364673e-02, 5.52486209e-03, 1.38121555e-02, 0.,
          1.93370171e-02, 2.76243109e-02, 2.76243105e-03, 0.,
          3.03867422e-02, 2.76243105e-03, 0., 2.76243105e-03,
          3.86740342e-02, 5.24861887e-02, 0., 5.52486209e-03,
          2.76243105e-03, 0., 0., 2.76243105e-03, 4.14364673e-02,
          2.76243105e-03, 2.76243105e-03, 2.76243105e-03, 1.10497242e-02,
          1.38121555e-02, 1.65745858e-02, 1.65745858e-02, 2.76243109e-02 ]
      - [ 2.07468886e-02, 3.31950225e-02, 1.38312590e-03, 8.29875562e-03,
          6.91562938e-03, 9.68188141e-03, 4.97925319e-02, 1.65975112e-02,
          2.90456433e-02, 1.38312590e-03, 9.68188141e-03, 0.,
          9.68188141e-03, 1.52143845e-02, 1.52143845e-02, 0.,
          4.14937781e-03, 8.29875562e-03, 8.29875562e-03, 9.68188141e-03,
          6.91562938e-03, 2.76625180e-03, 2.76625180e-03, 4.14937781e-03,
          1.79806370e-02, 0., 2.48962659e-02, 1.10650072e-02,
          8.29875562e-03, 9.68188141e-03, 4.14937781e-03, 2.76625180e-03,
          3.87275256e-02, 1.38312590e-03, 0., 2.48962659e-02,
          2.76625180e-03, 6.91562938e-03, 0., 0., 5.53250359e-03, 0.,
          1.24481330e-02, 9.68188141e-03, 1.65975112e-02, 0.,
          1.24481330e-02, 2.35131402e-02, 2.76625180e-03, 5.53250359e-03,
          0., 0., 2.76625175e-02, 2.21300144e-02, 4.14937781e-03,
          2.76625180e-03, 9.68188141e-03, 1.10650072e-02, 0., 0.,
          8.29875562e-03, 1.24481330e-02, 0., 1.38312590e-03,
          1.52143845e-02, 0., 8.29875562e-03, 3.45781483e-02,
          4.97925319e-02, 2.48962659e-02, 1.65975112e-02, 2.35131402e-02,
          3.18118967e-02, 0., 1.38312590e-03, 1.10650072e-02,
          1.24481330e-02, 0., 2.76625180e-03, 1.79806370e-02,
          2.76625180e-03, 0., 1.52143845e-02, 1.10650072e-02,
          6.91562938e-03, 0., 5.53250359e-03, 2.76625180e-03, 0.,
          5.53250359e-03, 0., 1.65975112e-02, 8.29875562e-03, 0.,
          1.52143845e-02, 6.91562938e-03, 9.68188141e-03, 2.76625180e-03,
          1.38312588e-02, 1.10650072e-02 ]
      - [ 8.03212821e-03, 1.60642564e-02, 1.60642564e-02, 5.82329296e-02,
          4.01606411e-03, 6.02409616e-03, 6.02409616e-03, 6.02409616e-03,
          1.20481923e-02, 4.01606411e-03, 1.40562244e-02, 0.,
          8.03212821e-03, 1.00401603e-02, 8.03212821e-03, 5.02008013e-02,
          1.80722885e-02, 0., 0., 2.00803205e-03, 2.40963846e-02,
          1.40562244e-02, 4.01606411e-03, 2.00803205e-03, 6.02409616e-03,
          1.00401603e-02, 6.02409616e-03, 2.00803205e-03, 3.61445770e-02,
          4.01606411e-03, 2.00803205e-02, 8.03212821e-03, 3.21285129e-02,
          1.40562244e-02, 1.20481923e-02, 1.60642564e-02, 1.00401603e-02,
          6.02409616e-03, 6.02409616e-03, 0., 6.02409616e-03,
          6.02409616e-03, 1.00401603e-02, 1.00401603e-02, 8.03212821e-03,
          0., 1.20481923e-02, 2.00803205e-03, 8.03212821e-03, 0., 0.,
          2.00803205e-03, 6.02409616e-03, 8.03212821e-03, 6.02409616e-03,
          6.02409616e-03, 4.01606411e-03, 8.03212821e-03, 2.00803205e-03,
          0., 1.40562244e-02, 8.03212821e-03, 0., 1.20481923e-02,
          1.60642564e-02, 6.02409616e-03, 1.20481923e-02, 1.20481923e-02,
          1.20481923e-02, 1.60642564e-02, 1.60642564e-02, 6.02409616e-03,
          1.20481923e-02, 2.00803205e-03, 4.01606411e-03, 6.02409616e-03,
          4.01606411e-03, 2.00803205e-03, 6.02409616e-03, 1.60642564e-02,
          3.01204808e-02, 2.00803205e-03, 1.00401603e-02, 8.03212821e-03,
          2.20883526e-02, 0., 6.02409616e-03, 4.01606411e-03,
          2.00803205e-03, 1.80722885e-02, 4.01606411e-03, 1.20481923e-02,
          4.01606411e-03, 1.60642564e-02, 1.80722885e-02, 2.20883526e-02,
          6.02409616e-03, 3.61445770e-02, 8.03212821e-03, 4.01606411e-03 ]
      - [ 1.37254912e-02, 9.80392192e-03, 9.80392192e-03, 3.92156877e-02,
          5.88235352e-03, 5.88235352e-03, 1.17647070e-02, 3.92156886e-03,
          1.37254912e-02, 3.92156886e-03, 7.84313772e-03, 5.88235352e-03,
          1.17647070e-02, 7.84313772e-03, 0., 9.80392192e-03,
          1.96078438e-02, 0., 3.92156886e-03, 3.92156886e-03,
          1.56862754e-02, 1.76470596e-02, 3.92156886e-03, 5.88235352e-03,
          1.37254912e-02, 1.17647070e-02, 1.76470596e-02, 3.92156886e-03,
          2.35294141e-02, 7.84313772e-03, 0., 2.94117667e-02,
          7.84313772e-03, 9.80392192e-03, 1.96078443e-03, 9.80392192e-03,
          1.17647070e-02, 6.27451017e-02, 1.96078443e-03, 1.96078443e-03,
          0., 0., 3.92156886e-03, 1.37254912e-02, 5.88235352e-03, 0.,
          5.88235352e-03, 1.96078443e-03, 9.80392192e-03, 7.84313772e-03,
          3.92156886e-03, 9.80392192e-03, 9.80392192e-03, 2.74509825e-02,
          7.84313772e-03, 1.37254912e-02, 7.84313772e-03, 9.80392192e-03,
          0., 0., 9.80392192e-03, 1.17647070e-02, 0., 7.84313772e-03,
          1.37254912e-02, 3.92156886e-03, 1.56862754e-02, 1.17647070e-02,
          1.76470596e-02, 5.88235352e-03, 1.37254912e-02, 9.80392192e-03,
          1.56862754e-02, 7.84313772e-03, 3.92156886e-03, 3.92156886e-03,
          1.17647070e-02, 7.84313772e-03, 2.15686280e-02, 1.96078443e-03,
          3.92156886e-03, 0., 1.96078443e-03, 0., 1.37254912e-02, 0.,
          1.96078438e-02, 9.80392192e-03, 3.92156886e-03, 1.17647070e-02,
          3.92156886e-03, 1.37254912e-02, 1.96078443e-03, 1.76470596e-02,
          3.52941193e-02, 2.54901983e-02, 9.80392192e-03, 2.54901983e-02,
          5.88235352e-03, 1.37254912e-02 ]
      - [ 1.83823530e-03, 2.20588241e-02, 5.51470602e-03, 5.33088222e-02,
          0., 3.67647060e-03, 9.19117685e-03, 1.28676472e-02,
          7.35294120e-03, 0., 2.20588241e-02, 0., 1.28676472e-02,
          2.20588241e-02, 1.65441185e-02, 1.10294120e-02, 3.67647074e-02,
          1.10294120e-02, 7.35294120e-03, 9.19117685e-03, 3.67647060e-03,
          2.02205889e-02, 1.65441185e-02, 3.67647060e-03, 1.47058824e-02,
          2.38970593e-02, 1.10294120e-02, 3.67647060e-03, 1.47058824e-02,
          1.28676472e-02, 7.35294120e-03, 7.35294120e-03, 1.10294120e-02,
          0., 0., 2.20588241e-02, 2.57352944e-02, 7.35294120e-03,
          3.67647060e-03, 0., 1.65441185e-02, 1.83823530e-03,
          1.83823530e-03, 5.51470602e-03, 1.28676472e-02, 0.,
          7.35294120e-03, 1.10294120e-02, 3.67647060e-03, 1.47058824e-02,
          3.67647060e-03, 1.83823530e-03, 1.28676472e-02, 9.19117685e-03,
          1.28676472e-02, 0., 1.65441185e-02, 1.83823537e-02, 0.,
          1.83823530e-03, 2.02205889e-02, 5.51470602e-03, 0.,
          7.35294120e-03, 3.67647060e-03, 0., 1.83823537e-02,
          7.35294120e-03, 5.51470602e-03, 1.83823530e-03, 7.35294120e-03,
          1.47058824e-02, 1.47058824e-02, 1.83823530e-03, 0.,
          7.35294120e-03, 7.35294120e-03, 3.67647060e-03, 1.10294120e-02,
          1.83823537e-02, 5.51470602e-03, 0., 2.20588241e-02,
          7.35294120e-03, 1.65441185e-02, 0., 9.19117685e-03,
          1.65441185e-02, 0., 9.19117685e-03, 0., 9.19117685e-03,
          7.35294120e-03, 1.28676472e-02, 3.67647060e-03, 1.10294120e-02,
          1.10294120e-02, 3.67647074e-02, 2.75735296e-02, 1.10294120e-02 ]
      - [ 5.47945220e-03, 3.01369876e-02, 2.19178088e-02, 2.73972610e-03,
          5.47945220e-03, 0., 1.09589044e-02, 2.73972610e-03, 0.,
          5.47945220e-03, 0., 2.46575344e-02, 1.64383575e-02,
          8.21917877e-03, 1.09589044e-02, 5.47945220e-03, 2.73972601e-02,
          0., 1.09589044e-02, 1.91780832e-02, 2.46575344e-02,
          1.09589044e-02, 8.21917877e-03, 2.73972610e-03, 8.21917877e-03,
          2.19178088e-02, 1.09589044e-02, 2.73972610e-03, 2.46575344e-02,
          8.21917877e-03, 0., 6.30137026e-02, 2.19178088e-02, 0.,
          5.47945220e-03, 1.64383575e-02, 2.73972610e-03, 3.28767151e-02,
          1.64383575e-02, 1.09589044e-02, 5.47945220e-03, 0.,
          2.73972610e-03, 1.36986300e-02, 1.64383575e-02, 0.,
          8.21917877e-03, 8.21917877e-03, 0., 5.47945220e-03, 0., 0.,
          1.36986300e-02, 3.56164388e-02, 2.19178088e-02, 0.,
          1.36986300e-02, 1.36986300e-02, 2.19178088e-02, 0.,
          5.47945220e-03, 5.47945220e-03, 2.73972610e-03, 0.,
          1.64383575e-02, 2.73972601e-02, 5.47945220e-03, 5.47945220e-03,
          8.21917877e-03, 5.47945220e-03, 5.47945220e-03, 0.,
          1.36986300e-02, 0., 5.47945201e-02, 2.73972610e-03, 0., 0.,
          2.19178088e-02, 0., 2.73972610e-03, 1.64383575e-02,
          5.47945220e-03, 0., 0., 0., 1.64383575e-02, 8.21917877e-03,
          1.64383575e-02, 1.36986300e-02, 0., 2.73972610e-03, 0.,
          5.47945220e-03, 3.28767151e-02, 0., 0., 1.09589044e-02,
          2.73972610e-03, 2.73972610e-03 ]
      - [ 4.75435844e-03, 2.06022188e-02, 9.50871687e-03, 3.01109366e-02,
          6.33914443e-03, 9.50871687e-03, 7.92393088e-03, 9.50871687e-03,
          4.75435844e-03, 1.58478611e-03, 1.10935029e-02, 3.16957221e-03,
          1.26782889e-02, 3.48652937e-02, 6.33914443e-03, 7.92393088e-03,
          4.59587984e-02, 1.10935029e-02, 3.16957221e-03, 6.33914443e-03,
          7.92393088e-03, 1.74326468e-02, 1.10935029e-02, 3.16957221e-03,
          7.92393088e-03, 1.90174337e-02, 2.06022188e-02, 1.42630748e-02,
          1.26782889e-02, 1.58478618e-02, 2.06022188e-02, 4.75435844e-03,
          1.10935029e-02, 7.92393088e-03, 1.58478611e-03, 2.06022188e-02,
          7.92393088e-03, 6.33914443e-03, 6.33914443e-03, 0.,
          6.33914443e-03, 0., 3.16957221e-03, 2.21870057e-02,
          1.10935029e-02, 1.58478611e-03, 1.74326468e-02, 1.42630748e-02,
          3.16957221e-03, 4.75435844e-03, 0., 1.58478611e-03,
          6.33914443e-03, 6.33914443e-03, 9.50871687e-03, 1.42630748e-02,
          9.50871687e-03, 9.50871687e-03, 3.16957221e-03, 0.,
          9.50871687e-03, 1.26782889e-02, 1.58478611e-03, 1.58478611e-03,
          2.21870057e-02, 1.58478611e-03, 9.50871687e-03, 4.75435844e-03,
          2.85261497e-02, 1.10935029e-02, 1.74326468e-02, 1.90174337e-02,
          1.10935029e-02, 0., 1.58478611e-03, 0., 1.10935029e-02,
          1.58478611e-03, 1.74326468e-02, 1.74326468e-02, 1.26782889e-02,
          4.75435844e-03, 4.75435844e-03, 6.33914443e-03, 2.21870057e-02,
          0., 7.92393088e-03, 4.75435844e-03, 1.58478611e-03,
          1.10935029e-02, 0., 2.53565777e-02, 6.33914443e-03,
          1.10935029e-02, 0., 1.26782889e-02, 9.50871687e-03,
          2.53565777e-02, 1.74326468e-02, 7.92393088e-03 ]
      - [ 1.00806449e-02, 1.00806449e-02, 4.03225794e-03, 4.43548374e-02,
          6.04838692e-03, 6.04838692e-03, 6.04838692e-03, 2.01612897e-03,
          0., 0., 2.41935477e-02, 6.04838692e-03, 6.04838692e-03,
          1.00806449e-02, 6.04838692e-03, 2.82258056e-02, 1.81451607e-02,
          4.03225794e-03, 2.01612897e-03, 1.00806449e-02, 3.02419346e-02,
          1.61290318e-02, 6.04838692e-03, 6.04838692e-03, 1.00806449e-02,
          8.06451589e-03, 6.04838692e-03, 0., 4.63709682e-02,
          2.41935477e-02, 4.03225794e-03, 0., 1.00806449e-02,
          1.61290318e-02, 4.03225794e-03, 1.00806449e-02, 2.41935477e-02,
          3.42741907e-02, 2.01612897e-03, 0., 1.00806449e-02, 0.,
          1.41129028e-02, 1.41129028e-02, 8.06451589e-03, 0.,
          1.00806449e-02, 6.04838692e-03, 2.01612897e-03, 1.20967738e-02,
          0., 0., 1.81451607e-02, 4.03225794e-03, 1.00806449e-02,
          6.04838692e-03, 6.04838692e-03, 2.82258056e-02, 0., 0.,
          2.21774187e-02, 6.04838692e-03, 0., 2.01612897e-03,
          2.21774187e-02, 2.01612897e-03, 6.04838692e-03, 6.04838692e-03,
          1.81451607e-02, 1.20967738e-02, 1.20967738e-02, 1.41129028e-02,
          1.61290318e-02, 2.01612897e-03, 4.03225794e-03, 1.20967738e-02,
          6.04838692e-03, 0., 8.06451589e-03, 8.06451589e-03,
          1.20967738e-02, 0., 2.01612897e-03, 4.03225794e-03,
          1.41129028e-02, 0., 2.21774187e-02, 1.20967738e-02,
          2.01612897e-03, 8.06451589e-03, 0., 1.61290318e-02, 0.,
          1.81451607e-02, 6.04838692e-03, 1.81451607e-02, 2.01612897e-03,
          3.62903215e-02, 1.81451607e-02, 1.81451607e-02 ]
      - [ 1.23762377e-02, 2.22772267e-02, 7.42574222e-03, 4.20792066e-02,
          2.47524749e-03, 4.95049497e-03, 2.47524749e-03, 2.47524749e-03,
          4.95049497e-03, 0., 1.23762377e-02, 2.47524749e-03,
          2.47524753e-02, 1.48514844e-02, 0., 2.22772267e-02,
          3.46534662e-02, 0., 2.47524749e-03, 1.73267331e-02,
          9.90098994e-03, 2.22772267e-02, 4.95049497e-03, 4.95049497e-03,
          1.48514844e-02, 0., 4.95049497e-03, 2.47524749e-03,
          3.96039598e-02, 0., 4.95049497e-03, 7.42574222e-03,
          2.22772267e-02, 0., 0., 7.42574222e-03, 2.22772267e-02,
          4.70297039e-02, 0., 0., 2.47524749e-03, 0., 9.90098994e-03,
          7.42574222e-03, 1.98019799e-02, 2.47524749e-03, 1.73267331e-02,
          4.95049497e-03, 0., 1.98019799e-02, 0., 0., 1.48514844e-02,
          1.23762377e-02, 1.98019799e-02, 2.47524749e-03, 1.23762377e-02,
          2.72277221e-02, 0., 0., 1.23762377e-02, 1.48514844e-02,
          2.47524749e-03, 4.95049497e-03, 4.95049497e-03, 0.,
          1.23762377e-02, 1.48514844e-02, 2.47524753e-02, 7.42574222e-03,
          2.22772267e-02, 9.90098994e-03, 1.23762377e-02, 9.90098994e-03,
          0., 0., 4.95049497e-03, 2.47524749e-03, 1.23762377e-02,
          7.42574222e-03, 2.47524749e-03, 0., 7.42574222e-03,
          2.47524749e-03, 9.90098994e-03, 0., 2.22772267e-02,
          9.90098994e-03, 2.47524749e-03, 7.42574222e-03, 0.,
          1.73267331e-02, 7.42574222e-03, 2.47524753e-02, 9.90098994e-03,
          9.90098994e-03, 4.95049497e-03, 4.45544533e-02, 1.48514844e-02,
          0. ]
      - [ 1.44404331e-02, 7.22021656e-03, 7.22021656e-03, 3.42960283e-02,
          9.02527105e-03, 3.61010828e-03, 1.44404331e-02, 3.61010828e-03,
          3.61010828e-03, 0., 2.88808662e-02, 7.22021656e-03,
          1.08303251e-02, 1.26353791e-02, 9.02527105e-03, 3.42960283e-02,
          4.15162444e-02, 0., 0., 3.61010828e-03, 1.26353791e-02,
          2.16606501e-02, 1.26353791e-02, 7.22021656e-03, 5.41516254e-03,
          0., 1.26353791e-02, 5.41516254e-03, 3.61010842e-02, 0.,
          7.22021656e-03, 1.80505414e-03, 3.79061364e-02, 7.22021656e-03,
          1.80505414e-03, 2.88808662e-02, 1.08303251e-02, 1.80505414e-03,
          1.08303251e-02, 0., 1.80505414e-03, 0., 1.44404331e-02,
          3.24909762e-02, 1.08303251e-02, 0., 5.41516254e-03,
          1.80505414e-03, 0., 7.22021656e-03, 0., 0., 1.26353791e-02,
          5.41516254e-03, 3.61010828e-03, 3.61010828e-03, 0.,
          2.70758122e-02, 3.61010828e-03, 0., 5.41516254e-03,
          3.61010828e-03, 0., 1.62454881e-02, 1.98555961e-02,
          3.61010828e-03, 1.08303251e-02, 9.02527105e-03, 1.26353791e-02,
          1.98555961e-02, 1.44404331e-02, 3.61010828e-03, 2.52707582e-02,
          3.61010828e-03, 0., 1.80505414e-03, 5.41516254e-03, 0.,
          2.52707582e-02, 7.22021656e-03, 7.22021656e-03, 1.80505414e-03,
          1.08303251e-02, 3.61010828e-03, 1.08303251e-02, 0.,
          5.41516254e-03, 5.41516254e-03, 0., 0., 3.61010828e-03,
          2.52707582e-02, 7.22021656e-03, 2.88808662e-02, 0.,
          1.44404331e-02, 2.70758122e-02, 4.69314083e-02, 1.44404331e-02,
          1.80505414e-03 ]
      - [ 7.89473765e-03, 1.05263162e-02, 1.84210539e-02, 0.,
          2.63157906e-03, 2.63157906e-03, 1.57894753e-02, 5.26315812e-03,
          0., 5.26315812e-03, 2.63157906e-03, 1.84210539e-02,
          1.31578948e-02, 0., 7.89473765e-03, 7.89473765e-03,
          2.63157897e-02, 2.63157906e-03, 2.63157906e-03, 1.84210539e-02,
          1.31578948e-02, 1.57894753e-02, 1.84210539e-02, 2.63157906e-03,
          5.26315812e-03, 1.84210539e-02, 1.31578948e-02, 1.31578948e-02,
          7.89473765e-03, 2.63157906e-03, 0., 3.68421078e-02,
          1.31578948e-02, 2.63157906e-03, 0., 1.84210539e-02, 0.,
          5.00000007e-02, 2.63157897e-02, 2.36842111e-02, 1.84210539e-02,
          0., 5.26315812e-03, 1.31578948e-02, 1.05263162e-02, 0.,
          5.26315812e-03, 0., 0., 2.89473701e-02, 0., 0., 7.89473765e-03,
          1.57894753e-02, 1.05263162e-02, 7.89473765e-03, 7.89473765e-03,
          2.89473701e-02, 2.89473701e-02, 0., 1.84210539e-02,
          1.57894753e-02, 5.26315812e-03, 0., 1.05263162e-02,
          5.26315812e-03, 5.26315812e-03, 1.31578948e-02, 2.10526325e-02,
          5.26315812e-03, 7.89473765e-03, 5.26315812e-03, 2.10526325e-02,
          0., 2.10526325e-02, 2.63157906e-03, 5.26315812e-03, 0.,
          1.31578948e-02, 0., 0., 1.57894753e-02, 1.84210539e-02,
          1.05263162e-02, 5.26315812e-03, 2.63157906e-03, 1.57894753e-02,
          1.05263162e-02, 1.84210539e-02, 1.31578948e-02, 0.,
          2.63157906e-03, 5.26315812e-03, 1.31578948e-02, 1.05263162e-02,
          1.05263162e-02, 2.63157906e-03, 5.26315812e-03, 1.57894753e-02,
          7.89473765e-03 ]
      - [ 1.19521916e-02, 2.19123513e-02, 0., 1.79282874e-02,
          1.19521916e-02, 7.96812773e-03, 3.18725109e-02, 9.96015966e-03,
          3.98406386e-03, 0., 1.19521916e-02, 0., 1.19521916e-02,
          2.19123513e-02, 5.97609580e-03, 3.98406386e-03, 5.97609580e-03,
          1.99203193e-03, 1.99203193e-03, 1.39442235e-02, 0.,
          1.99203193e-03, 9.96015966e-03, 7.96812773e-03, 1.59362555e-02,
          0., 2.78884470e-02, 9.96015966e-03, 1.19521916e-02,
          5.97609580e-03, 3.98406386e-03, 0., 2.98804790e-02, 0., 0.,
          2.78884470e-02, 7.96812773e-03, 0., 0., 0., 7.96812773e-03,
          5.97609580e-03, 2.98804790e-02, 3.38645428e-02, 1.99203193e-02,
          0., 1.19521916e-02, 9.96015966e-03, 3.98406386e-03,
          1.19521916e-02, 1.59362555e-02, 0., 1.39442235e-02,
          7.96812773e-03, 5.97609580e-03, 5.97609580e-03, 1.19521916e-02,
          1.19521916e-02, 0., 5.97609580e-03, 5.97609580e-03,
          1.19521916e-02, 0., 1.79282874e-02, 2.78884470e-02, 0.,
          1.19521916e-02, 1.19521916e-02, 5.57768941e-02, 3.18725109e-02,
          2.39043832e-02, 5.97609580e-03, 2.78884470e-02, 5.97609580e-03,
          0., 1.19521916e-02, 5.97609580e-03, 3.98406386e-03,
          9.96015966e-03, 9.96015966e-03, 3.98406386e-03, 0.,
          5.97609580e-03, 0., 2.19123513e-02, 0., 5.97609580e-03,
          1.99203193e-03, 0., 3.98406386e-03, 0., 2.58964151e-02,
          2.39043832e-02, 1.99203193e-03, 0., 7.96812773e-03,
          2.98804790e-02, 9.96015966e-03, 1.99203193e-03, 0. ]
      - [ 1.51515156e-02, 2.27272734e-02, 2.77777780e-02, 2.52525252e-03,
          0., 2.52525252e-03, 5.05050505e-03, 5.05050505e-03,
          1.51515156e-02, 5.05050505e-03, 2.52525252e-03, 1.26262624e-02,
          1.26262624e-02, 2.52525252e-03, 2.52525252e-03, 1.51515156e-02,
          1.01010101e-02, 1.01010101e-02, 7.57575780e-03, 3.53535339e-02,
          2.52525248e-02, 1.76767670e-02, 7.57575780e-03, 0.,
          2.02020202e-02, 1.26262624e-02, 5.05050505e-03, 2.52525252e-03,
          7.57575780e-03, 7.57575780e-03, 0., 2.77777780e-02,
          1.01010101e-02, 0., 5.05050505e-03, 0., 0., 1.03535354e-01, 0.,
          1.26262624e-02, 1.01010101e-02, 0., 2.52525252e-03,
          1.26262624e-02, 2.27272734e-02, 0., 0., 0., 0., 2.27272734e-02,
          0., 0., 1.26262624e-02, 5.55555560e-02, 1.26262624e-02, 0.,
          5.05050505e-03, 1.76767670e-02, 2.02020202e-02, 0.,
          1.51515156e-02, 5.05050505e-03, 7.57575780e-03, 0.,
          2.52525252e-03, 1.51515156e-02, 5.05050505e-03, 7.57575780e-03,
          1.01010101e-02, 0., 5.05050505e-03, 1.01010101e-02,
          1.76767670e-02, 0., 3.03030312e-02, 1.76767670e-02,
          1.01010101e-02, 0., 1.26262624e-02, 2.52525252e-03, 0.,
          5.05050505e-03, 1.26262624e-02, 2.52525252e-03, 0., 0.,
          2.02020202e-02, 7.57575780e-03, 7.57575780e-03, 5.05050505e-03,
          0., 0., 0., 1.76767670e-02, 1.76767670e-02, 7.57575780e-03, 0.,
          1.01010101e-02, 2.02020202e-02, 2.02020202e-02 ]
      - [ 2.13675224e-03, 2.13675220e-02, 0., 1.70940179e-02,
          6.41025696e-03, 8.54700897e-03, 2.77777798e-02, 3.20512839e-02,
          2.13675224e-03, 0., 1.28205139e-02, 0., 0., 1.70940179e-02,
          2.99145319e-02, 4.27350448e-03, 1.49572659e-02, 6.41025696e-03,
          4.27350448e-03, 1.28205139e-02, 4.27350448e-03, 1.70940179e-02,
          2.35042740e-02, 1.06837610e-02, 2.35042740e-02, 2.13675224e-03,
          1.28205139e-02, 1.28205139e-02, 1.92307699e-02, 8.54700897e-03,
          4.27350448e-03, 0., 1.28205139e-02, 0., 0., 1.92307699e-02, 0.,
          0., 2.13675224e-03, 0., 6.41025696e-03, 0., 1.28205139e-02,
          4.27350448e-03, 2.13675220e-02, 2.13675224e-03, 2.13675224e-03,
          1.06837610e-02, 0., 2.77777798e-02, 0., 0., 1.28205139e-02,
          1.28205139e-02, 6.41025696e-03, 8.54700897e-03, 1.06837610e-02,
          1.06837610e-02, 0., 2.13675224e-03, 4.27350448e-03,
          1.49572659e-02, 0., 4.27350448e-03, 8.54700897e-03, 0.,
          2.35042740e-02, 1.49572659e-02, 1.92307699e-02, 2.35042740e-02,
          4.27350448e-03, 2.56410278e-02, 2.56410278e-02, 0., 0.,
          1.92307699e-02, 8.54700897e-03, 0., 6.41025696e-03,
          1.92307699e-02, 8.54700897e-03, 0., 1.92307699e-02,
          1.92307699e-02, 1.92307699e-02, 0., 2.13675224e-03,
          1.28205139e-02, 0., 2.13675224e-03, 8.54700897e-03,
          2.35042740e-02, 2.13675224e-03, 0., 6.41025696e-03,
          2.13675220e-02, 3.63247879e-02, 1.49572659e-02, 2.56410278e-02,
          1.06837610e-02 ]
      - [ 4.86618001e-03, 1.70316305e-02, 4.86618001e-03, 3.64963487e-02,
          4.86618001e-03, 4.86618001e-03, 2.43309001e-03, 4.86618001e-03,
          7.29927002e-03, 2.43309001e-03, 4.86618001e-03, 4.86618001e-03,
          4.86618001e-03, 2.18978096e-02, 9.73236002e-03, 1.70316305e-02,
          2.43308991e-02, 0., 2.43309001e-03, 1.94647200e-02,
          4.86618001e-03, 3.16301696e-02, 9.73236002e-03, 2.43309001e-03,
          0., 4.86618001e-03, 4.86618001e-03, 9.73236002e-03,
          1.94647200e-02, 1.70316305e-02, 2.43309001e-03, 1.70316305e-02,
          1.45985400e-02, 0., 0., 4.86618001e-03, 2.18978096e-02,
          4.62287106e-02, 0., 0., 9.73236002e-03, 0., 9.73236002e-03,
          4.86618001e-03, 7.29927002e-03, 7.29927002e-03, 7.29927002e-03,
          4.86618001e-03, 0., 4.86618001e-03, 2.43309001e-03,
          2.18978096e-02, 1.45985400e-02, 4.86617982e-02, 4.86618001e-03,
          4.86618001e-03, 7.29927002e-03, 1.94647200e-02, 0., 0.,
          9.73236002e-03, 2.43309001e-03, 0., 0., 4.86618001e-03, 0.,
          2.43308991e-02, 2.43309001e-03, 9.73236002e-03, 2.43309001e-03,
          1.70316305e-02, 4.86618001e-03, 9.73236002e-03, 1.45985400e-02,
          0., 4.86618001e-03, 4.86618001e-03, 0., 1.94647200e-02,
          9.73236002e-03, 1.21654496e-02, 0., 1.21654496e-02,
          7.29927002e-03, 1.70316305e-02, 2.43309001e-03, 1.45985400e-02,
          7.29927002e-03, 2.43309001e-03, 0., 0., 1.21654496e-02,
          2.43309001e-03, 2.91970801e-02, 3.64963487e-02, 6.56934306e-02,
          0., 3.64963487e-02, 9.73236002e-03, 0. ]
      - [ 3.85356462e-03, 1.73410401e-02, 1.92678231e-03, 6.74373806e-02,
          7.70712923e-03, 3.85356462e-03, 7.70712923e-03, 1.92678231e-03,
          1.92678231e-03, 0., 1.15606934e-02, 7.70712923e-03,
